{"learner":{"attributes":{"scikit_learn":"{\"n_estimators\": 500, \"objective\": \"reg:squarederror\", \"max_depth\": 10, \"learning_rate\": 0.1, \"verbosity\": null, \"booster\": null, \"tree_method\": \"gpu_hist\", \"gamma\": 0.2, \"min_child_weight\": null, \"max_delta_step\": null, \"subsample\": null, \"colsample_bytree\": 0.7, \"colsample_bylevel\": null, \"colsample_bynode\": null, \"reg_alpha\": null, \"reg_lambda\": null, \"scale_pos_weight\": null, \"base_score\": null, \"missing\": NaN, \"num_parallel_tree\": null, \"kwargs\": {}, \"random_state\": 4, \"n_jobs\": null, \"monotone_constraints\": null, \"interaction_constraints\": null, \"importance_type\": \"gain\", \"gpu_id\": 0, \"validate_parameters\": null, \"_estimator_type\": \"regressor\"}"},"feature_names":["id","host_id","latitude","longitude","minimum_nights","number_of_reviews","reviews_per_month","calculated_host_listings_count","availability_365"],"feature_types":["int","int","float","float","int","int","float","int","int"],"gradient_booster":{"model":{"gbtree_model_param":{"num_trees":"500","size_leaf_vector":"0"},"tree_info":[0,0,0,0,0,0,0,0,0,0,0,0,0,0,0,0,0,0,0,0,0,0,0,0,0,0,0,0,0,0,0,0,0,0,0,0,0,0,0,0,0,0,0,0,0,0,0,0,0,0,0,0,0,0,0,0,0,0,0,0,0,0,0,0,0,0,0,0,0,0,0,0,0,0,0,0,0,0,0,0,0,0,0,0,0,0,0,0,0,0,0,0,0,0,0,0,0,0,0,0,0,0,0,0,0,0,0,0,0,0,0,0,0,0,0,0,0,0,0,0,0,0,0,0,0,0,0,0,0,0,0,0,0,0,0,0,0,0,0,0,0,0,0,0,0,0,0,0,0,0,0,0,0,0,0,0,0,0,0,0,0,0,0,0,0,0,0,0,0,0,0,0,0,0,0,0,0,0,0,0,0,0,0,0,0,0,0,0,0,0,0,0,0,0,0,0,0,0,0,0,0,0,0,0,0,0,0,0,0,0,0,0,0,0,0,0,0,0,0,0,0,0,0,0,0,0,0,0,0,0,0,0,0,0,0,0,0,0,0,0,0,0,0,0,0,0,0,0,0,0,0,0,0,0,0,0,0,0,0,0,0,0,0,0,0,0,0,0,0,0,0,0,0,0,0,0,0,0,0,0,0,0,0,0,0,0,0,0,0,0,0,0,0,0,0,0,0,0,0,0,0,0,0,0,0,0,0,0,0,0,0,0,0,0,0,0,0,0,0,0,0,0,0,0,0,0,0,0,0,0,0,0,0,0,0,0,0,0,0,0,0,0,0,0,0,0,0,0,0,0,0,0,0,0,0,0,0,0,0,0,0,0,0,0,0,0,0,0,0,0,0,0,0,0,0,0,0,0,0,0,0,0,0,0,0,0,0,0,0,0,0,0,0,0,0,0,0,0,0,0,0,0,0,0,0,0,0,0,0,0,0,0,0,0,0,0,0,0,0,0,0,0,0,0,0,0,0,0,0,0,0,0,0,0,0,0,0,0,0,0,0,0,0,0,0,0,0,0,0,0,0,0,0,0,0,0,0,0,0,0,0,0,0,0,0,0,0,0,0,0,0,0,0,0,0,0,0,0,0,0,0,0,0,0,0,0,0,0,0,0,0,0,0,0,0,0,0,0,0,0],"trees":[{"base_weights":[1.8172069E3,1.469579E2,2.2524547E2],"categories":[],"categories_nodes":[],"categories_segments":[],"categories_sizes":[],"default_left":[true,false,false],"id":0,"left_children":[1,-1,-1],"loss_changes":[1.077672E6,0E0,0E0],"parents":[2147483647,0,0],"right_children":[2,-1,-1],"split_conditions":[2.114344E7,1.469579E2,2.2524547E2],"split_indices":[0,0,0],"split_type":[0,0,0],"sum_hessian":[2.8E1,1.8E1,1E1],"tree_param":{"num_deleted":"0","num_feature":"9","num_nodes":"3","size_leaf_vector":"0"}},{"base_weights":[1.6483208E3,1.3303557E2,2.047686E2],"categories":[],"categories_nodes":[],"categories_segments":[],"categories_sizes":[],"default_left":[true,false,false],"id":1,"left_children":[1,-1,-1],"loss_changes":[9.58392E5,0E0,0E0],"parents":[2147483647,0,0],"right_children":[2,-1,-1],"split_conditions":[2.114344E7,1.3303557E2,2.047686E2],"split_indices":[0,0,0],"split_type":[0,0,0],"sum_hessian":[2.8E1,1.8E1,1E1],"tree_param":{"num_deleted":"0","num_feature":"9","num_nodes":"3","size_leaf_vector":"0"}},{"base_weights":[1.4951371E3,7.491299E1,1.5524022E2],"categories":[],"categories_nodes":[],"categories_segments":[],"categories_sizes":[],"default_left":[false,false,false],"id":2,"left_children":[1,-1,-1],"loss_changes":[7.5936E4,0E0,0E0],"parents":[2147483647,0,0],"right_children":[2,-1,-1],"split_conditions":[1.2154138E2,7.491299E1,1.5524022E2],"split_indices":[3,0,0],"split_type":[0,0,0],"sum_hessian":[2.8E1,3E0,2.5E1],"tree_param":{"num_deleted":"0","num_feature":"9","num_nodes":"3","size_leaf_vector":"0"}},{"base_weights":[1.3535598E3],"categories":[],"categories_nodes":[],"categories_segments":[],"categories_sizes":[],"default_left":[false],"id":3,"left_children":[-1],"loss_changes":[0E0],"parents":[2147483647],"right_children":[-1],"split_conditions":[1.3535599E2],"split_indices":[0],"split_type":[0],"sum_hessian":[2.8E1],"tree_param":{"num_deleted":"0","num_feature":"9","num_nodes":"1","size_leaf_vector":"0"}},{"base_weights":[1.2228712E3,9.417036E1,1.5973544E2],"categories":[],"categories_nodes":[],"categories_segments":[],"categories_sizes":[],"default_left":[true,false,false],"id":4,"left_children":[1,-1,-1],"loss_changes":[1.549248E6,0E0,0E0],"parents":[2147483647,0,0],"right_children":[2,-1,-1],"split_conditions":[2.114344E7,9.417036E1,1.5973544E2],"split_indices":[0,0,0],"split_type":[0,0,0],"sum_hessian":[2.8E1,1.8E1,1E1],"tree_param":{"num_deleted":"0","num_feature":"9","num_nodes":"3","size_leaf_vector":"0"}},{"base_weights":[1.1093395E3,5.208003E1,1.157217E2],"categories":[],"categories_nodes":[],"categories_segments":[],"categories_sizes":[],"default_left":[true,false,false],"id":5,"left_children":[1,-1,-1],"loss_changes":[2.1448E5,0E0,0E0],"parents":[2147483647,0,0],"right_children":[2,-1,-1],"split_conditions":[1.2154138E2,5.208003E1,1.157217E2],"split_indices":[3,0,0],"split_type":[0,0,0],"sum_hessian":[2.8E1,3E0,2.5E1],"tree_param":{"num_deleted":"0","num_feature":"9","num_nodes":"3","size_leaf_vector":"0"}},{"base_weights":[1.00419183E3,7.529072E1,1.3469388E2],"categories":[],"categories_nodes":[],"categories_segments":[],"categories_sizes":[],"default_left":[true,false,false],"id":6,"left_children":[1,-1,-1],"loss_changes":[1.483566E6,0E0,0E0],"parents":[2147483647,0,0],"right_children":[2,-1,-1],"split_conditions":[2.114344E7,7.529072E1,1.3469388E2],"split_indices":[0,0,0],"split_type":[0,0,0],"sum_hessian":[2.8E1,1.8E1,1E1],"tree_param":{"num_deleted":"0","num_feature":"9","num_nodes":"3","size_leaf_vector":"0"}},{"base_weights":[9.110135E2,6.815791E2,1.22448975E2,2.824849E1,7.119146E1],"categories":[],"categories_nodes":[],"categories_segments":[],"categories_sizes":[],"default_left":[true,true,false,false,false],"id":7,"left_children":[1,3,-1,-1,-1],"loss_changes":[1.25116E6,2.8923E4,0E0,0E0,0E0],"parents":[2147483647,0,0,1,1],"right_children":[2,4,-1,-1,-1],"split_conditions":[2.114344E7,2.499162E1,1.22448975E2,2.824849E1,7.119146E1],"split_indices":[0,2,0,0,0],"split_type":[0,0,0,0,0],"sum_hessian":[2.8E1,1.8E1,1E1,2E0,1.6E1],"tree_param":{"num_deleted":"0","num_feature":"9","num_nodes":"5","size_leaf_vector":"0"}},{"base_weights":[8.275634E2,6.186548E2,1.1131726E2,6.76855E1,3.797453E1],"categories":[],"categories_nodes":[],"categories_segments":[],"categories_sizes":[],"default_left":[true,false,false,false,false],"id":8,"left_children":[1,3,-1,-1,-1],"loss_changes":[1.04165E6,7.155E3,0E0,0E0,0E0],"parents":[2147483647,0,0,1,1],"right_children":[2,4,-1,-1,-1],"split_conditions":[2.114344E7,2.1143112E7,1.1131726E2,6.76855E1,3.797453E1],"split_indices":[0,0,0,0,0],"split_type":[0,0,0,0,0],"sum_hessian":[2.8E1,1.8E1,1E1,1.3E1,5E0],"tree_param":{"num_deleted":"0","num_feature":"9","num_nodes":"5","size_leaf_vector":"0"}},{"base_weights":[7.522891E2,1.0954772E2,6.3514675E1],"categories":[],"categories_nodes":[],"categories_segments":[],"categories_sizes":[],"default_left":[true,false,false],"id":9,"left_children":[1,-1,-1],"loss_changes":[4.70065E5,0E0,0E0],"parents":[2147483647,0,0],"right_children":[2,-1,-1],"split_conditions":[1E0,1.0954772E2,6.3514675E1],"split_indices":[5,0,0],"split_type":[0,0,0],"sum_hessian":[2.8E1,5E0,2.3E1],"tree_param":{"num_deleted":"0","num_feature":"9","num_nodes":"3","size_leaf_vector":"0"}},{"base_weights":[6.830279E2,1.0041875E2,5.7427853E1],"categories":[],"categories_nodes":[],"categories_segments":[],"categories_sizes":[],"default_left":[true,false,false],"id":10,"left_children":[1,-1,-1],"loss_changes":[4.36167E5,0E0,0E0],"parents":[2147483647,0,0],"right_children":[2,-1,-1],"split_conditions":[1E0,1.0041875E2,5.7427853E1],"split_indices":[5,0,0],"split_type":[0,0,0],"sum_hessian":[2.8E1,5E0,2.3E1],"tree_param":{"num_deleted":"0","num_feature":"9","num_nodes":"3","size_leaf_vector":"0"}},{"base_weights":[6.201681E2,4.4777335E2,8.61562E1,2.4731466E1,5.017004E1],"categories":[],"categories_nodes":[],"categories_segments":[],"categories_sizes":[],"default_left":[false,false,false,false,false],"id":11,"left_children":[1,3,-1,-1,-1],"loss_changes":[8.21052E5,8.1315E4,0E0,0E0,0E0],"parents":[2147483647,0,0,1,1],"right_children":[2,4,-1,-1,-1],"split_conditions":[2.114344E7,3E0,8.61562E1,2.4731466E1,5.017004E1],"split_indices":[0,5,0,0,0],"split_type":[0,0,0,0,0],"sum_hessian":[2.8E1,1.8E1,1E1,5E0,1.3E1],"tree_param":{"num_deleted":"0","num_feature":"9","num_nodes":"5","size_leaf_vector":"0"}},{"base_weights":[5.6370496E2,8.487082E1,4.6896643E2,2.341424E1,4.913631E1],"categories":[],"categories_nodes":[],"categories_segments":[],"categories_sizes":[],"default_left":[true,false,true,false,false],"id":12,"left_children":[1,-1,3,-1,-1],"loss_changes":[3.85007E5,0E0,1.11735E4,0E0,0E0],"parents":[2147483647,0,0,2,2],"right_children":[2,-1,4,-1,-1],"split_conditions":[1E0,8.487082E1,1.2154138E2,2.341424E1,4.913631E1],"split_indices":[5,0,3,0,0],"split_type":[0,0,0,0,0],"sum_hessian":[2.8E1,5E0,2.3E1,3E0,2E1],"tree_param":{"num_deleted":"0","num_feature":"9","num_nodes":"5","size_leaf_vector":"0"}},{"base_weights":[5.1276276E2,7.779825E1,4.2509268E2,2.165817E1,4.4456657E1],"categories":[],"categories_nodes":[],"categories_segments":[],"categories_sizes":[],"default_left":[true,false,true,false,false],"id":13,"left_children":[1,-1,3,-1,-1],"loss_changes":[3.435885E5,0E0,1.1675E3,0E0,0E0],"parents":[2147483647,0,0,2,2],"right_children":[2,-1,4,-1,-1],"split_conditions":[3E-2,7.779825E1,1.2154138E2,2.165817E1,4.4456657E1],"split_indices":[6,0,3,0,0],"split_type":[0,0,0,0,0],"sum_hessian":[2.8E1,5E0,2.3E1,3E0,2E1],"tree_param":{"num_deleted":"0","num_feature":"9","num_nodes":"5","size_leaf_vector":"0"}},{"base_weights":[4.6644897E2,3.2593225E2,6.667553E1,3.682061E1,1.7297127E1],"categories":[],"categories_nodes":[],"categories_segments":[],"categories_sizes":[],"default_left":[true,true,false,false,false],"id":14,"left_children":[1,3,-1,-1,-1],"loss_changes":[5.98928E5,5.9169625E4,0E0,0E0,0E0],"parents":[2147483647,0,0,1,1],"right_children":[2,4,-1,-1,-1],"split_conditions":[2.114344E7,2.1143112E7,6.667553E1,3.682061E1,1.7297127E1],"split_indices":[0,0,0,0,0],"split_type":[0,0,0,0,0],"sum_hessian":[2.8E1,1.8E1,1E1,1.3E1,5E0],"tree_param":{"num_deleted":"0","num_feature":"9","num_nodes":"5","size_leaf_vector":"0"}},{"base_weights":[4.239694E2,6.575877E1,3.4789944E1],"categories":[],"categories_nodes":[],"categories_segments":[],"categories_sizes":[],"default_left":[true,false,false],"id":15,"left_children":[1,-1,-1],"loss_changes":[2.865945E5,0E0,0E0],"parents":[2147483647,0,0],"right_children":[2,-1,-1],"split_conditions":[1E0,6.575877E1,3.4789944E1],"split_indices":[5,0,0],"split_type":[0,0,0],"sum_hessian":[2.8E1,5E0,2.3E1],"tree_param":{"num_deleted":"0","num_feature":"9","num_nodes":"3","size_leaf_vector":"0"}},{"base_weights":[3.8503967E2,2.632285E2,5.604372E1,3.0171066E1,1.2956535E2,1.6127277E1,4.410034E0],"categories":[],"categories_nodes":[],"categories_segments":[],"categories_sizes":[],"default_left":[true,false,false,false,false,false,false],"id":16,"left_children":[1,3,-1,-1,5,-1,-1],"loss_changes":[4.72073E5,5.8638125E4,0E0,0E0,9.1470625E3,0E0,0E0],"parents":[2147483647,0,0,1,1,4,4],"right_children":[2,4,-1,-1,6,-1,-1],"split_conditions":[2.114344E7,2.1143112E7,5.604372E1,3.0171066E1,1.2154138E2,1.6127277E1,4.410034E0],"split_indices":[0,0,0,0,3,0,0],"split_type":[0,0,0,0,0,0,0],"sum_hessian":[2.8E1,1.8E1,1E1,1.3E1,5E0,3E0,2E0],"tree_param":{"num_deleted":"0","num_feature":"9","num_nodes":"7","size_leaf_vector":"0"}},{"base_weights":[3.5021683E2,5.5608562E1,2.8415726E2,3.1717914E2,1.9387869E1,2.0421669E2,3.823481E1,4.11604E0,2.5170874E1],"categories":[],"categories_nodes":[],"categories_segments":[],"categories_sizes":[],"default_left":[true,false,true,false,false,true,false,false,false],"id":17,"left_children":[1,-1,3,5,-1,7,-1,-1,-1],"loss_changes":[2.36373E5,0E0,1.005375E4,3.9704375E4,0E0,5.1590562E4,0E0,0E0,0E0],"parents":[2147483647,0,0,2,2,3,3,5,5],"right_children":[2,-1,4,6,-1,8,-1,-1,-1],"split_conditions":[1E0,5.5608562E1,4E0,1.2154309E2,1.9387869E1,2.499162E1,3.823481E1,4.11604E0,2.5170874E1],"split_indices":[5,0,5,3,0,2,0,0,0],"split_type":[0,0,0,0,0,0,0,0,0],"sum_hessian":[2.8E1,5E0,2.3E1,1.5E1,8E0,7E0,8E0,2E0,5E0],"tree_param":{"num_deleted":"0","num_feature":"9","num_nodes":"9","size_leaf_vector":"0"}},{"base_weights":[3.201096E2,2.1694182E2,4.6920757E1,3.841634E0,2.3568503E2,2.7673008E1,1.6845278E1],"categories":[],"categories_nodes":[],"categories_segments":[],"categories_sizes":[],"default_left":[false,false,false,false,true,false,false],"id":18,"left_children":[1,3,-1,-1,5,-1,-1],"loss_changes":[3.442905E5,5.45225E4,0E0,0E0,2.96375E2,0E0,0E0],"parents":[2147483647,0,0,1,1,4,4],"right_children":[2,4,-1,-1,6,-1,-1],"split_conditions":[2.114344E7,2.499162E1,4.6920757E1,3.841634E0,2.499279E1,2.7673008E1,1.6845278E1],"split_indices":[0,2,0,0,2,0,0],"split_type":[0,0,0,0,0,0,0],"sum_hessian":[2.8E1,1.8E1,1E1,2E0,1.6E1,8E0,8E0],"tree_param":{"num_deleted":"0","num_feature":"9","num_nodes":"7","size_leaf_vector":"0"}},{"base_weights":[2.9138416E2,1.977929E2,4.2655235E1,2.2713135E2,9.637101E1,1.5806223E1,2.928798E1,1.176651E1,3.5855224E0],"categories":[],"categories_nodes":[],"categories_segments":[],"categories_sizes":[],"default_left":[true,true,false,false,true,false,false,false,false],"id":19,"left_children":[1,3,-1,5,7,-1,-1,-1,-1],"loss_changes":[2.824975E5,3.464675E4,0E0,1.7283438E4,3.5128672E3,0E0,0E0,0E0,0E0],"parents":[2147483647,0,0,1,1,3,3,4,4],"right_children":[2,4,-1,6,8,-1,-1,-1,-1],"split_conditions":[2.114344E7,2.1143112E7,4.2655235E1,2.1049068E7,1.2154138E2,1.5806223E1,2.928798E1,1.176651E1,3.5855224E0],"split_indices":[0,0,0,0,3,0,0,0,0],"split_type":[0,0,0,0,0,0,0,0,0],"sum_hessian":[2.8E1,1.8E1,1E1,1.3E1,5E0,8E0,5E0,3E0,2E0],"tree_param":{"num_deleted":"0","num_feature":"9","num_nodes":"9","size_leaf_vector":"0"}},{"base_weights":[2.6580093E2,1.8119495E2,3.877748E1,3.3464844E0,1.9660645E1],"categories":[],"categories_nodes":[],"categories_segments":[],"categories_sizes":[],"default_left":[true,false,false,false,false],"id":20,"left_children":[1,3,-1,-1,-1],"loss_changes":[2.29009E5,3.6678688E4,0E0,0E0,0E0],"parents":[2147483647,0,0,1,1],"right_children":[2,4,-1,-1,-1],"split_conditions":[2.114344E7,2.499162E1,3.877748E1,3.3464844E0,1.9660645E1],"split_indices":[0,2,0,0,0],"split_type":[0,0,0,0,0],"sum_hessian":[2.8E1,1.8E1,1E1,2E0,1.6E1],"tree_param":{"num_deleted":"0","num_feature":"9","num_nodes":"5","size_leaf_vector":"0"}},{"base_weights":[2.4135133E2,4.0278393E1,1.9093687E2,9.409476E0,2.0029076E2,2.1493736E2,1.1043418E1,2.3594473E1,1.1733077E1],"categories":[],"categories_nodes":[],"categories_segments":[],"categories_sizes":[],"default_left":[true,false,true,false,true,true,false,false,false],"id":21,"left_children":[1,-1,3,-1,5,7,-1,-1,-1],"loss_changes":[1.5911138E5,0E0,2.894125E3,0E0,3.9015E3,7.17425E3,0E0,0E0,0E0],"parents":[2147483647,0,0,2,2,4,4,5,5],"right_children":[2,-1,4,-1,6,8,-1,-1,-1],"split_conditions":[3E-2,4.0278393E1,1.2154138E2,9.409476E0,1.8E2,2.499309E1,1.1043418E1,2.3594473E1,1.1733077E1],"split_indices":[6,0,3,0,8,2,0,0,0],"split_type":[0,0,0,0,0,0,0,0,0],"sum_hessian":[2.8E1,5E0,2.3E1,3E0,2E1,1.6E1,4E0,1.2E1,4E0],"tree_param":{"num_deleted":"0","num_feature":"9","num_nodes":"9","size_leaf_vector":"0"}},{"base_weights":[2.2052858E2,1.4931288E2,3.2348946E1,1.744487E2,6.577718E1,1.1641319E1,2.3242718E1,8.703769E0,1.550411E0],"categories":[],"categories_nodes":[],"categories_segments":[],"categories_sizes":[],"default_left":[true,false,false,true,false,false,false,false,false],"id":22,"left_children":[1,3,-1,5,7,-1,-1,-1,-1],"loss_changes":[1.6433925E5,2.8420281E4,0E0,2.0049719E4,5.063545E3,0E0,0E0,0E0,0E0],"parents":[2147483647,0,0,1,1,3,3,4,4],"right_children":[2,4,-1,6,8,-1,-1,-1,-1],"split_conditions":[2.114344E7,2.1143112E7,3.2348946E1,2.1049068E7,1.2154138E2,1.1641319E1,2.3242718E1,8.703769E0,1.550411E0],"split_indices":[0,0,0,0,3,0,0,0,0],"split_type":[0,0,0,0,0,0,0,0,0],"sum_hessian":[2.8E1,1.8E1,1E1,1.3E1,5E0,8E0,5E0,3E0,2E0],"tree_param":{"num_deleted":"0","num_feature":"9","num_nodes":"9","size_leaf_vector":"0"}},{"base_weights":[2.0114769E2,1.3675731E2,2.940813E1,1.5949553E2,6.090857E1,1.0606532E1,2.1305828E1,8.050989E0,1.4470623E0],"categories":[],"categories_nodes":[],"categories_segments":[],"categories_sizes":[],"default_left":[true,true,false,true,true,false,false,false,false],"id":23,"left_children":[1,3,-1,5,7,-1,-1,-1,-1],"loss_changes":[1.3331912E5,2.3054E4,0E0,1.7468062E4,4.2964414E3,0E0,0E0,0E0,0E0],"parents":[2147483647,0,0,1,1,3,3,4,4],"right_children":[2,4,-1,6,8,-1,-1,-1,-1],"split_conditions":[2.114344E7,2.1143112E7,2.940813E1,2.1049068E7,1.2154138E2,1.0606532E1,2.1305828E1,8.050989E0,1.4470623E0],"split_indices":[0,0,0,0,3,0,0,0,0],"split_type":[0,0,0,0,0,0,0,0,0],"sum_hessian":[2.8E1,1.8E1,1E1,1.3E1,5E0,8E0,5E0,3E0,2E0],"tree_param":{"num_deleted":"0","num_feature":"9","num_nodes":"9","size_leaf_vector":"0"}},{"base_weights":[1.8347491E2,1.4226025E2,3.1775442E1,9.663725E0,1.59031925E1],"categories":[],"categories_nodes":[],"categories_segments":[],"categories_sizes":[],"default_left":[true,true,false,false,false],"id":24,"left_children":[1,3,-1,-1,-1],"loss_changes":[1.152905E5,2.9957812E3,0E0,0E0,0E0],"parents":[2147483647,0,0,1,1],"right_children":[2,4,-1,-1,-1],"split_conditions":[2.1143692E7,2.1049068E7,3.1775442E1,9.663725E0,1.59031925E1],"split_indices":[0,0,0,0,0],"split_type":[0,0,0,0,0],"sum_hessian":[2.8E1,2.3E1,5E0,8E0,1.5E1],"tree_param":{"num_deleted":"0","num_feature":"9","num_nodes":"5","size_leaf_vector":"0"}},{"base_weights":[1.6710478E2,1.2909955E2,2.9127493E1,8.804729E0,1.4412271E2,1.820508E1,1.10332596E2,4.3148052E1,1.5912837E1,2.9038087E-1,6.254422E0],"categories":[],"categories_nodes":[],"categories_segments":[],"categories_sizes":[],"default_left":[true,true,false,false,true,false,true,true,false,false,false],"id":25,"left_children":[1,3,-1,-1,5,-1,7,9,-1,-1,-1],"loss_changes":[9.925094E4,2.1120312E3,0E0,0E0,4.19375E2,0E0,2.9195469E4,4.5018887E3,0E0,0E0,0E0],"parents":[2147483647,0,0,1,1,4,4,6,6,7,7],"right_children":[2,4,-1,-1,6,-1,8,10,-1,-1,-1],"split_conditions":[2.1143692E7,2.1049068E7,2.9127493E1,8.804729E0,2.1143112E7,1.820508E1,2.114344E7,2.499162E1,1.5912837E1,2.9038087E-1,6.254422E0],"split_indices":[0,0,0,0,0,0,0,2,0,0,0],"split_type":[0,0,0,0,0,0,0,0,0,0,0],"sum_hessian":[2.8E1,2.3E1,5E0,8E0,1.5E1,5E0,1E1,5E0,5E0,2E0,3E0],"tree_param":{"num_deleted":"0","num_feature":"9","num_nodes":"11","size_leaf_vector":"0"}},{"base_weights":[1.5310449E2,2.6700205E1,1.18250755E2,7.646294E1,1.3095967E2,2.710205E-1,1.0059548E1,1.4470636E2,6.902637E0,1.6714735E1,7.5371294E0],"categories":[],"categories_nodes":[],"categories_segments":[],"categories_sizes":[],"default_left":[true,false,false,true,true,false,false,true,false,false,false],"id":26,"left_children":[1,-1,3,5,7,-1,-1,9,-1,-1,-1],"loss_changes":[8.354981E4,0E0,2.7323125E3,1.3966094E4,4.484875E3,0E0,0E0,7.6292188E3,0E0,0E0,0E0],"parents":[2147483647,0,0,2,2,3,3,4,4,7,7],"right_children":[2,-1,4,6,8,-1,-1,10,-1,-1,-1],"split_conditions":[3E-2,2.6700205E1,1.2154309E2,2.499162E1,1.8E2,2.710205E-1,1.0059548E1,2.499279E1,6.902637E0,1.6714735E1,7.5371294E0],"split_indices":[6,0,3,2,8,0,0,2,0,0,0],"split_type":[0,0,0,0,0,0,0,0,0,0,0],"sum_hessian":[2.8E1,5E0,2.3E1,7E0,1.6E1,2E0,5E0,1.2E1,4E0,8E0,4E0],"tree_param":{"num_deleted":"0","num_feature":"9","num_nodes":"11","size_leaf_vector":"0"}},{"base_weights":[1.4014526E2,1.0815421E2,2.4475191E1,5.0308747E0,1.140222E2,7.3803277E0,1.3309514E2,7.1925735E1,1.522898E1,2.529541E-1,1.1734668E1],"categories":[],"categories_nodes":[],"categories_segments":[],"categories_sizes":[],"default_left":[true,true,false,false,false,false,false,true,false,false,false],"id":27,"left_children":[1,3,-1,-1,5,-1,7,9,-1,-1,-1],"loss_changes":[7.0576875E4,2.4101562E3,0E0,0E0,6.2860938E3,0E0,4.310078E3,1.5463371E4,0E0,0E0,0E0],"parents":[2147483647,0,0,1,1,4,4,6,6,7,7],"right_children":[2,4,-1,-1,6,-1,8,10,-1,-1,-1],"split_conditions":[2.1143692E7,1.2154138E2,2.4475191E1,5.0308747E0,2.1049068E7,7.3803277E0,1.2154309E2,2.114344E7,1.522898E1,2.529541E-1,1.1734668E1],"split_indices":[0,3,0,0,0,0,3,0,0,0,0],"split_type":[0,0,0,0,0,0,0,0,0,0,0],"sum_hessian":[2.8E1,2.3E1,5E0,3E0,2E1,8E0,1.2E1,4E0,8E0,2E0,2E0],"tree_param":{"num_deleted":"0","num_feature":"9","num_nodes":"11","size_leaf_vector":"0"}},{"base_weights":[1.2834119E2,2.2435602E1,9.898993E1,4.6535554E0,1.0426744E2,1.218792E2,6.724295E0,6.904968E1,1.4626645E1,1.0180384E1,2.3609212E-1],"categories":[],"categories_nodes":[],"categories_segments":[],"categories_sizes":[],"default_left":[true,false,true,false,true,false,false,true,false,false,false],"id":28,"left_children":[1,-1,3,-1,5,7,-1,9,-1,-1,-1],"loss_changes":[5.9517562E4,0E0,1.7917344E3,0E0,5.4978906E3,6.649125E3,0E0,1.2865652E4,0E0,0E0,0E0],"parents":[2147483647,0,0,2,2,4,4,5,5,7,7],"right_children":[2,-1,4,-1,6,8,-1,10,-1,-1,-1],"split_conditions":[1E0,2.2435602E1,1.2154138E2,4.6535554E0,4E0,2.499162E1,6.724295E0,2.499147E1,1.4626645E1,1.0180384E1,2.3609212E-1],"split_indices":[5,0,3,0,5,2,0,2,0,0,0],"split_type":[0,0,0,0,0,0,0,0,0,0,0],"sum_hessian":[2.8E1,5E0,2.3E1,3E0,2E1,1.2E1,8E0,5E0,7E0,3E0,2E0],"tree_param":{"num_deleted":"0","num_feature":"9","num_nodes":"11","size_leaf_vector":"0"}},{"base_weights":[1.1753663E2,9.06085E1,2.0565971E1,6.1265845E0,1.01450714E2,5.9763702E1,1.2723353E1,7.858317E1,2.203532E-1,4.304541E0,9.977246E0],"categories":[],"categories_nodes":[],"categories_segments":[],"categories_sizes":[],"default_left":[true,true,false,false,true,true,false,true,false,false,false],"id":29,"left_children":[1,3,-1,-1,5,7,-1,9,-1,-1,-1],"loss_changes":[5.018222E4,1.419875E3,0E0,0E0,9.592984E3,8.492852E3,0E0,2.23375E2,0E0,0E0,0E0],"parents":[2147483647,0,0,1,1,4,4,5,5,7,7],"right_children":[2,4,-1,-1,6,8,-1,10,-1,-1,-1],"split_conditions":[2.1143692E7,2.1049068E7,2.0565971E1,6.1265845E0,1.2154309E2,1.2154146E2,1.2723353E1,2.114344E7,2.203532E-1,4.304541E0,9.977246E0],"split_indices":[0,0,0,0,3,3,0,0,0,0,0],"split_type":[0,0,0,0,0,0,0,0,0,0,0],"sum_hessian":[2.8E1,2.3E1,5E0,8E0,1.5E1,7E0,8E0,5E0,2E0,3E0,2E0],"tree_param":{"num_deleted":"0","num_feature":"9","num_nodes":"11","size_leaf_vector":"0"}},{"base_weights":[1.07642204E2,8.293731E1,1.8852144E1,5.581999E0,9.300722E1,5.7445637E1,1.0394924E1,2.0566407E-1,8.462598E0],"categories":[],"categories_nodes":[],"categories_segments":[],"categories_sizes":[],"default_left":[true,false,false,false,false,true,false,false,false],"id":30,"left_children":[1,3,-1,-1,5,7,-1,-1,-1],"loss_changes":[4.2309844E4,1.362E3,0E0,0E0,2.5442188E2,8.858906E3,0E0,0E0,0E0],"parents":[2147483647,0,0,1,1,4,4,5,5],"right_children":[2,4,-1,-1,6,8,-1,-1,-1],"split_conditions":[2.1143692E7,2.1049068E7,1.8852144E1,5.581999E0,2.499162E1,2.114344E7,1.0394924E1,2.0566407E-1,8.462598E0],"split_indices":[0,0,0,0,2,0,0,0,0],"split_type":[0,0,0,0,0,0,0,0,0],"sum_hessian":[2.8E1,2.3E1,5E0,8E0,1.5E1,5E0,1E1,2E0,3E0],"tree_param":{"num_deleted":"0","num_feature":"9","num_nodes":"9","size_leaf_vector":"0"}},{"base_weights":[9.83779E1,6.5494835E1,1.4623247E1,7.932572E1,2.2306967E1,5.0858183E0,1.0880607E1,1.919515E-1,3.2020814E0],"categories":[],"categories_nodes":[],"categories_segments":[],"categories_sizes":[],"default_left":[true,true,false,false,true,false,false,false,false],"id":31,"left_children":[1,3,-1,5,7,-1,-1,-1,-1],"loss_changes":[3.6057094E4,9.5796875E3,0E0,6.215586E3,1.1267793E3,0E0,0E0,0E0,0E0],"parents":[2147483647,0,0,1,1,3,3,4,4],"right_children":[2,4,-1,6,8,-1,-1,-1,-1],"split_conditions":[2.114344E7,2.1143112E7,1.4623247E1,2.1049068E7,2.499162E1,5.0858183E0,1.0880607E1,1.919515E-1,3.2020814E0],"split_indices":[0,0,0,0,2,0,0,0,0],"split_type":[0,0,0,0,0,0,0,0,0],"sum_hessian":[2.8E1,1.8E1,1E1,1.3E1,5E0,8E0,5E0,2E0,3E0],"tree_param":{"num_deleted":"0","num_feature":"9","num_nodes":"9","size_leaf_vector":"0"}},{"base_weights":[8.9711945E1,1.6062532E1,6.8245605E1,2.9619293E0,7.235321E1,8.479848E1,4.6337457E0,4.6940186E1,9.640882E0,7.6442056E0,1.7915854E-1],"categories":[],"categories_nodes":[],"categories_segments":[],"categories_sizes":[],"default_left":[true,false,true,false,true,true,false,true,false,false,false],"id":32,"left_children":[1,-1,3,-1,5,7,-1,9,-1,-1,-1],"loss_changes":[3.3183297E4,0E0,1.6648281E3,0E0,2.8698906E3,1.1886719E3,0E0,6.5228877E3,0E0,0E0,0E0],"parents":[2147483647,0,0,2,2,4,4,5,5,7,7],"right_children":[2,-1,4,-1,6,8,-1,10,-1,-1,-1],"split_conditions":[1E0,1.6062532E1,1.2154138E2,2.9619293E0,4E0,1.2154309E2,4.6337457E0,1.2154146E2,9.640882E0,7.6442056E0,1.7915854E-1],"split_indices":[5,0,3,0,5,3,0,3,0,0,0],"split_type":[0,0,0,0,0,0,0,0,0,0,0],"sum_hessian":[2.8E1,5E0,2.3E1,3E0,2E1,1.2E1,8E0,4E0,8E0,2E0,2E0],"tree_param":{"num_deleted":"0","num_feature":"9","num_nodes":"11","size_leaf_vector":"0"}},{"base_weights":[8.215876E1,6.246519E1,1.4723991E1,2.739786E0,6.617015E1,4.2218533E0,7.7662025E1,4.0889973E1,9.553331E0,1.6721192E-1,6.008087E0],"categories":[],"categories_nodes":[],"categories_segments":[],"categories_sizes":[],"default_left":[true,true,false,false,true,false,true,true,false,false,false],"id":33,"left_children":[1,3,-1,-1,5,-1,7,9,-1,-1,-1],"loss_changes":[2.7971375E4,1.3052266E3,0E0,0E0,2.5014531E3,0E0,4.6367734E3,4.415293E3,0E0,0E0,0E0],"parents":[2147483647,0,0,1,1,4,4,6,6,7,7],"right_children":[2,4,-1,-1,6,-1,8,10,-1,-1,-1],"split_conditions":[2.1143692E7,1.2154138E2,1.4723991E1,2.739786E0,2.1049068E7,4.2218533E0,2.499162E1,2.114344E7,9.553331E0,1.6721192E-1,6.008087E0],"split_indices":[0,3,0,0,0,0,2,0,0,0,0],"split_type":[0,0,0,0,0,0,0,0,0,0,0],"sum_hessian":[2.8E1,2.3E1,5E0,3E0,2E1,8E0,1.2E1,5E0,7E0,2E0,3E0],"tree_param":{"num_deleted":"0","num_feature":"9","num_nodes":"11","size_leaf_vector":"0"}},{"base_weights":[7.523308E1,1.3497004E1,5.7164127E1,2.5343049E0,6.0503185E1,7.110573E1,3.8465822E0,3.78302E1,8.717417E0,5.557483E0,1.5606283E-1],"categories":[],"categories_nodes":[],"categories_segments":[],"categories_sizes":[],"default_left":[true,false,true,false,true,true,false,true,false,false,false],"id":34,"left_children":[1,-1,3,-1,5,7,-1,9,-1,-1,-1],"loss_changes":[2.3586688E4,0E0,1.01671875E3,0E0,2.1715625E3,3.6530938E3,0E0,3.7748086E3,0E0,0E0,0E0],"parents":[2147483647,0,0,2,2,4,4,5,5,7,7],"right_children":[2,-1,4,-1,6,8,-1,10,-1,-1,-1],"split_conditions":[1E0,1.3497004E1,1.2154138E2,2.5343049E0,4E0,2.499162E1,3.8465822E0,2.499147E1,8.717417E0,5.557483E0,1.5606283E-1],"split_indices":[5,0,3,0,5,2,0,2,0,0,0],"split_type":[0,0,0,0,0,0,0,0,0,0,0],"sum_hessian":[2.8E1,5E0,2.3E1,3E0,2E1,1.2E1,8E0,5E0,7E0,3E0,2E0],"tree_param":{"num_deleted":"0","num_feature":"9","num_nodes":"11","size_leaf_vector":"0"}},{"base_weights":[6.889284E1,5.2314896E1,1.2372245E1,5.447332E0,1.9048178E0],"categories":[],"categories_nodes":[],"categories_segments":[],"categories_sizes":[],"default_left":[true,true,false,false,false],"id":35,"left_children":[1,3,-1,-1,-1],"loss_changes":[1.9887375E4,6.8566406E2,0E0,0E0,0E0],"parents":[2147483647,0,0,1,1],"right_children":[2,4,-1,-1,-1],"split_conditions":[2.1143692E7,3.62E2,1.2372245E1,5.447332E0,1.9048178E0],"split_indices":[0,8,0,0,0],"split_type":[0,0,0,0,0],"sum_hessian":[2.8E1,2.3E1,5E0,2.1E1,2E0],"tree_param":{"num_deleted":"0","num_feature":"9","num_nodes":"5","size_leaf_vector":"0"}},{"base_weights":[6.2683674E1,4.7389725E1,1.134122E1,3.099178E0,5.365171E1,7.1939697E0,3.8799015E1,1.1817037E1,5.9314494E0,-2.1749675E-1,1.9356781E0],"categories":[],"categories_nodes":[],"categories_segments":[],"categories_sizes":[],"default_left":[true,true,false,false,true,false,true,true,false,false,false],"id":36,"left_children":[1,3,-1,-1,5,-1,7,9,-1,-1,-1],"loss_changes":[1.7124766E4,8.0164844E2,0E0,0E0,1.5548242E3,0E0,5.3881094E3,6.750771E2,0E0,0E0,0E0],"parents":[2147483647,0,0,1,1,4,4,6,6,7,7],"right_children":[2,4,-1,-1,6,-1,8,10,-1,-1,-1],"split_conditions":[2.1143692E7,2.1049068E7,1.134122E1,3.099178E0,2.1143112E7,7.1939697E0,2.114344E7,2.499162E1,5.9314494E0,-2.1749675E-1,1.9356781E0],"split_indices":[0,0,0,0,0,0,0,2,0,0,0],"split_type":[0,0,0,0,0,0,0,0,0,0,0],"sum_hessian":[2.8E1,2.3E1,5E0,8E0,1.5E1,5E0,1E1,5E0,5E0,2E0,3E0],"tree_param":{"num_deleted":"0","num_feature":"9","num_nodes":"11","size_leaf_vector":"0"}},{"base_weights":[5.7425114E1,1.039611E1,4.3398403E1,1.7905029E0,4.618769E1,4.943217E1,2.004062E0,2.7566895E1,5.572136E1,4.2872806E0,-2.0299481E-1,6.880089E0,2.8995097E0],"categories":[],"categories_nodes":[],"categories_segments":[],"categories_sizes":[],"default_left":[true,false,true,false,true,true,false,true,true,false,false,false,false],"id":37,"left_children":[1,-1,3,-1,5,7,-1,9,11,-1,-1,-1,-1],"loss_changes":[1.4417906E4,0E0,8.796094E2,0E0,7.9085547E2,9.391992E2,0E0,2.8050693E3,2.5494805E3,0E0,0E0,0E0,0E0],"parents":[2147483647,0,0,2,2,4,4,5,5,7,7,8,8],"right_children":[2,-1,4,-1,6,8,-1,10,12,-1,-1,-1,-1],"split_conditions":[3E-2,1.039611E1,1.2154138E2,1.7905029E0,3.58E2,2.499162E1,2.004062E0,2.499147E1,2.499309E1,4.2872806E0,-2.0299481E-1,6.880089E0,2.8995097E0],"split_indices":[6,0,3,0,8,2,0,2,2,0,0,0,0],"split_type":[0,0,0,0,0,0,0,0,0,0,0,0,0],"sum_hessian":[2.8E1,5E0,2.3E1,3E0,2E1,1.7E1,3E0,5E0,1.2E1,3E0,2E0,7E0,5E0],"tree_param":{"num_deleted":"0","num_feature":"9","num_nodes":"13","size_leaf_vector":"0"}},{"base_weights":[5.2649998E1,3.9794308E1,9.529777E0,1.6562134E0,4.2324516E1,2.5958145E0,5.039935E1,2.5490885E1,6.2780776E0,-1.8946128E-1,3.9657288E0],"categories":[],"categories_nodes":[],"categories_segments":[],"categories_sizes":[],"default_left":[true,true,false,false,true,false,true,true,false,false,false],"id":38,"left_children":[1,3,-1,-1,5,-1,7,9,-1,-1,-1],"loss_changes":[1.2107422E4,7.0979297E2,0E0,0E0,1.4669961E3,0E0,2.4088945E3,2.402859E3,0E0,0E0,0E0],"parents":[2147483647,0,0,1,1,4,4,6,6,7,7],"right_children":[2,4,-1,-1,6,-1,8,10,-1,-1,-1],"split_conditions":[2.1143692E7,1.2154138E2,9.529777E0,1.6562134E0,2.1049068E7,2.5958145E0,2.499162E1,2.114344E7,6.2780776E0,-1.8946128E-1,3.9657288E0],"split_indices":[0,3,0,0,0,0,2,0,0,0,0],"split_type":[0,0,0,0,0,0,0,0,0,0,0],"sum_hessian":[2.8E1,2.3E1,5E0,3E0,2E1,8E0,1.2E1,5E0,7E0,2E0,3E0],"tree_param":{"num_deleted":"0","num_feature":"9","num_nodes":"11","size_leaf_vector":"0"}},{"base_weights":[4.8206917E1,8.735629E0,3.6410954E1,4.131289E1,2.3650744E0,3.0102629E1,5.4979553E0,3.321582E0,1.0728841E0],"categories":[],"categories_nodes":[],"categories_segments":[],"categories_sizes":[],"default_left":[true,false,true,true,false,true,false,false,false],"id":39,"left_children":[1,-1,3,5,-1,7,-1,-1,-1],"loss_changes":[1.0211609E4,0E0,5.241113E2,7.962832E2,0E0,3.0708984E2,0E0,0E0,0E0],"parents":[2147483647,0,0,2,2,3,3,5,5],"right_children":[2,-1,4,6,-1,8,-1,-1,-1],"split_conditions":[1E0,8.735629E0,4E0,3E0,2.3650744E0,1.77E2,5.4979553E0,3.321582E0,1.0728841E0],"split_indices":[5,0,5,5,0,8,0,0,0],"split_type":[0,0,0,0,0,0,0,0,0],"sum_hessian":[2.8E1,5E0,2.3E1,1.5E1,8E0,1E1,5E0,8E0,2E0],"tree_param":{"num_deleted":"0","num_feature":"9","num_nodes":"9","size_leaf_vector":"0"}},{"base_weights":[4.411014E1,3.3280598E1,8.007663E0,1.3953125E0,3.537723E1,2.1548421E0,4.22297E1,2.0803183E1,5.3020873E0,-3.982666E-1,3.4191773E0],"categories":[],"categories_nodes":[],"categories_segments":[],"categories_sizes":[],"default_left":[true,true,false,false,true,false,true,true,false,false,false],"id":40,"left_children":[1,3,-1,-1,5,-1,7,9,-1,-1,-1],"loss_changes":[8.630516E3,4.7891797E2,0E0,0E0,1.0800078E3,0E0,1.9028223E3,2.1272598E3,0E0,0E0,0E0],"parents":[2147483647,0,0,1,1,4,4,6,6,7,7],"right_children":[2,4,-1,-1,6,-1,8,10,-1,-1,-1],"split_conditions":[2.1143692E7,1.2154138E2,8.007663E0,1.3953125E0,2.1049068E7,2.1548421E0,2.499162E1,2.114344E7,5.3020873E0,-3.982666E-1,3.4191773E0],"split_indices":[0,3,0,0,0,0,2,0,0,0,0],"split_type":[0,0,0,0,0,0,0,0,0,0,0],"sum_hessian":[2.8E1,2.3E1,5E0,3E0,2E1,8E0,1.2E1,5E0,7E0,2E0,3E0],"tree_param":{"num_deleted":"0","num_feature":"9","num_nodes":"11","size_leaf_vector":"0"}},{"base_weights":[4.0384712E1,2.5949997E1,6.164606E0,3.2326756E1,6.74589E0,1.9633057E0,4.5979514E0,-3.7171224E-1,1.2906678E0],"categories":[],"categories_nodes":[],"categories_segments":[],"categories_sizes":[],"default_left":[true,true,false,true,true,false,false,false,false],"id":41,"left_children":[1,3,-1,5,7,-1,-1,-1,-1],"loss_changes":[7.3004336E3,2.108667E3,0E0,1.5235371E3,4.3473807E2,0E0,0E0,0E0,0E0],"parents":[2147483647,0,0,1,1,3,3,4,4],"right_children":[2,4,-1,6,8,-1,-1,-1,-1],"split_conditions":[2.114344E7,2.1143112E7,6.164606E0,2.1049068E7,1.21E2,1.9633057E0,4.5979514E0,-3.7171224E-1,1.2906678E0],"split_indices":[0,0,0,0,8,0,0,0,0],"split_type":[0,0,0,0,0,0,0,0,0],"sum_hessian":[2.8E1,1.8E1,1E1,1.3E1,5E0,8E0,5E0,2E0,3E0],"tree_param":{"num_deleted":"0","num_feature":"9","num_nodes":"9","size_leaf_vector":"0"}},{"base_weights":[3.6816795E1,2.7420328E1,6.826652E0,2.8778053E1,8.3235675E-1,1.7024124E1,3.312828E1,2.4433493E1,-3.4693196E-1,1.9431536E0,4.0100384E0,3.0483003E0,8.2229817E-1],"categories":[],"categories_nodes":[],"categories_segments":[],"categories_sizes":[],"default_left":[true,true,false,true,false,true,true,true,false,false,false,false,false],"id":42,"left_children":[1,3,-1,5,-1,7,9,11,-1,-1,-1,-1,-1],"loss_changes":[6.698078E3,3.8274023E2,0E0,5.609297E2,0E0,1.2995154E3,6.5321484E2,3.3773267E2,0E0,0E0,0E0,0E0,0E0],"parents":[2147483647,0,0,1,1,3,3,5,5,6,6,7,7],"right_children":[2,4,-1,6,-1,8,10,12,-1,-1,-1,-1,-1],"split_conditions":[2.1143692E7,3.62E2,6.826652E0,1.2154309E2,8.3235675E-1,1.2154146E2,2.1049068E7,1.74E2,-3.4693196E-1,1.9431536E0,4.0100384E0,3.0483003E0,8.2229817E-1],"split_indices":[0,8,0,3,0,3,0,8,0,0,0,0,0],"split_type":[0,0,0,0,0,0,0,0,0,0,0,0,0],"sum_hessian":[2.8E1,2.3E1,5E0,2.1E1,2E0,7E0,1.4E1,5E0,2E0,6E0,8E0,3E0,2E0],"tree_param":{"num_deleted":"0","num_feature":"9","num_nodes":"13","size_leaf_vector":"0"}},{"base_weights":[3.3726017E1,6.257764E0,2.5107859E1,2.6331032E1,7.768636E0,2.0402849E0,3.6119595E1,8.26477E-2,1.0826477E0,3.8806255E0,9.999817E-1],"categories":[],"categories_nodes":[],"categories_segments":[],"categories_sizes":[],"default_left":[true,false,true,true,true,false,true,false,false,false,false],"id":43,"left_children":[1,-1,3,5,7,-1,9,-1,-1,-1,-1],"loss_changes":[5.6395938E3,0E0,3.0445703E2,5.396826E2,5.4736237E1,0E0,1.03168945E2,0E0,0E0,0E0,0E0],"parents":[2147483647,0,0,2,2,3,3,4,4,6,6],"right_children":[2,-1,4,6,8,-1,10,-1,-1,-1,-1],"split_conditions":[1E0,6.257764E0,3.62E2,1.2E-1,1.3E-1,2.0402849E0,4E0,8.26477E-2,1.0826477E0,3.8806255E0,9.999817E-1],"split_indices":[5,0,8,6,6,0,5,0,0,0,0],"split_type":[0,0,0,0,0,0,0,0,0,0,0],"sum_hessian":[2.8E1,5E0,2.3E1,2.1E1,2E0,1.5E1,6E0,1E0,1E0,5E0,1E0],"tree_param":{"num_deleted":"0","num_feature":"9","num_nodes":"11","size_leaf_vector":"0"}},{"base_weights":[3.0848026E1,5.7362795E0,2.2934E1,9.23526E-1,2.4451189E1,1.2678386E1,2.7337791E1,2.2466247E0,-4.5982262E-1,3.136441E1,1.2206348E0,3.7762926E0,1.4853907E0],"categories":[],"categories_nodes":[],"categories_segments":[],"categories_sizes":[],"default_left":[true,false,true,false,true,true,true,false,false,true,false,false,false],"id":44,"left_children":[1,-1,3,-1,5,7,9,-1,-1,11,-1,-1,-1],"loss_changes":[4.769758E3,0E0,2.7299316E2,0E0,3.6705273E2,1.1179114E3,5.920117E2,0E0,0E0,7.0678516E2,0E0,0E0,0E0],"parents":[2147483647,0,0,2,2,4,4,5,5,6,6,9,9],"right_children":[2,-1,4,-1,6,8,10,-1,-1,12,-1,-1,-1],"split_conditions":[3E-2,5.7362795E0,1.2154138E2,9.23526E-1,2.499162E1,2.499147E1,1.8E2,2.2466247E0,-4.5982262E-1,2.499309E1,1.2206348E0,3.7762926E0,1.4853907E0],"split_indices":[6,0,3,0,2,2,8,0,0,2,0,0,0],"split_type":[0,0,0,0,0,0,0,0,0,0,0,0,0],"sum_hessian":[2.8E1,5E0,2.3E1,3E0,2E1,5E0,1.5E1,3E0,2E0,1.1E1,4E0,7E0,4E0],"tree_param":{"num_deleted":"0","num_feature":"9","num_nodes":"13","size_leaf_vector":"0"}},{"base_weights":[2.827802E1,2.1023645E1,5.258252E0,8.542572E-1,2.2399868E1,1.3830837E0,2.6609205E1,1.1708374E1,3.445868E0,-4.2916664E-1,2.0781312E0],"categories":[],"categories_nodes":[],"categories_segments":[],"categories_sizes":[],"default_left":[true,true,false,false,true,false,true,true,false,false,false],"id":45,"left_children":[1,3,-1,-1,5,-1,7,9,-1,-1,-1],"loss_changes":[4.007627E3,2.2088867E2,0E0,0E0,3.8944238E2,0E0,1.1170723E3,9.601907E2,0E0,0E0,0E0],"parents":[2147483647,0,0,1,1,4,4,6,6,7,7],"right_children":[2,4,-1,-1,6,-1,8,10,-1,-1,-1],"split_conditions":[2.1143692E7,1.2154138E2,5.258252E0,8.542572E-1,2.1049068E7,1.3830837E0,2.499162E1,2.114344E7,3.445868E0,-4.2916664E-1,2.0781312E0],"split_indices":[0,3,0,0,0,0,2,0,0,0,0],"split_type":[0,0,0,0,0,0,0,0,0,0,0],"sum_hessian":[2.8E1,2.3E1,5E0,3E0,2E1,8E0,1.2E1,5E0,7E0,2E0,3E0],"tree_param":{"num_deleted":"0","num_feature":"9","num_nodes":"11","size_leaf_vector":"0"}},{"base_weights":[2.588437E1,4.8200603E0,1.9226797E1,1.1726944E1,2.162515E1,1.7638693E1,-4.0055338E-1,2.8246055E0,1.2601454E0,7.901886E-1,2.4741538E0],"categories":[],"categories_nodes":[],"categories_segments":[],"categories_sizes":[],"default_left":[true,false,true,true,true,true,false,false,false,false,false],"id":46,"left_children":[1,-1,3,5,7,9,-1,-1,-1,-1,-1],"loss_changes":[3.3818438E3,0E0,1.7809766E2,8.14704E2,6.597241E2,2.1944946E2,0E0,0E0,0E0,0E0,0E0],"parents":[2147483647,0,0,2,2,3,3,4,4,5,5],"right_children":[2,-1,4,6,8,10,-1,-1,-1,-1,-1],"split_conditions":[1E0,4.8200603E0,1.2154309E2,1.2154146E2,4E0,1.2154138E2,-4.0055338E-1,2.8246055E0,1.2601454E0,7.901886E-1,2.4741538E0],"split_indices":[5,0,3,3,5,3,0,0,0,0,0],"split_type":[0,0,0,0,0,0,0,0,0,0,0],"sum_hessian":[2.8E1,5E0,2.3E1,7E0,1.6E1,5E0,2E0,8E0,8E0,3E0,2E0],"tree_param":{"num_deleted":"0","num_feature":"9","num_nodes":"11","size_leaf_vector":"0"}},{"base_weights":[2.3701744E1,1.7593637E1,4.418388E0,1.4525275E1,2.437785E0,9.87765E0,2.2948854E0,1.3362847E1,3.0035808E0,1.5346174E0,4.2808023E-1,7.309265E-1,-3.7385255E-1],"categories":[],"categories_nodes":[],"categories_segments":[],"categories_sizes":[],"default_left":[true,true,false,true,false,true,false,true,true,false,false,false,false],"id":47,"left_children":[1,3,-1,5,-1,7,-1,9,11,-1,-1,-1,-1],"loss_changes":[2.850748E3,1.4549951E2,0E0,5.1716187E2,0E0,2.9526843E2,0E0,9.6420044E1,2.0150217E2,0E0,0E0,0E0,0E0],"parents":[2147483647,0,0,1,1,3,3,5,5,7,7,8,8],"right_children":[2,4,-1,6,-1,8,-1,10,12,-1,-1,-1,-1],"split_conditions":[2.1143692E7,1.3E-1,4.418388E0,2.114344E7,2.437785E0,2.1143112E7,2.2948854E0,1.2154338E2,1.2154138E2,1.5346174E0,4.2808023E-1,7.309265E-1,-3.7385255E-1],"split_indices":[0,6,0,0,0,0,0,3,3,0,0,0,0],"split_type":[0,0,0,0,0,0,0,0,0,0,0,0,0],"sum_hessian":[2.8E1,2.3E1,5E0,1.8E1,5E0,1.3E1,5E0,8E0,5E0,6E0,2E0,3E0,2E0],"tree_param":{"num_deleted":"0","num_feature":"9","num_nodes":"13","size_leaf_vector":"0"}},{"base_weights":[2.1727093E1,4.0501833E0,1.6128113E1,1.706943E1,3.8490803E0,1.3056541E1,2.3803258E0,-1.3607788E-1,7.1343994E-1,8.678711E0,1.6349534E0,-3.489258E-1,1.2653739E1,1.5246046E0,4.115316E-1],"categories":[],"categories_nodes":[],"categories_segments":[],"categories_sizes":[],"default_left":[true,false,true,true,true,true,false,false,false,true,false,false,true,false,false],"id":48,"left_children":[1,-1,3,5,7,9,-1,-1,-1,11,-1,-1,13,-1,-1],"loss_changes":[2.3952432E3,0E0,2.1170166E2,2.8369824E2,6.1056488E1,8.876538E1,0E0,0E0,0E0,4.794643E2,0E0,0E0,9.2197266E1,0E0,0E0],"parents":[2147483647,0,0,2,2,3,3,4,4,5,5,9,9,12,12],"right_children":[2,-1,4,6,8,10,-1,-1,-1,12,-1,-1,14,-1,-1],"split_conditions":[1E0,4.0501833E0,3.62E2,1.2E-1,1.3E-1,2.499296E1,2.3803258E0,-1.3607788E-1,7.1343994E-1,1.21E2,1.6349534E0,-3.489258E-1,1.77E2,1.5246046E0,4.115316E-1],"split_indices":[5,0,8,6,6,2,0,0,0,8,0,0,8,0,0],"split_type":[0,0,0,0,0,0,0,0,0,0,0,0,0,0,0],"sum_hessian":[2.8E1,5E0,2.3E1,2.1E1,2E0,1.5E1,6E0,1E0,1E0,8E0,7E0,2E0,6E0,4E0,2E0],"tree_param":{"num_deleted":"0","num_feature":"9","num_nodes":"15","size_leaf_vector":"0"}},{"base_weights":[1.9907091E1,1.2430086E1,3.1012184E1,1.5803223E1,2.4877522E0,1.9729086E0,3.7126586E0,9.0257704E-1,2.333553E0,6.1741334E-1,-3.2566732E-1],"categories":[],"categories_nodes":[],"categories_segments":[],"categories_sizes":[],"default_left":[true,true,true,true,true,false,false,false,false,false,false],"id":49,"left_children":[1,3,5,7,9,-1,-1,-1,-1,-1,-1],"loss_changes":[2.0224688E3,5.9788574E2,2.6410156E1,5.0407715E2,1.4716399E2,0E0,0E0,0E0,0E0,0E0,0E0],"parents":[2147483647,0,0,1,1,2,2,3,3,4,4],"right_children":[2,4,6,8,10,-1,-1,-1,-1,-1,-1],"split_conditions":[2.114344E7,2.1143112E7,2.1143692E7,2.1049068E7,1.2154138E2,1.9729086E0,3.7126586E0,9.0257704E-1,2.333553E0,6.1741334E-1,-3.2566732E-1],"split_indices":[0,0,0,0,3,0,0,0,0,0,0],"split_type":[0,0,0,0,0,0,0,0,0,0,0],"sum_hessian":[2.8E1,1.8E1,1E1,1.3E1,5E0,5E0,5E0,8E0,5E0,3E0,2E0],"tree_param":{"num_deleted":"0","num_feature":"9","num_nodes":"11","size_leaf_vector":"0"}},{"base_weights":[1.8234097E1,1.1372765E1,2.8427845E1,1.4454066E1,2.2875977E0,1.8085002E0,3.4032714E0,8.22347E0,2.139095E0,-3.0395508E-1,5.7110596E-1,9.263794E-1,3.0548909E0,-1.7440186E-1,6.3263553E-1],"categories":[],"categories_nodes":[],"categories_segments":[],"categories_sizes":[],"default_left":[true,true,true,true,true,false,false,true,false,false,false,false,true,false,false],"id":50,"left_children":[1,3,5,7,9,-1,-1,11,-1,-1,-1,-1,13,-1,-1],"loss_changes":[1.7050352E3,4.9882373E2,2.2191406E1,4.2918506E2,1.2678281E2,0E0,0E0,2.0093079E1,0E0,0E0,0E0,0E0,5.8131653E1,0E0,0E0],"parents":[2147483647,0,0,1,1,2,2,3,3,4,4,7,7,12,12],"right_children":[2,4,6,8,10,-1,-1,12,-1,-1,-1,-1,14,-1,-1],"split_conditions":[2.114344E7,2.1143112E7,2.1143692E7,2.1049068E7,1.21E2,1.8085002E0,3.4032714E0,3.62E2,2.139095E0,-3.0395508E-1,5.7110596E-1,9.263794E-1,1.3E-1,-1.7440186E-1,6.3263553E-1],"split_indices":[0,0,0,0,8,0,0,8,0,0,0,0,6,0,0],"split_type":[0,0,0,0,0,0,0,0,0,0,0,0,0,0,0],"sum_hessian":[2.8E1,1.8E1,1E1,1.3E1,5E0,5E0,5E0,8E0,5E0,2E0,3E0,6E0,2E0,1E0,1E0],"tree_param":{"num_deleted":"0","num_feature":"9","num_nodes":"15","size_leaf_vector":"0"}},{"base_weights":[1.6721098E1,1.0435007E1,2.6058794E1,-2.836914E-1,1.2163287E1,1.1403382E0,3.0129151E0,8.529826E0,1.7402995E0,9.606501E-1,-1.6567993E-1],"categories":[],"categories_nodes":[],"categories_segments":[],"categories_sizes":[],"default_left":[true,true,true,false,true,false,false,true,false,false,false],"id":51,"left_children":[1,3,5,-1,7,-1,-1,9,-1,-1,-1],"loss_changes":[1.4303071E3,4.7032056E2,3.1260596E2,0E0,1.7520605E2,0E0,0E0,1.4752826E2,0E0,0E0,0E0],"parents":[2147483647,0,0,1,1,2,2,4,4,7,7],"right_children":[2,4,6,-1,8,-1,-1,10,-1,-1,-1],"split_conditions":[2.114344E7,2.499162E1,2.499147E1,-2.836914E-1,1.3E-1,1.1403382E0,3.0129151E0,3.62E2,1.7402995E0,9.606501E-1,-1.6567993E-1],"split_indices":[0,2,2,0,6,0,0,8,0,0,0],"split_type":[0,0,0,0,0,0,0,0,0,0,0],"sum_hessian":[2.8E1,1.8E1,1E1,2E0,1.6E1,3E0,7E0,1.1E1,5E0,1E1,1E0],"tree_param":{"num_deleted":"0","num_feature":"9","num_nodes":"11","size_leaf_vector":"0"}},{"base_weights":[1.5269809E1,1.1279561E1,2.8685832E0,1.1980807E1,2.377238E0,9.019478E0,1.7038015E1,-1.5739746E-1,5.139832E-1,4.935602E0,1.5003337E0,4.76886E-1,1.8288065E0,-2.6477864E-1,6.914999E-1],"categories":[],"categories_nodes":[],"categories_segments":[],"categories_sizes":[],"default_left":[true,true,false,true,true,true,true,false,false,true,false,false,false,false,false],"id":52,"left_children":[1,3,-1,5,7,9,11,-1,-1,13,-1,-1,-1,-1,-1],"loss_changes":[1.2289009E3,1.21343994E2,0E0,1.7579956E2,4.0836746E1,3.169469E2,2.0146118E1,0E0,0E0,1.8342526E2,0E0,0E0,0E0,0E0,0E0],"parents":[2147483647,0,0,1,1,3,3,4,4,5,5,6,6,9,9],"right_children":[2,4,-1,6,8,10,12,-1,-1,14,-1,-1,-1,-1,-1],"split_conditions":[2.1143692E7,3.62E2,2.8685832E0,1.2E-1,1.3E-1,2.114344E7,2.1049068E7,-1.5739746E-1,5.139832E-1,2.499162E1,1.5003337E0,4.76886E-1,1.8288065E0,-2.6477864E-1,6.914999E-1],"split_indices":[0,8,0,6,6,0,0,0,0,2,0,0,0,0,0],"split_type":[0,0,0,0,0,0,0,0,0,0,0,0,0,0,0],"sum_hessian":[2.8E1,2.3E1,5E0,2.1E1,2E0,1.5E1,6E0,1E0,1E0,1E1,5E0,1E0,5E0,2E0,8E0],"tree_param":{"num_deleted":"0","num_feature":"9","num_nodes":"15","size_leaf_vector":"0"}},{"base_weights":[1.3999979E1,2.6295288E0,1.0342819E1,1.1991447E1,6.2627226E-1,5.046305E0,1.4689575E1,9.4229126E-1,-2.4712728E-1,4.043518E-1,1.8176407E0],"categories":[],"categories_nodes":[],"categories_segments":[],"categories_sizes":[],"default_left":[true,false,true,true,false,true,true,false,false,false,false],"id":53,"left_children":[1,-1,3,5,-1,7,9,-1,-1,-1,-1],"loss_changes":[1.0320435E3,0E0,8.633862E1,2.2569409E2,0E0,2.2069551E2,3.3483447E2,0E0,0E0,0E0,0E0],"parents":[2147483647,0,0,2,2,3,3,5,5,6,6],"right_children":[2,-1,4,6,-1,8,10,-1,-1,-1,-1],"split_conditions":[1E0,2.6295288E0,4E0,2.499162E1,6.2627226E-1,2.499147E1,1.2154138E2,9.4229126E-1,-2.4712728E-1,4.043518E-1,1.8176407E0],"split_indices":[5,0,5,2,0,2,3,0,0,0,0],"split_type":[0,0,0,0,0,0,0,0,0,0,0],"sum_hessian":[2.8E1,5E0,2.3E1,1.5E1,8E0,5E0,1E1,3E0,2E0,3E0,7E0],"tree_param":{"num_deleted":"0","num_feature":"9","num_nodes":"11","size_leaf_vector":"0"}},{"base_weights":[1.2812833E1,9.456192E0,2.4103923E0,5.706082E-1,1.0974617E1,6.154175E0,1.4040053E0,1.3402506E0,1.3730632E0,3.7402955E-1,-2.3065594E-1],"categories":[],"categories_nodes":[],"categories_segments":[],"categories_sizes":[],"default_left":[true,true,false,false,true,true,false,true,false,false,false],"id":54,"left_children":[1,3,-1,-1,5,7,-1,9,-1,-1,-1],"loss_changes":[8.7117236E2,7.404028E1,0E0,0E0,1.500232E2,2.733774E2,0E0,6.1142254E1,0E0,0E0,0E0],"parents":[2147483647,0,0,1,1,4,4,5,5,7,7],"right_children":[2,4,-1,-1,6,8,-1,10,-1,-1,-1],"split_conditions":[2.1143692E7,2.1049068E7,2.4103923E0,5.706082E-1,1.2154309E2,2.114344E7,1.4040053E0,1.2154138E2,1.3730632E0,3.7402955E-1,-2.3065594E-1],"split_indices":[0,0,0,0,3,0,0,3,0,0,0],"split_type":[0,0,0,0,0,0,0,0,0,0,0],"sum_hessian":[2.8E1,2.3E1,5E0,8E0,1.5E1,7E0,8E0,5E0,2E0,3E0,2E0],"tree_param":{"num_deleted":"0","num_feature":"9","num_nodes":"11","size_leaf_vector":"0"}},{"base_weights":[1.1735053E1,2.2095256E0,8.656041E0,9.243796E0,1.46049E-1,4.0323486E0,1.0539378E1,7.663086E-1,-2.1527508E-1,3.4597778E0,1.1809309E1,4.7772217E-1,1.4282227E-1,1.5365189E0,6.058402E-1],"categories":[],"categories_nodes":[],"categories_segments":[],"categories_sizes":[],"default_left":[true,false,true,true,false,true,true,false,false,true,true,false,false,false,false],"id":55,"left_children":[1,-1,3,5,-1,7,9,-1,-1,11,13,-1,-1,-1,-1],"loss_changes":[7.3381885E2,0E0,8.8000854E1,1.0604236E2,0E0,1.5123553E2,1.11982544E2,0E0,0E0,3.8829079E0,1.9320508E2,0E0,0E0,0E0,0E0],"parents":[2147483647,0,0,2,2,3,3,5,5,6,6,9,9,10,10],"right_children":[2,-1,4,6,-1,8,10,-1,-1,12,14,-1,-1,-1,-1],"split_conditions":[1E0,2.2095256E0,3.62E2,2.499162E1,1.46049E-1,2.499147E1,1.2154138E2,7.663086E-1,-2.1527508E-1,1.74E2,4E0,4.7772217E-1,1.4282227E-1,1.5365189E0,6.058402E-1],"split_indices":[5,0,8,2,0,2,3,0,0,8,5,0,0,0,0],"split_type":[0,0,0,0,0,0,0,0,0,0,0,0,0,0,0],"sum_hessian":[2.8E1,5E0,2.3E1,2.1E1,2E0,5E0,1.6E1,3E0,2E0,3E0,1.3E1,1E0,2E0,7E0,6E0],"tree_param":{"num_deleted":"0","num_feature":"9","num_nodes":"15","size_leaf_vector":"0"}},{"base_weights":[1.0757055E1,7.934601E0,2.0254028E0,8.470043E0,1.3631593E-1,3.7209473E0,9.647957E0,-2.0091961E-1,7.088318E-1,1.3819898E0,7.3012133E0,1.0766571E1,5.184949E-1,2.0110475E-1,1.301473E0],"categories":[],"categories_nodes":[],"categories_segments":[],"categories_sizes":[],"default_left":[true,true,false,true,false,true,true,false,false,false,true,true,false,false,false],"id":56,"left_children":[1,3,-1,5,-1,7,9,-1,-1,-1,11,13,-1,-1,-1],"loss_changes":[6.166306E2,7.2901E1,0E0,8.716907E1,0E0,1.3001492E2,6.553601E1,0E0,0E0,0E0,3.951288E1,5.256195E1,0E0,0E0,0E0],"parents":[2147483647,0,0,1,1,3,3,5,5,6,6,10,10,11,11],"right_children":[2,4,-1,6,-1,8,10,-1,-1,-1,12,14,-1,-1,-1],"split_conditions":[2.1143692E7,3.62E2,2.0254028E0,2.499162E1,1.3631593E-1,2.114344E7,1.21E2,-2.0091961E-1,7.088318E-1,1.3819898E0,2.499208E1,1.74E2,5.184949E-1,2.0110475E-1,1.301473E0],"split_indices":[0,8,0,2,0,0,8,0,0,0,2,8,0,0,0],"split_type":[0,0,0,0,0,0,0,0,0,0,0,0,0,0,0],"sum_hessian":[2.8E1,2.3E1,5E0,2.1E1,2E0,5E0,1.6E1,2E0,3E0,4E0,1.2E1,3E0,9E0,1E0,2E0],"tree_param":{"num_deleted":"0","num_feature":"9","num_nodes":"15","size_leaf_vector":"0"}},{"base_weights":[9.8907385E0,7.3097587E0,1.8566202E0,6.335375E0,1.486029E0,4.8265653E0,9.805908E-1,-1.8752442E-1,5.781494E0,3.5163372E0,6.491444E0,7.566325E-2,4.7070312E-1,1.0321004E0,4.4936523E-1],"categories":[],"categories_nodes":[],"categories_segments":[],"categories_sizes":[],"default_left":[true,true,false,true,false,true,false,false,true,true,true,false,false,false,false],"id":57,"left_children":[1,3,-1,5,-1,7,-1,-1,9,11,13,-1,-1,-1,-1],"loss_changes":[5.136304E2,8.242517E1,0E0,7.310773E1,0E0,1.2603723E2,0E0,0E0,2.9042358E0,1.615429E1,3.777832E1,0E0,0E0,0E0,0E0],"parents":[2147483647,0,0,1,1,3,3,5,5,8,8,9,9,10,10],"right_children":[2,4,-1,6,-1,8,-1,-1,10,12,14,-1,-1,-1,-1],"split_conditions":[2.1143692E7,2E-1,1.8566202E0,2.114344E7,1.486029E0,2.499162E1,9.805908E-1,-1.8752442E-1,2.499213E1,1.3E-1,2.499279E1,7.566325E-2,4.7070312E-1,1.0321004E0,4.4936523E-1],"split_indices":[0,6,0,0,0,2,0,0,2,6,2,0,0,0,0],"split_type":[0,0,0,0,0,0,0,0,0,0,0,0,0,0,0],"sum_hessian":[2.8E1,2.3E1,5E0,2.2E1,1E0,1.7E1,5E0,2E0,1.5E1,5E0,1E1,2E0,3E0,2E0,8E0],"tree_param":{"num_deleted":"0","num_feature":"9","num_nodes":"15","size_leaf_vector":"0"}},{"base_weights":[9.114169E0,1.7018961E0,6.7582145E0,5.824463E0,1.4117249E0,6.8193054E0,3.10672E0,9.6889347E-1,5.411781E0,6.877442E-2,3.7984211E0,-1.7502442E-1,6.8730803E0,4.8800355E-1,1.0901285E0,7.225354E0,1.675171E-1,-2.2727051E-1,3.907898E-1,8.6972857E-1,4.0139648E-1],"categories":[],"categories_nodes":[],"categories_segments":[],"categories_sizes":[],"default_left":[true,false,true,true,false,true,true,false,true,false,true,false,true,false,true,true,false,false,false,false,false],"id":58,"left_children":[1,-1,3,5,-1,7,9,-1,11,-1,13,-1,15,-1,17,19,-1,-1,-1,-1,-1],"loss_changes":[4.2505908E2,0E0,8.2690796E1,4.100006E1,0E0,1.2190796E1,1.0773331E1,0E0,1.4808578E2,0E0,1.2256096E1,0E0,8.038269E0,0E0,3.730857E1,1.2358826E1,0E0,0E0,0E0,0E0,0E0],"parents":[2147483647,0,0,2,2,3,3,5,5,6,6,8,8,10,10,12,12,14,14,15,15],"right_children":[2,-1,4,6,-1,8,10,-1,12,-1,14,-1,16,-1,18,20,-1,-1,-1,-1,-1],"split_conditions":[1E0,1.7018961E0,2E-1,1.77E2,1.4117249E0,1.2154146E2,1.2154138E2,9.6889347E-1,1.2154309E2,6.877442E-2,3.62E2,-1.7502442E-1,1.2154353E2,4.8800355E-1,1.3E-1,4E0,1.675171E-1,-2.2727051E-1,3.907898E-1,8.6972857E-1,4.0139648E-1],"split_indices":[5,0,6,8,0,3,3,0,3,0,8,0,3,0,6,5,0,0,0,0,0],"split_type":[0,0,0,0,0,0,0,0,0,0,0,0,0,0,0,0,0,0,0,0,0],"sum_hessian":[2.8E1,5E0,2.3E1,2.2E1,1E0,1.5E1,7E0,3E0,1.2E1,2E0,5E0,2E0,1E1,3E0,2E0,9E0,1E0,1E0,1E0,5E0,4E0],"tree_param":{"num_deleted":"0","num_feature":"9","num_nodes":"21","size_leaf_vector":"0"}},{"base_weights":[8.411949E0,1.5600709E0,6.2642617E0,2.6292317E0,7.082468E0,5.1690066E-1,-1.633545E-1,9.154675E0,3.762831E0,2.2664185E0,1.1454468E0,4.394078E-1,1.03564456E-1,3.5699463E-1,6.4192705E-2],"categories":[],"categories_nodes":[],"categories_segments":[],"categories_sizes":[],"default_left":[true,false,true,true,true,false,false,true,true,true,false,false,false,false,false],"id":59,"left_children":[1,-1,3,5,7,-1,-1,9,11,13,-1,-1,-1,-1,-1],"loss_changes":[3.5001025E2,0E0,5.275946E1,7.3402756E1,9.625299E1,0E0,0E0,1.4829663E2,1.0943054E1,6.1786346E0,0E0,0E0,0E0,0E0,0E0],"parents":[2147483647,0,0,2,2,3,3,4,4,7,7,8,8,9,9],"right_children":[2,-1,4,6,8,-1,-1,10,12,14,-1,-1,-1,-1,-1],"split_conditions":[1E0,1.5600709E0,2.499162E1,2.499147E1,4E0,5.1690066E-1,-1.633545E-1,1.2154138E2,3.62E2,1.74E2,1.1454468E0,4.394078E-1,1.03564456E-1,3.5699463E-1,6.4192705E-2],"split_indices":[5,0,2,2,5,0,0,3,8,8,0,0,0,0,0],"split_type":[0,0,0,0,0,0,0,0,0,0,0,0,0,0,0],"sum_hessian":[2.8E1,5E0,2.3E1,5E0,1.8E1,3E0,2E0,1E1,8E0,3E0,7E0,6E0,2E0,1E0,2E0],"tree_param":{"num_deleted":"0","num_feature":"9","num_nodes":"15","size_leaf_vector":"0"}},{"base_weights":[7.7094684E0,5.7404428E0,1.430066E0,4.8736253E0,1.2838624E0,2.7128685E0,6.327064E0,-1.5246582E-1,3.8239474E0,2.14505E-1,7.367163E0,4.0472717E0,1.01867676E-1,3.730896E-1,1.0257251E0,2.1590881E0,4.7483644E-1,4.382731E-2,3.6607668E-1],"categories":[],"categories_nodes":[],"categories_segments":[],"categories_sizes":[],"default_left":[true,true,false,true,false,true,true,false,true,false,true,true,false,false,false,true,false,false,false],"id":60,"left_children":[1,3,-1,5,-1,7,9,-1,11,-1,13,15,-1,-1,-1,17,-1,-1,-1],"loss_changes":[2.9427625E2,8.509723E1,0E0,5.5067627E1,0E0,5.7620712E1,4.0743286E1,0E0,1.5155182E0,0E0,6.682257E1,3.381958E-1,0E0,0E0,0E0,8.732027E0,0E0,0E0,0E0],"parents":[2147483647,0,0,1,1,3,3,5,5,6,6,8,8,10,10,11,11,15,15],"right_children":[2,4,-1,6,-1,8,10,-1,12,-1,14,16,-1,-1,-1,18,-1,-1,-1],"split_conditions":[2.1143692E7,2E-1,1.430066E0,2.499213E1,1.2838624E0,1.2154309E2,1.2154138E2,-1.5246582E-1,1.9E-1,2.14505E-1,2.1049068E7,2.1049068E7,1.01867676E-1,3.730896E-1,1.0257251E0,1.3E-1,4.7483644E-1,4.382731E-2,3.6607668E-1],"split_indices":[0,6,0,2,0,3,3,0,6,0,0,0,0,0,0,6,0,0,0],"split_type":[0,0,0,0,0,0,0,0,0,0,0,0,0,0,0,0,0,0,0],"sum_hessian":[2.8E1,2.3E1,5E0,2.2E1,1E0,1E1,1.2E1,2E0,8E0,3E0,9E0,7E0,1E0,5E0,4E0,3E0,4E0,2E0,1E0],"tree_param":{"num_deleted":"0","num_feature":"9","num_nodes":"19","size_leaf_vector":"0"}},{"base_weights":[7.1164927E0,4.5082946E0,1.0974609E1,3.4035645E0,1.2196716E0,4.425232E-1,1.2877473E0,-1.4230143E-1,4.095825E0,7.605591E-1,3.0511737E0,3.3522034E0,8.2999676E-1,3.4810016E-1,9.677124E-2,-2.2327271E-1,3.477722E-1],"categories":[],"categories_nodes":[],"categories_segments":[],"categories_sizes":[],"default_left":[true,true,true,true,false,false,false,false,true,false,true,true,true,false,false,false,false],"id":61,"left_children":[1,3,5,7,-1,-1,-1,-1,9,-1,11,13,15,-1,-1,-1,-1],"loss_changes":[2.4234253E2,1.1986667E2,8.010242E1,6.597093E1,0E0,0E0,0E0,0E0,3.5457764E1,0E0,6.578644E0,3.1680298E-1,3.2092556E1,0E0,0E0,0E0,0E0],"parents":[2147483647,0,0,1,1,2,2,3,3,8,8,10,10,11,11,12,12],"right_children":[2,4,6,8,-1,-1,-1,-1,10,-1,12,14,16,-1,-1,-1,-1],"split_conditions":[2.114344E7,2E-1,2.499147E1,2.499162E1,1.2196716E0,4.425232E-1,1.2877473E0,-1.4230143E-1,1.21E2,7.605591E-1,3.62E2,1.9E-1,1.3E-1,3.4810016E-1,9.677124E-2,-2.2327271E-1,3.477722E-1],"split_indices":[0,6,2,2,0,0,0,0,8,0,8,6,6,0,0,0,0],"split_type":[0,0,0,0,0,0,0,0,0,0,0,0,0,0,0,0,0],"sum_hessian":[2.8E1,1.8E1,1E1,1.7E1,1E0,3E0,7E0,2E0,1.5E1,2E0,1.3E1,1.1E1,2E0,1E1,1E0,1E0,1E0],"tree_param":{"num_deleted":"0","num_feature":"9","num_nodes":"17","size_leaf_vector":"0"}},{"base_weights":[6.5474644E0,4.9026084E0,1.2035645E0,5.240778E0,7.8849286E-2,1.7230835E0,5.705515E0,3.1101075E-1,2.2403972E-2,3.4462717E-1,6.4831448E0,8.3502E-1,4.272461E0,-1.328125E-1,6.3606772E0,6.8746096E-1,1.8955079E-1],"categories":[],"categories_nodes":[],"categories_segments":[],"categories_sizes":[],"default_left":[true,true,false,true,false,true,true,false,false,false,true,false,true,false,true,false,false],"id":62,"left_children":[1,3,-1,5,-1,7,9,-1,-1,-1,11,-1,13,-1,15,-1,-1],"loss_changes":[2.0278479E2,2.9258179E1,0E0,2.6134521E1,0E0,7.6200514E0,1.1037598E1,0E0,0E0,0E0,1.798114E1,0E0,1.0200966E2,0E0,7.378845E-1,0E0,0E0],"parents":[2147483647,0,0,1,1,3,3,5,5,6,6,10,10,12,12,14,14],"right_children":[2,4,-1,6,-1,8,10,-1,-1,-1,12,-1,14,-1,16,-1,-1],"split_conditions":[2.1143692E7,3.62E2,1.2035645E0,1.2154138E2,7.8849286E-2,1.74E2,2.1049068E7,3.1101075E-1,2.2403972E-2,3.4462717E-1,2.1143112E7,8.3502E-1,2.114344E7,-1.328125E-1,1.76E2,6.8746096E-1,1.8955079E-1],"split_indices":[0,8,0,3,0,8,0,0,0,0,0,0,0,0,8,0,0],"split_type":[0,0,0,0,0,0,0,0,0,0,0,0,0,0,0,0,0],"sum_hessian":[2.8E1,2.3E1,5E0,2.1E1,2E0,3E0,1.8E1,1E0,2E0,6E0,1.2E1,5E0,7E0,2E0,5E0,4E0,1E0],"tree_param":{"num_deleted":"0","num_feature":"9","num_nodes":"17","size_leaf_vector":"0"}},{"base_weights":[6.014775E0,4.5096946E0,1.1032634E0,3.7345183E0,1.1169373E0,2.8149617E0,5.870768E0,3.680899E0,4.696045E-1,6.879883E-1,2.5683594E-1,6.54187E-1,2.5660067E0,-1.2395834E-1,1.6340942E0,2.8909235E0,7.359212E-1,2.95459E-1,2.0906575E-2,3.126831E-1,5.0183106E-2,-2.1605225E-1,3.2644042E-1],"categories":[],"categories_nodes":[],"categories_segments":[],"categories_sizes":[],"default_left":[true,true,false,true,false,true,true,true,true,false,false,false,true,false,true,true,true,false,false,false,false,false,false],"id":63,"left_children":[1,3,-1,5,-1,7,9,11,13,-1,-1,-1,15,-1,17,19,21,-1,-1,-1,-1,-1,-1],"loss_changes":[1.6926233E2,8.2185974E1,0E0,2.8655243E1,0E0,3.48282E1,2.3250427E0,2.467929E1,1.3967586E1,0E0,0E0,0E0,4.4133835E0,0E0,6.909272E0,3.5033112E0,2.9023645E1,0E0,0E0,0E0,0E0,0E0,0E0],"parents":[2147483647,0,0,1,1,3,3,5,5,6,6,7,7,8,8,12,12,14,14,15,15,16,16],"right_children":[2,4,-1,6,-1,8,10,12,14,-1,-1,-1,16,-1,18,20,22,-1,-1,-1,-1,-1,-1],"split_conditions":[2.1143692E7,2E-1,1.1032634E0,2.114344E7,1.1169373E0,2.1143112E7,1.74E2,1.21E2,1.21E2,6.879883E-1,2.5683594E-1,6.54187E-1,3.62E2,-1.2395834E-1,1.74E2,1.9E-1,1.3E-1,2.95459E-1,2.0906575E-2,3.126831E-1,5.0183106E-2,-2.1605225E-1,3.2644042E-1],"split_indices":[0,6,0,0,0,0,8,8,8,0,0,0,8,0,8,6,6,0,0,0,0,0,0],"split_type":[0,0,0,0,0,0,0,0,0,0,0,0,0,0,0,0,0,0,0,0,0,0,0],"sum_hessian":[2.8E1,2.3E1,5E0,2.2E1,1E0,1.7E1,5E0,1.2E1,5E0,3E0,2E0,2E0,1E1,2E0,3E0,8E0,2E0,1E0,2E0,7E0,1E0,1E0,1E0],"tree_param":{"num_deleted":"0","num_feature":"9","num_nodes":"23","size_leaf_vector":"0"}},{"base_weights":[5.567934E0,4.19961E0,1.011324E0,1.689331E0,4.771298E0,-1.1569824E-1,3.4017333E-1,2.475247E0,6.216131E0,2.88283E-1,6.991374E-2,1.5498047E0,7.772278E-1,2.806885E-1,1.9514974E-2],"categories":[],"categories_nodes":[],"categories_segments":[],"categories_sizes":[],"default_left":[true,true,false,true,true,false,false,true,true,false,false,true,false,false,false],"id":64,"left_children":[1,3,-1,5,7,-1,-1,9,11,-1,-1,13,-1,-1,-1],"loss_changes":[1.378924E2,2.6381989E1,0E0,3.3179947E1,4.764435E1,0E0,0E0,4.4997177E0,6.783087E1,0E0,0E0,6.263876E0,0E0,0E0,0E0],"parents":[2147483647,0,0,1,1,3,3,4,4,7,7,8,8,11,11],"right_children":[2,4,-1,6,8,-1,-1,10,12,-1,-1,14,-1,-1,-1],"split_conditions":[2.1143692E7,2.499162E1,1.011324E0,2.114344E7,2.1049068E7,-1.1569824E-1,3.4017333E-1,3.62E2,1.2154138E2,2.88283E-1,6.991374E-2,1.74E2,7.772278E-1,2.806885E-1,1.9514974E-2],"split_indices":[0,2,0,0,0,0,0,8,3,0,0,8,0,0,0],"split_type":[0,0,0,0,0,0,0,0,0,0,0,0,0,0,0],"sum_hessian":[2.8E1,2.3E1,5E0,5E0,1.8E1,2E0,3E0,8E0,1E1,6E0,2E0,3E0,7E0,1E0,2E0],"tree_param":{"num_deleted":"0","num_feature":"9","num_nodes":"15","size_leaf_vector":"0"}},{"base_weights":[5.103267E0,3.2789178E0,7.790483E0,2.32527E0,1.0222291E0,3.1466675E-1,9.1385806E-1,-2.3896484E-1,3.0749774E0,6.8155926E-1,-1.079834E-1,5.587606E-1,2.190572E0,9.342041E-2,8.813477E-3,2.4329345E-1,6.5250653E-1,-2.0874634E-1,3.0662233E-1],"categories":[],"categories_nodes":[],"categories_segments":[],"categories_sizes":[],"default_left":[true,true,true,true,false,false,false,true,true,true,false,false,true,false,false,false,true,false,false],"id":65,"left_children":[1,3,5,7,-1,-1,-1,9,11,13,-1,-1,15,-1,-1,-1,17,-1,-1],"loss_changes":[1.1662579E2,1.02039536E2,4.010742E1,3.5338478E1,0E0,0E0,0E0,4.606172E0,1.8870483E1,3.6744106E-1,0E0,0E0,2.885727E0,0E0,0E0,0E0,2.6241161E1,0E0,0E0],"parents":[2147483647,0,0,1,1,2,2,3,3,7,7,8,8,9,9,12,12,16,16],"right_children":[2,4,6,8,-1,-1,-1,10,12,14,-1,-1,16,-1,-1,-1,18,-1,-1],"split_conditions":[2.114344E7,2E-1,2.499147E1,2.499208E1,1.0222291E0,3.1466675E-1,9.1385806E-1,2.1143112E7,1.21E2,1.9E-1,-1.079834E-1,5.587606E-1,3.62E2,9.342041E-2,8.813477E-3,2.4329345E-1,1.3E-1,-2.0874634E-1,3.0662233E-1],"split_indices":[0,6,2,2,0,0,0,0,8,6,0,0,8,0,0,0,6,0,0],"split_type":[0,0,0,0,0,0,0,0,0,0,0,0,0,0,0,0,0,0,0],"sum_hessian":[2.8E1,1.8E1,1E1,1.7E1,1E0,3E0,7E0,4E0,1.3E1,2E0,2E0,2E0,1.1E1,1E0,1E0,9E0,2E0,1E0,1E0],"tree_param":{"num_deleted":"0","num_feature":"9","num_nodes":"19","size_leaf_vector":"0"}},{"base_weights":[4.7014036E0,3.5536041E0,8.509033E0,2.8636582E0,9.7111815E-1,4.45813E0,1.1073893E0,1.5069802E0,3.7913349E0,-1.6945802E-1,7.073893E-1,-1.00781254E-1,2.177802E0,6.2606204E-1,1.9982504E0,2.4290924E0,8.374023E-3,2.3592937E-1,9.571228E-1,2.9288533E-1,6.1987305E-1,1.8843384E-1,1.9938152E-3,-1.9830933E-1,2.9129028E-1],"categories":[],"categories_nodes":[],"categories_segments":[],"categories_sizes":[],"default_left":[true,true,true,true,false,true,false,true,true,false,false,false,true,false,true,true,false,false,true,false,true,false,false,false,false],"id":66,"left_children":[1,3,5,7,-1,9,-1,11,13,-1,-1,-1,15,-1,17,19,-1,-1,21,-1,23,-1,-1,-1,-1],"loss_changes":[9.650372E1,7.415201E1,1.2971161E1,2.3233383E1,0E0,7.636343E1,0E0,2.0751577E1,4.5048996E1,0E0,0E0,0E0,4.532543E0,0E0,1.124897E0,5.417904E0,0E0,0E0,3.4383187E0,0E0,2.3682596E1,0E0,0E0,0E0,0E0],"parents":[2147483647,0,0,1,1,2,2,3,3,5,5,7,7,8,8,12,12,14,14,15,15,18,18,20,20],"right_children":[2,4,6,8,-1,10,-1,12,14,-1,-1,-1,16,-1,18,20,-1,-1,22,-1,24,-1,-1,-1,-1],"split_conditions":[2.1143692E7,2E-1,1.77E2,2.499213E1,9.7111815E-1,2.499225E1,1.1073893E0,1.21E2,1.21E2,-1.6945802E-1,7.073893E-1,-1.00781254E-1,1.9E-1,6.2606204E-1,1.74E2,3.62E2,8.374023E-3,2.3592937E-1,2.1049068E7,2.9288533E-1,1.3E-1,1.8843384E-1,1.9938152E-3,-1.9830933E-1,2.9129028E-1],"split_indices":[0,6,8,2,0,2,0,8,8,0,0,0,6,0,8,8,0,0,0,0,6,0,0,0,0],"split_type":[0,0,0,0,0,0,0,0,0,0,0,0,0,0,0,0,0,0,0,0,0,0,0,0,0],"sum_hessian":[2.8E1,2.3E1,5E0,2.2E1,1E0,3E0,2E0,1E1,1.2E1,1E0,2E0,2E0,8E0,4E0,8E0,7E0,1E0,5E0,3E0,5E0,2E0,1E0,2E0,1E0,1E0],"tree_param":{"num_deleted":"0","num_feature":"9","num_nodes":"25","size_leaf_vector":"0"}},{"base_weights":[4.367899E0,3.2947845E0,7.932373E0,2.6358058E0,9.225647E-1,4.1468506E0,1.0335612E0,1.9696723E0,4.1949058E0,-1.6098633E-1,6.6023767E-1,2.5666223E0,3.480021E-1,4.968384E-1,1.7652994E-1,4.7977296E-1,1.7248092E0,1.2274475E0,-9.405925E-2,1.8813843E0,7.952881E-3,2.426941E-1,1.8636069E-3,2.1308899E-1,5.889079E-1,-1.8839112E-1,2.767273E-1],"categories":[],"categories_nodes":[],"categories_segments":[],"categories_sizes":[],"default_left":[true,true,true,true,false,true,false,true,true,false,false,true,true,false,false,false,true,true,false,true,false,false,false,false,true,false,false],"id":67,"left_children":[1,3,5,7,-1,9,-1,11,13,-1,-1,15,17,-1,-1,-1,19,21,-1,23,-1,-1,-1,-1,25,-1,-1],"loss_changes":[8.4792114E1,6.948248E1,1.1724884E1,1.5624481E1,0E0,6.717197E1,0E0,1.6531815E1,2.504799E0,0E0,0E0,1.6141113E1,7.9540195E0,0E0,0E0,0E0,2.6840858E0,5.754617E0,0E0,1.969902E0,0E0,0E0,0E0,0E0,2.1373404E1,0E0,0E0],"parents":[2147483647,0,0,1,1,2,2,3,3,5,5,7,7,8,8,11,11,12,12,16,16,17,17,19,19,24,24],"right_children":[2,4,6,8,-1,10,-1,12,14,-1,-1,16,18,-1,-1,-1,20,22,-1,24,-1,-1,-1,-1,26,-1,-1],"split_conditions":[2.1143692E7,2E-1,1.77E2,2.114344E7,9.225647E-1,1.2154175E2,1.0335612E0,2.1143112E7,1.74E2,-1.6098633E-1,6.6023767E-1,1.215433E2,1.2154138E2,4.968384E-1,1.7652994E-1,4.7977296E-1,1.9E-1,1.74E2,-9.405925E-2,3.62E2,7.952881E-3,2.426941E-1,1.8636069E-3,2.1308899E-1,1.3E-1,-1.8839112E-1,2.767273E-1],"split_indices":[0,6,8,0,0,3,0,0,8,0,0,3,3,0,0,0,6,8,0,8,0,0,0,0,6,0,0],"split_type":[0,0,0,0,0,0,0,0,0,0,0,0,0,0,0,0,0,0,0,0,0,0,0,0,0,0,0],"sum_hessian":[2.8E1,2.3E1,5E0,2.2E1,1E0,3E0,2E0,1.7E1,5E0,1E0,2E0,1.2E1,5E0,3E0,2E0,2E0,1E1,3E0,2E0,9E0,1E0,1E0,2E0,7E0,2E0,1E0,1E0],"tree_param":{"num_deleted":"0","num_feature":"9","num_nodes":"27","size_leaf_vector":"0"}},{"base_weights":[4.071407E0,7.3946533E0,3.0709534E0,3.8569946E0,9.6466476E-1,2.4423563E0,8.764343E-1,-1.529419E-1,6.162272E-1,1.2753018E0,3.2419903E0,-8.7784834E-2,1.8513184E0,5.369165E-1,1.7000054E0,2.0638428E0,7.5561525E-3,1.9801229E-1,8.548279E-1,2.4720662E0,5.5944824E-1,1.7415365E-3,1.6835327E-1,2.712671E-1,6.345215E-2,-1.7897339E-1,2.6289064E-1],"categories":[],"categories_nodes":[],"categories_segments":[],"categories_sizes":[],"default_left":[true,true,true,true,false,true,false,false,false,true,true,false,true,false,true,true,false,false,true,true,true,false,false,false,false,false,false],"id":68,"left_children":[1,3,5,7,-1,9,-1,-1,-1,11,13,-1,15,-1,17,19,-1,-1,21,23,25,-1,-1,-1,-1,-1,-1],"loss_changes":[7.37092E1,1.0593628E1,6.4486725E1,5.9093407E1,0E0,1.7329453E1,0E0,0E0,0E0,1.5267925E1,3.3513306E1,0E0,3.2405777E0,0E0,4.3807602E-1,3.530037E0,0E0,0E0,2.7465518E0,9.314842E-1,1.9289644E1,0E0,0E0,0E0,0E0,0E0,0E0],"parents":[2147483647,0,0,1,1,2,2,3,3,5,5,9,9,10,10,12,12,14,14,15,15,18,18,19,19,20,20],"right_children":[2,4,6,8,-1,10,-1,-1,-1,12,14,-1,16,-1,18,20,-1,-1,22,24,26,-1,-1,-1,-1,-1,-1],"split_conditions":[1E0,1.77E2,2E-1,2.499225E1,9.6466476E-1,2.499213E1,8.764343E-1,-1.529419E-1,6.162272E-1,1.2154309E2,1.21E2,-8.7784834E-2,1.9E-1,5.369165E-1,1.74E2,3.62E2,7.5561525E-3,1.9801229E-1,2.499296E1,1.2154353E2,1.3E-1,1.7415365E-3,1.6835327E-1,2.712671E-1,6.345215E-2,-1.7897339E-1,2.6289064E-1],"split_indices":[5,8,6,2,0,2,0,0,0,3,8,0,6,0,8,8,0,0,2,3,6,0,0,0,0,0,0],"split_type":[0,0,0,0,0,0,0,0,0,0,0,0,0,0,0,0,0,0,0,0,0,0,0,0,0,0,0],"sum_hessian":[2.8E1,5E0,2.3E1,3E0,2E0,2.2E1,1E0,1E0,2E0,1E1,1.2E1,2E0,8E0,4E0,8E0,7E0,1E0,5E0,3E0,5E0,2E0,2E0,1E0,4E0,1E0,1E0,1E0],"tree_param":{"num_deleted":"0","num_feature":"9","num_nodes":"27","size_leaf_vector":"0"}},{"base_weights":[3.7866168E0,2.8521984E0,6.8931885E0,2.2521973E0,8.326111E-1,3.5870972E0,9.0035814E-1,1.6867812E0,3.5730793E0,-1.453003E-1,5.751465E-1,2.1813872E0,3.3400473E-1,4.2595217E-1,1.4667968E-1,4.1199952E-1,1.4543679E0,1.115509E0,-8.1933595E-2,1.5854492E0,7.1777343E-3,2.206604E-1,1.6276041E-3,1.7825165E-1,5.3145343E-1,-1.7002563E-1,2.4974366E-1],"categories":[],"categories_nodes":[],"categories_segments":[],"categories_sizes":[],"default_left":[true,true,true,true,false,true,false,true,true,false,false,true,true,false,false,false,true,true,false,true,false,false,false,false,true,false,false],"id":69,"left_children":[1,3,5,7,-1,9,-1,11,13,-1,-1,15,17,-1,-1,-1,19,21,-1,23,-1,-1,-1,-1,25,-1,-1],"loss_changes":[6.4521576E1,6.007242E1,9.566193E0,1.1150497E1,0E0,5.1991417E1,0E0,1.1315048E1,2.4272003E0,0E0,0E0,1.233028E1,6.322021E0,0E0,0E0,0E0,1.8797493E0,4.7615547E0,0E0,1.1297569E0,0E0,0E0,0E0,0E0,1.7408794E1,0E0,0E0],"parents":[2147483647,0,0,1,1,2,2,3,3,5,5,7,7,8,8,11,11,12,12,16,16,17,17,19,19,24,24],"right_children":[2,4,6,8,-1,10,-1,12,14,-1,-1,16,18,-1,-1,-1,20,22,-1,24,-1,-1,-1,-1,26,-1,-1],"split_conditions":[2.1143692E7,2E-1,1.77E2,2.114344E7,8.326111E-1,1.2154175E2,9.0035814E-1,2.1143112E7,1.74E2,-1.453003E-1,5.751465E-1,1.215433E2,1.2154138E2,4.2595217E-1,1.4667968E-1,4.1199952E-1,1.9E-1,1.74E2,-8.1933595E-2,3.62E2,7.1777343E-3,2.206604E-1,1.6276041E-3,1.7825165E-1,1.3E-1,-1.7002563E-1,2.4974366E-1],"split_indices":[0,6,8,0,0,3,0,0,8,0,0,3,3,0,0,0,6,8,0,8,0,0,0,0,6,0,0],"split_type":[0,0,0,0,0,0,0,0,0,0,0,0,0,0,0,0,0,0,0,0,0,0,0,0,0,0,0],"sum_hessian":[2.8E1,2.3E1,5E0,2.2E1,1E0,3E0,2E0,1.7E1,5E0,1E0,2E0,1.2E1,5E0,3E0,2E0,2E0,1E1,3E0,2E0,9E0,1E0,1E0,2E0,7E0,2E0,1E0,1E0],"tree_param":{"num_deleted":"0","num_feature":"9","num_nodes":"27","size_leaf_vector":"0"}},{"base_weights":[3.5304587E0,2.6595867E0,6.4255375E-1,1.4999865E-1,3.1456375E0,4.7532144E-1,1.9828103E0,3.2399496E-1,3.3111572E-1,1.05953984E-1,-7.647298E-2],"categories":[],"categories_nodes":[],"categories_segments":[],"categories_sizes":[],"default_left":[true,true,false,false,true,false,true,true,false,false,false],"id":70,"left_children":[1,3,-1,-1,5,-1,7,9,-1,-1,-1],"loss_changes":[5.6026764E1,8.8085785E0,0E0,0E0,2.048462E1,0E0,2.3165504E1,5.615097E0,0E0,0E0,0E0],"parents":[2147483647,0,0,1,1,4,4,6,6,7,7],"right_children":[2,4,-1,-1,6,-1,8,10,-1,-1,-1],"split_conditions":[2.1143692E7,2.1049068E7,6.4255375E-1,1.4999865E-1,2.1143112E7,4.7532144E-1,2.114344E7,1.2154138E2,3.3111572E-1,1.05953984E-1,-7.647298E-2],"split_indices":[0,0,0,0,0,0,0,3,0,0,0],"split_type":[0,0,0,0,0,0,0,0,0,0,0],"sum_hessian":[2.8E1,2.3E1,5E0,8E0,1.5E1,5E0,1E1,5E0,5E0,3E0,2E0],"tree_param":{"num_deleted":"0","num_feature":"9","num_nodes":"11","size_leaf_vector":"0"}},{"base_weights":[3.2335584E0,2.4347026E0,5.890055E0,1.8734185E0,7.672119E-1,2.8538818E0,7.974935E-1,8.839777E-1,2.5665283E0,-1.7016602E-1,4.9396157E-1,-7.137858E-2,1.3183458E0,4.2819092E-1,1.3283691E0,1.6645857E0,7.1004233E-3,1.5418498E-1,6.760559E-1,2.0875001E-1,4.0486655E-1,1.4352417E-1,-5.5419924E-3,-1.6902466E-1,2.2975464E-1],"categories":[],"categories_nodes":[],"categories_segments":[],"categories_sizes":[],"default_left":[true,true,true,true,false,true,false,true,true,false,false,false,true,false,true,true,false,false,true,false,true,false,false,false,false],"id":71,"left_children":[1,3,5,7,-1,9,-1,11,13,-1,-1,-1,15,-1,17,19,-1,-1,21,-1,23,-1,-1,-1,-1],"loss_changes":[4.7202057E1,5.6179214E1,1.5220825E1,1.350444E1,0E0,4.6412148E1,0E0,8.575209E0,2.1922928E1,0E0,0E0,0E0,3.7687216E0,0E0,2.1092892E-1,2.8841133E0,0E0,0E0,2.3008447E0,0E0,1.5779554E1,0E0,0E0,0E0,0E0],"parents":[2147483647,0,0,1,1,2,2,3,3,5,5,7,7,8,8,12,12,14,14,15,15,18,18,20,20],"right_children":[2,4,6,8,-1,10,-1,12,14,-1,-1,-1,16,-1,18,20,-1,-1,22,-1,24,-1,-1,-1,-1],"split_conditions":[2.1143692E7,2E-1,1.77E2,2.499213E1,7.672119E-1,2.499225E1,7.974935E-1,1.2154309E2,1.21E2,-1.7016602E-1,4.9396157E-1,-7.137858E-2,1.2154353E2,4.2819092E-1,1.74E2,3.62E2,7.1004233E-3,1.5418498E-1,2.1049068E7,2.0875001E-1,1.3E-1,1.4352417E-1,-5.5419924E-3,-1.6902466E-1,2.2975464E-1],"split_indices":[0,6,8,2,0,2,0,3,8,0,0,0,3,0,8,8,0,0,0,0,6,0,0,0,0],"split_type":[0,0,0,0,0,0,0,0,0,0,0,0,0,0,0,0,0,0,0,0,0,0,0,0,0],"sum_hessian":[2.8E1,2.3E1,5E0,2.2E1,1E0,3E0,2E0,1E1,1.2E1,1E0,2E0,2E0,8E0,4E0,8E0,6E0,2E0,5E0,3E0,4E0,2E0,1E0,2E0,1E0,1E0],"tree_param":{"num_deleted":"0","num_feature":"9","num_nodes":"25","size_leaf_vector":"0"}},{"base_weights":[3.0072358E0,2.2617645E0,5.487915E-1,1.7263184E0,7.288513E-1,8.142534E-1,2.365272E0,2.7444458E-1,1.6903077E-1,1.2124634E-1,2.9342195E-1,-4.7373047E-1,1.1410522E0,-1.233724E-2,-6.661784E-2,2.1826783E-1,6.628418E-3],"categories":[],"categories_nodes":[],"categories_segments":[],"categories_sizes":[],"default_left":[true,true,false,true,false,true,true,true,false,false,false,true,true,false,false,false,false],"id":72,"left_children":[1,3,-1,5,-1,7,9,11,-1,-1,-1,13,15,-1,-1,-1,-1],"loss_changes":[4.1216583E1,5.201499E1,0E0,1.1477707E1,0E0,4.738024E0,4.9689026E0,5.7275453E0,0E0,0E0,0E0,2.549405E-1,4.3333483E0,0E0,0E0,0E0,0E0],"parents":[2147483647,0,0,1,1,3,3,5,5,6,6,7,7,11,11,12,12],"right_children":[2,4,-1,6,-1,8,10,12,-1,-1,-1,14,16,-1,-1,-1,-1],"split_conditions":[2.1143692E7,2E-1,5.487915E-1,2.499213E1,7.288513E-1,2.114344E7,2.1049068E7,1.3E-1,1.6903077E-1,1.2124634E-1,2.9342195E-1,2.1049068E7,2.1049068E7,-1.233724E-2,-6.661784E-2,2.1826783E-1,6.628418E-3],"split_indices":[0,6,0,2,0,0,0,6,0,0,0,0,0,0,0,0,0],"split_type":[0,0,0,0,0,0,0,0,0,0,0,0,0,0,0,0,0],"sum_hessian":[2.8E1,2.3E1,5E0,2.2E1,1E0,1E1,1.2E1,7E0,3E0,5E0,7E0,4E0,3E0,2E0,2E0,1E0,2E0],"tree_param":{"num_deleted":"0","num_feature":"9","num_nodes":"17","size_leaf_vector":"0"}},{"base_weights":[2.7757316E0,2.0963695E0,5.030558E0,7.315267E-1,2.4170372E0,2.237854E0,7.077311E-1,-6.217448E-2,1.5635987E-1,1.1633707E0,3.2230337E0,-1.8909912E-1,4.2444664E-1,1.3603342E0,3.1599935E-2,3.86263E-1,2.0462646E0,8.1259765E-2,1.8197836E-1,3.2549438E-1,-2.4739584E-2],"categories":[],"categories_nodes":[],"categories_segments":[],"categories_sizes":[],"default_left":[true,true,true,true,true,true,false,false,false,true,true,false,false,true,false,false,true,false,false,false,false],"id":73,"left_children":[1,3,5,7,9,11,-1,-1,-1,13,15,-1,-1,17,-1,-1,19,-1,-1,-1,-1],"loss_changes":[3.3877563E1,8.735733E0,1.845787E1,7.7282743E0,1.5448975E1,4.1166214E1,0E0,0E0,0E0,1.0722456E0,3.7526703E-1,0E0,0E0,2.8284836E-1,0E0,0E0,1.7439058E1,0E0,0E0,0E0,0E0],"parents":[2147483647,0,0,1,1,2,2,3,3,4,4,5,5,9,9,10,10,13,13,16,16],"right_children":[2,4,6,8,10,12,-1,-1,-1,14,16,-1,-1,18,-1,-1,20,-1,-1,-1,-1],"split_conditions":[2.1143692E7,2.499162E1,1.77E2,2.114344E7,2.1049068E7,2.499225E1,7.077311E-1,-6.217448E-2,1.5635987E-1,3.62E2,2.1143112E7,-1.8909912E-1,4.2444664E-1,1.73E2,3.1599935E-2,3.86263E-1,1.74E2,8.1259765E-2,1.8197836E-1,3.2549438E-1,-2.4739584E-2],"split_indices":[0,2,8,0,0,2,0,0,0,8,0,0,0,8,0,0,8,0,0,0,0],"split_type":[0,0,0,0,0,0,0,0,0,0,0,0,0,0,0,0,0,0,0,0,0],"sum_hessian":[2.8E1,2.3E1,5E0,5E0,1.8E1,3E0,2E0,2E0,3E0,8E0,1E1,1E0,2E0,6E0,2E0,5E0,5E0,4E0,2E0,3E0,2E0],"tree_param":{"num_deleted":"0","num_feature":"9","num_nodes":"21","size_leaf_vector":"0"}},{"base_weights":[2.5677912E0,4.6846518E-1,1.9315847E0,6.74113E-1,2.2270186E0,1.4464112E-1,-5.8032226E-2,2.9632235E0,1.07976615E-1,6.552124E-2,3.7468264E-1],"categories":[],"categories_nodes":[],"categories_segments":[],"categories_sizes":[],"default_left":[true,false,true,true,true,false,false,true,false,false,false],"id":74,"left_children":[1,-1,3,5,7,-1,-1,9,-1,-1,-1],"loss_changes":[3.0007248E1,0E0,7.414734E0,6.6521726E0,1.2848061E1,0E0,0E0,1.743924E1,0E0,0E0,0E0],"parents":[2147483647,0,0,2,2,3,3,4,4,7,7],"right_children":[2,-1,4,6,8,-1,-1,10,-1,-1,-1],"split_conditions":[1E0,4.6846518E-1,2.499162E1,2.499147E1,4E0,1.4464112E-1,-5.8032226E-2,1.2154138E2,1.07976615E-1,6.552124E-2,3.7468264E-1],"split_indices":[5,0,2,2,5,0,0,3,0,0,0],"split_type":[0,0,0,0,0,0,0,0,0,0,0],"sum_hessian":[2.8E1,5E0,2.3E1,5E0,1.8E1,3E0,2E0,1E1,8E0,3E0,7E0],"tree_param":{"num_deleted":"0","num_feature":"9","num_nodes":"11","size_leaf_vector":"0"}},{"base_weights":[2.3490412E0,1.7648672E0,4.29423E-1,6.211751E-1,2.0331452E0,-5.416667E-2,1.3380127E-1,9.8373756E-2,2.7069204E0,6.060486E-2,3.4189913E-1],"categories":[],"categories_nodes":[],"categories_segments":[],"categories_sizes":[],"default_left":[true,true,false,true,true,false,false,false,true,false,false],"id":75,"left_children":[1,3,-1,5,7,-1,-1,-1,9,-1,-1],"loss_changes":[2.5374786E1,6.1009293E0,0E0,5.7261686E0,1.0771332E1,0E0,0E0,0E0,1.4383583E1,0E0,0E0],"parents":[2147483647,0,0,1,1,3,3,4,4,8,8],"right_children":[2,4,-1,6,8,-1,-1,-1,10,-1,-1],"split_conditions":[2.1143692E7,2.499162E1,4.29423E-1,2.114344E7,2.1049068E7,-5.416667E-2,1.3380127E-1,9.8373756E-2,1.2154138E2,6.060486E-2,3.4189913E-1],"split_indices":[0,2,0,0,0,0,0,0,3,0,0],"split_type":[0,0,0,0,0,0,0,0,0,0,0],"sum_hessian":[2.8E1,2.3E1,5E0,5E0,1.8E1,2E0,3E0,8E0,1E1,3E0,7E0],"tree_param":{"num_deleted":"0","num_feature":"9","num_nodes":"11","size_leaf_vector":"0"}},{"base_weights":[2.148968E0,1.7705252E0,6.3726807E-1,7.6161027E-1,3.2605202E0,-7.0729986E-2,1.2318202E0,1.2376709E-1,3.8643798E-1,8.9246625E-1,2.1786296E-1,-3.239746E-2,1.1681519E0,2.1547852E-1,8.191054E-2],"categories":[],"categories_nodes":[],"categories_segments":[],"categories_sizes":[],"default_left":[true,true,false,true,true,false,true,false,false,true,false,false,true,false,false],"id":76,"left_children":[1,3,-1,5,7,-1,9,-1,-1,11,-1,-1,13,-1,-1],"loss_changes":[3.5071564E1,3.960855E1,0E0,1.3303799E1,8.653854E0,0E0,2.5538979E0,0E0,0E0,4.402714E0,0E0,0E0,1.678813E0,0E0,0E0],"parents":[2147483647,0,0,1,1,3,3,4,4,6,6,9,9,12,12],"right_children":[2,4,-1,6,8,-1,10,-1,-1,12,-1,-1,14,-1,-1],"split_conditions":[2E-1,2.114344E7,6.3726807E-1,2.499208E1,2.499147E1,-7.0729986E-2,1.3E-1,1.2376709E-1,3.8643798E-1,2.499213E1,2.1786296E-1,-3.239746E-2,2.499279E1,2.1547852E-1,8.191054E-2],"split_indices":[6,0,0,2,2,0,6,0,0,2,0,0,2,0,0],"split_type":[0,0,0,0,0,0,0,0,0,0,0,0,0,0,0],"sum_hessian":[2.8E1,2.7E1,1E0,1.7E1,1E1,4E0,1.3E1,3E0,7E0,1.1E1,2E0,2E0,9E0,1E0,8E0],"tree_param":{"num_deleted":"0","num_feature":"9","num_nodes":"15","size_leaf_vector":"0"}},{"base_weights":[1.9878266E0,1.6263907E0,6.0540164E-1,7.083266E-1,2.9808238E0,9.142761E-1,-6.2618E-2,1.7268338E0,5.749186E-1,1.2733487E0,1.0359701E-1,2.8404715E0,-1.4472656E0,1.5244955E0,9.5458984E-2,3.1409913E-1,5.1867675E-2,-4.584147E-2,4.9920654E-1,2.677002E-2,-2.4385987E-1,4.8458863E-2,1.9636841E-1,-1.7023925E-1,1.8455811E-1,1.5527344E-1,-3.6954753E-2],"categories":[],"categories_nodes":[],"categories_segments":[],"categories_sizes":[],"default_left":[true,true,false,true,true,true,false,true,false,true,true,true,true,true,true,false,false,false,true,false,false,false,false,false,false,false,false],"id":77,"left_children":[1,3,-1,5,7,9,-1,11,-1,13,17,15,19,21,23,-1,-1,-1,25,-1,-1,-1,-1,-1,-1,-1,-1],"loss_changes":[3.2774147E1,3.2705383E1,0E0,5.51964E0,2.8258598E1,4.525567E0,0E0,3.592409E1,0E0,3.1085281E0,1.5628668E0,3.2550545E0,5.7531204E0,3.1588593E0,1.2581283E1,0E0,0E0,0E0,4.2348356E0,0E0,0E0,0E0,0E0,0E0,0E0,0E0,0E0],"parents":[2147483647,0,0,1,1,3,3,4,4,5,5,7,7,9,9,11,11,10,10,12,12,13,13,14,14,18,18],"right_children":[2,4,-1,6,8,10,-1,12,-1,14,18,16,20,22,24,-1,-1,-1,26,-1,-1,-1,-1,-1,-1,-1,-1],"split_conditions":[2E-1,2.114344E7,6.0540164E-1,1.8E-1,1.77E2,2.1143112E7,-6.2618E-2,1.76E2,5.749186E-1,3.62E2,1.21E2,1.74E2,2.1143692E7,5E0,1.3E-1,3.1409913E-1,5.1867675E-2,-4.584147E-2,1.74E2,2.677002E-2,-2.4385987E-1,4.8458863E-2,1.9636841E-1,-1.7023925E-1,1.8455811E-1,1.5527344E-1,-3.6954753E-2],"split_indices":[6,0,0,6,8,0,0,8,0,8,8,8,0,7,6,0,0,0,8,0,0,0,0,0,0,0,0],"split_type":[0,0,0,0,0,0,0,0,0,0,0,0,0,0,0,0,0,0,0,0,0,0,0,0,0,0,0],"sum_hessian":[2.8E1,2.7E1,1E0,1.7E1,1E1,1.5E1,2E0,8E0,2E0,1E1,5E0,6E0,2E0,8E0,2E0,5E0,1E0,2E0,3E0,1E0,1E0,3E0,5E0,1E0,1E0,1E0,2E0],"tree_param":{"num_deleted":"0","num_feature":"9","num_nodes":"27","size_leaf_vector":"0"}},{"base_weights":[1.8441373E0,1.4991891E0,5.751343E-1,6.524387E-1,2.7484908E0,-6.0734864E-2,1.05576E0,1.5706381E0,5.3658855E-1,2.0367432E-1,7.225342E-1,2.6086426E0,-1.3749186E0,4.6943805E-1,1.753296E-1,2.8791505E-1,4.9279787E-2,2.5427246E-2,-2.3166505E-1,8.3983153E-1,-1.6172485E-1,5.197754E-1,1.4133708E-1,8.654785E-1,-3.448893E-2,4.4853516E-2,1.4750977E-1],"categories":[],"categories_nodes":[],"categories_segments":[],"categories_sizes":[],"default_left":[true,true,false,true,true,false,true,true,false,false,true,true,true,true,false,false,false,false,false,true,false,true,false,true,false,false,false],"id":78,"left_children":[1,3,-1,5,7,-1,9,11,-1,-1,13,15,17,19,-1,-1,-1,-1,-1,21,-1,23,-1,25,-1,-1,-1],"loss_changes":[3.0463356E1,2.782648E1,0E0,9.786997E0,2.54841E1,0E0,3.1048288E0,3.1104183E1,0E0,0E0,2.307518E0,2.5876274E0,5.191843E0,9.860064E0,0E0,0E0,0E0,0E0,0E0,1.1010122E0,0E0,2.6898327E0,0E0,8.634267E-1,0E0,0E0,0E0],"parents":[2147483647,0,0,1,1,3,3,4,4,6,6,7,7,10,10,11,11,12,12,13,13,19,19,21,21,23,23],"right_children":[2,4,-1,6,8,-1,10,12,-1,-1,14,16,18,20,-1,-1,-1,-1,-1,22,-1,24,-1,26,-1,-1,-1],"split_conditions":[2E-1,2.114344E7,5.751343E-1,2.499208E1,1.77E2,-6.0734864E-2,1.21E2,1.76E2,5.3658855E-1,2.0367432E-1,1.3E-1,1.74E2,2.1143692E7,3.62E2,1.753296E-1,2.8791505E-1,4.9279787E-2,2.5427246E-2,-2.3166505E-1,1.8E2,-1.6172485E-1,1.74E2,1.4133708E-1,2.1049068E7,-3.448893E-2,4.4853516E-2,1.4750977E-1],"split_indices":[6,0,0,2,8,0,8,8,0,0,6,8,0,8,0,0,0,0,0,8,0,8,0,0,0,0,0],"split_type":[0,0,0,0,0,0,0,0,0,0,0,0,0,0,0,0,0,0,0,0,0,0,0,0,0,0,0],"sum_hessian":[2.8E1,2.7E1,1E0,1.7E1,1E1,4E0,1.3E1,8E0,2E0,2E0,1.1E1,6E0,2E0,1E1,1E0,5E0,1E0,1E0,1E0,9E0,1E0,7E0,2E0,5E0,2E0,4E0,1E0],"tree_param":{"num_deleted":"0","num_feature":"9","num_nodes":"27","size_leaf_vector":"0"}},{"base_weights":[1.7183164E0,1.3894174E0,5.463745E-1,6.1254203E-1,2.5343573E0,7.910919E-1,-5.439046E-2,1.5239665E-1,3.1223553E-1,5.226702E-1,1.7800294E-1,6.8586224E-1,-3.043213E-2,4.123979E-1,1.8469849E-1,6.43514E-2,1.1254883E-1,4.5928955E-2,-3.8728844E-2],"categories":[],"categories_nodes":[],"categories_segments":[],"categories_sizes":[],"default_left":[true,true,false,true,true,true,false,false,false,true,false,true,false,true,false,false,true,false,false],"id":79,"left_children":[1,3,-1,5,7,9,-1,-1,-1,11,-1,13,-1,15,-1,-1,17,-1,-1],"loss_changes":[2.8132751E1,2.3352913E1,0E0,4.14698E0,1.7768173E0,3.3168688E0,0E0,0E0,0E0,2.0981405E0,0E0,3.0486145E0,0E0,6.8987274E-1,0E0,0E0,1.217761E0,0E0,0E0],"parents":[2147483647,0,0,1,1,3,3,4,4,5,5,9,9,11,11,13,13,16,16],"right_children":[2,4,-1,6,8,10,-1,-1,-1,12,-1,14,-1,16,-1,-1,18,-1,-1],"split_conditions":[2E-1,2.114344E7,5.463745E-1,1.2154353E2,2.1143692E7,1.3E-1,-5.439046E-2,1.5239665E-1,3.1223553E-1,1.2154338E2,1.7800294E-1,1.2E-1,-3.043213E-2,2.1049068E7,1.8469849E-1,6.43514E-2,1.2154138E2,4.5928955E-2,-3.8728844E-2],"split_indices":[6,0,0,3,0,6,0,0,0,3,0,6,0,0,0,0,3,0,0],"split_type":[0,0,0,0,0,0,0,0,0,0,0,0,0,0,0,0,0,0,0],"sum_hessian":[2.8E1,2.7E1,1E0,1.7E1,1E1,1.5E1,2E0,5E0,5E0,1.3E1,2E0,1.1E1,2E0,1E1,1E0,5E0,5E0,3E0,2E0],"tree_param":{"num_deleted":"0","num_feature":"9","num_nodes":"19","size_leaf_vector":"0"}},{"base_weights":[1.5934091E0,1.2795628E0,5.190552E-1,5.707126E-1,2.3231757E0,7.372284E-1,-5.0760906E-2,1.2394477E0,4.7999674E-1,4.865374E-1,1.661377E-1,2.2197266E0,-1.4610189E0,7.579909E-1,-1.5211792E-1,2.4590252E-1,3.9196778E-2,1.6540527E-2,-2.3569337E-1,3.7767446E-1,1.899821E-1,-3.614909E-2,5.820991E-1,7.6049805E-1,1.6897583E-1,3.612305E-2,1.378418E-1,8.666382E-2,-3.524577E-2],"categories":[],"categories_nodes":[],"categories_segments":[],"categories_sizes":[],"default_left":[true,true,false,true,true,true,false,true,false,true,false,true,true,true,false,false,false,false,false,true,false,false,true,true,true,false,false,false,false],"id":80,"left_children":[1,3,-1,5,7,9,-1,11,-1,13,-1,15,17,19,-1,-1,-1,-1,-1,21,-1,-1,23,25,27,-1,-1,-1,-1],"loss_changes":[2.6097908E1,1.9387562E1,0E0,3.6062603E0,2.3576542E1,2.89849E0,0E0,2.7067955E1,0E0,8.783064E0,0E0,2.0978012E0,4.761261E0,4.9278235E0,0E0,0E0,0E0,0E0,0E0,1.8725629E0,0E0,0E0,5.3480124E-1,9.823656E-1,1.7605914E0,0E0,0E0,0E0,0E0],"parents":[2147483647,0,0,1,1,3,3,4,4,5,5,7,7,9,9,11,11,12,12,13,13,19,19,22,22,23,23,24,24],"right_children":[2,4,-1,6,8,10,-1,12,-1,14,-1,16,18,20,-1,-1,-1,-1,-1,22,-1,-1,24,26,28,-1,-1,-1,-1],"split_conditions":[2E-1,2.114344E7,5.190552E-1,1.2154353E2,1.77E2,1.3E-1,-5.0760906E-2,1.76E2,4.7999674E-1,3.62E2,1.661377E-1,1.74E2,2.1143692E7,1.2E-1,-1.5211792E-1,2.4590252E-1,3.9196778E-2,1.6540527E-2,-2.3569337E-1,1.21E2,1.899821E-1,-3.614909E-2,1.74E2,2.1049068E7,2.1049068E7,3.612305E-2,1.378418E-1,8.666382E-2,-3.524577E-2],"split_indices":[6,0,0,3,8,6,0,8,0,8,0,8,0,6,0,0,0,0,0,8,0,0,8,0,0,0,0,0,0],"split_type":[0,0,0,0,0,0,0,0,0,0,0,0,0,0,0,0,0,0,0,0,0,0,0,0,0,0,0,0,0],"sum_hessian":[2.8E1,2.7E1,1E0,1.7E1,1E1,1.5E1,2E0,8E0,2E0,1.3E1,2E0,6E0,2E0,1.2E1,1E0,5E0,1E0,1E0,1E0,1E1,2E0,2E0,8E0,5E0,3E0,4E0,1E0,1E0,2E0],"tree_param":{"num_deleted":"0","num_feature":"9","num_nodes":"29","size_leaf_vector":"0"}},{"base_weights":[1.4826071E0,1.1833409E0,4.9310303E-1,2.6594646E0,7.4681556E-1,6.292114E-1,4.4799805E-1,8.856201E-1,-4.737549E-2,-2.2391358E-1,2.3317058E-1,1.1370944E0,4.2397732E-1,1.4578451E-1,3.323242E-2,1.0357666E-1,1.4935914E-1,5.3126746E-1,-1.4451294E-1,-3.289388E-2,9.411377E-1,3.5294596E-2,1.2156168E-1],"categories":[],"categories_nodes":[],"categories_segments":[],"categories_sizes":[],"default_left":[true,true,false,true,true,true,false,true,false,false,false,true,true,false,false,true,false,true,false,false,true,false,false],"id":81,"left_children":[1,3,-1,5,7,9,-1,11,-1,-1,-1,13,15,-1,-1,17,-1,19,-1,-1,21,-1,-1],"loss_changes":[2.4092804E1,1.6056099E1,0E0,1.9357796E1,4.316243E0,2.4754385E1,0E0,1.9558144E0,0E0,0E0,0E0,2.8712196E0,2.9296439E0,0E0,0E0,6.0666885E0,0E0,2.7775874E0,0E0,0E0,3.781848E-1,0E0,0E0],"parents":[2147483647,0,0,1,1,3,3,4,4,5,5,7,7,11,11,12,12,15,15,17,17,20,20],"right_children":[2,4,-1,6,8,10,-1,12,-1,-1,-1,14,16,-1,-1,18,-1,20,-1,-1,22,-1,-1],"split_conditions":[2E-1,1E0,4.9310303E-1,1.77E2,1.2154353E2,1.2154175E2,4.4799805E-1,1.74E2,-4.737549E-2,-2.2391358E-1,2.3317058E-1,4E0,1.3E-1,1.4578451E-1,3.323242E-2,3.62E2,1.4935914E-1,1.2154138E2,-1.4451294E-1,-3.289388E-2,3E0,3.5294596E-2,1.2156168E-1],"split_indices":[6,5,0,8,3,3,0,8,0,0,0,5,6,0,0,8,0,3,0,0,5,0,0],"split_type":[0,0,0,0,0,0,0,0,0,0,0,0,0,0,0,0,0,0,0,0,0,0,0],"sum_hessian":[2.8E1,2.7E1,1E0,5E0,2.2E1,3E0,2E0,2E1,2E0,1E0,2E0,1.2E1,8E0,8E0,4E0,7E0,1E0,6E0,1E0,2E0,4E0,2E0,2E0],"tree_param":{"num_deleted":"0","num_feature":"9","num_nodes":"23","size_leaf_vector":"0"}},{"base_weights":[1.3760945E0,1.0453491E0,2.4697267E-1,8.1171525E-1,2.0105897E-1,3.90625E-1,1.0407996E0,-4.345703E-2,6.8847656E-2,3.143921E-2,1.2272828E0,3.88031E-2,1.5315291E0,5.987549E-2,1.7848878E-1],"categories":[],"categories_nodes":[],"categories_segments":[],"categories_sizes":[],"default_left":[true,true,false,true,false,true,true,false,false,false,true,false,true,false,false],"id":82,"left_children":[1,3,-1,5,-1,7,9,-1,-1,-1,11,-1,13,-1,-1],"loss_changes":[7.9079704E0,3.780283E0,0E0,1.6192064E0,0E0,2.511263E0,1.3751669E0,0E0,0E0,0E0,1.9591112E0,0E0,5.855751E-1,0E0,0E0],"parents":[2147483647,0,0,1,1,3,3,5,5,6,6,10,10,12,12],"right_children":[2,4,-1,6,-1,8,10,-1,-1,-1,12,-1,14,-1,-1],"split_conditions":[2.1143692E7,1.2154353E2,2.4697267E-1,2.499213E1,2.0105897E-1,1.2154309E2,5E0,-4.345703E-2,6.8847656E-2,3.143921E-2,1.2154138E2,3.88031E-2,2.1049068E7,5.987549E-2,1.7848878E-1],"split_indices":[0,3,0,2,0,3,7,0,0,0,3,0,0,0,0],"split_type":[0,0,0,0,0,0,0,0,0,0,0,0,0,0,0],"sum_hessian":[2.8E1,2.3E1,5E0,2E1,3E0,8E0,1.2E1,2E0,6E0,3E0,9E0,3E0,6E0,2E0,4E0],"tree_param":{"num_deleted":"0","num_feature":"9","num_nodes":"15","size_leaf_vector":"0"}},{"base_weights":[1.2654271E0,9.8319787E-1,4.5839235E-1,4.1274685E-1,1.8272816E0,5.7238007E-1,-5.762126E-2,1.0861816E-1,2.2638348E-1,3.6062187E-1,1.3697916E-1,5.0445557E-1,-3.3492025E-2,2.780318E-1,1.4975587E-1,4.7324624E-2,3.647868E-2,3.5891723E-2,-4.05599E-2],"categories":[],"categories_nodes":[],"categories_segments":[],"categories_sizes":[],"default_left":[true,true,false,true,true,true,false,false,false,true,false,true,false,true,false,false,true,false,false],"id":83,"left_children":[1,3,-1,5,7,9,-1,-1,-1,11,-1,13,-1,15,-1,-1,17,-1,-1],"loss_changes":[2.265382E1,1.2728031E1,0E0,3.1714861E0,1.0998878E0,2.207759E0,0E0,0E0,0E0,1.5695459E0,0E0,2.281977E0,0E0,5.0143796E-1,0E0,0E0,1.0008337E0,0E0,0E0],"parents":[2147483647,0,0,1,1,3,3,4,4,5,5,9,9,11,11,13,13,16,16],"right_children":[2,4,-1,6,8,10,-1,-1,-1,12,-1,14,-1,16,-1,-1,18,-1,-1],"split_conditions":[2E-1,2.114344E7,4.5839235E-1,1.2154353E2,2.1143692E7,1.3E-1,-5.762126E-2,1.0861816E-1,2.2638348E-1,1.2154338E2,1.3697916E-1,1.2E-1,-3.3492025E-2,2.1049068E7,1.4975587E-1,4.7324624E-2,1.2154138E2,3.5891723E-2,-4.05599E-2],"split_indices":[6,0,0,3,0,6,0,0,0,3,0,6,0,0,0,0,3,0,0],"split_type":[0,0,0,0,0,0,0,0,0,0,0,0,0,0,0,0,0,0,0],"sum_hessian":[2.8E1,2.7E1,1E0,1.7E1,1E1,1.5E1,2E0,5E0,5E0,1.3E1,2E0,1.1E1,2E0,1E1,1E0,5E0,5E0,3E0,2E0],"tree_param":{"num_deleted":"0","num_feature":"9","num_nodes":"19","size_leaf_vector":"0"}},{"base_weights":[1.1744553E0,9.053475E-1,4.3547365E-1,3.8469103E-1,1.6750267E0,-5.498291E-2,6.909703E-1,7.586806E-1,3.8657227E-1,1.3496093E-1,4.6872965E-1,1.63637E0,-1.5421549E0,2.7207252E-1,1.315979E-1,1.8204753E-1,2.6586914E-2,5.065918E-3,-2.3638916E-1,5.773926E-1,-1.390564E-1,3.1411743E-1,1.0869955E-1,5.972493E-1,-3.5685223E-2,2.369873E-2,1.1992798E-1],"categories":[],"categories_nodes":[],"categories_segments":[],"categories_sizes":[],"default_left":[true,true,false,true,true,false,true,true,false,false,true,true,true,true,false,false,false,false,false,true,false,true,false,true,false,false,false],"id":84,"left_children":[1,3,-1,5,7,-1,9,11,-1,-1,13,15,17,19,-1,-1,-1,-1,-1,21,-1,23,-1,25,-1,-1,-1],"loss_changes":[2.0876759E1,1.0576309E1,0E0,5.5319505E0,1.9148947E1,0E0,1.416667E0,2.0698307E1,0E0,0E0,1.6413698E0,1.2822075E0,4.0463743E0,6.3869E0,0E0,0E0,0E0,0E0,0E0,1.0002136E0,0E0,1.732913E0,0E0,1.0171182E0,0E0,0E0,0E0],"parents":[2147483647,0,0,1,1,3,3,4,4,6,6,7,7,10,10,11,11,12,12,13,13,19,19,21,21,23,23],"right_children":[2,4,-1,6,8,-1,10,12,-1,-1,14,16,18,20,-1,-1,-1,-1,-1,22,-1,24,-1,26,-1,-1,-1],"split_conditions":[2E-1,2.114344E7,4.3547365E-1,2.499208E1,1.77E2,-5.498291E-2,1.21E2,1.76E2,3.8657227E-1,1.3496093E-1,1.3E-1,1.74E2,2.1143692E7,3.62E2,1.315979E-1,1.8204753E-1,2.6586914E-2,5.065918E-3,-2.3638916E-1,1.8E2,-1.390564E-1,1.74E2,1.0869955E-1,2.1049068E7,-3.5685223E-2,2.369873E-2,1.1992798E-1],"split_indices":[6,0,0,2,8,0,8,8,0,0,6,8,0,8,0,0,0,0,0,8,0,8,0,0,0,0,0],"split_type":[0,0,0,0,0,0,0,0,0,0,0,0,0,0,0,0,0,0,0,0,0,0,0,0,0,0,0],"sum_hessian":[2.8E1,2.7E1,1E0,1.7E1,1E1,4E0,1.3E1,8E0,2E0,2E0,1.1E1,6E0,2E0,1E1,1E0,5E0,1E0,1E0,1E0,9E0,1E0,7E0,2E0,5E0,2E0,4E0,1E0],"tree_param":{"num_deleted":"0","num_feature":"9","num_nodes":"27","size_leaf_vector":"0"}},{"base_weights":[1.0945287E0,8.381173E-1,4.137024E-1,3.6227757E-1,1.5405717E0,-5.058838E-2,6.464582E-1,5.2557375E-2,1.8554993E-1,4.5679727E-1,1.1896159E-1,-3.0249024E-2,6.389038E-1,1.3551636E-1,4.0874567E-2],"categories":[],"categories_nodes":[],"categories_segments":[],"categories_sizes":[],"default_left":[true,true,false,true,true,false,true,false,false,true,false,false,true,false,false],"id":85,"left_children":[1,3,-1,5,7,-1,9,-1,-1,11,-1,-1,13,-1,-1],"loss_changes":[1.9156471E1,8.801044E0,0E0,4.7678967E0,2.5409584E0,0E0,8.98808E-1,0E0,0E0,1.8525164E0,0E0,0E0,1.0946131E0,0E0,0E0],"parents":[2147483647,0,0,1,1,3,3,4,4,6,6,9,9,12,12],"right_children":[2,4,-1,6,8,-1,10,-1,-1,12,-1,-1,14,-1,-1],"split_conditions":[2E-1,2.114344E7,4.137024E-1,2.499208E1,2.499147E1,-5.058838E-2,1.3E-1,5.2557375E-2,1.8554993E-1,2.499213E1,1.1896159E-1,-3.0249024E-2,2.499279E1,1.3551636E-1,4.0874567E-2],"split_indices":[6,0,0,2,2,0,6,0,0,2,0,0,2,0,0],"split_type":[0,0,0,0,0,0,0,0,0,0,0,0,0,0,0],"sum_hessian":[2.8E1,2.7E1,1E0,1.7E1,1E1,4E0,1.3E1,3E0,7E0,1.1E1,2E0,2E0,9E0,1E0,8E0],"tree_param":{"num_deleted":"0","num_feature":"9","num_nodes":"15","size_leaf_vector":"0"}},{"base_weights":[1.0149431E0,5.08108E-1,1.7981179E0,-6.0046387E-1,1.2048136E0,-3.6035158E-2,2.3178167E0,1.7000325E-1,-1.9412435E0,1.8532714E-2,1.691391E-1,5.6052244E-1,3.611548E-1,-3.0826822E-2,4.8620605E-1,-5.7336427E-2,-2.338501E-1,1.011027E-1,-7.6822913E-3,6.337077E-2,2.1850585E-3],"categories":[],"categories_nodes":[],"categories_segments":[],"categories_sizes":[],"default_left":[true,true,true,true,true,false,true,true,true,false,false,true,false,false,true,false,false,false,false,false,false],"id":86,"left_children":[1,3,5,7,9,-1,11,13,15,-1,-1,17,-1,-1,19,-1,-1,-1,-1,-1,-1],"loss_changes":[1.0597631E1,1.5398064E1,1.317453E1,8.594231E0,5.639248E0,0E0,1.8436848E1,1.0572666E0,2.8938866E-1,0E0,0E0,1.513305E0,0E0,0E0,2.6012582E-1,0E0,0E0,0E0,0E0,0E0,0E0],"parents":[2147483647,0,0,1,1,2,2,3,3,4,4,6,6,7,7,8,8,11,11,14,14],"right_children":[2,4,6,8,10,-1,12,14,16,-1,-1,18,-1,-1,20,-1,-1,-1,-1,-1,-1],"split_conditions":[1.77E2,2.499225E1,1.2154138E2,2.499162E1,2.1049068E7,-3.6035158E-2,2.1049068E7,2.114344E7,2.1143112E7,1.8532714E-2,1.691391E-1,3.62E2,3.611548E-1,-3.0826822E-2,1.76E2,-5.7336427E-2,-2.338501E-1,1.011027E-1,-7.6822913E-3,6.337077E-2,2.1850585E-3],"split_indices":[8,2,3,2,0,0,0,0,0,0,0,8,0,0,8,0,0,0,0,0,0],"split_type":[0,0,0,0,0,0,0,0,0,0,0,0,0,0,0,0,0,0,0,0,0],"sum_hessian":[2.8E1,1.8E1,1E1,7E0,1.1E1,2E0,8E0,5E0,2E0,4E0,7E0,4E0,4E0,2E0,3E0,1E0,1E0,2E0,2E0,2E0,1E0],"tree_param":{"num_deleted":"0","num_feature":"9","num_nodes":"21","size_leaf_vector":"0"}},{"base_weights":[9.25495E-1,4.5365182E-1,1.656361E0,-5.7247925E-1,1.0999349E0,2.2577362E0,3.9520264E-2,1.5877278E-1,-1.8441569E0,3.6218262E-1,3.322632E-1,1.704834E-2,1.5433502E-1,5.8355715E-2,-3.363444E-2,-2.8767904E-2,4.5391846E-1,8.319092E-2,-7.1695964E-3,-5.4467775E-2,-2.2215576E-1,5.9138995E-2,2.0751953E-3],"categories":[],"categories_nodes":[],"categories_segments":[],"categories_sizes":[],"default_left":[true,true,true,true,true,true,true,true,true,true,false,false,false,false,false,false,true,false,false,false,false,false,false],"id":87,"left_children":[1,3,5,7,11,9,13,15,19,17,-1,-1,-1,-1,-1,-1,21,-1,-1,-1,-1,-1,-1],"loss_changes":[9.249357E0,1.322994E1,1.0606384E1,7.732137E0,4.682481E0,1.4945133E1,1.0142131E0,9.211927E-1,2.6124E-1,8.7486166E-1,0E0,0E0,0E0,0E0,0E0,0E0,2.2591972E-1,0E0,0E0,0E0,0E0,0E0,0E0],"parents":[2147483647,0,0,1,1,2,2,3,3,5,5,4,4,6,6,7,7,9,9,8,8,16,16],"right_children":[2,4,6,8,12,10,14,16,20,18,-1,-1,-1,-1,-1,-1,22,-1,-1,-1,-1,-1,-1],"split_conditions":[1.77E2,2.499225E1,2.499225E1,2.499162E1,2.1049068E7,2.1049068E7,2.1049068E7,2.114344E7,2.1143112E7,3.62E2,3.322632E-1,1.704834E-2,1.5433502E-1,5.8355715E-2,-3.363444E-2,-2.8767904E-2,1.76E2,8.319092E-2,-7.1695964E-3,-5.4467775E-2,-2.2215576E-1,5.9138995E-2,2.0751953E-3],"split_indices":[8,2,2,2,0,0,0,0,0,8,0,0,0,0,0,0,8,0,0,0,0,0,0],"split_type":[0,0,0,0,0,0,0,0,0,0,0,0,0,0,0,0,0,0,0,0,0,0,0],"sum_hessian":[2.8E1,1.8E1,1E1,7E0,1.1E1,7E0,3E0,5E0,2E0,3E0,4E0,4E0,7E0,1E0,2E0,2E0,3E0,1E0,2E0,1E0,1E0,2E0,1E0],"tree_param":{"num_deleted":"0","num_feature":"9","num_nodes":"23","size_leaf_vector":"0"}},{"base_weights":[8.453748E-1,4.0446392E-1,1.5300959E0,-5.4574585E-1,1.0042318E0,-3.1388346E-2,1.974745E0,1.4831543E-1,-1.7519531E0,1.4083405E-1,1.5681153E-2,3.0568117E-1,4.9772948E-1,4.2382812E-1,-2.684733E-2,-5.1745605E-2,-2.1104737E-1,8.9644365E-2,-6.689453E-3,6.629639E-2,1.2312826E-2],"categories":[],"categories_nodes":[],"categories_segments":[],"categories_sizes":[],"default_left":[true,true,true,true,true,false,true,true,true,false,false,false,true,true,false,false,false,false,false,false,false],"id":88,"left_children":[1,3,5,7,9,-1,11,13,15,-1,-1,-1,17,19,-1,-1,-1,-1,-1,-1,-1],"loss_changes":[8.136261E0,1.1376255E1,9.639004E0,6.9572954E0,3.8885555E0,0E0,1.2862595E1,8.0277E-1,2.357006E-1,0E0,0E0,0E0,1.1855853E0,2.0600271E-1,0E0,0E0,0E0,0E0,0E0,0E0,0E0],"parents":[2147483647,0,0,1,1,2,2,3,3,4,4,6,6,7,7,8,8,12,12,13,13],"right_children":[2,4,6,8,10,-1,12,14,16,-1,-1,-1,18,20,-1,-1,-1,-1,-1,-1,-1],"split_conditions":[1.77E2,2.499225E1,1.2154138E2,2.499162E1,2.499309E1,-3.1388346E-2,4E0,2.499147E1,2.499208E1,1.4083405E-1,1.5681153E-2,3.0568117E-1,3.62E2,1.74E2,-2.684733E-2,-5.1745605E-2,-2.1104737E-1,8.9644365E-2,-6.689453E-3,6.629639E-2,1.2312826E-2],"split_indices":[8,2,3,2,2,0,5,2,2,0,0,0,8,8,0,0,0,0,0,0,0],"split_type":[0,0,0,0,0,0,0,0,0,0,0,0,0,0,0,0,0,0,0,0,0],"sum_hessian":[2.8E1,1.8E1,1E1,7E0,1.1E1,2E0,8E0,5E0,2E0,7E0,4E0,4E0,4E0,3E0,2E0,1E0,1E0,2E0,2E0,1E0,2E0],"tree_param":{"num_deleted":"0","num_feature":"9","num_nodes":"21","size_leaf_vector":"0"}},{"base_weights":[7.712823E-1,5.53785E-1,3.430603E-1,3.105628E-1,1.3938395E0,4.467134E-1,-7.460124E-2,-2.3010254E-2,2.8183594E-1,3.4173262E-1,9.626872E-1,1.3059896E-1,-2.0050049E-1,5.0461835E-1,-1.295105E-1,1.20147705E-1,2.425537E-2,3.426056E-1,1.2004801E-1,1.7123136E-1,5.9969074E-1,-2.5056968E-2,2.92806E-1,8.1329346E-2,1.1499024E-2,4.1583252E-1,3.5064697E-2,1.4431152E-2,8.867188E-2,5.0958253E-2,-2.9296875E-2],"categories":[],"categories_nodes":[],"categories_segments":[],"categories_sizes":[],"default_left":[true,true,false,true,true,true,false,true,false,true,true,false,false,true,false,false,false,true,false,true,true,false,true,false,false,true,true,false,false,false,false],"id":89,"left_children":[1,3,-1,5,7,9,-1,11,-1,13,15,-1,-1,17,-1,-1,-1,19,-1,21,23,-1,25,-1,-1,27,29,-1,-1,-1,-1],"loss_changes":[1.4873636E1,5.288084E0,0E0,3.6418805E0,1.2174834E1,8.085327E-1,0E0,1.3154798E1,0E0,5.719265E0,2.2445893E-1,0E0,0E0,1.6180015E0,0E0,0E0,0E0,6.022384E-1,0E0,6.3745165E-1,5.2767944E-1,0E0,2.708001E-1,0E0,0E0,6.391692E-1,7.719226E-1,0E0,0E0,0E0,0E0],"parents":[2147483647,0,0,1,1,3,3,4,4,5,5,7,7,9,9,10,10,13,13,17,17,19,19,20,20,22,22,25,25,26,26],"right_children":[2,4,-1,6,8,10,-1,12,-1,14,16,-1,-1,18,-1,-1,-1,20,-1,22,24,-1,26,-1,-1,28,30,-1,-1,-1,-1],"split_conditions":[2E-1,2.1143692E7,3.430603E-1,1.8E-1,1.77E2,1.3E-1,-7.460124E-2,1.21E2,2.8183594E-1,3.62E2,2.1049068E7,1.3059896E-1,-2.0050049E-1,1.2E-1,-1.295105E-1,1.20147705E-1,2.425537E-2,2.114344E7,1.2004801E-1,1.21E2,1.74E2,-2.5056968E-2,1.74E2,8.1329346E-2,1.1499024E-2,2.1049068E7,2.1049068E7,1.4431152E-2,8.867188E-2,5.0958253E-2,-2.9296875E-2],"split_indices":[6,0,0,6,8,6,0,8,0,8,0,0,0,6,0,0,0,0,0,8,8,0,8,0,0,0,0,0,0,0,0],"split_type":[0,0,0,0,0,0,0,0,0,0,0,0,0,0,0,0,0,0,0,0,0,0,0,0,0,0,0,0,0,0,0],"sum_hessian":[2.8E1,2.7E1,1E0,2.2E1,5E0,2E1,2E0,3E0,2E0,1.8E1,2E0,2E0,1E0,1.7E1,1E0,1E0,1E0,1.5E1,2E0,1E1,5E0,2E0,8E0,3E0,2E0,5E0,3E0,4E0,1E0,1E0,2E0],"tree_param":{"num_deleted":"0","num_feature":"9","num_nodes":"31","size_leaf_vector":"0"}},{"base_weights":[7.220291E-1,3.3517295E-1,1.324596E0,5.977783E-1,-1.2646484E0,-2.734375E-2,1.7100966E0,-2.0935059E-2,8.5732013E-1,7.8125E-4,-1.9047852E-1,4.3227538E-1,2.6458985E-1,-4.0255737E-2,4.9487304E-2,1.3278809E-2,1.20298766E-1,7.7974446E-2,-5.928548E-3],"categories":[],"categories_nodes":[],"categories_segments":[],"categories_sizes":[],"default_left":[true,true,true,true,true,false,true,true,true,false,false,true,false,false,false,false,false,false,false],"id":90,"left_children":[1,3,5,7,9,-1,11,13,15,-1,-1,17,-1,-1,-1,-1,-1,-1,-1],"loss_changes":[6.316127E0,8.738291E0,7.244074E0,2.7478414E0,2.458528E0,0E0,9.61833E0,1.3802781E0,2.845624E0,0E0,0E0,9.002385E-1,0E0,0E0,0E0,0E0,0E0,0E0,0E0],"parents":[2147483647,0,0,1,1,2,2,3,3,4,4,6,6,7,7,8,8,11,11],"right_children":[2,4,6,8,10,-1,12,14,16,-1,-1,18,-1,-1,-1,-1,-1,-1,-1],"split_conditions":[1.77E2,1.76E2,1.2154138E2,2.499208E1,2.1143692E7,-2.734375E-2,2.1049068E7,2.114344E7,2.1049068E7,7.8125E-4,-1.9047852E-1,3.62E2,2.6458985E-1,-4.0255737E-2,4.9487304E-2,1.3278809E-2,1.20298766E-1,7.7974446E-2,-5.928548E-3],"split_indices":[8,8,3,2,0,0,0,0,0,0,0,8,0,0,0,0,0,0,0],"split_type":[0,0,0,0,0,0,0,0,0,0,0,0,0,0,0,0,0,0,0],"sum_hessian":[2.8E1,1.8E1,1E1,1.6E1,2E0,2E0,8E0,5E0,1.1E1,1E0,1E0,4E0,4E0,3E0,2E0,4E0,7E0,2E0,2E0],"tree_param":{"num_deleted":"0","num_feature":"9","num_nodes":"19","size_leaf_vector":"0"}},{"base_weights":[6.588598E-1,4.5904976E-1,3.12677E-1,5.8333176E-1,-7.710775E-2,3.8130698E-1,1.1931967E-1,2.8305537E-1,8.7646484E-1,-4.7805786E-2,4.800415E-1,1.1444092E-1,1.7028809E-2,-3.565674E-2,3.5009768E-2,9.351196E-2,3.536599E-2],"categories":[],"categories_nodes":[],"categories_segments":[],"categories_sizes":[],"default_left":[true,true,false,true,false,true,false,true,true,true,true,false,false,false,false,false,false],"id":91,"left_children":[1,3,-1,5,-1,7,-1,9,11,13,15,-1,-1,-1,-1,-1,-1],"loss_changes":[1.2864938E1,4.7305083E0,0E0,2.7484293E0,0E0,7.735629E-1,0E0,1.2612749E0,3.7276888E-1,1.1076918E0,3.5944772E-1,0E0,0E0,0E0,0E0,0E0,0E0],"parents":[2147483647,0,0,1,1,3,3,5,5,7,7,8,8,9,9,10,10],"right_children":[2,4,-1,6,-1,8,-1,10,12,14,16,-1,-1,-1,-1,-1,-1],"split_conditions":[2E-1,1.8E-1,3.12677E-1,2.1143692E7,-7.710775E-2,1.3E-1,1.1931967E-1,2.499213E1,2.1049068E7,2.114344E7,2.499279E1,1.1444092E-1,1.7028809E-2,-3.565674E-2,3.5009768E-2,9.351196E-2,3.536599E-2],"split_indices":[6,6,0,0,0,6,0,2,0,0,2,0,0,0,0,0,0],"split_type":[0,0,0,0,0,0,0,0,0,0,0,0,0,0,0,0,0],"sum_hessian":[2.8E1,2.7E1,1E0,2.5E1,2E0,2E1,5E0,1.8E1,2E0,7E0,1.1E1,1E0,1E0,4E0,3E0,1E0,1E1],"tree_param":{"num_deleted":"0","num_feature":"9","num_nodes":"17","size_leaf_vector":"0"}},{"base_weights":[6.1415255E-1,4.5213318E-1,1.15987144E-1,2.9068756E-1,6.889106E-2,-1.8326825E-2,3.7148613E-1,5.3068038E-2,2.240804E-2],"categories":[],"categories_nodes":[],"categories_segments":[],"categories_sizes":[],"default_left":[true,true,false,true,false,false,true,false,false],"id":92,"left_children":[1,3,-1,5,-1,-1,7,-1,-1],"loss_changes":[2.0396786E0,7.1718216E-1,0E0,6.808007E-1,0E0,0E0,2.096107E-1,0E0,0E0],"parents":[2147483647,0,0,1,1,3,3,6,6],"right_children":[2,4,-1,6,-1,-1,8,-1,-1],"split_conditions":[1.2154353E2,2.114344E7,1.15987144E-1,2.499162E1,6.889106E-2,-1.8326825E-2,2.499279E1,5.3068038E-2,2.240804E-2],"split_indices":[3,0,0,2,0,0,2,0,0],"split_type":[0,0,0,0,0,0,0,0,0],"sum_hessian":[2.8E1,2.3E1,5E0,1.5E1,8E0,2E0,1.3E1,5E0,8E0],"tree_param":{"num_deleted":"0","num_feature":"9","num_nodes":"9","size_leaf_vector":"0"}},{"base_weights":[5.6107724E-1,3.7308174E-1,2.9124758E-1,4.9373686E-1,-7.9695635E-2,1.0206299E0,3.196847E-1,-2.1551514E-1,2.3286133E-1,2.2746196E-1,7.972005E-1,-1.9036865E-1,9.817708E-2,3.774414E-1,-1.236084E-1,1.06060795E-1,1.3519287E-2,2.3717499E-1,9.997152E-2,