{"learner":{"attributes":{"scikit_learn":"{\"n_estimators\": 500, \"objective\": \"reg:squarederror\", \"max_depth\": 10, \"learning_rate\": 0.1, \"verbosity\": null, \"booster\": null, \"tree_method\": \"gpu_hist\", \"gamma\": 0.2, \"min_child_weight\": null, \"max_delta_step\": null, \"subsample\": null, \"colsample_bytree\": 0.7, \"colsample_bylevel\": null, \"colsample_bynode\": null, \"reg_alpha\": null, \"reg_lambda\": null, \"scale_pos_weight\": null, \"base_score\": null, \"missing\": NaN, \"num_parallel_tree\": null, \"kwargs\": {}, \"random_state\": 4, \"n_jobs\": null, \"monotone_constraints\": null, \"interaction_constraints\": null, \"importance_type\": \"gain\", \"gpu_id\": 0, \"validate_parameters\": null, \"_estimator_type\": \"regressor\"}"},"feature_names":["id","host_id","latitude","longitude","minimum_nights","number_of_reviews","reviews_per_month","calculated_host_listings_count","availability_365"],"feature_types":["int","int","float","float","int","int","float","int","int"],"gradient_booster":{"model":{"gbtree_model_param":{"num_trees":"500","size_leaf_vector":"0"},"tree_info":[0,0,0,0,0,0,0,0,0,0,0,0,0,0,0,0,0,0,0,0,0,0,0,0,0,0,0,0,0,0,0,0,0,0,0,0,0,0,0,0,0,0,0,0,0,0,0,0,0,0,0,0,0,0,0,0,0,0,0,0,0,0,0,0,0,0,0,0,0,0,0,0,0,0,0,0,0,0,0,0,0,0,0,0,0,0,0,0,0,0,0,0,0,0,0,0,0,0,0,0,0,0,0,0,0,0,0,0,0,0,0,0,0,0,0,0,0,0,0,0,0,0,0,0,0,0,0,0,0,0,0,0,0,0,0,0,0,0,0,0,0,0,0,0,0,0,0,0,0,0,0,0,0,0,0,0,0,0,0,0,0,0,0,0,0,0,0,0,0,0,0,0,0,0,0,0,0,0,0,0,0,0,0,0,0,0,0,0,0,0,0,0,0,0,0,0,0,0,0,0,0,0,0,0,0,0,0,0,0,0,0,0,0,0,0,0,0,0,0,0,0,0,0,0,0,0,0,0,0,0,0,0,0,0,0,0,0,0,0,0,0,0,0,0,0,0,0,0,0,0,0,0,0,0,0,0,0,0,0,0,0,0,0,0,0,0,0,0,0,0,0,0,0,0,0,0,0,0,0,0,0,0,0,0,0,0,0,0,0,0,0,0,0,0,0,0,0,0,0,0,0,0,0,0,0,0,0,0,0,0,0,0,0,0,0,0,0,0,0,0,0,0,0,0,0,0,0,0,0,0,0,0,0,0,0,0,0,0,0,0,0,0,0,0,0,0,0,0,0,0,0,0,0,0,0,0,0,0,0,0,0,0,0,0,0,0,0,0,0,0,0,0,0,0,0,0,0,0,0,0,0,0,0,0,0,0,0,0,0,0,0,0,0,0,0,0,0,0,0,0,0,0,0,0,0,0,0,0,0,0,0,0,0,0,0,0,0,0,0,0,0,0,0,0,0,0,0,0,0,0,0,0,0,0,0,0,0,0,0,0,0,0,0,0,0,0,0,0,0,0,0,0,0,0,0,0,0,0,0,0,0,0,0,0,0,0,0,0,0,0,0,0,0,0,0,0,0,0,0,0,0,0,0,0,0,0,0,0,0,0,0,0,0,0,0,0,0,0,0,0],"trees":[{"base_weights":[2.055943E3,3.045625E3,1.312618E3,3.3248936E3,3.5041668E1,3.574111E2,9.7408594E2,3.7116608E2,2.617175E2,1.4963383E3,3.69871E1,1.1040952E2,1.9778214E3,1.3092858E3,2.3155625E3,1.4459166E2,2.4475E1,2.64075E2,8.933333E2,1.09525E2,2.4475E1],"categories":[],"categories_nodes":[],"categories_segments":[],"categories_sizes":[],"default_left":[true,true,true,true,false,false,true,false,false,true,false,false,true,true,true,false,false,false,true,false,false],"id":0,"left_children":[1,3,5,7,-1,-1,9,-1,-1,11,-1,-1,13,15,17,-1,-1,-1,19,-1,-1],"loss_changes":[8.648784E7,3.7974624E7,5.1640856E7,3.15088E6,0E0,0E0,1.9641916E7,0E0,0E0,4.237488E6,0E0,0E0,1.29352E5,6.64251E5,1.34086E6,0E0,0E0,0E0,1.2481675E5,0E0,0E0],"parents":[2147483647,0,0,1,1,2,2,3,3,6,6,9,9,12,12,13,13,14,14,18,18],"right_children":[2,4,6,8,-1,-1,10,-1,-1,12,-1,-1,14,16,18,-1,-1,-1,20,-1,-1],"split_conditions":[1.3E1,1.2155616E2,1.2152877E2,1.2154764E2,3.5041668E1,3.574111E2,3.6E-1,3.7116608E2,2.617175E2,1.5002076E7,3.69871E1,1.1040952E2,1.47E2,2E-2,2.14E2,1.4459166E2,2.4475E1,2.64075E2,2.937753E7,1.09525E2,2.4475E1],"split_indices":[7,3,3,3,0,0,6,0,0,0,0,0,8,6,8,0,0,0,0,0,0],"split_type":[0,0,0,0,0,0,0,0,0,0,0,0,0,0,0,0,0,0,0,0,0],"sum_hessian":[1.22E2,5.1E1,7.1E1,4.6E1,5E0,8E0,6.3E1,2.7E1,1.9E1,3.3E1,3E1,2E1,1.3E1,6E0,7E0,5E0,1E0,5E0,2E0,1E0,1E0],"tree_param":{"num_deleted":"0","num_feature":"9","num_nodes":"21","size_leaf_vector":"0"}},{"base_weights":[1.8644941E3,2.7539072E3,1.1962445E3,3.00587E3,3.2121452E1,3.256413E2,8.8784204E2,3.353751E2,2.3685435E2,1.3666324E3,3.3407696E1,9.9894325E1,1.8205497E3,1.2025096E3,2.133766E3,1.3254237E2,2.325125E1,2.4206883E2,8.486667E2,1.0404876E2,2.3251245E1],"categories":[],"categories_nodes":[],"categories_segments":[],"categories_sizes":[],"default_left":[true,false,true,true,false,false,false,false,false,false,false,false,false,true,true,false,false,false,false,false,false],"id":1,"left_children":[1,3,5,7,-1,-1,9,-1,-1,11,-1,-1,13,15,17,-1,-1,-1,19,-1,-1],"loss_changes":[6.981072E7,3.0907776E7,4.2854824E7,2.477056E6,0E0,0E0,1.6512236E7,0E0,0E0,3.855988E6,0E0,0E0,1.44248E5,5.26406E5,8.95428E5,0E0,0E0,0E0,1.126475E5,0E0,0E0],"parents":[2147483647,0,0,1,1,2,2,3,3,6,6,9,9,12,12,13,13,14,14,18,18],"right_children":[2,4,6,8,-1,-1,10,-1,-1,12,-1,-1,14,16,18,-1,-1,-1,20,-1,-1],"split_conditions":[1.3E1,1.2155616E2,1.2152877E2,1.2154764E2,3.2121452E1,3.256413E2,9E0,3.353751E2,2.3685435E2,1.5002076E7,3.3407696E1,9.9894325E1,1.47E2,1E0,2.14E2,1.3254237E2,2.325125E1,2.4206883E2,2.937753E7,1.0404876E2,2.3251245E1],"split_indices":[7,3,3,3,0,0,5,0,0,0,0,0,8,5,8,0,0,0,0,0,0],"split_type":[0,0,0,0,0,0,0,0,0,0,0,0,0,0,0,0,0,0,0,0,0],"sum_hessian":[1.22E2,5.1E1,7.1E1,4.6E1,5E0,8E0,6.3E1,2.7E1,1.9E1,3.3E1,3E1,2E1,1.3E1,6E0,7E0,5E0,1E0,5E0,2E0,1E0,1E0],"tree_param":{"num_deleted":"0","num_feature":"9","num_nodes":"21","size_leaf_vector":"0"}},{"base_weights":[1.690959E3,2.490139E3,1.090288E3,2.717458E3,2.9444742E1,2.9669536E3,8.093461E2,3.0303533E3,2.1435318E2,3.833836E2,1.8945396E2,1.2483533E3,3.017465E1,1.4942192E2,3.1549207E2,1.1171968E3,2.2312386E2,1.3043602E2,6.965613E1],"categories":[],"categories_nodes":[],"categories_segments":[],"categories_sizes":[],"default_left":[false,true,false,true,false,true,false,false,false,false,false,false,false,false,false,true,false,false,false],"id":2,"left_children":[1,3,5,7,-1,9,11,13,-1,-1,-1,15,-1,-1,-1,17,-1,-1,-1],"loss_changes":[5.6330464E7,2.515424E7,3.5559544E7,1.944544E6,0E0,1.10356E6,1.3885064E7,6.43728E5,0E0,0E0,0E0,1.890272E6,0E0,0E0,0E0,1.610716E6,0E0,0E0,0E0],"parents":[2147483647,0,0,1,1,2,2,3,3,5,5,6,6,7,7,11,11,15,15],"right_children":[2,4,6,8,-1,10,12,14,-1,-1,-1,16,-1,-1,-1,18,-1,-1,-1],"split_conditions":[1.3E1,1.2155616E2,3.3174166E7,1.2154764E2,2.9444742E1,1.2152622E2,3.6E-1,1.2152933E2,2.1435318E2,3.833836E2,1.8945396E2,7E0,3.017465E1,1.4942192E2,3.1549207E2,4E-2,2.2312386E2,1.3043602E2,6.965613E1],"split_indices":[7,3,1,3,0,3,6,3,0,0,0,5,0,0,0,6,0,0,0],"split_type":[0,0,0,0,0,0,0,0,0,0,0,0,0,0,0,0,0,0,0],"sum_hessian":[1.22E2,5.1E1,7.1E1,4.6E1,5E0,8E0,6.3E1,2.7E1,1.9E1,3E0,5E0,3.3E1,3E1,3E0,2.4E1,3.1E1,2E0,2E1,1.1E1],"tree_param":{"num_deleted":"0","num_feature":"9","num_nodes":"19","size_leaf_vector":"0"}},{"base_weights":[1.5359683E3,8.901495E2,2.4931199E3,1.2958289E3,2.725455E1,2.7788318E2,1.9398962E2,3.1353525E2,1.0897831E3,1.193282E3,2.6990946E1,1.0829706E3,2.0824883E2,1.1430764E3,4.937202E2,1.16877525E2,1.8605516E1,8.427001E0,5.7501526E1],"categories":[],"categories_nodes":[],"categories_segments":[],"categories_sizes":[],"default_left":[true,false,true,true,false,false,false,false,false,true,false,false,false,false,false,false,false,false,false],"id":3,"left_children":[1,3,5,7,-1,-1,-1,-1,9,11,-1,13,-1,15,17,-1,-1,-1,-1],"loss_changes":[7.38128E7,1.8438024E7,2.354432E6,1.3639312E7,0E0,0E0,0E0,0E0,3.241876E6,1.37404E6,0E0,6.75252E5,0E0,5.44968E5,1.17974875E5,0E0,0E0,0E0,0E0],"parents":[2147483647,0,0,1,1,2,2,3,3,8,8,9,9,11,11,13,13,14,14],"right_children":[2,4,6,8,-1,-1,-1,-1,10,12,-1,14,-1,16,18,-1,-1,-1,-1],"split_conditions":[2.503386E1,9E0,1.2154764E2,2.502632E1,2.725455E1,2.7788318E2,1.9398962E2,3.1353525E2,1.04970104E8,7E0,2.6990946E1,2.94E2,2.0824883E2,3E0,2.502834E1,1.16877525E2,1.8605516E1,8.427001E0,5.7501526E1],"split_indices":[2,5,3,2,0,0,0,0,1,5,0,8,0,5,2,0,0,0,0],"split_type":[0,0,0,0,0,0,0,0,0,0,0,0,0,0,0,0,0,0,0],"sum_hessian":[1.22E2,7.4E1,4.8E1,4.4E1,3E1,2.9E1,1.9E1,3E0,4.1E1,3.6E1,5E0,3.4E1,2E0,3E1,4E0,2.9E1,1E0,1E0,3E0],"tree_param":{"num_deleted":"0","num_feature":"9","num_nodes":"19","size_leaf_vector":"0"}},{"base_weights":[1.3925284E3,5.9398035E2,1.7845588E3,2.5479822E1,8.377503E2,2.1825742E3,1.1584615E3,1.2944946E2,7.108585E2,2.695939E2,1.5819062E3,4.980522E2,2.0663284E2,7.785838E1,4.117814E1,1.3754045E2,2.322189E2,2.1839155E1,1.1608052E3,1.5461198E3,2.6011734E1,1.7675604E1,1.9436557E2],"categories":[],"categories_nodes":[],"categories_segments":[],"categories_sizes":[],"default_left":[true,true,true,false,true,false,true,false,true,false,true,true,false,false,false,false,false,false,true,false,false,false,false],"id":4,"left_children":[1,3,5,-1,7,9,11,-1,13,-1,15,17,-1,-1,-1,-1,-1,-1,19,21,-1,-1,-1],"loss_changes":[3.744579E7,3.259203E6,1.790568E7,0E0,4.70768E5,1.0845008E7,1.9356028E7,0E0,1.0475E5,0E0,6.27792E5,3.6387545E6,0E0,0E0,0E0,0E0,0E0,0E0,1.680116E6,1.833932E6,0E0,0E0,0E0],"parents":[2147483647,0,0,1,1,2,2,4,4,5,5,6,6,8,8,10,10,11,11,18,18,19,19],"right_children":[2,4,6,-1,8,10,12,-1,14,-1,16,18,-1,-1,-1,-1,-1,-1,20,22,-1,-1,-1],"split_conditions":[2.4438476E7,5.1863496E7,2.2E-1,2.5479822E1,1.0559106E7,1.2154764E2,1.7630581E8,1.2944946E2,5E-2,2.695939E2,3.4917956E7,1.7E1,2.0663284E2,7.785838E1,4.117814E1,1.3754045E2,2.322189E2,2.1839155E1,3.6E-1,2.9E-1,2.6011734E1,1.7675604E1,1.9436557E2],"split_indices":[0,1,6,0,0,3,1,0,6,0,0,7,0,0,0,0,0,0,6,6,0,0,0],"split_type":[0,0,0,0,0,0,0,0,0,0,0,0,0,0,0,0,0,0,0,0,0,0,0],"sum_hessian":[1.22E2,4.1E1,8.1E1,1.8E1,2.3E1,4.8E1,3.3E1,3E0,2E1,2.4E1,2.4E1,2E1,1.3E1,1.5E1,5E0,2.1E1,3E0,1.5E1,5E0,3E0,2E0,1E0,2E0],"tree_param":{"num_deleted":"0","num_feature":"9","num_nodes":"23","size_leaf_vector":"0"}},{"base_weights":[1.2644939E3,7.422877E2,2.0379832E3,1.6929435E3,5.343383E2,3.13569E2,1.8982265E2,2.2425198E3,6.780178E2,8.10942E2,2.2265244E2,1.19740746E2,2.630106E2,4.1013956E2,1.1221586E3,8.306402E1,2.4851545E1,1.180127E1,2.3378378E1,-5.807357E1,5.7105005E2,1.3780787E3,5.2312964E2,-7.9726154E-1,-9.599203E0,1.8520578E2,7.7494257E2,8.037682E1,2.8999876E1,4.639144E0,7.0454666E1,-1.3097947E0,1.1902055E0,9.358109E1,2.4851448E1],"categories":[],"categories_nodes":[],"categories_segments":[],"categories_sizes":[],"default_left":[true,true,true,true,false,false,false,false,true,true,true,false,false,false,true,false,false,false,false,true,true,false,true,true,false,false,false,false,false,false,false,false,false,false,false],"id":5,"left_children":[1,3,5,7,9,-1,-1,11,15,13,17,-1,-1,19,21,-1,-1,-1,-1,23,27,25,29,31,-1,-1,33,-1,-1,-1,-1,-1,-1,-1,-1],"loss_changes":[4.8169504E7,1.3922016E7,1.564944E6,5.73066E6,5.250892E6,0E0,0E0,9.126E4,1.86883E5,3.656058E6,8.51875E3,0E0,0E0,1.2386095E6,2.038552E6,0E0,0E0,0E0,0E0,1.0782613E4,5.51777E5,1.995248E6,5.727339E5,6.245233E2,0E0,0E0,3.60237E5,0E0,0E0,0E0,0E0,0E0,0E0,0E0,0E0],"parents":[2147483647,0,0,1,1,2,2,3,3,4,4,7,7,9,9,8,8,10,10,13,13,14,14,19,19,21,21,20,20,22,22,23,23,26,26],"right_children":[2,4,6,8,10,-1,-1,12,16,14,18,-1,-1,20,22,-1,-1,-1,-1,24,28,26,30,32,-1,-1,34,-1,-1,-1,-1,-1,-1,-1,-1],"split_conditions":[2.503386E1,5.6E1,1.2152622E2,1.2155622E2,9E0,3.13569E2,1.8982265E2,1.2152933E2,1E0,1.74E2,1.2152916E2,1.19740746E2,2.630106E2,1.2155633E2,2.14E2,8.306402E1,2.4851545E1,1.180127E1,2.3378378E1,2.502834E1,4E-2,1.2155664E2,1.2155633E2,6E1,-9.599203E0,1.8520578E2,4E-2,8.037682E1,2.8999876E1,4.639144E0,7.0454666E1,-1.3097947E0,1.1902055E0,9.358109E1,2.4851448E1],"split_indices":[2,8,3,3,5,0,0,3,5,8,3,0,0,3,8,0,0,0,0,2,6,3,3,8,0,0,6,0,0,0,0,0,0,0,0],"split_type":[0,0,0,0,0,0,0,0,0,0,0,0,0,0,0,0,0,0,0,0,0,0,0,0,0,0,0,0,0,0,0,0,0,0,0],"sum_hessian":[1.22E2,7.4E1,4.8E1,1.2E1,6.2E1,3E0,4.5E1,7E0,5E0,3.2E1,3E1,3E0,4E0,1.5E1,1.7E1,3E0,2E0,4E0,2.6E1,4E0,1.1E1,1.1E1,6E0,2E0,2E0,5E0,6E0,5E0,6E0,2E0,4E0,1E0,1E0,4E0,2E0],"tree_param":{"num_deleted":"0","num_feature":"9","num_nodes":"35","size_leaf_vector":"0"}},{"base_weights":[1.1503016E3,4.9049387E2,1.4742238E3,6.923281E2,2.0972986E2,1.800655E3,9.6041925E2,1.10760185E2,5.8026044E2,2.2312671E2,1.2980166E3,8.926077E0,2.1865205E2,1.3374447E3,1.57752075E1,6.3117676E1,3.4777336E1,2.4956167E1,1.3884384E1,1.1103538E2,2.0056581E2,2.2077766E1,1.7185756E2],"categories":[],"categories_nodes":[],"categories_segments":[],"categories_sizes":[],"default_left":[true,false,true,true,true,false,true,false,true,false,true,false,true,true,false,false,false,false,false,false,false,false,false],"id":6,"left_children":[1,3,5,7,11,9,13,-1,15,-1,19,-1,17,21,-1,-1,-1,-1,-1,-1,-1,-1,-1],"loss_changes":[2.5565248E7,2.234846E6,1.2023808E7,4.74234E5,9.050625E2,7.709456E6,1.0078298E7,0E0,2.9079E4,0E0,1.09296E6,0E0,7.28625E3,9.409292E6,0E0,0E0,0E0,0E0,0E0,0E0,0E0,0E0,0E0],"parents":[2147483647,0,0,1,1,2,2,3,3,5,5,4,4,6,6,8,8,12,12,10,10,13,13],"right_children":[2,4,6,8,12,10,14,-1,16,-1,20,-1,18,22,-1,-1,-1,-1,-1,-1,-1,-1,-1],"split_conditions":[2.4438476E7,7E-2,2.2E-1,1.0559106E7,1.2152882E2,1.2154764E2,2.58E2,1.10760185E2,5E-2,2.2312671E2,3.4917956E7,8.926077E0,1.215303E2,2.9E-1,1.57752075E1,6.3117676E1,3.4777336E1,2.4956167E1,1.3884384E1,1.1103538E2,2.0056581E2,2.2077766E1,1.7185756E2],"split_indices":[0,6,6,0,3,3,8,0,6,0,0,0,3,6,0,0,0,0,0,0,0,0,0],"split_type":[0,0,0,0,0,0,0,0,0,0,0,0,0,0,0,0,0,0,0,0,0,0,0],"sum_hessian":[1.22E2,4.1E1,8.1E1,2.3E1,1.8E1,4.8E1,3.3E1,3E0,2E1,2.4E1,2.4E1,2E0,1.6E1,2.2E1,1.1E1,1.5E1,5E0,1E1,6E0,2.1E1,3E0,6E0,1.6E1],"tree_param":{"num_deleted":"0","num_feature":"9","num_nodes":"23","size_leaf_vector":"0"}},{"base_weights":[1.0434086E3,6.5401917E2,1.7276754E3,1.9188182E3,5.2553796E2,1.5212006E2,2.4666621E2,1.0245318E2,2.3334001E2,7.576983E2,1.7906711E2,5.745441E2,1.1091327E3,1.8381773E1,7.3455515E0,8.2794624E1,4.1445044E2,1.3331927E3,5.8818726E2,2.1883896E2,5.429224E2,5.397238E2,1.4827946E2,7.175757E2,-2.9377382E0,-4.283704E0,2.8961262E1,6.6720634E1,1.423794E1,6.0649524E2,1.5003893E1,3.7340436E2,1.0471305E2,7.3485695E1,2.3023846E2,9.9223305E1,-1.6361622E1,3.0215208E1,7.24881E-1],"categories":[],"categories_nodes":[],"categories_segments":[],"categories_sizes":[],"default_left":[true,false,true,true,true,false,false,false,false,true,true,false,true,false,false,false,true,true,true,true,false,false,false,true,false,false,false,false,false,false,false,false,false,false,false,false,false,false,false],"id":7,"left_children":[1,3,5,7,9,-1,-1,-1,-1,11,13,15,17,-1,-1,-1,19,21,23,25,29,27,-1,31,-1,-1,-1,-1,-1,33,-1,35,-1,-1,37,-1,-1,-1,-1],"loss_changes":[3.1642944E7,1.1991824E7,2.96132E6,2.0464E5,5.816646E6,0E0,0E0,0E0,0E0,2.19489E6,2.050875E3,9.14467E5,8.49956E5,0E0,0E0,0E0,4.0892975E5,2.68041E5,5.0051475E5,1.9760378E5,2.0872275E5,5.6967E4,0E0,1.761135E5,0E0,0E0,0E0,0E0,0E0,3.1377725E5,0E0,1.4916402E6,0E0,0E0,6.195372E4,0E0,0E0,0E0,0E0],"parents":[2147483647,0,0,1,1,2,2,3,3,4,4,9,9,10,10,11,11,12,12,16,16,17,17,18,18,19,19,21,21,20,20,23,23,29,29,31,31,34,34],"right_children":[2,4,6,8,10,-1,-1,-1,-1,12,14,16,18,-1,-1,-1,20,22,24,26,30,28,-1,32,-1,-1,-1,-1,-1,34,-1,36,-1,-1,38,-1,-1,-1,-1],"split_conditions":[2.503392E1,3E0,2.26E2,1.0559106E7,9E0,1.5212006E2,2.4666621E2,1.0245318E2,2.3334001E2,2.9377382E7,2.93777E7,1E0,2.93777E7,1.8381773E1,7.3455515E0,8.2794624E1,1.49E2,6.8E1,2.07E2,2.502834E1,1.04970104E8,2.937753E7,1.4827946E2,1.47E2,-2.9377382E0,-4.283704E0,2.8961262E1,6.6720634E1,1.423794E1,2.14E2,1.5003893E1,1E0,1.0471305E2,7.3485695E1,1.0619401E7,9.9223305E1,-1.6361622E1,3.0215208E1,7.24881E-1],"split_indices":[2,7,8,0,5,0,0,0,0,0,0,5,0,0,0,0,8,8,8,2,1,0,0,8,0,0,0,0,0,8,0,8,0,0,0,0,0,0,0],"split_type":[0,0,0,0,0,0,0,0,0,0,0,0,0,0,0,0,0,0,0,0,0,0,0,0,0,0,0,0,0,0,0,0,0,0,0,0,0,0,0],"sum_hessian":[1.22E2,7.9E1,4.3E1,6E0,7.3E1,3.6E1,7E0,3E0,3E0,4.3E1,3E1,3E1,1.3E1,2.8E1,2E0,1E1,2E1,8E0,5E0,9E0,1.1E1,2E0,6E0,4E0,1E0,2E0,7E0,1E0,1E0,9E0,2E0,3E0,1E0,6E0,3E0,1E0,2E0,2E0,1E0],"tree_param":{"num_deleted":"0","num_feature":"9","num_nodes":"39","size_leaf_vector":"0"}},{"base_weights":[9.5045856E2,6.011459E2,1.5639711E3,1.7749071E3,4.8199088E2,1.3731918E3,2.2508292E2,9.47692E1,2.1583955E2,2.2606433E2,7.45856E2,1.4552916E2,8.93668E1,4.1772852E2,1.546408E2,8.335319E2,1.6855444E1,1.7184651E2,7.435899E2,6.0032187E0,1.5925453E2,5.2631855E1,9.547612E2,2.660965E1,3.4634888E1,1.7766031E1,1.1465831E1,1.6918493E1,8.7866325E1,6.235522E2,1.1106167E3,-3.9980104E0,1.2923993E1,1.04842674E2,2.3637709E2,1.4650519E2,7.0596313E2,7.134102E1,-1.7115539E0,9.042322E1,7.410397E1,1.4985582E1,-1.5270843E1,1.3906447E1,-2.7908509E0],"categories":[],"categories_nodes":[],"categories_segments":[],"categories_sizes":[],"default_left":[true,false,true,false,true,true,false,false,false,false,false,false,false,true,true,false,false,false,true,false,false,false,false,false,true,false,false,false,false,true,true,false,false,false,true,false,true,false,true,false,true,false,false,false,false],"id":8,"left_children":[1,3,5,7,9,11,-1,-1,-1,13,15,-1,-1,17,19,21,-1,23,27,-1,25,-1,29,-1,31,-1,-1,-1,-1,33,35,-1,-1,-1,37,-1,39,-1,41,-1,43,-1,-1,-1,-1],"loss_changes":[2.5419672E7,1.0333276E7,2.674864E6,1.75096E5,4.828616E6,1.56104E5,0E0,0E0,0E0,4.6928612E5,1.681662E6,0E0,0E0,6.734511E5,3.534625E3,6.52034E5,0E0,8.130914E4,1.616905E5,0E0,2.6129375E3,0E0,3.91508E5,0E0,3.3402844E4,0E0,0E0,0E0,0E0,1.232684E6,8.30232E5,0E0,0E0,0E0,6.82678E5,0E0,9.352175E5,0E0,1.3731523E5,0E0,2.3761424E4,0E0,0E0,0E0,0E0],"parents":[2147483647,0,0,1,1,2,2,3,3,4,4,5,5,9,9,10,10,13,13,14,14,15,15,17,17,20,20,18,18,22,22,24,24,29,29,30,30,34,34,36,36,38,38,40,40],"right_children":[2,4,6,8,10,12,-1,-1,-1,14,16,-1,-1,18,20,22,-1,24,28,-1,26,-1,30,-1,32,-1,-1,-1,-1,34,36,-1,-1,-1,38,-1,40,-1,42,-1,44,-1,-1,-1,-1],"split_conditions":[2.503392E1,3E0,2.26E2,1.0559106E7,2.502888E1,2.14E2,2.2508292E2,9.47692E1,2.1583955E2,2.14E2,1.04970104E8,1.4552916E2,8.93668E1,1.49E2,2.62E2,1.0620342E7,1.6855444E1,1.0619401E7,1.0619401E7,6.0032187E0,2.4438476E7,5.2631855E1,1.48E2,2.660965E1,1.5002076E7,1.7766031E1,1.1465831E1,1.6918493E1,8.7866325E1,5.6E1,2.14E2,-3.9980104E0,1.2923993E1,1.04842674E2,2.937753E7,1.4650519E2,2.937753E7,7.134102E1,2.93777E7,9.042322E1,2.93777E7,1.4985582E1,-1.5270843E1,1.3906447E1,-2.7908509E0],"split_indices":[2,7,8,0,2,8,0,0,0,8,1,0,0,8,8,0,0,0,0,0,0,0,8,0,0,0,0,0,0,8,8,0,0,0,0,0,0,0,0,0,0,0,0,0,0],"split_type":[0,0,0,0,0,0,0,0,0,0,0,0,0,0,0,0,0,0,0,0,0,0,0,0,0,0,0,0,0,0,0,0,0,0,0,0,0,0,0,0,0,0,0,0,0],"sum_hessian":[1.22E2,7.9E1,4.3E1,6E0,7.3E1,3.6E1,7E0,3E0,3E0,3.8E1,3.5E1,2.9E1,7E0,9E0,2.9E1,3E1,5E0,6E0,3E0,2E0,2.7E1,1E1,2E1,3E0,3E0,1.7E1,1E1,1E0,2E0,8E0,1.2E1,2E0,1E0,3E0,5E0,5E0,7E0,1E0,4E0,5E0,2E0,2E0,2E0,1E0,1E0],"tree_param":{"num_deleted":"0","num_feature":"9","num_nodes":"45","size_leaf_vector":"0"}},{"base_weights":[8.6711664E2,5.5327637E2,1.4180281E3,1.6417891E3,4.4283224E2,1.6897429E2,1.0074832E2,1.9965158E2,8.7661514E1,6.4051953E2,1.4795898E2,5.7248376E2,1.3795134E2,7.2293525E0,1.5649114E1,7.837624E1,3.4478665E2,1.886124E2,4.5921414E2,-3.731474E0,2.4296453E1,5.124173E2,1.2879903E1,6.2179114E2,1.9290866E2,3.7845577E1,8.2008644E1,-1.9966431E-1,2.5854263E1],"categories":[],"categories_nodes":[],"categories_segments":[],"categories_sizes":[],"default_left":[true,true,true,true,true,false,false,false,false,true,true,true,false,false,false,false,true,false,false,false,false,true,false,false,true,false,false,false,false],"id":9,"left_children":[1,3,5,7,9,-1,-1,-1,-1,11,13,15,-1,-1,-1,-1,17,19,21,-1,-1,23,-1,25,27,-1,-1,-1,-1],"loss_changes":[2.0481912E7,8.890548E6,3.205856E6,1.49818E5,4.218889E6,0E0,0E0,0E0,0E0,1.422482E6,8.7E3,1.750286E6,0E0,0E0,0E0,0E0,3.0654025E5,1.44142E5,1.4495025E5,0E0,0E0,2.2951E5,0E0,2.739925E4,5.168586E4,0E0,0E0,0E0,0E0],"parents":[2147483647,0,0,1,1,2,2,3,3,4,4,9,9,10,10,11,11,16,16,17,17,18,18,21,21,23,23,24,24],"right_children":[2,4,6,8,10,-1,-1,-1,-1,12,14,16,-1,-1,-1,-1,18,20,22,-1,-1,24,-1,26,28,-1,-1,-1,-1],"split_conditions":[2.503392E1,3E0,1.2154764E2,2.502632E1,9E0,1.6897429E2,1.0074832E2,1.9965158E2,8.7661514E1,7E0,1.2152916E2,1E0,1.3795134E2,7.2293525E0,1.5649114E1,7.837624E1,1.49E2,2.502834E1,1.04970104E8,-3.731474E0,2.4296453E1,2.14E2,1.2879903E1,2E0,2.502834E1,3.7845577E1,8.2008644E1,-1.9966431E-1,2.5854263E1],"split_indices":[2,7,3,2,5,0,0,0,0,5,3,5,0,0,0,0,8,2,1,0,0,8,0,5,2,0,0,0,0],"split_type":[0,0,0,0,0,0,0,0,0,0,0,0,0,0,0,0,0,0,0,0,0,0,0,0,0,0,0,0,0],"sum_hessian":[1.22E2,7.9E1,4.3E1,6E0,7.3E1,2.4E1,1.9E1,3E0,3E0,4.3E1,3E1,4.1E1,2E0,4E0,2.6E1,2E1,2.1E1,1E1,1.1E1,2E0,8E0,9E0,2E0,6E0,3E0,4E0,2E0,1E0,2E0],"tree_param":{"num_deleted":"0","num_feature":"9","num_nodes":"29","size_leaf_vector":"0"}},{"base_weights":[7.883333E2,5.067671E2,1.2823553E3,1.5186545E3,4.041998E2,2.2526257E2,1.1564177E3,1.8467766E2,8.108691E1,5.8545123E2,1.3390099E2,1.3262584E2,9.117723E2,5.213623E2,1.2875462E2,6.650931E0,1.4142163E2,6.335153E1,1.044484E2,7.091185E1,3.184422E2,5.7757673E0,1.4580444E1,3.716307E1,1.5137674E1],"categories":[],"categories_nodes":[],"categories_segments":[],"categories_sizes":[],"default_left":[true,false,false,true,false,false,false,false,false,false,true,false,true,true,false,false,false,false,false,false,false,false,false,false,false],"id":10,"left_children":[1,3,5,7,9,-1,11,-1,-1,13,15,-1,17,19,-1,-1,21,-1,-1,-1,23,-1,-1,-1,-1],"loss_changes":[1.6459432E7,7.689086E6,2.771536E6,1.28186E5,3.54702E6,0E0,4.94336E5,0E0,0E0,1.308569E6,6.3058125E3,0E0,7.6863E4,1.374367E6,0E0,0E0,1.479125E3,0E0,0E0,0E0,1.3923475E5,0E0,0E0,0E0,0E0],"parents":[2147483647,0,0,1,1,2,2,3,3,4,4,6,6,9,9,10,10,12,12,13,13,16,16,20,20],"right_children":[2,4,6,8,10,-1,12,-1,-1,14,16,-1,18,20,-1,-1,22,-1,-1,-1,24,-1,-1,-1,-1],"split_conditions":[2.503392E1,3E0,2.50353E1,2.502632E1,3.6E-1,2.2526257E2,1.2154764E2,1.8467766E2,8.108691E1,7E0,1.2152916E2,1.3262584E2,9E-2,1E0,1.2875462E2,6.650931E0,2.502202E1,6.335153E1,1.044484E2,7.091185E1,7E-2,5.7757673E0,1.4580444E1,3.716307E1,1.5137674E1],"split_indices":[2,7,2,2,6,0,3,0,0,5,3,0,6,5,0,0,2,0,0,0,6,0,0,0,0],"split_type":[0,0,0,0,0,0,0,0,0,0,0,0,0,0,0,0,0,0,0,0,0,0,0,0,0],"sum_hessian":[1.22E2,7.9E1,4.3E1,6E0,7.3E1,3E0,4E1,3E0,3E0,4.3E1,3E1,2.1E1,1.9E1,4.1E1,2E0,4E0,2.6E1,8E0,1.1E1,2E1,2.1E1,2E0,2.4E1,1.5E1,6E0],"tree_param":{"num_deleted":"0","num_feature":"9","num_nodes":"25","size_leaf_vector":"0"}},{"base_weights":[7.1820276E2,4.628996E2,1.1660675E3,1.4047552E3,3.6754974E2,2.0836807E2,1.0481035E3,7.500535E1,1.7082683E2,5.3263257E2,1.2138217E2,9.3896155E2,1.3318352E2,3.9349167E2,8.026851E2,1.2553668E1,4.076124E0,1.0958878E2,3.987262E2,4.8382288E2,1.852693E1,9.823555E1,3.9939877E1,1.0729975E1,4.2174202E1,3.85587E1,6.65148E1],"categories":[],"categories_nodes":[],"categories_segments":[],"categories_sizes":[],"default_left":[false,false,true,true,false,false,true,false,false,true,false,false,false,false,true,false,false,false,true,false,false,false,false,false,false,false,false],"id":11,"left_children":[1,3,5,7,9,-1,11,-1,-1,13,15,17,-1,19,21,-1,-1,-1,23,25,-1,-1,-1,-1,-1,-1,-1],"loss_changes":[1.3524204E7,6.668148E6,2.578876E6,1.09681E5,2.942563E6,0E0,1.9108E4,0E0,0E0,1.337466E6,5.266125E3,2.360688E6,0E0,4.934405E5,6.22068E5,0E0,0E0,0E0,1.5114E4,1.17593E5,0E0,0E0,0E0,0E0,0E0,0E0,0E0],"parents":[2147483647,0,0,1,1,2,2,3,3,4,4,6,6,9,9,10,10,11,11,13,13,14,14,18,18,19,19],"right_children":[2,4,6,8,10,-1,12,-1,-1,14,16,18,-1,20,22,-1,-1,-1,24,26,-1,-1,-1,-1,-1,-1,-1],"split_conditions":[2.503392E1,3E0,3.3174166E7,1.0559106E7,9E0,2.0836807E2,3.4917956E7,7.500535E1,1.7082683E2,2.9377382E7,2.93777E7,3.4917188E7,1.3318352E2,5E-2,2.93777E7,1.2553668E1,4.076124E0,1.0958878E2,6E-2,1.5002076E7,1.852693E1,9.823555E1,3.9939877E1,1.0729975E1,4.2174202E1,3.85587E1,6.65148E1],"split_indices":[2,7,1,0,5,0,0,0,0,0,0,0,0,6,0,0,0,0,6,0,0,0,0,0,0,0,0],"split_type":[0,0,0,0,0,0,0,0,0,0,0,0,0,0,0,0,0,0,0,0,0,0,0,0,0,0,0],"sum_hessian":[1.22E2,7.9E1,4.3E1,6E0,7.3E1,3E0,4E1,3E0,3E0,4.3E1,3E1,3.2E1,8E0,3E1,1.3E1,2.8E1,2E0,2.4E1,8E0,2E1,1E1,8E0,5E0,1E0,7E0,1.5E1,5E0],"tree_param":{"num_deleted":"0","num_feature":"9","num_nodes":"27","size_leaf_vector":"0"}},{"base_weights":[6.547424E2,1.20264336E2,5.2349023E2,1.9274026E2,4.6084598E2,6.141135E2,1.0978024E2,8.0213354E2,4.5373624E2,5.1145244E0,1.1657264E2,8.791829E1,5.601166E2,3.8613666E2,1.1362189E2,1.36023855E1,8.516181E1,6.541381E1,2.5554981E1,4.7371143E2,1.6421331E1,5.582395E0,1.023337E1,5.244263E2,2.1725764E2,3.4442172E2,7.7388086E2,-1.0725645E1,4.063288E1,6.723275E1,1.460267E2,8.9662766E1,2.70427E1,-2.1239298E1,4.2037197E1],"categories":[],"categories_nodes":[],"categories_segments":[],"categories_sizes":[],"default_left":[false,false,false,false,false,true,true,true,true,false,false,false,true,true,false,false,true,false,false,true,false,false,false,true,true,true,true,false,false,false,false,false,false,false,false],"id":12,"left_children":[1,-1,3,-1,5,7,9,11,13,-1,15,-1,17,19,-1,-1,21,-1,-1,23,-1,-1,-1,25,27,29,31,-1,-1,-1,33,-1,-1,-1,-1],"loss_changes":[8.215748E6,0E0,7.994418E6,0E0,5.205666E6,1.686524E6,6.3843125E3,6.6972E4,1.36055E6,0E0,4.9124062E3,0E0,1.191935E5,6.41301E5,0E0,0E0,8.365547E2,0E0,0E0,2.242205E5,0E0,0E0,0E0,6.76421E5,4.1171894E5,8.125906E5,2.51907E5,0E0,0E0,0E0,1.0725915E6,0E0,0E0,0E0,0E0],"parents":[2147483647,0,0,2,2,4,4,5,5,6,6,7,7,8,8,10,10,12,12,13,13,16,16,19,19,23,23,24,24,25,25,26,26,30,30],"right_children":[2,-1,4,-1,6,8,10,12,14,-1,16,-1,18,20,-1,-1,22,-1,-1,24,-1,-1,-1,26,28,30,32,-1,-1,-1,34,-1,-1,-1,-1],"split_conditions":[3E0,1.20264336E2,1.2152622E2,1.9274026E2,9E0,1.2155616E2,1.2152916E2,2.14E2,7E0,5.1145244E0,1.215303E2,8.791829E1,1E0,5E-2,1.1362189E2,1.36023855E1,1.2153085E2,6.541381E1,2.5554981E1,2.14E2,1.6421331E1,5.582395E0,1.023337E1,1.52E2,1.2155633E2,5.6E1,1.2155687E2,-1.0725645E1,4.063288E1,6.723275E1,1.2155633E2,8.9662766E1,2.70427E1,-2.1239298E1,4.2037197E1],"split_indices":[7,0,3,0,5,3,3,8,5,0,3,0,5,6,0,0,3,0,0,8,0,0,0,8,3,8,3,0,0,0,3,0,0,0,0],"split_type":[0,0,0,0,0,0,0,0,0,0,0,0,0,0,0,0,0,0,0,0,0,0,0,0,0,0,0,0,0,0,0,0,0,0,0],"sum_hessian":[1.22E2,2.2E1,1E2,3E0,9.7E1,6.7E1,3E1,2.9E1,3.8E1,4E0,2.6E1,2E1,9E0,3.6E1,2E0,1.4E1,1.2E1,6E0,3E0,2.5E1,1.1E1,6E0,6E0,2E1,5E0,1.3E1,7E0,2E0,3E0,4E0,9E0,5E0,2E0,4E0,5E0],"tree_param":{"num_deleted":"0","num_feature":"9","num_nodes":"35","size_leaf_vector":"0"}},{"base_weights":[5.9651294E2,3.8838974E2,9.613617E2,8.9042365E2,2.7769028E2,1.7828474E2,8.5776886E2,1.1700394E3,3.2259604E2,4.1913086E2,9.991631E1,9.8326744E1,6.768319E2,6.093231E1,1.4967479E2,1.3816678E2,6.04417E2,4.520172E2,7.8904034E2,3.6572853E1,5.346683E0,4.7054496E0,1.0600494E2,-1.9540164E2,2.6563974E2,5.9711475E1,2.799493E2,1.23328285E1,7.786223E1,7.6782196E2,3.7121002E2,8.701266E1,2.5573967E1,-7.1148767E0,-2.5452065E1,4.9672484E0,3.1607016E2,-1.1576426E1,4.314839E2,1.118506E2,3.575467E2,3.668249E2,1.0331711E1,5.1039042E0,9.356224E1,8.915759E0,3.505089E1,4.3180492E1,1.1460073E1,3.8715801E0,1.0775765E1,4.496401E1,5.2249336E1,1.8420721E1,4.5773632E1,-3.4394777E0,1.0184079E1],"categories":[],"categories_nodes":[],"categories_segments":[],"categories_sizes":[],"default_left":[true,false,false,true,false,false,true,true,true,true,true,false,true,false,false,true,true,false,false,false,false,false,true,false,true,false,true,false,false,true,true,false,false,false,false,false,true,false,true,false,true,false,false,false,true,false,false,false,false,false,false,false,false,false,false,false,false],"id":13,"left_children":[1,3,5,7,9,-1,11,13,19,15,21,-1,17,-1,-1,23,29,25,31,-1,-1,-1,27,33,41,-1,35,-1,43,39,37,-1,-1,-1,-1,-1,45,-1,51,-1,47,53,-1,-1,49,-1,-1,-1,-1,-1,-1,55,-1,-1,-1,-1,-1],"loss_changes":[8.96644E6,4.198729E6,2.215132E6,1.845379E6,1.6428005E6,0E0,2.65496E5,7.36714E5,5.0094875E4,1.8426635E6,4.9895E3,0E0,1.47862E5,0E0,0E0,7.322416E5,5.53335E5,5.7537875E4,2.96394E5,0E0,0E0,0E0,3.5605938E3,1.8619703E4,1.5919644E5,0E0,3.4206812E4,0E0,6.9928906E2,1.3266055E6,3.7282038E5,0E0,0E0,0E0,0E0,0E0,7.8224062E3,0E0,3.2827625E5,0E0,7.680006E4,3.1895938E4,0E0,0E0,1.2780508E3,0E0,0E0,0E0,0E0,0E0,0E0,1.7043809E4,0E0,0E0,0E0,0E0,0E0],"parents":[2147483647,0,0,1,1,2,2,3,3,4,4,6,6,7,7,9,9,12,12,8,8,10,10,15,15,17,17,22,22,16,16,18,18,23,23,26,26,30,30,29,29,24,24,28,28,36,36,40,40,44,44,38,38,41,41,51,51],"right_children":[2,4,6,8,10,-1,12,14,20,16,22,-1,18,-1,-1,24,30,26,32,-1,-1,-1,28,34,42,-1,36,-1,44,40,38,-1,-1,-1,-1,-1,46,-1,52,-1,48,54,-1,-1,50,-1,-1,-1,-1,-1,-1,56,-1,-1,-1,-1,-1],"split_conditions":[2.503392E1,5.6E1,2.50353E1,1.2155622E2,9E0,1.7828474E2,1.2154764E2,1.2152933E2,2.502937E1,1.74E2,1.2152916E2,9.8326744E1,9E-2,6.093231E1,1.4967479E2,1.2155633E2,2.14E2,1E0,2.14E2,3.6572853E1,5.346683E0,4.7054496E0,1.215303E2,2.502834E1,6E-2,5.9711475E1,7.5E1,1.23328285E1,1.2153085E2,1.2155664E2,2.93E2,8.701266E1,2.5573967E1,-7.1148767E0,-2.5452065E1,4.9672484E0,6E-2,-1.1576426E1,2.502888E1,1.118506E2,4E-2,1.46E2,1.0331711E1,5.1039042E0,2.502202E1,8.915759E0,3.505089E1,4.3180492E1,1.1460073E1,3.8715801E0,1.0775765E1,2.502834E1,5.2249336E1,1.8420721E1,4.5773632E1,-3.4394777E0,1.0184079E1],"split_indices":[2,8,2,3,5,0,3,3,2,8,3,0,6,0,0,3,8,5,8,0,0,0,3,2,6,0,8,0,3,3,8,0,0,0,0,0,6,0,2,0,6,8,0,0,2,0,0,0,0,0,0,2,0,0,0,0,0],"split_type":[0,0,0,0,0,0,0,0,0,0,0,0,0,0,0,0,0,0,0,0,0,0,0,0,0,0,0,0,0,0,0,0,0,0,0,0,0,0,0,0,0,0,0,0,0,0,0,0,0,0,0,0,0,0,0,0,0],"sum_hessian":[1.22E2,7.9E1,4.3E1,1.3E1,6.6E1,3E0,4E1,8E0,5E0,3.6E1,3E1,2.1E1,1.9E1,4E0,4E0,1.5E1,2.1E1,8E0,1.1E1,4E0,1E0,4E0,2.6E1,4E0,1.1E1,3E0,5E0,1.4E1,1.2E1,1.1E1,1E1,9E0,2E0,2E0,2E0,1E0,4E0,1E0,9E0,5E0,6E0,6E0,5E0,6E0,6E0,1E0,3E0,4E0,2E0,2E0,4E0,2E0,7E0,3E0,3E0,1E0,1E0],"tree_param":{"num_deleted":"0","num_feature":"9","num_nodes":"57","size_leaf_vector":"0"}},{"base_weights":[5.453416E2,2.2869348E2,7.008767E2,3.436735E2,1.0854468E2,8.7587195E2,4.280636E2,5.5790234E1,2.769741E2,1.0984982E3,6.1821094E2,1.754472E1,7.854705E1,5.978893E2,6.689237E1,1.7015508E2,4.205247E2,4.7578275E2,1.2470133E2,2.774472E0,7.194743E1,8.875449E0,7.7236304E2,1.649134E2,9.484508E2,1.6823553E1,1.0286322E2,2.2936005E1,-5.594879E0,5.772778E2,2.6503693E2,-3.2675354E0,3.3258405E0,5.0646828E1,1.0486535E2,1.1259543E1,3.6134746E0,3.016046E1,8.150239E1,2.4038061E1,5.805899E1,7.833932E0,3.0919943E0,-6.640565E0,8.841872E0,6.225306E1,2.0384045E2,4.7188964E0,2.8636926E2,4.1573677E1,-1.0997607E1,8.469977E0,3.0307926E1],"categories":[],"categories_nodes":[],"categories_segments":[],"categories_sizes":[],"default_left":[true,false,true,true,false,true,false,false,true,false,false,false,true,true,true,false,true,true,false,false,true,false,true,false,true,true,true,false,true,true,false,false,false,false,false,false,false,false,false,false,false,false,false,false,false,false,false,false,true,false,false,false,false],"id":14,"left_children":[1,3,5,7,11,9,13,-1,15,23,17,-1,25,21,19,27,39,29,-1,-1,41,-1,37,-1,33,31,35,-1,43,45,47,-1,-1,-1,-1,-1,-1,-1,-1,-1,-1,-1,-1,-1,-1,-1,49,-1,51,-1,-1,-1,-1],"loss_changes":[5.897448E6,5.4291375E5,3.539836E6,1.4554325E5,3.0371328E4,2.13164E6,2.045435E6,0E0,2.0445638E5,5.01414E5,1.645673E6,0E0,2.3784406E4,1.974555E6,3.785625E2,1.261465E5,6.2281125E4,3.175725E5,0E0,0E0,2.001836E2,0E0,9.5595E4,0E0,4.43222E5,5.9677734E3,3.7243828E3,0E0,2.873966E4,1.09691E5,2.83115E4,0E0,0E0,0E0,0E0,0E0,0E0,0E0,0E0,0E0,0E0,0E0,0E0,0E0,0E0,0E0,2.4521078E5,0E0,1.288375E3,0E0,0E0,0E0,0E0],"parents":[2147483647,0,0,1,1,2,2,3,3,5,5,4,4,6,6,8,8,10,10,14,14,13,13,9,9,12,12,15,15,17,17,25,25,24,24,26,26,22,22,16,16,20,20,28,28,29,29,30,30,46,46,48,48],"right_children":[2,4,6,8,12,10,14,-1,16,24,18,-1,26,22,20,28,40,30,-1,-1,42,-1,38,-1,34,32,36,-1,44,46,48,-1,-1,-1,-1,-1,-1,-1,-1,-1,-1,-1,-1,-1,-1,-1,50,-1,52,-1,-1,-1,-1],"split_conditions":[2.4438476E7,2.14E2,2.2E-1,1.0559106E7,1.0620342E7,1.2154764E2,2.58E2,5.5790234E1,1.49E2,1.2152622E2,3.4917956E7,1.754472E1,2.3681836E7,2.9E-1,2.7921662E7,2E0,1.0619401E7,2E-2,1.2470133E2,2.774472E0,2.93777E7,8.875449E0,5E0,1.649134E2,1.2152877E2,1.5002076E7,1.2153089E2,2.2936005E1,1.5002076E7,2.26E2,7.5E1,-3.2675354E0,3.3258405E0,5.0646828E1,1.0486535E2,1.1259543E1,3.6134746E0,3.016046E1,8.150239E1,2.4038061E1,5.805899E1,7.833932E0,3.0919943E0,-6.640565E0,8.841872E0,6.225306E1,2.937753E7,4.7188964E0,6E-2,4.1573677E1,-1.0997607E1,8.469977E0,3.0307926E1],"split_indices":[0,8,6,0,0,3,8,0,8,3,0,0,0,6,0,5,0,6,0,0,0,0,5,0,3,0,3,0,0,8,8,0,0,0,0,0,0,0,0,0,0,0,0,0,0,0,0,0,6,0,0,0,0],"split_type":[0,0,0,0,0,0,0,0,0,0,0,0,0,0,0,0,0,0,0,0,0,0,0,0,0,0,0,0,0,0,0,0,0,0,0,0,0,0,0,0,0,0,0,0,0,0,0,0,0,0,0,0,0],"sum_hessian":[1.22E2,4.1E1,8.1E1,2E1,2.1E1,4.8E1,3.3E1,3E0,1.7E1,2.4E1,2.4E1,5E0,1.6E1,2.2E1,1.1E1,1.1E1,6E0,2.1E1,3E0,2E0,9E0,6E0,1.6E1,3E0,2.1E1,5E0,1.1E1,8E0,3E0,1.3E1,8E0,1E0,4E0,5E0,1.6E1,9E0,2E0,2E0,1.4E1,4E0,2E0,7E0,2E0,2E0,1E0,1.1E1,2E0,1E0,7E0,1E0,1E0,1E0,6E0],"tree_param":{"num_deleted":"0","num_feature":"9","num_nodes":"53","size_leaf_vector":"0"}},{"base_weights":[4.9821555E2,7.928356E1,6.2085565E2,5.3395874E1,9.988569E1,1.0765197E3,5.288086E2,7.760765E0,3.7536352E0,8.371662E2,1.52545E2,3.3725781E0,1.07469845E1,3.3995752E2,7.047619E2,1.299045E2,5.388683E1,2.025497E2,4.884008E2,5.024671E1,7.711437E1,4.222876E2,1.00154686E2,6.593415E2,1.7093965E2,5.325868E1,9.769313E0,7.0910236E2,5.5986056E0,1.882237E2,-9.267576E1,2.2521024E2,-1.0447723E1,4.8282358E2,8.840722E1,-2.7905432E1,7.0277095E0,2.929521E2,-1.6986486E1,-3.104126E0,2.7309238E2,6.452526E1,1.9968866E1,-6.1978607E0,3.3667797E1,1.5184384E1,3.9609936E1,3.949499E1,1.697309E1,4.111858E0,9.3831176E-1],"categories":[],"categories_nodes":[],"categories_segments":[],"categories_sizes":[],"default_left":[false,true,true,false,true,false,true,false,false,true,false,false,false,false,true,false,false,true,true,false,false,true,false,true,true,false,false,false,false,false,true,true,false,false,false,false,false,false,true,false,true,false,false,false,true,false,false,false,false,false,false],"id":15,"left_children":[1,3,5,7,11,9,13,-1,-1,15,-1,-1,-1,17,19,-1,-1,21,23,-1,-1,25,29,27,31,-1,-1,33,-1,37,35,39,-1,41,-1,-1,-1,45,43,-1,47,-1,-1,-1,49,-1,-1,-1,-1,-1,-1],"loss_changes":[6.270256E6,1.0133422E4,3.415268E6,2.8467031E3,3.902E3,3.3474E5,2.45196E6,0E0,0E0,9.53315E5,0E0,0E0,0E0,7.37362E5,1.63102E5,0E0,0E0,4.7520738E5,9.18366E5,0E0,0E0,1.9858738E5,3.0614438E5,3.20582E5,1.4310564E5,0E0,0E0,8.66E3,0E0,2.6287222E5,2.0183664E5,9.436622E4,0E0,1.9307562E5,0E0,0E0,0E0,5.629425E4,1.34819E4,0E0,8.537031E3,0E0,0E0,0E0,1.5699878E2,0E0,0E0,0E0,0E0,0E0,0E0],"parents":[2147483647,0,0,1,1,2,2,3,3,5,5,4,4,6,6,9,9,13,13,14,14,17,17,18,18,21,21,23,23,22,22,24,24,27,27,30,30,29,29,31,31,33,33,38,38,37,37,40,40,44,44],"right_children":[2,4,6,8,12,10,14,-1,-1,16,-1,-1,-1,18,20,-1,-1,22,24,-1,-1,26,30,28,32,-1,-1,34,-1,38,36,40,-1,42,-1,-1,-1,46,44,-1,48,-1,-1,-1,50,-1,-1,-1,-1,-1,-1],"split_conditions":[2.502582E1,3.2E1,5.432088E7,2.502329E1,2.502202E1,2.503392E1,1.7630581E8,7.760765E0,3.7536352E0,2.502632E1,1.52545E2,3.3725781E0,1.07469845E1,1.74E2,1.48E2,1.299045E2,5.388683E1,5.6E1,2.14E2,5.024671E1,7.711437E1,1E0,2.502955E1,1.04970104E8,2.502955E1,5.325868E1,9.769313E0,2E0,5.5986056E0,2E0,1.04970104E8,2.502834E1,-1.0447723E1,1E0,8.840722E1,-2.7905432E1,7.0277095E0,1.46E2,2.502834E1,-3.104126E0,2.94E2,6.452526E1,1.9968866E1,-6.1978607E0,7E0,1.5184384E1,3.9609936E1,3.949499E1,1.697309E1,4.111858E0,9.3831176E-1],"split_indices":[2,5,1,2,2,2,1,0,0,2,0,0,0,8,8,0,0,8,8,0,0,5,2,1,2,0,0,5,0,5,1,2,0,5,0,0,0,8,2,0,8,0,0,0,5,0,0,0,0,0,0],"split_type":[0,0,0,0,0,0,0,0,0,0,0,0,0,0,0,0,0,0,0,0,0,0,0,0,0,0,0,0,0,0,0,0,0,0,0,0,0,0,0,0,0,0,0,0,0,0,0,0,0,0,0],"sum_hessian":[1.22E2,2.8E1,9.4E1,1.4E1,1.4E1,1.4E1,8E1,4E0,1E1,1.1E1,3E0,2E0,1.2E1,4E1,4E1,3E0,8E0,2.2E1,1.8E1,1.2E1,2.8E1,6E0,1.6E1,1.1E1,7E0,4E0,2E0,1E1,1E0,1.1E1,5E0,6E0,1E0,6E0,4E0,2E0,3E0,7E0,4E0,1E0,5E0,3E0,3E0,2E0,2E0,4E0,3E0,1E0,4E0,1E0,1E0],"tree_param":{"num_deleted":"0","num_feature":"9","num_nodes":"51","size_leaf_vector":"0"}},{"base_weights":[4.5495123E2,1.9060275E2,5.84801E2,4.7564453E1,1.5648044E2,1.4110403E2,5.355636E2,2.056861E1,7.2891945E1,8.601488E2,4.1844244E2,3.684983E1,9.083223E1,1.20161644E2,7.2920654E1,3.2795685E2,8.947546E1,1.5665263E0,4.2190604E0,1.0173627E1,3.1477365E0,4.094075E2,5.2111996E1,4.5505597E2,7.489016E0,8.913971E-1,5.4968998E1,5.286288E2,1.8377598E1,4.4000444E0,8.781156E0,4.662033E1,8.726311E1],"categories":[],"categories_nodes":[],"categories_segments":[],"categories_sizes":[],"default_left":[true,false,false,false,false,false,true,false,true,true,true,true,false,false,false,true,false,false,false,false,false,true,true,true,false,false,true,false,false,false,false,false,false],"id":16,"left_children":[1,3,5,-1,7,-1,9,-1,11,13,15,17,19,-1,-1,21,-1,-1,-1,-1,-1,23,25,27,-1,-1,29,31,-1,-1,-1,-1,-1],"loss_changes":[4.110584E6,3.3407488E5,2.580214E6,0E0,1.4541519E5,0E0,2.643326E6,0E0,6.998539E3,1.8025E4,2.292523E6,1.310664E2,3.2696875E3,0E0,0E0,1.1469875E6,0E0,0E0,0E0,0E0,0E0,5.767285E5,1.1144297E3,6.01409E5,0E0,0E0,4.5907812E2,1.729875E5,0E0,0E0,0E0,0E0,0E0],"parents":[2147483647,0,0,1,1,2,2,4,4,6,6,8,8,9,9,10,10,11,11,12,12,15,15,21,21,22,22,23,23,26,26,27,27],"right_children":[2,4,6,-1,8,-1,10,-1,12,14,16,18,20,-1,-1,22,-1,-1,-1,-1,-1,24,26,28,-1,-1,30,32,-1,-1,-1,-1,-1],"split_conditions":[2.4438476E7,3E0,1.2152622E2,4.7564453E1,2.3465408E7,1.4110403E2,3E0,2.056861E1,2.3682052E7,1E0,3.4917956E7,2.351512E7,1.2153089E2,1.20161644E2,7.2920654E1,9E0,8.947546E1,1.5665263E0,4.2190604E0,1.0173627E1,3.1477365E0,1.2155687E2,1E1,3.4917188E7,7.489016E0,8.913971E-1,5.1863496E7,7E0,1.8377598E1,4.4000444E0,8.781156E0,4.662033E1,8.726311E1],"split_indices":[0,7,3,0,0,0,7,0,0,5,0,0,3,0,0,5,0,0,0,0,0,3,5,0,0,0,1,5,0,0,0,0,0],"split_type":[0,0,0,0,0,0,0,0,0,0,0,0,0,0,0,0,0,0,0,0,0,0,0,0,0,0,0,0,0,0,0,0,0],"sum_hessian":[1.22E2,4.1E1,8.1E1,3E0,3.8E1,3E0,7.8E1,2.3E1,1.5E1,1.9E1,5.9E1,6E0,9E0,3E0,1.6E1,5.1E1,8E0,2E0,4E0,7E0,2E0,3.9E1,1.2E1,3.4E1,5E0,1E0,1.1E1,2.6E1,8E0,1E1,1E0,2.4E1,2E0],"tree_param":{"num_deleted":"0","num_feature":"9","num_nodes":"33","size_leaf_vector":"0"}},{"base_weights":[4.1502298E2,6.523135E1,5.174328E2,4.4349323E1,8.1764626E1,7.8228735E2,3.4989618E2,6.556957E0,3.0672004E0,1.3052124E2,6.9519684E2,4.9361887E0,9.78818E0,2.0311952E2,4.719783E2,1.1114953E2,6.1651722E1,3.855536E2,1.1526114E2,6.1755E2,1.778963E2,4.7727E1,1.5159058E2,7.949584E2,2.2989163E2,-2.328994E1,1.4431413E2,-3.9773514E0,2.0130025E2,1.7696972E1,3.7726593E0,2.7430222E2,6.443994E0,1.4289801E2,3.094069E1,2.273351E1,8.211344E1,-7.155899E0,1.7227554E2,6.7729373E0,3.020709E1,4.8142357E1,2.0907405E2,1.13922386E2,2.3097668E2,1.2145972E1,-1.2256355E1,-2.0439829E1,1.6619429E2,2.9744923E1,1.1261795E1,9.400078E0,3.444524E1,4.081185E1,2.1409935E2,5.5353823E0,1.7513255E0,3.8376873E1,1.2185966E1],"categories":[],"categories_nodes":[],"categories_segments":[],"categories_sizes":[],"default_left":[true,false,false,true,false,true,true,false,false,false,false,false,false,false,true,false,false,true,true,true,true,false,true,true,true,false,true,false,false,false,false,true,false,true,false,false,false,false,true,false,false,false,true,false,true,false,false,false,false,false,false,false,false,true,true,false,false,false,false],"id":17,"left_children":[1,3,5,7,11,9,13,-1,-1,-1,15,-1,-1,17,19,-1,-1,21,25,23,27,-1,29,35,31,-1,37,-1,33,-1,-1,39,-1,41,-1,-1,-1,-1,43,-1,-1,45,49,47,51,-1,-1,-1,53,-1,-1,-1,-1,55,57,-1,-1,-1,-1],"loss_changes":[4.372366E6,6.385992E3,3.9417E6,2.3423926E3,3.0019766E3,7.32126E5,9.792605E5,0E0,0E0,0E0,3.95634E5,0E0,0E0,4.2038312E5,1.2600605E6,0E0,0E0,1.207745E5,2.460279E5,1.261496E6,6.913841E4,0E0,4.8826094E3,2.1341E4,4.1106406E4,0E0,1.3305016E5,0E0,2.523675E4,0E0,0E0,1.3958469E4,0E0,4.636967E4,0E0,0E0,0E0,0E0,3.534375E4,0E0,0E0,7.746508E4,9.1235E3,2.1700128E5,9.196872E4,0E0,0E0,0E0,5.132675E4,0E0,0E0,0E0,0E0,3.858042E2,6.2785812E4,0E0,0E0,0E0,0E0],"parents":[2147483647,0,0,1,1,2,2,3,3,5,5,4,4,6,6,10,10,13,13,14,14,17,17,19,19,18,18,20,20,22,22,24,24,28,28,23,23,26,26,31,31,33,33,38,38,41,41,43,43,42,42,44,44,48,48,53,53,54,54],"right_children":[2,4,6,8,12,10,14,-1,-1,-1,16,-1,-1,18,20,-1,-1,22,26,24,28,-1,30,36,32,-1,38,-1,34,-1,-1,40,-1,42,-1,-1,-1,-1,44,-1,-1,46,50,48,52,-1,-1,-1,54,-1,-1,-1,-1,56,58,-1,-1,-1,-1],"split_conditions":[2.502582E1,3.2E1,1.2154764E2,2.502329E1,2.50222E1,1.2152622E2,1.52E2,6.556957E0,3.0672004E0,1.3052124E2,2.502632E1,4.9361887E0,9.78818E0,5.6E1,2.14E2,1.1114953E2,6.1651722E1,1E0,5.7E1,1.2155664E2,2.502834E1,4.7727E1,1.2155666E2,1.58E2,1.04970104E8,-2.328994E1,2.502834E1,-3.9773514E0,1.2155681E2,1.7696972E1,3.7726593E0,2.502888E1,6.443994E0,1.04970104E8,3.094069E1,2.273351E1,8.211344E1,-7.155899E0,1.2155666E2,6.7729373E0,3.020709E1,2.502937E1,1E0,1E0,1.43E2,1.2145972E1,-1.2256355E1,-2.0439829E1,7.5E1,2.9744923E1,1.1261795E1,9.400078E0,3.444524E1,2.502888E1,1.05E2,5.5353823E0,1.7513255E0,3.8376873E1,1.2185966E1],"split_indices":[2,5,3,2,2,3,8,0,0,0,2,0,0,8,8,0,0,5,8,3,2,0,3,8,1,0,2,0,3,0,0,2,0,1,0,0,0,0,3,0,0,2,5,5,8,0,0,0,8,0,0,0,0,2,8,0,0,0,0],"split_type":[0,0,0,0,0,0,0,0,0,0,0,0,0,0,0,0,0,0,0,0,0,0,0,0,0,0,0,0,0,0,0,0,0,0,0,0,0,0,0,0,0,0,0,0,0,0,0,0,0,0,0,0,0,0,0,0,0,0,0],"sum_hessian":[1.22E2,2.8E1,9.4E1,1.4E1,1.4E1,3.5E1,5.9E1,4E0,1E1,3E0,3.2E1,6E0,8E0,2.8E1,3.1E1,3E0,2.9E1,8E0,2E1,2E1,1.1E1,5E0,3E0,1.3E1,7E0,1E0,1.9E1,1E0,1E1,2E0,1E0,5E0,2E0,8E0,2E0,1E0,1.2E1,2E0,1.7E1,1E0,4E0,4E0,4E0,1E1,7E0,3E0,1E0,1E0,9E0,1E0,3E0,4E0,3E0,3E0,6E0,1E0,2E0,1E0,5E0],"tree_param":{"num_deleted":"0","num_feature":"9","num_nodes":"59","size_leaf_vector":"0"}},{"base_weights":[3.7891748E2,5.9547707E1,4.7242072E2,4.0555832E1,7.456974E1,7.124843E2,3.2050888E2,7.0829673E0,3.044988E1,1.2073212E2,6.309136E2,4.513086E0,8.918113E0,2.695209E2,9.669601E1,1.2576253E0,3.2556336E0,1.0281331E2,5.569206E2,1.5269046E2,3.5602313E2,4.0008502E2,7.312374E1,1.711199E1,6.2739077E0,4.2419858E2,1.3466388E2,4.6173306E1,1.4745346E1,4.5551453E2,5.3148846E1,1.6880315E2,7.359184E1,3.8710895E2,7.597134E1,2.708783E0,1.9746002E1,2.3752747E-1,7.7347994E0,2.49552E1,1.3406921E1,1.4876527E0,4.0591717E1,4.8087893E0,1.2150065E0,1.6125489E-2,1.6612549E-1],"categories":[],"categories_nodes":[],"categories_segments":[],"categories_sizes":[],"default_left":[true,true,true,false,true,true,false,false,true,false,true,false,false,true,false,false,false,false,true,false,true,false,false,false,false,true,true,false,false,false,true,true,true,true,false,false,false,false,false,true,false,false,false,false,true,false,false],"id":18,"left_children":[1,3,5,7,11,9,13,-1,15,-1,17,-1,-1,19,-1,-1,-1,-1,21,23,25,27,-1,-1,-1,29,31,-1,-1,33,37,35,39,41,-1,-1,-1,-1,-1,43,-1,-1,-1,-1,45,-1,-1],"loss_changes":[3.644906E6,5.249375E3,3.23615E6,2.4324355E3,2.4273203E3,6.91396E5,1.7170575E6,0E0,8.0012695E1,0E0,3.97331E5,0E0,0E0,5.21686E5,0E0,0E0,0E0,0E0,5.27615E5,3.2365625E4,4.257965E5,2.1225225E5,0E0,0E0,0E0,2.546645E5,6.342047E3,0E0,0E0,1.637035E5,3.5023086E3,1.4956828E4,1.1361357E4,1.3398175E5,0E0,0E0,0E0,0E0,0E0,2.1382712E3,0E0,0E0,0E0,0E0,1.1428194E0,0E0,0E0],"parents":[2147483647,0,0,1,1,2,2,3,3,5,5,4,4,6,6,8,8,10,10,13,13,18,18,19,19,20,20,21,21,25,25,26,26,29,29,31,31,30,30,32,32,33,33,39,39,44,44],"right_children":[2,4,6,8,12,10,14,-1,16,-1,18,-1,-1,20,-1,-1,-1,-1,22,24,26,28,-1,-1,-1,30,32,-1,-1,34,38,36,40,42,-1,-1,-1,-1,-1,44,-1,-1,-1,-1,46,-1,-1],"split_conditions":[2.502582E1,3.2E1,1.2154764E2,7.9E-1,2.50222E1,1.2152622E2,3.4917956E7,7.0829673E0,2.351512E7,1.2073212E2,2.502632E1,4.513086E0,8.918113E0,2.9377382E7,9.669601E1,1.2576253E0,3.2556336E0,1.0281331E2,1.4E-1,1.5002076E7,3.4917188E7,2E0,7.312374E1,1.711199E1,6.2739077E0,9E0,7E-2,4.6173306E1,1.4745346E1,7E0,1E1,6E-2,1.1E-1,2.502894E1,7.597134E1,2.708783E0,1.9746002E1,2.3752747E-1,7.7347994E0,9E-2,1.3406921E1,1.4876527E0,4.0591717E1,4.8087893E0,1E-1,1.6125489E-2,1.6612549E-1],"split_indices":[2,5,3,6,2,3,0,0,0,0,2,0,0,0,0,0,0,0,6,0,0,5,0,0,0,5,6,0,0,5,5,6,6,2,0,0,0,0,0,6,0,0,0,0,6,0,0],"split_type":[0,0,0,0,0,0,0,0,0,0,0,0,0,0,0,0,0,0,0,0,0,0,0,0,0,0,0,0,0,0,0,0,0,0,0,0,0,0,0,0,0,0,0,0,0,0,0],"sum_hessian":[1.22E2,2.8E1,9.4E1,1.4E1,1.4E1,3.5E1,5.9E1,2E0,1.2E1,3E0,3.2E1,6E0,8E0,5.6E1,3E0,2E0,1E1,3E0,2.9E1,2.5E1,3.1E1,1.7E1,1.2E1,2E1,5E0,2.3E1,8E0,1.3E1,4E0,2.1E1,2E0,4E0,4E0,1.9E1,2E0,1E0,3E0,1E0,1E0,3E0,1E0,1E0,1.8E1,1E0,2E0,1E0,1E0],"tree_param":{"num_deleted":"0","num_feature":"9","num_nodes":"47","size_leaf_vector":"0"}},{"base_weights":[3.4646945E2,1.4055646E2,4.4771185E2,2.1245145E2,6.554049E1,1.1167722E2,4.0816815E2,3.591028E1,1.680594E2,1.0762036E1,4.6833447E1,4.8297372E2,1.27828476E2,8.8494995E1,2.8044705E2,5.192861E2,5.7510924E0,5.5553154E1,-4.634094E0,7.5067544E0,3.1583307E2,1.3095061E1,-2.915387E1,8.733675E2,4.684442E2,3.439784E1,7.348059E0,3.3049412E0,-1.3673123E1,1.5077598E1,4.0308315E1,2.5604947E0,7.0961586E1,-7.8196387E0,5.898685E0,2.5622256E2,5.732609E2,1.5614881E1,9.855814E1,8.810835E0,3.6193154E0,3.376772E2,6.834654E1,6.553863E2,3.6808224E2,4.3912632E1,2.4379684E2,5.402747E2,8.413164E2,4.525645E1,-1.7585355E2,1.4427087E2,5.6784847E1,3.3297295E1,4.9083496E1,9.126131E1,2.0676838E1,2.723828E0,1.5923659E1,6.6331985E1,2.0413863E2,1.0926341E1,-3.040156E1,-2.3132324E-2,6.559888E0,3.0534224E1,1.1542969E-1,1.4133011E0,2.2565003E-1],"categories":[],"categories_nodes":[],"categories_segments":[],"categories_sizes":[],"default_left":[true,true,true,true,true,false,true,false,false,false,true,true,false,false,true,true,false,false,false,true,true,false,true,false,true,false,false,false,false,false,false,false,true,false,false,false,true,false,false,false,false,true,false,false,false,false,false,true,true,false,false,true,false,false,true,false,false,false,false,false,true,true,false,false,false,false,false,false,false],"id":19,"left_children":[1,3,5,7,9,-1,11,-1,13,-1,17,15,19,21,29,23,-1,31,-1,27,25,-1,33,37,35,-1,-1,-1,-1,-1,-1,-1,39,-1,-1,41,43,-1,-1,-1,-1,45,49,47,51,-1,53,59,55,-1,61,57,-1,-1,63,-1,-1,-1,-1,-1,65,67,-1,-1,-1,-1,-1,-1,-1],"loss_changes":[2.501267E6,2.1259319E5,1.713655E6,7.6362625E4,1.2277945E4,0E0,1.594969E6,0E0,1.3613888E5,0E0,1.6386094E4,9.28007E5,4.0480778E5,6.3755977E4,5.054125E4,6.16998E5,0E0,5.5663125E3,0E0,4.8729543E4,2.2471875E4,0E0,2.190313E4,3.289945E5,1.009825E6,0E0,0E0,0E0,0E0,0E0,0E0,0E0,2.7727422E3,0E0,0E0,2.6768488E5,3.31676E5,0E0,0E0,0E0,0E0,1.6755375E4,7.363675E5,3.7721E4,4.5459538E5,0E0,1.399305E5,5.67709E5,1.279885E5,0E0,1.2301222E5,7.923E3,0E0,0E0,3.2729863E3,0E0,0E0,0E0,0E0,0E0,1.22904016E5,5.1512817E1,0E0,0E0,0E0,0E0,0E0,0E0,0E0],"parents":[2147483647,0,0,1,1,2,2,3,3,4,4,6,6,8,8,11,11,10,10,12,12,13,13,15,15,20,20,19,19,14,14,17,17,22,22,24,24,23,23,32,32,35,35,36,36,41,41,43,43,42,42,44,44,46,46,48,48,51,51,47,47,50,50,54,54,60,60,61,61],"right_children":[2,4,6,8,10,-1,12,-1,14,-1,18,16,20,22,30,24,-1,32,-1,28,26,-1,34,38,36,-1,-1,-1,-1,-1,-1,-1,40,-1,-1,42,44,-1,-1,-1,-1,46,50,48,52,-1,54,60,56,-1,62,58,-1,-1,64,-1,-1,-1,-1,-1,66,68,-1,-1,-1,-1,-1,-1,-1],"split_conditions":[2.4438476E7,2.14E2,1.2152622E2,1.0559106E7,1.0620342E7,1.1167722E2,2.58E2,3.591028E1,1.49E2,1.0762036E1,1.7E1,1.2155687E2,2.93E2,1.0620342E7,1.0619401E7,1E0,5.7510924E0,2.3682052E7,-4.634094E0,1.2153083E2,2.937753E7,1.3095061E1,1.5002076E7,2.7779964E7,1.48E2,3.439784E1,7.348059E0,3.3049412E0,-1.3673123E1,1.5077598E1,4.0308315E1,2.5604947E0,1.215303E2,-7.8196387E0,5.898685E0,1.3E1,2.14E2,1.5614881E1,9.855814E1,8.810835E0,3.6193154E0,1E0,2.937753E7,1.94E2,2.21E2,4.3912632E1,3.4917188E7,1.86E2,1.2155664E2,4.525645E1,2.93777E7,2.443855E7,5.6784847E1,3.3297295E1,7.5E1,9.126131E1,2.0676838E1,2.723828E0,1.5923659E1,6.6331985E1,3.4917188E7,7E0,-3.040156E1,-2.3132324E-2,6.559888E0,3.0534224E1,1.1542969E-1,1.4133011E0,2.2565003E-1],"split_indices":[0,8,3,0,0,0,8,0,8,0,7,3,8,0,0,8,0,0,0,3,0,0,0,0,8,0,0,0,0,0,0,0,3,0,0,7,8,0,0,0,0,5,0,8,8,0,0,8,3,0,0,0,0,0,8,0,0,0,0,0,0,5,0,0,0,0,0,0,0],"split_type":[0,0,0,0,0,0,0,0,0,0,0,0,0,0,0,0,0,0,0,0,0,0,0,0,0,0,0,0,0,0,0,0,0,0,0,0,0,0,0,0,0,0,0,0,0,0,0,0,0,0,0,0,0,0,0,0,0,0,0,0,0,0,0,0,0,0,0,0,0],"sum_hessian":[1.22E2,4.1E1,8.1E1,2E1,2.1E1,3E0,7.8E1,3E0,1.7E1,5E0,1.6E1,6.1E1,1.7E1,1.1E1,6E0,5.6E1,5E0,1.5E1,1E0,1.1E1,6E0,8E0,3E0,5E0,5.1E1,5E0,1E0,1E1,1E0,4E0,2E0,6E0,9E0,2E0,1E0,1.8E1,3.3E1,1E0,4E0,5E0,4E0,1.2E1,6E0,2.2E1,1.1E1,4E0,8E0,1.6E1,6E0,2E0,4E0,6E0,5E0,5E0,3E0,5E0,1E0,1E0,5E0,1.1E1,5E0,2E0,2E0,1E0,2E0,3E0,2E0,1E0,1E0],"tree_param":{"num_deleted":"0","num_feature":"9","num_nodes":"69","size_leaf_vector":"0"}},{"base_weights":[3.180921E2,4.9822712E1,3.966365E2,3.3653286E1,6.267062E1,5.976428E2,2.694221E2,6.0233808E0,2.4930605E1,1.03301445E2,5.2676013E2,2.0666482E0,6.754307E0,2.2476315E2,8.384564E1,1.0031688E0,2.6727529E0,8.771045E1,4.6248886E2,1.2730339E2,2.9692538E2,3.3713306E2,6.2242816E2,1.49999485E1,6.776639E0,3.533954E2,1.13347046E2,3.8493412E1,1.6940837E2,3.7898132E2,4.7966827E1,8.8483246E1,4.366454E1,1.7771606E0,1.23072525E2,5.962215E0,2.0939594E1,2.1436767E-1,6.9806566E0,5.1128403E1,2.6685953E2,1.6443333E1,6.5369385E1,1.6319319E1,3.0631933E1,2.2009766E1,1.1940393E1,4.2403564E0,1.0773112E0,9.545899E-3,1.5205078E-1],"categories":[],"categories_nodes":[],"categories_segments":[],"categories_sizes":[],"default_left":[false,true,true,false,true,true,true,false,true,false,true,false,false,true,false,false,false,false,false,true,true,true,true,false,false,true,true,false,false,true,true,false,false,false,true,false,false,false,false,false,false,false,true,false,false,true,false,false,true,false,false],"id":20,"left_children":[1,3,5,7,11,9,13,-1,15,-1,17,-1,-1,19,-1,-1,-1,-1,21,23,25,27,31,-1,-1,29,33,-1,35,39,37,-1,-1,-1,41,-1,-1,-1,-1,-1,43,-1,45,-1,-1,47,-1,-1,49,-1,-1],"loss_changes":[2.571979E6,3.9154844E3,2.268218E6,1.9761348E3,1.6740664E3,5.66821E5,1.3362945E6,0E0,7.9916504E1,0E0,3.37413E5,0E0,0E0,3.630765E5,0E0,0E0,0E0,0E0,3.916385E5,2.496775E4,2.91677E5,8.712E4,1.986445E5,0E0,0E0,1.693735E5,6.178453E3,0E0,1.3855859E4,1.8990775E5,2.8526538E3,0E0,0E0,0E0,8.344273E3,0E0,0E0,0E0,0E0,0E0,7.2799375E3,0E0,9.086533E3,0E0,0E0,1.6618871E3,0E0,0E0,1.1603146E0,0E0,0E0],"parents":[2147483647,0,0,1,1,2,2,3,3,5,5,4,4,6,6,8,8,10,10,13,13,18,18,19,19,20,20,21,21,25,25,22,22,26,26,28,28,30,30,29,29,34,34,40,40,42,42,45,45,48,48],"right_children":[2,4,6,8,12,10,14,-1,16,-1,18,-1,-1,20,-1,-1,-1,-1,22,24,26,28,32,-1,-1,30,34,-1,36,40,38,-1,-1,-1,42,-1,-1,-1,-1,-1,44,-1,46,-1,-1,48,-1,-1,50,-1,-1],"split_conditions":[2.502582E1,3.2E1,1.2154764E2,7.9E-1,2.502202E1,1.2152622E2,3.4917956E7,6.0233808E0,2.351512E7,1.03301445E2,2.502632E1,2.0666482E0,6.754307E0,2.9377382E7,8.384564E1,1.0031688E0,2.6727529E0,8.771045E1,1.7E-1,6E-2,3.4917188E7,2E0,2.443855E7,1.49999485E1,6.776639E0,9E0,6E-2,3.8493412E1,1.3E-1,2.93777E7,1E1,8.8483246E1,4.366454E1,1.7771606E0,7E-2,5.962215E0,2.0939594E1,2.1436767E-1,6.9806566E0,5.1128403E1,3.2570416E7,1.6443333E1,1.1E-1,1.6319319E1,3.0631933E1,9E-2,1.1940393E1,4.2403564E0,1E-1,9.545899E-3,1.5205078E-1],"split_indices":[2,5,3,6,2,3,0,0,0,0,2,0,0,0,0,0,0,0,6,6,0,5,0,0,0,5,6,0,6,0,5,0,0,0,6,0,0,0,0,0,0,0,6,0,0,6,0,0,6,0,0],"split_type":[0,0,0,0,0,0,0,0,0,0,0,0,0,0,0,0,0,0,0,0,0,0,0,0,0,0,0,0,0,0,0,0,0,0,0,0,0,0,0,0,0,0,0,0,0,0,0,0,0,0,0],"sum_hessian":[1.22E2,2.8E1,9.4E1,1.4E1,1.4E1,3.5E1,5.9E1,2E0,1.2E1,3E0,3.2E1,2E0,1.2E1,5.6E1,3E0,2E0,1E1,3E0,2.9E1,2.5E1,3.1E1,1.8E1,1.1E1,1.7E1,8E0,2.3E1,8E0,1.3E1,5E0,2.1E1,2E0,3E0,8E0,1E0,7E0,2E0,3E0,1E0,1E0,8E0,1.3E1,3E0,4E0,5E0,8E0,3E0,1E0,1E0,2E0,1E0,1E0],"tree_param":{"num_deleted":"0","num_feature":"9","num_nodes":"51","size_leaf_vector":"0"}},{"base_weights":[2.9158804E2,4.5479073E1,3.6364667E2,3.3058884E1,6.0319427E1,5.486717E2,2.4657086E2,4.6295036E1,2.0427241E0,9.555383E1,4.8272815E2,3.3799977E0,8.120555E0,1.3322987E2,3.415808E2,5.2477142E1,1.8499146E0,2.8154202E2,6.3323254E1,8.1132164E1,4.2282474E2,4.5551437E2,1.13732E2,2.355479E0,6.1049623E0,-2.3450827E1,8.994025E1,6.674367E1,2.3244911E1,5.9346826E2,1.5715579E2,4.0820828E2,1.5017418E2,2.9890332E2,5.6188324E2,5.5610744E1,2.6593718E1,1.4719019E1,6.1647503E1,3.4919028E2,9.831909E1,8.727217E1,2.3234211E1,3.978324E1,7.4479816E2,4.64724E1,1.1933057E1,-6.261139E0,1.410007E2,2.0493965E1,5.8137026E0,-5.976755E1,1.5389014E2,1.1519562E1,1.5406494E0,-1.2638543E1,8.539737E0,1.7444462E1,3.612549E-1,2.2505554E1,8.184699E1,4.0125317E1,2.1289759E1,9.5870495E0,2.6439438E0,-1.6595396E2,2.098465E1,7.054293E1,2.612752E2,-1.8769701E1,-5.036243E0,8.141624E0,2.8906434E0,-1.3719422E0,4.176654E1,3.5011974E1,1.1495378E1,2.0364991E-1,5.4331055E0],"categories":[],"categories_nodes":[],"categories_segments":[],"categories_sizes":[],"default_left":[false,true,false,true,true,false,true,true,false,false,false,false,false,false,true,true,false,true,true,false,true,true,true,false,false,false,false,true,false,false,false,true,true,true,true,true,false,false,false,true,true,true,false,false,true,false,false,true,true,false,false,true,true,false,false,false,false,false,false,false,false,false,false,false,false,true,true,false,true,false,false,false,false,false,true,false,false,false,false],"id":21,"left_children":[1,3,5,7,11,9,13,15,-1,-1,19,-1,-1,17,21,23,-1,31,25,-1,33,29,27,-1,-1,-1,35,47,-1,37,49,45,41,39,43,51,-1,-1,-1,61,53,63,-1,-1,59,-1,-1,55,57,-1,-1,65,67,-1,-1,-1,-1,-1,-1,-1,-1,-1,-1,-1,-1,69,73,71,75,-1,-1,-1,-1,-1,77,-1,-1,-1,-1],"loss_changes":[2.164778E6,3.3511875E3,1.9226E6,2.0638203E3,3.901918E3,5.04624E5,6.006025E5,4.0391406E2,0E0,0E0,3.06521E5,0E0,0E0,2.8284388E5,7.78901E5,4.960547E1,0E0,8.845656E4,1.8756669E5,0E0,3.49021E5,7.710875E5,5.142533E4,0E0,0E0,0E0,1.06048734E5,5.5094035E4,0E0,5.3005E4,2.5937406E4,9.84875E3,1.0734172E4,1.4723E5,9.37905E4,2.1330522E5,0E0,0E0,0E0,1.391525E4,5.221621E3,8.053516E1,0E0,0E0,7.2505E3,0E0,0E0,7.685545E4,2.234379E4,0E0,0E0,8.065556E4,7.107133E4,0E0,0E0,0E0,0E0,0E0,0E0,0E0,0E0,0E0,0E0,0E0,0E0,6.003672E2,4.9003096E3,8.156367E2,1.1751875E4,0E0,0E0,0E0,0E0,0E0,1.8861104E3,0E0,0E0,0E0,0E0],"parents":[2147483647,0,0,1,1,2,2,3,3,5,5,4,4,6,6,7,7,13,13,10,10,14,14,15,15,18,18,22,22,21,21,17,17,20,20,26,26,29,29,33,33,32,32,34,34,31,31,27,27,30,30,35,35,40,40,47,47,48,48,44,44,39,39,41,41,51,51,52,52,65,65,67,67,66,66,68,68,74,74],"right_children":[2,4,6,8,12,10,14,16,-1,-1,20,-1,-1,18,22,24,-1,32,26,-1,34,30,28,-1,-1,-1,36,48,-1,38,50,46,42,40,44,52,-1,-1,-1,62,54,64,-1,-1,60,-1,-1,56,58,-1,-1,66,68,-1,-1,-1,-1,-1,-1,-1,-1,-1,-1,-1,-1,70,74,72,76,-1,-1,-1,-1,-1,78,-1,-1,-1,-1],"split_conditions":[2.502582E1,1.56E0,1.2154764E2,2.502329E1,2.50222E1,1.2152622E2,1.52E2,1.44E0,2.0427241E0,9.555383E1,2.502632E1,3.3799977E0,8.120555E0,5.6E1,2.14E2,2.502296E1,1.8499146E0,1.2155622E2,5.7E1,8.1132164E1,1.4E-1,1.2155664E2,1.2155681E2,2.355479E0,6.1049623E0,-2.3450827E1,3.8E-1,1.04970104E8,2.3244911E1,1.58E2,4E-2,2E-2,1E0,7E-2,2.503608E1,1.2155664E2,2.6593718E1,1.4719019E1,6.1647503E1,1.57E2,1.94E2,1.04970104E8,2.3234211E1,3.978324E1,1.7E-1,4.64724E1,1.1933057E1,1.2155633E2,1.2E-1,2.0493965E1,5.8137026E0,5E-2,1.46E2,1.1519562E1,1.5406494E0,-1.2638543E1,8.539737E0,1.7444462E1,3.612549E-1,2.2505554E1,8.184699E1,4.0125317E1,2.1289759E1,9.5870495E0,2.6439438E0,1.47E2,7.5E1,1.04970104E8,2.502922E1,-1.8769701E1,-5.036243E0,8.141624E0,2.8906434E0,-1.3719422E0,1.04970104E8,3.5011974E1,1.1495378E1,2.0364991E-1,5.4331055E0],"split_indices":[2,6,3,2,2,3,8,6,0,0,2,0,0,8,8,2,0,3,8,0,6,3,3,0,0,0,6,1,0,8,6,6,8,6,2,3,0,0,0,8,8,1,0,0,6,0,0,3,6,0,0,6,8,0,0,0,0,0,0,0,0,0,0,0,0,8,8,1,2,0,0,0,0,0,1,0,0,0,0],"split_type":[0,0,0,0,0,0,0,0,0,0,0,0,0,0,0,0,0,0,0,0,0,0,0,0,0,0,0,0,0,0,0,0,0,0,0,0,0,0,0,0,0,0,0,0,0,0,0,0,0,0,0,0,0,0,0,0,0,0,0,0,0,0,0,0,0,0,0,0,0,0,0,0,0,0,0,0,0,0,0],"sum_hessian":[1.22E2,2.8E1,9.4E1,1.7E1,1.1E1,3.5E1,5.9E1,7E0,1E1,3E0,3.2E1,6E0,5E0,2.8E1,3.1E1,5E0,2E0,8E0,2E1,3E0,2.9E1,2E1,1.1E1,2E0,3E0,1E0,1.9E1,9E0,2E0,1.3E1,7E0,3E0,5E0,1.7E1,1.2E1,1.7E1,2E0,1E0,1.2E1,1.3E1,4E0,4E0,1E0,8E0,4E0,2E0,1E0,5E0,4E0,4E0,3E0,8E0,9E0,3E0,1E0,2E0,3E0,3E0,1E0,1E0,3E0,8E0,5E0,3E0,1E0,3E0,5E0,6E0,3E0,2E0,1E0,4E0,2E0,2E0,3E0,1E0,2E0,1E0,2E0],"tree_param":{"num_deleted":"0","num_feature":"9","num_nodes":"79","size_leaf_vector":"0"}},{"base_weights":[2.680698E2,1.0694664E2,3.4732715E2,2.7320597E1,8.7152176E1,8.838731E1,3.1576373E2,1.1311407E2,4.276233E1,5.0877777E2,2.4616298E2,1.2639393E1,7.693719E0,4.2198035E2,7.504724E1,1.8734362E1,5.5305676E1,1.876346E2,5.5697546E2,9.109908E0,5.1678235E2,6.9621706E0,2.7065308E0,7.293366E1,3.492388E1,8.001119E-1,2.1427436E0,2.3392903E2,3.0756792E1,6.911889E1,3.624696E1,2.0034499E2,5.813504E1,1.9346619E-1,3.2997414E1,2.8381128E2,1.11034775E2,2.4716022E0,6.204637E0,2.2610254E2,3.711631E1,6.5662384E1,2.7610876E1,2.5790375E1,1.4071696E1,1.0569162E2,4.01759E1,8.160767E-1,1.2356564E1,-4.007488E0,6.0233545E0],"categories":[],"categories_nodes":[],"categories_segments":[],"categories_sizes":[],"default_left":[true,true,false,false,true,false,false,true,true,true,true,false,false,true,false,false,true,true,true,false,true,false,false,false,false,false,false,true,true,false,false,true,false,false,true,true,true,false,false,false,false,false,false,false,false,false,true,false,false,false,false],"id":22,"left_children":[1,3,5,-1,7,-1,9,11,15,13,17,-1,-1,19,-1,25,21,27,23,-1,29,-1,-1,-1,-1,-1,-1,31,33,-1,-1,35,-1,-1,37,39,41,-1,-1,43,-1,45,-1,-1,-1,47,49,-1,-1,-1,-1],"loss_changes":[1.533589E6,1.1441206E5,1.109594E6,0E0,4.0108312E4,0E0,9.360385E5,1.8057812E3,3.7861426E3,1.028845E5,9.86973E5,0E0,0E0,4.8618125E5,0E0,3.0894287E1,2.1585664E3,3.7045862E5,6.753875E4,0E0,9.933625E4,0E0,0E0,0E0,0E0,0E0,0E0,3.50242E5,7.7569434E2,0E0,0E0,2.51754E5,0E0,0E0,1.353251E3,1.1857375E4,1.3166606E5,0E0,0E0,1.7236875E3,0E0,1.3097227E4,0E0,0E0,0E0,9.451219E3,2.172955E4,0E0,0E0,0E0,0E0],"parents":[2147483647,0,0,1,1,2,2,4,4,6,6,7,7,9,9,8,8,10,10,13,13,16,16,18,18,15,15,17,17,20,20,27,27,28,28,31,31,34,34,35,35,36,36,39,39,41,41,45,45,46,46],"right_children":[2,4,6,-1,8,-1,10,12,16,14,18,-1,-1,20,-1,26,22,28,24,-1,30,-1,-1,-1,-1,-1,-1,32,34,-1,-1,36,-1,-1,38,40,42,-1,-1,44,-1,46,-1,-1,-1,48,50,-1,-1,-1,-1],"split_conditions":[2.4438476E7,3E0,1.2152622E2,2.7320597E1,2.3465408E7,8.838731E1,3E0,5E-2,2.3682052E7,2.5084812E7,3.4917956E7,1.2639393E1,7.693719E0,1.4E-1,7.504724E1,2.351512E7,1.215303E2,9E0,4.4522784E7,9.109908E0,2.443855E7,6.9621706E0,2.7065308E0,7.293366E1,3.492388E1,8.001119E-1,2.1427436E0,7E0,1E1,6.911889E1,3.624696E1,1E0,5.813504E1,1.9346619E-1,5.1863496E7,1.2155622E2,1.14E0,2.4716022E0,6.204637E0,1.2155616E2,3.711631E1,9E-2,2.7610876E1,2.5790375E1,1.4071696E1,6E-2,1.1E-1,8.160767E-1,1.2356564E1,-4.007488E0,6.0233545E0],"split_indices":[0,7,3,0,0,0,7,6,0,0,0,0,0,6,0,0,3,5,0,0,0,0,0,0,0,0,0,5,5,0,0,5,0,0,1,3,6,0,0,3,0,6,0,0,0,6,6,0,0,0,0],"split_type":[0,0,0,0,0,0,0,0,0,0,0,0,0,0,0,0,0,0,0,0,0,0,0,0,0,0,0,0,0,0,0,0,0,0,0,0,0,0,0,0,0,0,0,0,0,0,0,0,0,0,0],"sum_hessian":[1.22E2,4.1E1,8.1E1,3E0,3.8E1,3E0,7.8E1,2.3E1,1.5E1,1.9E1,5.9E1,1.5E1,8E0,1.6E1,3E0,6E0,9E0,5.1E1,8E0,4E0,1.2E1,5E0,4E0,3E0,5E0,2E0,4E0,3.9E1,1.2E1,4E0,8E0,3.7E1,2E0,1E0,1.1E1,1.8E1,1.9E1,1E1,1E0,1.3E1,5E0,1.6E1,3E0,8E0,5E0,5E0,1.1E1,1E0,4E0,2E0,9E0],"tree_param":{"num_deleted":"0","num_feature":"9","num_nodes":"51","size_leaf_vector":"0"}},{"base_weights":[2.4640767E2,9.768683E1,3.1957678E2,2.5271528E1,7.9281685E1,8.175825E1,2.90316E2,1.0264987E2,3.92743E1,4.6737613E2,2.2645735E2,1.1454451E1,7.009832E0,3.865162E2,6.941869E1,1.728129E1,5.0741978E1,1.7246313E2,5.132621E2,8.381128E0,4.7320914E2,6.38199E0,2.4900074E0,6.746363E1,3.201356E1,7.467601E-1,1.9713246E0,2.1498398E2,2.8363354E1,6.358938E2,3.3024998E1,1.8346259E2,5.4259377E1,1.8375854E-1,3.0420702E1,1.792433E1,7.052456E1,2.594817E2,1.0207129E2,2.2469122E1,5.894405E0,2.0633963E2,3.4023293E1,5.99896E1,2.5540064E1,9.249471E-1,2.4379103E0,2.3497908E1,1.28990555E1,6.98607E1,-9.362437E0,1.0422625E1,4.7889028E0,-1.4463822E0,4.2016603E-2],"categories":[],"categories_nodes":[],"categories_segments":[],"categories_sizes":[],"default_left":[true,false,true,false,false,false,true,true,true,true,false,false,false,true,false,true,true,false,true,false,true,false,false,false,false,false,false,true,true,false,false,false,false,false,true,false,false,false,true,true,false,true,false,false,false,false,false,false,false,false,true,false,false,false,false],"id":23,"left_children":[1,3,5,-1,7,-1,9,11,15,13,17,-1,-1,19,-1,25,21,27,23,-1,29,-1,-1,-1,-1,-1,-1,31,33,35,-1,37,-1,-1,39,-1,-1,41,43,45,-1,47,-1,49,-1,-1,-1,-1,-1,51,53,-1,-1,-1,-1],"loss_changes":[1.3072395E6,9.980378E4,9.575485E5,0E0,3.2429594E4,0E0,7.87398E5,1.2631562E3,3.1584531E3,9.84835E4,8.406295E5,0E0,0E0,4.0646025E5,0E0,1.9854492E1,1.7904648E3,3.12519E5,6.451575E4,0E0,9.23405E4,0E0,0E0,0E0,0E0,0E0,0E0,3.1352325E5,6.535449E2,3.1937125E4,0E0,2.0863162E5,0E0,0E0,1.397248E3,0E0,0E0,1.1330875E4,1.1372575E5,5.2248535E1,0E0,7.031875E2,0E0,1.2291945E4,0E0,0E0,0E0,0E0,0E0,6.3347344E3,1.5579169E2,0E0,0E0,0E0,0E0],"parents":[2147483647,0,0,1,1,2,2,4,4,6,6,7,7,9,9,8,8,10,10,13,13,16,16,18,18,15,15,17,17,20,20,27,27,28,28,29,29,31,31,34,34,37,37,38,38,39,39,41,41,43,43,49,49,50,50],"right_children":[2,4,6,-1,8,-1,10,12,16,14,18,-1,-1,20,-1,26,22,28,24,-1,30,-1,-1,-1,-1,-1,-1,32,34,36,-1,38,-1,-1,40,-1,-1,42,44,46,-1,48,-1,50,-1,-1,-1,-1,-1,52,54,-1,-1,-1,-1],"split_conditions":[2.4438476E7,3E0,1.2152622E2,2.5271528E1,2.3465408E7,8.175825E1,3E0,5E-2,2.3682052E7,2.5084812E7,3.4917956E7,1.1454451E1,7.009832E0,1.4E-1,6.941869E1,2.351512E7,1.215303E2,9E0,4.4522784E7,8.381128E0,2.443855E7,6.38199E0,2.4900074E0,6.746363E1,3.201356E1,7.467601E-1,1.9713246E0,7E0,1E1,1.7E-1,3.3024998E1,1E0,5.4259377E1,1.8375854E-1,5.1863496E7,1.792433E1,7.052456E1,1.2155622E2,1.14E0,2.7921662E7,5.894405E0,1.2155616E2,3.4023293E1,6E0,2.5540064E1,9.249471E-1,2.4379103E0,2.3497908E1,1.28990555E1,7E-2,2.93777E7,1.0422625E1,4.7889028E0,-1.4463822E0,4.2016603E-2],"split_indices":[0,7,3,0,0,0,7,6,0,0,0,0,0,6,0,0,3,5,0,0,0,0,0,0,0,0,0,5,5,6,0,5,0,0,1,0,0,3,6,0,0,3,0,5,0,0,0,0,0,6,0,0,0,0,0],"split_type":[0,0,0,0,0,0,0,0,0,0,0,0,0,0,0,0,0,0,0,0,0,0,0,0,0,0,0,0,0,0,0,0,0,0,0,0,0,0,0,0,0,0,0,0,0,0,0,0,0,0,0,0,0,0,0],"sum_hessian":[1.22E2,4.1E1,8.1E1,3E0,3.8E1,3E0,7.8E1,2.3E1,1.5E1,1.9E1,5.9E1,1.5E1,8E0,1.6E1,3E0,6E0,9E0,5.1E1,8E0,4E0,1.2E1,5E0,4E0,3E0,5E0,2E0,4E0,3.9E1,1.2E1,4E0,8E0,3.7E1,2E0,1E0,1.1E1,1E0,3E0,1.8E1,1.9E1,1E1,1E0,1.3E1,5E0,1.6E1,3E0,2E0,8E0,8E0,5E0,1.4E1,2E0,4E0,1E1,1E0,1E0],"tree_param":{"num_deleted":"0","num_feature":"9","num_nodes":"55","size_leaf_vector":"0"}},{"base_weights":[2.267206E2,8.923541E1,2.9437494E2,1.381291E2,3.8507996E1,3.7362778E2,1.7149957E2,1.0041525E2,2.1567786E2,3.3485043E2,6.4789856E2,6.4089913E0,2.7213907E1,2.388341E2,2.8150078E1,1.3826761E2,-4.770874E1,6.121269E2,2.848877E2,2.5833174E1,3.1249133E2,5.5996842E0,2.0527931E1,-5.7251954E0,3.607127E1,9.172925E0,3.0905005E1,1.07217655E1,7.5626434E1,2.3376167E1,8.624324E0,8.438794E0,7.007971E1,8.632833E-1,2.2212083E0,5.06421E1,2.5287262E2,1.5941511E1,4.6554974E1,3.4718823E0,-1.3740357E0,-9.1110525E0,4.1248307E0,2.3746216E2,6.523521E1,3.50141E1,3.044194E2,5.8501577E0,2.2908056E0,6.969869E-1,1.8136195E0,1.561793E2,4.729889E2,6.7883058E0,1.4300944E0,4.9191284E1,2.0989978E2,8.678858E0,3.1631418E1,5.259743E1,2.4552734E0,1.7460327E-1,3.991089E-2,2.1466386E2,-7.603075E1,2.5339224E2,9.91424E1,2.8432745E2,-3.199524E0,3.522329E2,1.4758768E2,-2.985344E1,7.267759E1,-4.0595703E0,1.631568E1,8.645581E0,3.2146606E1,2.1263566E0,2.1912945E1,1.5151375E1,4.1471405E1,1.4473755E1,1.8478211E0],"categories":[],"categories_nodes":[],"categories_segments":[],"categories_sizes":[],"default_left":[true,false,true,true,false,false,true,false,true,true,false,false,true,false,true,true,true,false,true,true,true,false,true,false,true,false,false,false,false,false,false,false,false,false,false,false,true,true,true,false,false,false,false,true,false,false,true,false,false,false,false,true,true,false,false,false,true,false,false,false,false,false,false,true,true,true,true,true,false,false,false,false,true,false,false,false,false,false,false,false,false,false,false],"id":24,"left_children":[1,3,5,7,11,9,13,15,25,17,27,-1,23,19,21,29,41,31,43,39,35,-1,33,-1,37,-1,-1,-1,-1,-1,-1,-1,-1,-1,-1,-1,45,49,47,-1,-1,-1,-1,51,-1,53,57,-1,-1,-1,-1,55,59,-1,61,63,65,-1,-1,-1,-1,-1,-1,67,71,69,73,75,-1,79,77,-1,81,-1,-1,-1,-1,-1,-1,-1,-1,-1,-1],"loss_changes":[1.1178125E6,9.885147E4,7.344575E5,3.9760562E4,4.612203E3,3.041905E5,3.2145738E5,9.630608E4,4.109122E4,4.490195E5,2.1187175E5,0E0,1.4783611E4,3.5277562E5,1.3975254E3,4.442389E4,1.9201734E4,2.216295E5,5.42179E5,2.9385044E3,6.8491125E4,0E0,2.8611816E1,0E0,2.6343945E3,0E0,0E0,0E0,0E0,0E0,0E0,0E0,0E0,0E0,0E0,0E0,1.5778969E5,1.1422485E1,1.4848457E3,0E0,0E0,0E0,0E0,6.344674E5,0E0,4.318406E3,3.6115E3,0E0,0E0,0E0,0E0,1.5635069E5,2.0093125E5,0E0,2.8032637E-1,2.4424998E5,6.640319E4,0E0,0E0,0E0,0E0,0E0,0E0,9.501294E4,2.5331378E5,8.3966E4,6.92402E4,1.6020938E3,0E0,1.2412125E4,6.764014E4,0E0,1.6853537E4,0E0,0E0,0E0,0E0,0E0,0E0,0E0,0E0,0E0,0E0],"parents":[2147483647,0,0,1,1,2,2,3,3,5,5,4,4,6,6,7,7,9,9,13,13,14,14,12,12,8,8,10,10,15,15,17,17,22,22,20,20,24,24,19,19,16,16,18,18,36,36,38,38,37,37,43,43,45,45,51,51,46,46,52,52,54,54,55,55,56,56,63,63,65,65,64,64,66,66,67,67,70,70,69,69,72,72],"right_children":[2,4,6,8,12,10,14,16,26,18,28,-1,24,20,22,30,42,32,44,40,36,-1,34,-1,38,-1,-1,-1,-1,-1,-1,-1,-1,-1,-1,-1,46,50,48,-1,-1,-1,-1,52,-1,54,58,-1,-1,-1,-1,56,60,-1,62,64,66,-1,-1,-1,-1,-1,-1,68,72,70,74,76,-1,80,78,-1,82,-1,-1,-1,-1,-1,-1,-1,-1,-1,-1],"split_conditions":[2.4438476E7,2.14E2,2.2E-1,1.52E2,1.0620342E7,3.64E2,2.58E2,2E0,1.0619401E7,1E0,1.5E1,6.4089913E0,1.5002076E7,2.9E-1,1.5E1,1.0559106E7,1.5002076E7,2.7779964E7,1.7E-1,2.9377382E7,3.6E-1,5.5996842E0,2.7921662E7,-5.7251954E0,2.3682052E7,9.172925E0,3.0905005E1,1.07217655E1,7.5626434E1,2.3376167E1,8.624324E0,8.438794E0,7.007971E1,8.632833E-1,2.2212083E0,5.06421E1,1.14E0,2.351512E7,5E1,3.4718823E0,-1.3740357E0,-9.1110525E0,4.1248307E0,3.4917956E7,6.523521E1,2E0,5E0,5.8501577E0,2.2908056E0,6.969869E-1,1.8136195E0,1.55E2,2.14E2,6.7883058E0,2.93777E7,2.937753E7,7E-2,8.678858E0,3.1631418E1,5.259743E1,2.4552734E0,1.7460327E-1,3.991089E-2,1.47E2,3.2570416E7,2.07E2,1.1E-1,2.443855E7,-3.199524E0,2.937753E7,2.93E2,-2.985344E1,3.4917188E7,-4.0595703E0,1.631568E1,8.645581E0,3.2146606E1,2.1263566E0,2.1912945E1,1.5151375E1,4.1471405E1,1.4473755E1,1.8478211E0],"split_indices":[0,8,6,8,0,8,8,5,0,8,7,0,0,6,5,0,0,0,6,0,6,0,0,0,0,0,0,0,0,0,0,0,0,0,0,0,6,0,5,0,0,0,0,0,0,5,5,0,0,0,0,8,8,0,0,0,6,0,0,0,0,0,0,8,0,8,6,0,0,0,8,0,0,0,0,0,0,0,0,0,0,0,0],"split_type":[0,0,0,0,0,0,0,0,0,0,0,0,0,0,0,0,0,0,0,0,0,0,0,0,0,0,0,0,0,0,0,0,0,0,0,0,0,0,0,0,0,0,0,0,0,0,0,0,0,0,0,0,0,0,0,0,0,0,0,0,0,0,0,0,0,0,0,0,0,0,0,0,0,0,0,0,0,0,0,0,0,0,0],"sum_hessian":[1.22E2,4.1E1,8.1E1,2E1,2.1E1,4.8E1,3.3E1,1.5E1,5E0,4.4E1,4E0,5E0,1.6E1,2.2E1,1.1E1,1.2E1,3E0,5E0,3.9E1,6E0,1.6E1,1E0,1E1,1E0,1.5E1,3E0,2E0,1E0,3E0,3E0,9E0,1E0,4E0,2E0,8E0,2E0,1.4E1,6E0,9E0,5E0,1E0,2E0,1E0,3.6E1,3E0,3E0,1.1E1,5E0,4E0,2E0,4E0,2.8E1,8E0,1E0,2E0,1E1,1.8E1,1E0,1E1,7E0,1E0,1E0,1E0,4E0,6E0,1.2E1,6E0,3E0,1E0,5E0,7E0,2E0,4E0,2E0,4E0,1E0,2E0,3E0,4E0,2E0,3E0,1E0,3E0],"tree_param":{"num_deleted":"0","num_feature":"9","num_nodes":"83","size_leaf_vector":"0"}},{"base_weights":[2.0883958E2,3.2073067E1,2.606016E2,2.2823414E1,4.327479E1,4.641977E2,2.196813E2,3.2491875E1,1.3716949E0,3.4706577E2,6.995441E1,2.4586992E0,5.7864757E0,1.9051947E2,4.3180698E2,1.3314087E0,3.6665456E0,3.259062E1,1.4679855E2,2.0072618E1,5.8956337E1,5.8459057E1,2.579834E1,7.899053E1,1.9730511E2,8.87048E0,3.182552E0,2.3986873E2,6.1879344E0,2.5668808E2,3.6570484E1,2.1145796E2,4.7265957E1,1.658722E-1,5.3197007E0,-1.3053681E0,2.239614E2,2.9246204E1,1.7860674E1],"categories":[],"categories_nodes":[],"categories_segments":[],"categories_sizes":[],"default_left":[true,true,true,false,false,true,true,true,false,true,false,false,false,true,true,false,false,false,true,false,false,false,false,false,true,false,false,true,false,false,true,true,false,false,false,false,true,false,false],"id":25,"left_children":[1,3,5,7,11,9,13,15,-1,19,-1,-1,-1,17,21,-1,-1,-1,23,-1,-1,-1,-1,25,27,-1,-1,29,-1,31,33,35,-1,-1,-1,-1,37,-1,-1],"loss_changes":[1.1170655E6,2.0170703E3,6.894895E5,1.1391289E3,1.8491309E3,1.7071075E5,4.1879625E5,1.5215332E2,0E0,3.0750312E5,0E0,0E0,0E0,3.8426125E5,8.8202E4,0E0,0E0,0E0,1.796255E5,0E0,0E0,0E0,0E0,9.0894375E3,1.6961188E5,0E0,0E0,7.2677125E4,0E0,1.14957625E5,1.6531445E3,5.9066875E4,0E0,0E0,0E0,0E0,6.7939375E3,0E0,0E0],"parents":[2147483647,0,0,1,1,2,2,3,3,5,5,4,4,6,6,7,7,13,13,9,9,14,14,18,18,23,23,24,24,27,27,29,29,30,30,31,31,36,36],"right_children":[2,4,6,8,12,10,14,16,-1,20,-1,-1,-1,18,22,-1,-1,-1,24,-1,-1,-1,-1,26,28,-1,-1,30,-1,32,34,36,-1,-1,-1,-1,38,-1,-1],"split_conditions":[2.502582E1,4E1,5.432088E7,2.502329E1,2.50222E1,2.503392E1,3.4917956E7,2.3682052E7,1.3716949E0,2.7779964E7,6.995441E1,2.4586992E0,5.7864757E0,3E0,4.4522784E7,1.3314087E0,3.6665456E0,3.259062E1,2.9377382E7,2.0072618E1,5.8956337E1,5.8459057E1,2.579834E1,1.04970104E8,3.4917188E7,8.87048E0,3.182552E0,9E0,6.1879344E0,7E0,1E1,2.502894E1,4.7265957E1,1.658722E-1,5.3197007E0,-1.3053681E0,2.937753E7,2.9246204E1,1.7860674E1],"split_indices":[2,5,1,2,2,2,0,0,0,0,0,0,0,7,0,0,0,0,0,0,0,0,0,1,0,0,0,5,0,5,5,2,0,0,0,0,0,0,0],"split_type":[0,0,0,0,0,0,0,0,0,0,0,0,0,0,0,0,0,0,0,0,0,0,0,0,0,0,0,0,0,0,0,0,0,0,0,0,0,0,0],"sum_hessian":[1.22E2,2.8E1,9.4E1,1.7E1,1.1E1,1.4E1,8E1,7E0,1E1,1.1E1,3E0,6E0,5E0,7.2E1,8E0,2E0,5E0,1.6E1,5.6E1,8E0,3E0,3E0,5E0,2.5E1,3.1E1,2E1,5E0,2.3E1,8E0,2.1E1,2E0,1.9E1,2E0,1E0,1E0,1E0,1.8E1,5E0,1.3E1],"tree_param":{"num_deleted":"0","num_feature":"9","num_nodes":"39","size_leaf_vector":"0"}},{"base_weights":[1.9118524E2,2.936973E1,2.3856908E2,2.089496E1,3.9634407E1,3.570421E2,1.635091E2,2.7968028E0,1.0714335E0,6.470783E1,3.1106677E2,2.2479527E0,5.30427E0,8.1631134E1,2.3260133E2,5.4534595E1,2.6946063E2,2.036402E2,2.545434E1,3.1677808E2,6.59086E1,1.8233095E2,3.6937402E2,-2.3027164E1,4.975422E1,3.0171778E1,1.6306181E2,3.1293274E2,9.683848E1,4.198242E2,9.68501E1,2.189189E2,4.3418507E1,2.6299044E1,2.4770132E1,5.442268E1,1.5445874E1,1.2547481E1,3.685669E0,3.6823112E1,7.35188E0,4.3850155E1,8.850919E0,2.0059107E1,4.400165E0,2.4380835E1,5.2151746E2,-3.408016E1,1.01239746E2,2.603358E2,1.2030709E2,-5.4465218E1,1.04433395E2,-1.4269213E1,5.5898857E0,1.308252E2,-8.5510254E-1,1.4582801E1,5.789828E1,6.3554382E1,-1.85625E0,5.9836307E0,1.6384095E0,7.0132203E0,2.753447E1,-1.709812E1,1.9896084E1,1.2764648E1,1.079618E1,1.7521265E1,5.7625164E1,1.401982E1,1.0425781E0,3.8992214E1,1.9284712E2,-2.3709006E0,4.2079918E1,-1.6157226E-1,8.8053465E0,2.6634756E1,7.956445E0,6.583777E0,-4.66908E0,4.977304E0,1.8463334E0,1.5757751E-1,5.1812015E0],"categories":[],"categories_nodes":[],"categories_segments":[],"categories_sizes":[],"default_left":[false,false,true,true,false,true,true,false,false,false,false,false,false,false,false,false,true,false,true,true,true,true,true,false,false,true,true,true,true,false,true,false,true,true,false,false,false,false,false,false,false,false,false,false,false,false,true,true,true,true,false,true,false,false,false,true,false,false,false,true,false,false,false,false,false,false,true,true,false,false,true,false,false,true,true,false,true,false,false,false,false,false,false,false,false,false,false],"id":26,"left_children":[1,3,5,7,11,9,13,-1,-1,-1,15,-1,-1,17,19,-1,21,27,23,29,25,31,45,-1,33,47,43,39,35,41,37,49,59,51,-1,61,-1,-1,-1,-1,-1,-1,-1,-1,-1,-1,57,53,55,63,71,65,73,-1,-1,69,-1,-1,-1,67,-1,-1,-1,-1,-1,-1,75,81,-1,-1,77,-1,-1,83,79,-1,85,-1,-1,-1,-1,-1,-1,-1,-1,-1,-1],"loss_changes":[9.36089E5,1.6945742E3,7.86416E5,9.964888E2,1.5678379E3,2.78758E5,3.2044038E5,0E0,0E0,0E0,1.747165E5,0E0,0E0,1.9358477E5,4.2813438E5,0E0,1.9381425E5,7.474975E4,1.4195331E5,4.35257E5,3.6743496E4,8.198025E4,1.212015E5,0E0,8.63434E4,4.9112812E4,4.578375E3,2.5884906E4,6.257996E3,4.7822E4,9.113766E3,2.5858438E4,7.4199365E3,1.2558679E5,0E0,4.926953E1,0E0,0E0,0E0,0E0,0E0,0E0,0E0,0E0,0E0,0E0,2.351375E4,6.661312E4,1.7359742E4,6.38225E3,1.1652281E4,9.004464E4,5.0339453E4,0E0,0E0,2.8999922E3,0E0,0E0,0E0,7.643667E3,0E0,0E0,0E0,0E0,0E0,0E0,7.768969E3,1.2540477E4,0E0,0E0,5.5500684E3,0E0,0E0,6.3025195E2,1.21135E4,0E0,1.8893066E3,0E0,0E0,0E0,0E0,0E0,0E0,0E0,0E0,0E0,0E0],"parents":[2147483647,0,0,1,1,2,2,3,3,5,5,4,4,6,6,10,10,13,13,14,14,16,16,18,18,20,20,17,17,19,19,21,21,24,24,28,28,30,30,27,27,29,29,26,26,22,22,25,25,31,31,33,33,47,47,48,48,46,46,32,32,35,35,49,49,51,51,59,59,55,55,50,50,52,52,66,66,70,70,74,74,67,67,73,73,76,76],"right_children":[2,4,6,8,12,10,14,-1,-1,-1,16,-1,-1,18,20,-1,22,28,24,30,26,32,46,-1,34,48,44,40,36,42,38,50,60,52,-1,62,-1,-1,-1,-1,-1,-1,-1,-1,-1,-1,58,54,56,64,72,66,74,-1,-1,70,-1,-1,-1,68,-1,-1,-1,-1,-1,-1,76,82,-1,-1,78,-1,-1,84,80,-1,86,-1,-1,-1,-1,-1,-1,-1,-1,-1,-1],"split_conditions":[2.502582E1,1.56E0,1.2154764E2,2.50233E1,2.50222E1,1.2152622E2,1.52E2,2.7968028E0,1.0714335E0,6.470783E1,2.502632E1,2.2479527E0,5.30427E0,5.6E1,2.14E2,5.4534595E1,1.4E-1,1.2155622E2,5.7E1,1.2155664E2,1.2155681E2,7E-2,2.503608E1,-2.3027164E1,9.2E-1,1.04970104E8,2.502922E1,2E-2,1E0,3.6E-1,4E-2,1.57E2,1.94E2,1.2155664E2,2.4770132E1,1.04970104E8,1.5445874E1,1.2547481E1,3.685669E0,3.6823112E1,7.35188E0,4.3850155E1,8.850919E0,2.0059107E1,4.400165E0,2.4380835E1,1.7E-1,1.2155633E2,1.2E-1,3.3174166E7,3.3174166E7,5E-2,1.46E2,-1.4269213E1,5.5898857E0,2E-2,-8.5510254E-1,1.4582801E1,5.789828E1,1.3E-1,-1.85625E0,5.9836307E0,1.6384095E0,7.0132203E0,2.753447E1,-1.709812E1,7.5E1,1.37E2,1.079618E1,1.7521265E1,6E-2,1.401982E1,1.0425781E0,6E-2,2.502922E1,-2.3709006E0,1.04970104E8,-1.6157226E-1,8.8053465E0,2.6634756E1,7.956445E0,6.583777E0,-4.66908E0,4.977304E0,1.8463334E0,1.5757751E-1,5.1812015E0],"split_indices":[2,6,3,2,2,3,8,0,0,0,2,0,0,8,8,0,6,3,8,3,3,6,2,0,6,1,2,6,8,6,6,8,8,3,0,1,0,0,0,0,0,0,0,0,0,0,6,3,6,1,1,6,8,0,0,6,0,0,0,6,0,0,0,0,0,0,8,8,0,0,6,0,0,6,2,0,1,0,0,0,0,0,0,0,0,0,0],"split_type":[0,0,0,0,0,0,0,0,0,0,0,0,0,0,0,0,0,0,0,0,0,0,0,0,0,0,0,0,0,0,0,0,0,0,0,0,0,0,0,0,0,0,0,0,0,0,0,0,0,0,0,0,0,0,0,0,0,0,0,0,0,0,0,0,0,0,0,0,0,0,0,0,0,0,0,0,0,0,0,0,0,0,0,0,0,0,0],"sum_hessian":[1.22E2,2.8E1,9.4E1,1.7E1,1.1E1,3.5E1,5.9E1,9E0,8E0,3E0,3.2E1,6E0,5E0,2.8E1,3.1E1,3E0,2.9E1,8E0,2E1,2E1,1.1E1,1.7E1,1.2E1,1E0,1.9E1,9E0,2E0,3E0,5E0,1.3E1,7E0,1.3E1,4E0,1.8E1,1E0,4E0,1E0,4E0,3E0,2E0,1E0,1.2E1,1E0,1E0,1E0,8E0,4E0,5E0,4E0,8E0,5E0,9E0,9E0,2E0,3E0,3E0,1E0,1E0,3E0,3E0,1E0,3E0,1E0,1E0,7E0,3E0,6E0,2E0,1E0,1E0,2E0,4E0,1E0,6E0,3E0,2E0,4E0,1E0,1E0,1E0,2E0,1E0,1E0,3E0,3E0,1E0,3E0],"tree_param":{"num_deleted":"0","num_feature":"9","num_nodes":"87","size_leaf_vector":"0"}},{"base_weights":[1.760853E2,5.9854733E1,1.6053586E2,4.5768616E1,2.0354219E2,1.296939E1,2.6826538E1,3.0972794E1,1.5059647E2,1.902032E1,3.630032E1,1.22883385E2,5.0785885E1,3.5043151E0,1.48272705E1,4.862248E0,2.0552708E1,6.590355E1,1.653394E2,1.6681114E0,7.4125916E-1,8.093196E0,3.8052822E1,8.906026E-1,2.3430176E0,2.0548485E2,3.9913845E1,4.180767E0,1.4104004E0,2.1968898E2,3.282613E1,6.7611206E1,-1.1610657E1,1.7987056E2,4.1191555E1,-1.5349121E-1,8.174741E1,1.4969788E-1,4.774222E0,-7.124805E0,8.365076E0,2.5355108E1,1.3840697E2,9.099146E0,2.238562E0,-1.1215271E0,1.4989537E1],"categories":[],"categories_nodes":[],"categories_segments":[],"categories_sizes":[],"default_left":[true,false,true,false,true,false,true,false,false,false,true,true,false,false,false,false,true,true,true,false,false,false,true,false,false,true,true,false,false,true,true,true,true,true,false,false,true,false,false,false,false,false,true,false,false,false,false],"id":27,"left_children":[1,-1,3,5,7,-1,9,-1,11,13,15,17,-1,-1,19,-1,23,21,25,-1,-1,-1,27,-1,-1,29,31,-1,-1,33,37,35,39,41,-1,-1,43,-1,-1,-1,-1,-1,45,-1,-1,-1,-1],"loss_changes":[7.1190475E5,0E0,5.8297025E5,5.057122E4,4.4247725E5,0E0,1.4542344E3,0E0,5.316431E5,6.8972754E2,1.3292119E3,1.26994375E5,0E0,0E0,9.628027E1,0E0,2.5920898E1,7.8026562E3,1.5292681E5,0E0,0E0,0E0,3.9951074E2,0E0,0E0,5.164775E4,1.3628844E4,0E0,0E0,9.43E4,1.330456E3,5.990256E3,2.8684521E4,2.6007938E4,0E0,0E0,7.068164E2,0E0,0E0,0E0,0E0,0E0,2.7464906E4,0E0,0E0,0E0,0E0],"parents":[2147483647,0,0,2,2,3,3,4,4,6,6,8,8,9,9,10,10,11,11,14,14,17,17,16,16,18,18,22,22,25,25,26,26,29,29,31,31,30,30,32,32,33,33,36,36,42,42],"right_children":[2,-1,4,6,8,-1,10,-1,12,14,16,18,-1,-1,20,-1,24,22,26,-1,-1,-1,28,-1,-1,30,32,-1,-1,34,38,36,40,42,-1,-1,44,-1,-1,-1,-1,-1,46,-1,-1,-1,-1],"split_conditions":[1.2152622E2,5.9854733E1,5.1863496E7,3.3174166E7,1.2154764E2,1.296939E1,4E1,3.0972794E1,3.4917956E7,7.9E-1,1.215303E2,2.9377382E7,5.0785885E1,3.5043151E0,1.2153023E2,4.862248E0,2.3729516E7,5E-2,3.4917188E7,1.6681114E0,7.4125916E-1,8.093196E0,2.6E-1,8.906026E-1,2.3430176E0,9E0,9E-2,4.180767E0,1.4104004E0,7E0,1E1,6E-2,1.1E-1,2.937753E7,4.1191555E1,-1.5349121E-1,7E-2,1.4969788E-1,4.774222E0,-7.124805E0,8.365076E0,2.5355108E1,2.93777E7,9.099146E0,2.238562E0,-1.1215271E0,1.4989537E1],"split_indices":[3,0,1,1,3,0,5,0,0,6,3,0,0,0,3,0,0,6,0,0,0,0,6,0,0,5,6,0,0,5,5,6,6,0,0,0,6,0,0,0,0,0,0,0,0,0,0],"split_type":[0,0,0,0,0,0,0,0,0,0,0,0,0,0,0,0,0,0,0,0,0,0,0,0,0,0,0,0,0,0,0,0,0,0,0,0,0,0,0,0,0,0,0,0,0,0,0],"sum_hessian":[1.22E2,3E0,1.19E2,3.3E1,8.6E1,5E0,2.8E1,2.7E1,5.9E1,1.7E1,1.1E1,5.6E1,3E0,2E0,1.5E1,5E0,6E0,2.5E1,3.1E1,1.1E1,4E0,1.5E1,1E1,2E0,4E0,2.3E1,8E0,8E0,2E0,2.1E1,2E0,5E0,3E0,1.9E1,2E0,1E0,4E0,1E0,1E0,2E0,1E0,5E0,1.4E1,3E0,1E0,1E0,1.3E1],"tree_param":{"num_deleted":"0","num_feature":"9","num_nodes":"47","size_leaf_vector":"0"}},{"base_weights":[1.607535E2,2.4626966E1,2.0061577E2,1.7446815E1,3.3344944E1,2.9900156E2,1.382407E2,2.5501572E1,1.0002735E1,5.5365643E1,2.5907364E2,1.8959385E1,4.457061E0,1.5372397E2,5.529492E1,2.927717E1,9.449849E-1,4.8121548E1,2.2081892E2,7.6878214E0,2.449581E0,1.12613E2,2.269033E2,1.156209E0,5.819092E-1,8.312297E-1,2.1555762E0,1.1809692E0,3.5058486E0,8.3941765E1,2.324218E1,1.4320581E2,3.1129718E2,2.9705738E1,1.1084782E2,5.9223957E0,1.0619486E2,1.94605E1,4.5908365E2,1.782399E1,1.6469189E1,3.065293E1,1.8337948E1,1.1109196E1,2.1266296E0,-8.522298E-1,3.5970948E0,1.2305017E1,5.123295E1,4.6125244E1,-1.5618165E0,1.4221191E-1,6.055225E0],"categories":[],"categories_nodes":[],"categories_segments":[],"categories_sizes":[],"default_left":[true,true,true,false,true,true,false,true,false,false,false,true,false,true,false,true,false,false,true,false,false,true,false,false,false,false,false,false,false,true,false,false,true,false,false,false,false,false,true,false,true,true,false,false,false,false,false,false,false,true,false,false,false],"id":28,"left_children":[1,3,5,7,11,9,13,15,23,-1,17,25,-1,21,19,27,-1,-1,31,-1,-1,29,33,-1,-1,-1,-1,-1,-1,35,-1,39,37,-1,41,-1,43,-1,47,-1,45,49,-1,-1,-1,-1,-1,-1,-1,51,-1,-1,-1],"loss_changes":[6.62496E5,1.2335312E3,5.4166325E5,8.241992E2,1.0928184E3,2.226045E5,6.8556125E4,2.0817432E2,4.480713E0,0E0,1.741715E5,1.4329102E1,0E0,1.24871375E5,5.4290156E3,1.9188037E2,0E0,0E0,1.6608938E5,0E0,0E0,9.728234E4,1.05481875E5,0E0,0E0,0E0,0E0,0E0,0E0,9.662109E3,0E0,7.698634E4,1.3485188E5,0E0,4.0912234E4,0E0,3.4601406E3,0E0,2.6419625E4,0E0,2.7434448E3,4.2999966E3,0E0,0E0,0E0,0E0,0E0,0E0,0E0,2.4936162E3,0E0,0E0,0E0],"parents":[2147483647,0,0,1,1,2,2,3,3,5,5,4,4,6,6,7,7,10,10,14,14,13,13,8,8,11,11,15,15,21,21,18,18,22,22,29,29,32,32,31,31,34,34,36,36,40,40,38,38,41,41,49,49],"right_children":[2,4,6,8,12,10,14,16,24,-1,18,26,-1,22,20,28,-1,-1,32,-1,-1,30,34,-1,-1,-1,-1,-1,-1,36,-1,40,38,-1,42,-1,44,-1,48,-1,46,50,-1,-1,-1,-1,-1,-1,-1,52,-1,-1,-1],"split_conditions":[2.502582E1,4E1,1.2154764E2,2.502329E1,2.50222E1,1.2152622E2,1.2155687E2,3.7E1,2.502339E1,5.5365643E1,2.502632E1,2.502202E1,4.457061E0,9E-2,1.04970104E8,2.502296E1,9.449849E-1,4.8121548E1,1.4E-1,7.6878214E0,2.449581E0,1.2155681E2,3.6E-1,1.156209E0,5.819092E-1,8.312297E-1,2.1555762E0,1.1809692E0,3.5058486E0,2.502937E1,2.324218E1,2E0,2.503608E1,2.9705738E1,1.14E0,5.9223957E0,7E-2,1.94605E1,1.7E-1,1.782399E1,1.3E-1,9.2E-1,1.8337948E1,1.1109196E1,2.1266296E0,-8.522298E-1,3.5970948E0,1.2305017E1,5.123295E1,3.8E-1,-1.5618165E0,1.4221191E-1,6.055225E0],"split_indices":[2,5,3,2,2,3,3,5,2,0,2,2,0,6,1,2,0,0,6,0,0,3,6,0,0,0,0,0,0,2,0,5,2,0,6,0,6,0,6,0,6,6,0,0,0,0,0,0,0,6,0,0,0],"split_type":[0,0,0,0,0,0,0,0,0,0,0,0,0,0,0,0,0,0,0,0,0,0,0,0,0,0,0,0,0,0,0,0,0,0,0,0,0,0,0,0,0,0,0,0,0,0,0,0,0,0,0,0,0],"sum_hessian":[1.22E2,2.8E1,9.4E1,1.7E1,1.1E1,3.5E1,5.9E1,7E0,1E1,3E0,3.2E1,6E0,5E0,4.9E1,1E1,5E0,2E0,3E0,2.9E1,5E0,5E0,3.3E1,1.6E1,6E0,4E0,2E0,4E0,2E0,3E0,2.8E1,5E0,1.7E1,1.2E1,9E0,7E0,1.5E1,1.3E1,8E0,4E0,1.3E1,4E0,4E0,3E0,1.2E1,1E0,2E0,2E0,1E0,3E0,3E0,1E0,1E0,2E0],"tree_param":{"num_deleted":"0","num_feature":"9","num_nodes":"53","size_leaf_vector":"0"}},{"base_weights":[1.4733739E2,5.1213196E1,1.3394975E2,2.6774942E2,1.01180954E2,2.1888696E2,4.451243E1,7.8466995E1,3.1707825E2,8.1570404E1,2.86552E2,4.7007706E1,1.288997E2,4.4749E1,1.772907E1,1.4392664E1,1.5371338E1,8.095461E0,2.6470066E1,4.258829E2,1.7730682E1,2.1896489E2,8.2249E1,-7.953939E-1,3.3572834E0,1.1689771E1,4.739048E1,1.1087064E2,2.2227308E1,3.75808E0,2.2109148E1,2.5791742E2,2.9118998E1,5.3505142E1,1.4954325E1,1.1467804E1,2.5616909E1,1.3510132E-1,4.2327485E0,5.495357E1,-3.2418915E1,1.7532932E2,3.6465054E1,6.8233643E0,6.2130946E-1,7.6885134E-1,2.938309E1,2.130533E1,-2.5507355E0,-8.630213E0,6.461536E0,1.2632167E0,4.928355E-1,-7.012817E-1,6.874941E1,4.039238E0,2.1429853E1,7.5835266E0,2.0203004E0,7.758138E-1,2.3388383E0],"categories":[],"categories_nodes":[],"categories_segments":[],"categories_sizes":[],"default_left":[true,false,false,true,true,true,false,true,true,true,true,false,false,false,false,false,true,false,false,true,false,true,false,false,false,false,false,true,false,false,true,true,true,true,false,false,false,false,false,true,true,true,false,false,false,false,true,false,false,false,false,false,false,false,true,false,true,false,false,false,false],"id":29,"left_children":[1,-1,3,5,7,9,-1,11,13,15,19,17,21,-1,-1,-1,23,-1,29,25,-1,31,27,-1,-1,-1,-1,33,39,-1,35,41,37,43,-1,51,45,-1,-1,53,49,47,-1,-1,-1,-1,55,-1,-1,-1,-1,-1,-1,-1,57,-1,59,-1,-1,-1,-1],"loss_changes":[5.320995E5,0E0,4.9904325E5,1.01908375E5,4.5570025E5,1.6245644E5,0E0,1.3673269E5,8.473369E4,3.081105E4,1.22364E5,3.75969E4,1.2484494E5,0E0,0E0,0E0,2.389811E3,0E0,9.618828E2,1.8791875E4,0E0,7.383444E4,3.876572E4,0E0,0E0,0E0,0E0,2.7494234E4,1.7876838E4,0E0,7.887207E2,1.5400125E4,1.043134E3,5.1483867E3,0E0,6.272949E0,1.192041E3,0E0,0E0,5.6113984E3,2.6490516E4,5.8468953E4,0E0,0E0,0E0,0E0,6.229082E2,0E0,0E0,0E0,0E0,0E0,0E0,0E0,1.8786328E2,0E0,1.398667E2,0E0,0E0,0E0,0E0],"parents":[2147483647,0,0,2,2,3,3,4,4,5,5,7,7,8,8,9,9,11,11,10,10,12,12,16,16,19,19,22,22,18,18,21,21,27,27,30,30,32,32,28,28,31,31,33,33,36,36,41,41,40,40,35,35,39,39,46,46,54,54,56,56],"right_children":[2,-1,4,6,8,10,-1,12,14,16,20,18,22,-1,-1,-1,24,-1,30,26,-1,32,28,-1,-1,-1,-1,34,40,-1,36,42,38,44,-1,52,46,-1,-1,54,50,48,-1,-1,-1,-1,56,-1,-1,-1,-1,-1,-1,-1,58,-1,60,-1,-1,-1,-1],"split_conditions":[1.2152622E2,5.1213196E1,3E0,2.5084812E7,3.4917956E7,1.4E-1,4.451243E1,2.9377382E7,4.4522784E7,1.0559106E7,2.443855E7,5E-2,2.93777E7,4.4749E1,1.772907E1,1.4392664E1,1.3E-1,8.095461E0,2.3465408E7,1.7E-1,1.7730682E1,3.6E-1,3.4917188E7,-7.953939E-1,3.3572834E0,1.1689771E1,4.739048E1,3.434984E7,9E-2,3.75808E0,1.2152997E2,2.9E-1,3.8E-1,3.2570416E7,1.4954325E1,1.2152925E2,2.3682052E7,1.3510132E-1,4.2327485E0,6E-2,1.1E-1,2.937753E7,3.6465054E1,6.8233643E0,6.2130946E-1,7.6885134E-1,1.215303E2,2.130533E1,-2.5507355E0,-8.630213E0,6.461536E0,1.2632167E0,4.928355E-1,-7.012817E-1,7E-2,4.039238E0,2.3729516E7,7.5835266E0,2.0203004E0,7.758138E-1,2.3388383E0],"split_indices":[3,0,7,0,0,6,0,0,0,0,0,6,0,0,0,0,6,0,0,6,0,6,0,0,0,0,0,0,6,0,3,6,6,0,0,3,0,0,0,6,6,0,0,0,0,0,3,0,0,0,0,0,0,0,6,0,0,0,0,0,0],"split_type":[0,0,0,0,0,0,0,0,0,0,0,0,0,0,0,0,0,0,0,0,0,0,0,0,0,0,0,0,0,0,0,0,0,0,0,0,0,0,0,0,0,0,0,0,0,0,0,0,0,0,0,0,0,0,0,0,0,0,0,0,0],"sum_hessian":[1.22E2,3E0,1.19E2,2.2E1,9.7E1,1.9E1,3E0,8.9E1,8E0,7E0,1.2E1,5.6E1,3.3E1,3E0,5E0,3E0,4E0,2E1,3.6E1,4E0,8E0,1E1,2.3E1,2E0,2E0,1E0,3E0,1.5E1,8E0,8E0,2.8E1,8E0,2E0,7E0,8E0,8E0,2E1,1E0,1E0,5E0,3E0,6E0,2E0,5E0,2E0,4E0,1.6E1,5E0,1E0,2E0,1E0,6E0,2E0,1E0,4E0,5E0,1.1E1,3E0,1E0,2E0,9E0],"tree_param":{"num_deleted":"0","num_feature":"9","num_nodes":"61","size_leaf_vector":"0"}},{"base_weights":[1.3554852E2,2.0769527E1,1.691595E2,1.4722599E1,2.8109125E1,3.105397E2,1.4088959E2,2.1632652E1,8.358687E0,2.3026733E2,4.7372192E1,1.593199E0,3.7630932E0,7.120065E1,1.8978793E2,8.307292E-1,2.468989E1,1.2402751E1,4.117401E1,2.5312598E2,8.3125244E1,3.4812623E-1,9.055752E-1,1.6194635E2,3.8315033E1,2.939966E0,1.0180237E0,2.2760714E1,1.6328139E2,-2.3521925E1,5.7882473E1,5.5597893E1,2.737793E2,3.709436E1,2.5440906E2,-1.0181362E1,7.091589E1,1.576412E0,1.23441505E2,4.082779E0,1.1080322E0,3.889038E1,1.2355942E1,2.3140048E2,4.0549034E1,1.1217296E1,2.1209987E2,6.2926593E0,1.6805893E0,5.347105E1,-1.3409239E2,3.218175E1,-2.1344915E1,3.9140396E0,-2.2314453E0,6.0859823E0,2.7250494E1,2.8101465E2,5.2260212E1,1.4592554E1,1.5682098E1,2.3590748E1,5.9740913E1,1.921167E0,1.5561023E1,1.12535866E2,-2.4963413E1,-2.0013633E0,6.1384645E0,8.580513E0,2.1728516E0,1.5300593E1,-3.6364136E1,-3.6598022E0,-1.6454058E1,2.0945238E2,4.6122894E1,3.3773956E0,-6.2744994E0,-9.42921E0,8.315081E0,2.6605292E2,5.4360798E1,4.78115E1,2.1807886E1,4.8094726E0,-8.054867E0,2.082052E0,-1.5299011E0,2.365268E0,6.6948647E0,1.5296786E1,3.1594833E1,2.0754802E0,5.893103E0],"categories":[],"categories_nodes":[],"categories_segments":[],"categories_sizes":[],"default_left":[true,true,false,false,true,true,true,true,true,true,false,false,false,false,false,false,true,false,false,true,true,false,false,true,true,false,false,true,true,false,false,false,true,true,true,false,true,false,true,false,false,false,false,true,false,true,true,false,false,true,false,true,false,false,false,false,false,true,true,false,true,false,true,true,false,true,true,false,false,false,false,false,true,false,false,true,false,false,false,false,true,false,true,true,false,false,false,false,false,false,false,false,false,false,false],"id":30,"left_children":[1,3,5,7,11,9,13,15,21,17,-1,-1,-1,23,19,-1,25,-1,-1,31,27,-1,-1,33,29,-1,-1,35,45,-1,37,47,43,39,41,49,59,51,61,-1,-1,-1,-1,57,-1,53,55,-1,-1,63,73,65,-1,-1,-1,-1,-1,75,71,-1,67,-1,69,77,-1,83,79,-1,-1,-1,-1,-1,85,-1,-1,81,-1,-1,-1,-1,87,91,89,93,-1,-1,-1,-1,-1,-1,-1,-1,-1,-1,-1],"loss_changes":[4.7100025E5,8.7324023E2,3.3594475E5,6.10729E2,7.9184375E2,8.740275E4,2.625085E5,1.208042E2,5.87323E0,1.8028856E5,0E0,0E0,0E0,9.8243016E4,2.9648175E5,0E0,1.1072705E2,0E0,0E0,1.0308725E5,8.821678E4,0E0,0E0,9.446025E4,1.5812895E5,0E0,0E0,1.9758E4,5.700911E4,0E0,9.578107E4,7.964258E1,5.1295E4,3.3222168E1,3.994022E4,7.026795E4,1.8426914E4,1.05583125E5,7.187645E4,0E0,0E0,0E0,0E0,1.8084788E5,0E0,3.6823276E3,3.8229406E4,0E0,0E0,3.1292621E4,2.8837188E3,6.7095164E4,0E0,0E0,0E0,0E0,0E0,1.2263575E5,5.913507E4,0E0,7.7540723E3,0E0,7.052449E3,1.2418136E4,0E0,3.056054E4,2.1548434E4,0E0,0E0,0E0,0E0,0E0,1.8801066E4,0E0,0E0,1.0843294E5,0E0,0E0,0E0,0E0,2.3856655E3,8.0943125E3,3.4923145E2,2.8118652E2,0E0,0E0,0E0,0E0,0E0,0E0,0E0,0E0,0E0,0E0,0E0],"parents":[2147483647,0,0,1,1,2,2,3,3,5,5,4,4,6,6,7,7,9,9,14,14,8,8,13,13,16,16,20,20,24,24,19,19,23,23,27,27,30,30,33,33,34,34,32,32,28,28,31,31,35,35,37,37,45,45,46,46,43,43,36,36,38,38,49,49,51,51,60,60,62,62,58,58,50,50,57,57,63,63,66,66,75,75,65,65,72,72,80,80,82,82,81,81,83,83],"right_children":[2,4,6,8,12,10,14,16,22,18,-1,-1,-1,24,20,-1,26,-1,-1,32,28,-1,-1,34,30,-1,-1,36,46,-1,38,48,44,40,42,50,60,52,62,-1,-1,-1,-1,58,-1,54,56,-1,-1,64,74,66,-1,-1,-1,-1,-1,76,72,-1,68,-1,70,78,-1,84,80,-1,-1,-1,-1,-1,86,-1,-1,82,-1,-1,-1,-1,88,92,90,94,-1,-1,-1,-1,-1,-1,-1,-1,-1,-1,-1],"split_conditions":[2.502582E1,1.56E0,5.432088E7,2.502329E1,2.50222E1,2.503392E1,1.53E2,2.3682052E7,2.351512E7,2.7779964E7,4.7372192E1,1.593199E0,3.7630932E0,5.6E1,2.14E2,8.307292E-1,2.3711964E7,1.2402751E1,4.117401E1,1.0619401E7,1.4E-1,3.4812623E-1,9.055752E-1,2.9377382E7,5.7E1,2.939966E0,1.0180237E0,3.2570416E7,2.21E2,-2.3521925E1,1.7630581E8,1.0619246E7,3.4917956E7,1.0620342E7,1E0,2.502955E1,3.4917188E7,2.93777E7,1.05E2,4.082779E0,1.1080322E0,3.889038E1,1.2355942E1,3.2570416E7,4.0549034E1,2.5084812E7,2.503592E1,6.2926593E0,1.6805893E0,1.5002076E7,2.443855E7,4E-2,-2.1344915E1,3.9140396E0,-2.2314453E0,6.0859823E0,2.7250494E1,2.937753E7,1.69E2,1.4592554E1,6E-2,2.3590748E1,3.4917188E7,1.0620342E7,1.5561023E1,1.0620342E7,2.502834E1,-2.0013633E0,6.1384645E0,8.580513E0,2.1728516E0,1.5300593E1,3.4917188E7,-3.6598022E0,-1.6454058E1,2.5084812E7,4.6122894E1,3.3773956E0,-6.2744994E0,-9.42921E0,2.9377382E7,1.4E-1,2.9377382E7,6E1,2.1807886E1,4.8094726E0,-8.054867E0,2.082052E0,-1.5299011E0,2.365268E0,6.6948647E0,1.5296786E1,3.1594833E1,2.0754802E0,5.893103E0],"split_indices":[2,6,1,2,2,2,8,0,0,0,0,0,0,8,8,0,0,0,0,0,6,0,0,0,8,0,0,0,8,0,1,0,0,0,8,2,0,0,8,0,0,0,0,0,0,0,2,0,0,0,0,6,0,0,0,0,0,0,8,0,6,0,0,0,0,0,2,0,0,0,0,0,0,0,0,0,0,0,0,0,0,6,0,8,0,0,0,0,0,0,0,0,0,0,0],"split_type":[0,0,0,0,0,0,0,0,0,0,0,0,0,0,0,0,0,0,0,0,0,0,0,0,0,0,0,0,0,0,0,0,0,0,0,0,0,0,0,0,0,0,0,0,0,0,0,0,0,0,0,0,0,0,0,0,0,0,0,0,0,0,0,0,0,0,0,0,0,0,0,0,0,0,0,0,0,0,0,0,0,0,0,0,0,0,0,0,0,0,0,0,0,0,0],"sum_hessian":[1.22E2,2.8E1,9.4E1,1.7E1,1.1E1,1.4E1,8E1,7E0,1E1,1.1E1,3E0,6E0,5E0,3.4E1,4.6E1,2E0,5E0,8E0,3E0,2.8E1,1.8E1,2E0,8E0,8E0,2.6E1,3E0,2E0,1.1E1,7E0,1E0,2.5E1,3E0,2.5E1,4E0,4E0,7E0,4E0,1.4E1,1.1E1,3E0,1E0,1E0,3E0,2.1E1,4E0,2E0,5E0,2E0,1E0,5E0,2E0,1.3E1,1E0,1E0,1E0,2E0,3E0,1.6E1,5E0,1E0,3E0,3E0,8E0,4E0,1E0,5E0,8E0,2E0,1E0,4E0,4E0,2E0,3E0,1E0,1E0,1.3E1,3E0,3E0,1E0,2E0,6E0,9E0,4E0,4E0,1E0,1E0,2E0,4E0,2E0,2E0,2E0,4E0,5E0,2E0,2E0],"tree_param":{"num_deleted":"0","num_feature":"9","num_nodes":"95","size_leaf_vector":"0"}},{"base_weights":[1.2514908E2,1.908568E1,1.5620898E2,1.3586105E1,2.574457E1,2.8621573E2,1.3020515E2,2.0067974E1,7.6369185E0,2.1170532E2,4.38193E1,1.4566389E1,3.4495022E0,6.598957E1,1.7525494E2,7.753479E-1,2.288056E1,1.1300277E1,3.8085976E1,2.334221E2,7.7249535E1,1.5202254E2,3.4867855E1,8.8954824E-1,4.3475467E-1,6.178793E-1,1.668567E0,2.7194679E0,9.501546E-1,2.1424658E1,1.5133066E2,-2.2345808E1,5.3398006E1,5.2031494E1,2.5235059E2,3.4423084E1,2.3921748E2,-1.0094429E1,6.757027E1,1.3890828E0,1.1395933E2,3.77657E0,1.0526307E0,3.694588E1,1.1429245E1,1.9841351E2,3.3218576E2,1.964511E2,1.064626E1,5.8731527E0,1.5965699E0,5.0234577E1,-1.27387634E2,3.0456404E1,-2.027767E1,3.718335E0,2.2086797E2,1.9290132E2,4.58066E1,3.7168121E0,-2.119873E0,2.6629102E2,1.8276678E1,1.3862927E1,1.5148193E1,2.847174E1,7.255247E1,1.1496093E0,1.4782971E1,1.06245056E2,-2.345341E1,8.379908E0,-7.5178742E0,1.9144531E1,1.6123022E2,2.7976648E2,5.2292743E0,-1.8679361E1,5.831543E0,2.5137848E1,5.0631337E0,-3.4768066E0,-1.5631339E1,4.8035645E0,2.5206715E1,3.124089E0,-5.960776E0,-8.800596E0,7.5624566E0,1.8483252E2,3.4389503E1,-5.661499E-1,-2.2357545E0,1.919305E1,3.4564698E0,4.4624096E1,2.0717493E1,-4.76687E0,3.5499092E1,1.9154882E0,-1.4279073E0,1.9371176E0,5.500232E0,2.3840757E1,3.3929944E0,1.5934571E0,4.6188846E0],"categories":[],"categories_nodes":[],"categories_segments":[],"categories_sizes":[],"default_left":[true,true,true,false,true,false,true,true,false,true,false,true,false,true,false,false,true,false,false,true,false,false,true,false,false,false,false,false,false,true,true,false,false,false,true,true,true,true,true,false,true,false,false,false,false,false,false,false,true,false,false,true,true,true,false,false,false,true,false,false,false,false,false,false,true,false,true,true,false,true,true,false,false,true,true,false,false,true,false,false,false,false,false,false,false,false,false,false,true,true,false,false,false,false,false,true,false,false,true,false,false,false,false,false,false,false,false],"id":31,"left_children":[1,3,5,7,11,9,13,15,23,17,-1,25,-1,21,19,-1,27,-1,-1,33,29,35,31,-1,-1,-1,-1,-1,-1,37,47,-1,39,49,45,41,43,51,63,53,65,-1,-1,-1,-1,61,57,55,59,-1,-1,67,81,69,-1,-1,83,79,-1,-1,-1,75,71,-1,77,-1,73,85,-1,95,87,-1,-1,97,93,89,-1,91,-1,-1,-1,-1,-1,-1,-1,-1,-1,-1,99,103,-1,-1,-1,-1,-1,101,-1,-1,105,-1,-1,-1,-1,-1,-1,-1,-1],"loss_changes":[4.0221975E5,7.1224316E2,2.83897E5,5.408557E2,6.713013E2,7.70905E4,2.2275988E5,9.9680664E1,6.8651733E0,1.5731344E5,0E0,2.1332397E1,0E0,8.841158E4,2.4990112E5,0E0,8.7920654E1,0E0,0E0,8.643975E4,7.533359E4,8.405209E4,1.4117633E5,0E0,0E0,0E0,0E0,0E0,0E0,1.8135691E4,4.8690438E4,0E0,8.173467E4,2.887793E1,4.6047875E4,1.855957E0,3.9125688E4,6.3008727E4,1.6525316E4,9.519413E4,6.418972E4,0E0,0E0,0E0,0E0,2.1522344E5,6.943694E4,1.51203125E4,3.3216824E3,0E0,0E0,2.8572777E4,2.6025586E3,5.9692336E4,0E0,0E0,1.4852922E4,3.718964E4,0E0,0E0,0E0,2.2858688E4,4.3040445E4,0E0,6.9302637E3,0E0,4.9010375E4,1.1003534E4,0E0,2.8071375E4,1.8684922E4,0E0,0E0,1.0433806E4,8.920648E3,9.49275E3,0E0,1.706897E1,0E0,0E0,0E0,0E0,0E0,0E0,0E0,0E0,0E0,0E0,2.0458884E3,4.850314E4,0E0,0E0,0E0,0E0,0E0,2.4494336E2,0E0,0E0,7.279795E2,0E0,0E0,0E0,0E0,0E0,0E0,0E0,0E0],"parents":[2147483647,0,0,1,1,2,2,3,3,5,5,4,4,6,6,7,7,9,9,14,14,13,13,8,8,11,11,16,16,20,20,22,22,19,19,21,21,29,29,32,32,35,35,36,36,34,34,30,30,33,33,37,37,39,39,47,47,46,46,48,48,45,45,38,38,40,40,51,51,53,53,62,62,66,66,61,61,64,64,57,57,52,52,56,56,67,67,70,70,75,75,77,77,74,74,69,69,73,73,88,88,95,95,89,89,98,98],"right_children":[2,4,6,8,12,10,14,16,24,18,-1,26,-1,22,20,-1,28,-1,-1,34,30,36,32,-1,-1,-1,-1,-1,-1,38,48,-1,40,50,46,42,44,52,64,54,66,-1,-1,-1,-1,62,58,56,60,-1,-1,68,82,70,-1,-1,84,80,-1,-1,-1,76,72,-1,78,-1,74,86,-1,96,88,-1,-1,98,94,90,-1,92,-1,-1,-1,-1,-1,-1,-1,-1,-1,-1,100,104,-1,-1,-1,-1,-1,102,-1,-1,106,-1,-1,-1,-1,-1,-1,-1,-1],"split_conditions":[2.502582E1,1.56E0,5.432088E7,2.502329E1,2.50222E1,2.503392E1,1.53E2,2.3682052E7,2.502339E1,2.7779964E7,4.38193E1,2.3729516E7,3.4495022E0,5.6E1,2.14E2,7.753479E-1,2.3711964E7,1.1300277E1,3.8085976E1,1.0619401E7,1.4E-1,2.9377382E7,5.7E1,8.8954824E-1,4.3475467E-1,6.178793E-1,1.668567E0,2.7194679E0,9.501546E-1,3.2570416E7,2.5084812E7,-2.2345808E1,1.7630581E8,1.0619246E7,1.94E2,1.0620342E7,1E0,2.502955E1,3.4917188E7,2.93777E7,6.9E1,3.77657E0,1.0526307E0,3.694588E1,1.1429245E1,1.86E2,2.937753E7,2.21E2,2.93777E7,5.8731527E0,1.5965699E0,1.5002076E7,2.443855E7,4E-2,-2.027767E1,3.718335E0,2.503592E1,2.5084812E7,4.58066E1,3.7168121E0,-2.119873E0,1.8E0,3.4917188E7,1.3862927E1,6E-2,2.847174E1,9.2E-1,1.0620342E7,1.4782971E1,1.0620342E7,2.502834E1,8.379908E0,-7.5178742E0,7.5E1,1.37E2,2.937753E7,5.2292743E0,3.4917956E7,5.831543E0,2.5137848E1,5.0631337E0,-3.4768066E0,-1.5631339E1,4.8035645E0,2.5206715E1,3.124089E0,-5.960776E0,-8.800596E0,2.9377382E7,2.5084812E7,3.4389503E1,-5.661499E-1,-2.2357545E0,1.919305E1,3.4564698E0,6E1,2.0717493E1,-4.76687E0,7E-2,1.9154882E0,-1.4279073E0,1.9371176E0,5.500232E0,2.3840757E1,3.3929944E0,1.5934571E0,4.6188846E0],"split_indices":[2,6,1,2,2,2,8,0,2,0,0,0,0,8,8,0,0,0,0,0,6,0,8,0,0,0,0,0,0,0,0,0,1,0,8,0,8,2,0,0,8,0,0,0,0,8,0,8,0,0,0,0,0,6,0,0,2,0,0,0,0,6,0,0,6,0,6,0,0,0,2,0,0,8,8,0,0,0,0,0,0,0,0,0,0,0,0,0,0,0,0,0,0,0,0,8,0,0,6,0,0,0,0,0,0,0,0],"split_type":[0,0,0,0,0,0,0,0,0,0,0,0,0,0,0,0,0,0,0,0,0,0,0,0,0,0,0,0,0,0,0,0,0,0,0,0,0,0,0,0,0,0,0,0,0,0,0,0,0,0,0,0,0,0,0,0,0,0,0,0,0,0,0,0,0,0,0,0,0,0,0,0,0,0,0,0,0,0,0,0,0,0,0,0,0,0,0,0,0,0,0,0,0,0,0,0,0,0,0,0,0,0,0,0,0,0,0],"sum_hessian":[1.22E2,2.8E1,9.4E1,1.7E1,1.1E1,1.4E1,8E1,7E0,1E1,1.1E1,3E0,6E0,5E0,3.4E1,4.6E1,2E0,5E0,8E0,3E0,2.8E1,1.8E1,8E0,2.6E1,6E0,4E0,2E0,4E0,3E0,2E0,1.1E1,7E0,1E0,2.5E1,3E0,2.5E1,4E0,4E0,7E0,4E0,1.4E1,1.1E1,3E0,1E0,1E0,3E0,1.7E1,8E0,5E0,2E0,2E0,1E0,5E0,2E0,1.3E1,1E0,1E0,4E0,5E0,3E0,1E0,1E0,1.2E1,5E0,1E0,3E0,1E0,1E1,4E0,1E0,5E0,8E0,3E0,2E0,7E0,3E0,1.1E1,1E0,2E0,1E0,3E0,2E0,1E0,1E0,1E0,3E0,3E0,1E0,2E0,6E0,6E0,5E0,1E0,1E0,2E0,1E0,4E0,1E0,1E0,6E0,4E0,2E0,2E0,2E0,4E0,2E0,3E0,3E0],"tree_param":{"num_deleted":"0","num_feature":"9","num_nodes":"107","size_leaf_vector":"0"}},{"base_weights":[1.157557E2,4.0532845E1,1.0513865E2,1.4105478E2,2.3923449E1,9.650956E1,1.8433258E2,5.7398257E0,6.803418E1,2.0161542E2,3.30023E1,1.6952242E1,-1.48497715E1,2.0959062E2,5.3944317E1,9.651196E1,-5.929924E0,2.605754E2,5.9919468E1,8.983134E0,1.983486E1,1.026958E1,2.661255E0,-5.6627383E0,2.9845022E1,6.868965E0,2.2026575E0,-2.1228529E1,4.9949444E1,2.6417978E2,1.0108662E2,3.3389877E2,1.0580764E1,9.961278E-1,3.706421E-1,1.9918814E2,3.7499213E2,1.0233217E2,1.2211182E0,3.1249564E0,1.8460732E2,3.5309708E0,9.457825E-1,3.19466E0,9.989191E0,2.5181806E0,9.335083E0,3.5329711E0,3.77772E2,9.502405E0,4.0581615E1,3.206917E1,2.3920874E1,5.539966E0,-1.482077E1,5.841126E-1,1.3211304E0,-1.579231E1,5.416743E1,2.8067764E2,1.6592691E1,2.7048157E1,6.5779594E1,4.2223053E1,7.773975E0,3.5324218E0,-3.1914613E0,7.568555E0,-3.1875122E1,8.102678E0,1.2210606E2,2.9880976E1,4.9678226E0,2.4698487E-1,4.563391E0,5.5422797E0,1.01868866E2,4.15E0,-7.016683E0,7.0613894E0,1.8978346E1,1.5958879E2,3.311171E1,-4.5285277E0,2.4548218E0,-2.2753053E0,1.40503435E1,4.256702E0,1.9681616E1,2.7623597E-1,4.230737E0,4.271647E-1,1.787178E0],"categories":[],"categories_nodes":[],"categories_segments":[],"categories_sizes":[],"default_left":[true,false,true,false,true,false,true,true,true,true,true,true,false,true,true,true,true,false,true,true,true,false,false,false,true,false,false,false,false,false,true,true,false,false,false,true,false,true,true,false,true,false,false,false,false,false,true,false,true,false,false,true,false,false,false,false,false,false,true,true,true,false,true,false,false,false,false,false,true,true,true,false,false,false,false,true,true,false,false,false,false,true,true,false,false,false,true,false,false,false,false,false,false],"id":32,"left_children":[1,-1,3,5,7,9,13,11,15,17,27,19,-1,29,25,21,23,31,43,33,45,-1,-1,-1,41,-1,-1,-1,37,35,39,47,-1,-1,-1,59,49,61,57,53,51,-1,-1,-1,-1,-1,55,-1,63,-1,-1,73,-1,-1,65,-1,-1,-1,75,71,67,-1,69,-1,-1,-1,-1,-1,77,83,79,-1,-1,-1,-1,85,81,-1,-1,-1,-1,87,89,-1,-1,-1,91,-1,-1,-1,-1,-1,-1],"loss_changes":[3.3553675E5,0E0,3.4665775E5,1.42219E5,3.0089027E4,2.803706E5,1.23721125E5,5.0939883E4,2.374198E4,1.1805681E5,1.2699741E5,4.420625E2,0E0,1.7468175E5,2.2521055E3,7.2497656E2,8.94484E3,8.950006E4,3.5176543E3,9.531738E0,8.3161816E2,0E0,0E0,0E0,2.758789E-1,0E0,0E0,0E0,6.879315E4,8.374725E4,1.0578686E5,7.834775E4,0E0,0E0,0E0,2.3341662E5,2.1845875E4,6.2109656E4,1.349458E5,7.3878184E3,5.0630344E4,0E0,0E0,0E0,0E0,0E0,3.1177917E1,0E0,4.7209812E4,0E0,0E0,1.0918123E3,0E0,0E0,6.270382E3,0E0,0E0,0E0,2.726929E4,3.122925E4,1.9597096E4,0E0,3.799545E4,0E0,0E0,0E0,0E0,0E0,1.4150559E4,7.257629E3,7.507789E3,0E0,0E0,0E0,0E0,2.0048577E3,1.8527688E4,0E0,0E0,0E0,0E0,4.6913594E3,9.994614E2,0E0,0E0,0E0,1.4787012E2,0E0,0E0,0E0,0E0,0E0,0E0],"parents":[2147483647,0,0,2,2,3,3,4,4,5,5,7,7,6,6,8,8,9,9,11,11,15,15,16,16,14,14,10,10,13,13,17,17,19,19,29,29,28,28,30,30,24,24,18,18,20,20,31,31,36,36,40,40,39,39,46,46,38,38,35,35,37,37,48,48,54,54,60,60,62,62,59,59,51,51,58,58,68,68,70,70,76,76,69,69,75,75,81,81,82,82,86,86],"right_children":[2,-1,4,6,8,10,14,12,16,18,28,20,-1,30,26,22,24,32,44,34,46,-1,-1,-1,42,-1,-1,-1,38,36,40,48,-1,-1,-1,60,50,62,58,54,52,-1,-1,-1,-1,-1,56,-1,64,-1,-1,74,-1,-1,66,-1,-1,-1,76,72,68,-1,70,-1,-1,-1,-1,-1,78,84,80,-1,-1,-1,-1,86,82,-1,-1,-1,-1,88,90,-1,-1,-1,92,-1,-1,-1,-1,-1,-1],"split_conditions":[1.2152622E2,4.0532845E1,2.58E2,1.53E2,2.93E2,5.6E1,1.2155664E2,1.2154518E2,4E-2,1.2155622E2,5.7E1,1.2152997E2,-1.48497715E1,2.14E2,4E-2,1.2155687E2,1.2155633E2,1E0,1E0,1.2152925E2,1.2153035E2,1.026958E1,2.661255E0,-5.6627383E0,1.2155664E2,6.868965E0,2.2026575E0,-2.1228529E1,1.2155616E2,1.94E2,2.21E2,1.2152877E2,1.0580764E1,9.961278E-1,3.706421E-1,1.86E2,1.2154595E2,6.9E1,1.2155633E2,2.15E2,1.2154595E2,3.5309708E0,9.457825E-1,3.19466E0,9.989191E0,2.5181806E0,6.5E1,3.5329711E0,1E0,9.502405E0,4.0581615E1,1.2153085E2,2.3920874E1,5.539966E0,1.215462E2,5.841126E-1,1.3211304E0,-1.579231E1,1.43E2,1.8E0,1.2154667E2,2.7048157E1,2E0,4.2223053E1,7.773975E0,3.5324218E0,-3.1914613E0,7.568555E0,1E0,7.5E1,1.2154667E2,2.9880976E1,4.9678226E0,2.4698487E-1,4.563391E0,1.2155664E2,1E0,4.15E0,-7.016683E0,7.0613894E0,1.8978346E1,1.2155681E2,1.2155664E2,-4.5285277E0,2.4548218E0,-2.2753053E0,1.2155681E2,4.256702E0,1.9681616E1,2.7623597E-1,4.230737E0,4.271647E-1,1.787178E0],"split_indices":[3,0,8,8,8,8,3,3,6,3,8,3,0,8,6,3,3,5,8,3,3,0,0,0,3,0,0,0,3,8,8,3,0,0,0,8,3,8,3,8,3,0,0,0,0,0,5,0,8,0,0,3,0,0,3,0,0,0,8,6,3,0,5,0,0,0,0,0,5,8,3,0,0,0,0,3,5,0,0,0,0,3,3,0,0,0,3,0,0,0,0,0,0],"split_type":[0,0,0,0,0,0,0,0,0,0,0,0,0,0,0,0,0,0,0,0,0,0,0,0,0,0,0,0,0,0,0,0,0,0,0,0,0,0,0,0,0,0,0,0,0,0,0,0,0,0,0,0,0,0,0,0,0,0,0,0,0,0,0,0,0,0,0,0,0,0,0,0,0,0,0,0,0,0,0,0,0,0,0,0,0,0,0,0,0,0,0,0,0],"sum_hessian":[1.22E2,3E0,1.19E2,8.2E1,3.7E1,4.2E1,4E1,2.7E1,1E1,1.5E1,2.7E1,2.6E1,1E0,3.3E1,7E0,7E0,3E0,1E1,5E0,8E0,1.8E1,6E0,1E0,1E0,2E0,4E0,3E0,1E0,2.6E1,2.1E1,1.2E1,6E0,4E0,6E0,2E0,1.5E1,6E0,1.2E1,1.4E1,6E0,6E0,1E0,1E0,4E0,1E0,1.1E1,7E0,1E0,5E0,1E0,5E0,2E0,4E0,1E0,5E0,5E0,2E0,3E0,1.1E1,1E1,5E0,1E0,1.1E1,4E0,1E0,1E0,4E0,2E0,3E0,6E0,5E0,9E0,1E0,1E0,1E0,6E0,5E0,1E0,2E0,4E0,1E0,2E0,3E0,1E0,5E0,1E0,5E0,1E0,1E0,1E0,2E0,2E0,3E0],"tree_param":{"num_deleted":"0","num_feature":"9","num_nodes":"93","size_leaf_vector":"0"}},{"base_weights":[1.0658833E2,1.5943163E1,1.33137E2,1.9204712E1,8.860199E0,1.9772908E2,9.216277E1,2.3362852E1,8.738922E0,3.749289E1,1.7025853E2,1.133916E0,5.8237696E-1,