{"learner":{"attributes":{"scikit_learn":"{\"n_estimators\": 500, \"objective\": \"reg:squarederror\", \"max_depth\": 10, \"learning_rate\": 0.1, \"verbosity\": null, \"booster\": null, \"tree_method\": \"gpu_hist\", \"gamma\": 0.2, \"min_child_weight\": null, \"max_delta_step\": null, \"subsample\": null, \"colsample_bytree\": 0.7, \"colsample_bylevel\": null, \"colsample_bynode\": null, \"reg_alpha\": null, \"reg_lambda\": null, \"scale_pos_weight\": null, \"base_score\": null, \"missing\": NaN, \"num_parallel_tree\": null, \"kwargs\": {}, \"random_state\": 4, \"n_jobs\": null, \"monotone_constraints\": null, \"interaction_constraints\": null, \"importance_type\": \"gain\", \"gpu_id\": 0, \"validate_parameters\": null, \"_estimator_type\": \"regressor\"}"},"feature_names":["id","host_id","latitude","longitude","minimum_nights","number_of_reviews","reviews_per_month","calculated_host_listings_count","availability_365"],"feature_types":["int","int","float","float","int","int","float","int","int"],"gradient_booster":{"model":{"gbtree_model_param":{"num_trees":"500","size_leaf_vector":"0"},"tree_info":[0,0,0,0,0,0,0,0,0,0,0,0,0,0,0,0,0,0,0,0,0,0,0,0,0,0,0,0,0,0,0,0,0,0,0,0,0,0,0,0,0,0,0,0,0,0,0,0,0,0,0,0,0,0,0,0,0,0,0,0,0,0,0,0,0,0,0,0,0,0,0,0,0,0,0,0,0,0,0,0,0,0,0,0,0,0,0,0,0,0,0,0,0,0,0,0,0,0,0,0,0,0,0,0,0,0,0,0,0,0,0,0,0,0,0,0,0,0,0,0,0,0,0,0,0,0,0,0,0,0,0,0,0,0,0,0,0,0,0,0,0,0,0,0,0,0,0,0,0,0,0,0,0,0,0,0,0,0,0,0,0,0,0,0,0,0,0,0,0,0,0,0,0,0,0,0,0,0,0,0,0,0,0,0,0,0,0,0,0,0,0,0,0,0,0,0,0,0,0,0,0,0,0,0,0,0,0,0,0,0,0,0,0,0,0,0,0,0,0,0,0,0,0,0,0,0,0,0,0,0,0,0,0,0,0,0,0,0,0,0,0,0,0,0,0,0,0,0,0,0,0,0,0,0,0,0,0,0,0,0,0,0,0,0,0,0,0,0,0,0,0,0,0,0,0,0,0,0,0,0,0,0,0,0,0,0,0,0,0,0,0,0,0,0,0,0,0,0,0,0,0,0,0,0,0,0,0,0,0,0,0,0,0,0,0,0,0,0,0,0,0,0,0,0,0,0,0,0,0,0,0,0,0,0,0,0,0,0,0,0,0,0,0,0,0,0,0,0,0,0,0,0,0,0,0,0,0,0,0,0,0,0,0,0,0,0,0,0,0,0,0,0,0,0,0,0,0,0,0,0,0,0,0,0,0,0,0,0,0,0,0,0,0,0,0,0,0,0,0,0,0,0,0,0,0,0,0,0,0,0,0,0,0,0,0,0,0,0,0,0,0,0,0,0,0,0,0,0,0,0,0,0,0,0,0,0,0,0,0,0,0,0,0,0,0,0,0,0,0,0,0,0,0,0,0,0,0,0,0,0,0,0,0,0,0,0,0,0,0,0,0,0,0,0,0,0,0,0,0,0,0,0,0,0,0,0,0,0,0,0,0,0,0,0,0,0,0,0,0,0],"trees":[{"base_weights":[4.9987225E2,1.14556E3,4.1789163E2,1.3571389E3,5.2631252E1,6.270441E2,3.7360294E1,4.09E1,1.4500938E3,7.97E2,4.6822502E1,2.0846251E2,1.1433077E3,5.9720833E1,1.197125E2,4.8E1,1.3847778E2],"categories":[],"categories_nodes":[],"categories_segments":[],"categories_sizes":[],"default_left":[true,true,true,true,false,true,false,false,true,true,false,false,true,false,false,false,false],"id":0,"left_children":[1,3,5,7,-1,9,-1,-1,11,13,-1,-1,15,-1,-1,-1,-1],"loss_changes":[1.1537268E7,2.561216E6,1.64614E6,9.93328E5,0E0,5.44561E5,0E0,0E0,7.31276E5,4.84191E5,0E0,0E0,1.417504E6,0E0,0E0,0E0,0E0],"parents":[2147483647,0,0,1,1,2,2,3,3,5,5,8,8,9,9,12,12],"right_children":[2,4,6,8,-1,10,-1,-1,12,14,-1,-1,16,-1,-1,-1,-1],"split_conditions":[4.869891E6,5.4E-1,4E0,2.7E-1,5.2631252E1,3.2580228E7,3.7360294E1,4.09E1,2.8E-1,2.2766E7,4.6822502E1,2.0846251E2,5.2E-1,5.9720833E1,1.197125E2,4.8E1,1.3847778E2],"split_indices":[0,6,7,6,0,0,0,0,6,0,0,0,6,0,0,0,0],"split_type":[0,0,0,0,0,0,0,0,0,0,0,0,0,0,0,0,0],"sum_hessian":[2.26E2,2.4E1,2.02E2,1.7E1,7E0,3.3E1,1.69E2,2E0,1.5E1,1.4E1,1.9E1,3E0,1.2E1,1.1E1,3E0,4E0,8E0],"tree_param":{"num_deleted":"0","num_feature":"9","num_nodes":"17","size_leaf_vector":"0"}},{"base_weights":[4.531982E2,1.0505431E3,3.7740106E2,4.4302002E1,1.1451655E3,5.787577E2,3.3774515E2,1.6571434E2,9.272212E1,7.727211E2,4.2374355E1,3.851428E1,3.184433E2,8.798037E1,3.118344E1,3.920726E1,3.0442417E1],"categories":[],"categories_nodes":[],"categories_segments":[],"categories_sizes":[],"default_left":[true,false,true,false,true,false,true,false,false,true,false,false,true,false,false,false,false],"id":1,"left_children":[1,3,5,-1,7,9,11,-1,-1,13,-1,-1,15,-1,-1,-1,-1],"loss_changes":[9.881408E6,9.29802E5,1.425478E6,0E0,8.067E5,6.34711E5,3.4712E4,0E0,0E0,3.67235E5,0E0,0E0,1.2768E4,0E0,0E0,0E0,0E0],"parents":[2147483647,0,0,1,1,2,2,4,4,5,5,6,6,9,9,12,12],"right_children":[2,4,6,-1,8,10,12,-1,-1,14,-1,-1,16,-1,-1,-1,-1],"split_conditions":[4.869891E6,2E1,3E0,4.4302002E1,2.2E1,3.2580228E7,1.1E1,1.6571434E2,9.272212E1,1.2150961E2,4.2374355E1,3.851428E1,1.2148475E2,8.798037E1,3.118344E1,3.920726E1,3.0442417E1],"split_indices":[0,5,7,0,5,0,7,0,0,3,0,0,3,0,0,0,0],"split_type":[0,0,0,0,0,0,0,0,0,0,0,0,0,0,0,0,0],"sum_hessian":[2.26E2,2.4E1,2.02E2,4E0,2E1,3.1E1,1.71E2,4E0,1.6E1,1.2E1,1.9E1,4.4E1,1.27E2,9E0,3E0,1.6E1,1.11E2],"tree_param":{"num_deleted":"0","num_feature":"9","num_nodes":"17","size_leaf_vector":"0"}},{"base_weights":[4.1040012E2,9.5759814E2,3.4098953E2,1.1526069E3,3.991283E1,3.2527725E2,1.0413554E2,4.075785E1,1.3363595E3,3.8768677E2,2.8714313E2,2.034426E1,1.4078575E3,4.2434586E2,3.3039258E2,3.5517178E1,2.7425358E1,1.639456E2,8.6441675E2,4.5069153E1,2.9760504E1,2.0233343E1,3.6327816E1,1.7915007E1,9.6564E1],"categories":[],"categories_nodes":[],"categories_segments":[],"categories_sizes":[],"default_left":[false,true,true,true,false,true,false,false,true,false,true,false,true,true,true,false,false,false,false,false,false,false,false,false,false],"id":2,"left_children":[1,3,5,7,-1,9,-1,-1,11,13,15,-1,17,19,21,-1,-1,-1,23,-1,-1,-1,-1,-1,-1],"loss_changes":[8.295232E6,2.262628E6,1.89515E6,1.919544E6,0E0,3.64666E5,0E0,0E0,8.47602E5,1.3125E4,1.4831E4,0E0,2.19008E5,2.7735E3,6.54695E4,0E0,0E0,0E0,2.431955E5,0E0,0E0,0E0,0E0,0E0,0E0],"parents":[2147483647,0,0,1,1,2,2,3,3,5,5,8,8,9,9,10,10,12,12,13,13,14,14,18,18],"right_children":[2,4,6,8,-1,10,-1,-1,12,14,16,-1,18,20,22,-1,-1,-1,24,-1,-1,-1,-1,-1,-1],"split_conditions":[6.105927E6,5.4E-1,2.4451317E8,2E1,3.991283E1,1.1E1,1.0413554E2,4.075785E1,2.7E-1,1.215145E2,1.2148475E2,2.034426E1,1.2150102E2,2.0030389E8,1.215146E2,3.5517178E1,2.7425358E1,1.639456E2,4.6E1,4.5069153E1,2.9760504E1,2.0233343E1,3.6327816E1,1.7915007E1,9.6564E1],"split_indices":[1,6,1,5,0,7,0,0,6,3,3,0,3,1,3,0,0,0,5,0,0,0,0,0,0],"split_type":[0,0,0,0,0,0,0,0,0,0,0,0,0,0,0,0,0,0,0,0,0,0,0,0,0],"sum_hessian":[2.26E2,2.4E1,2.02E2,1.7E1,7E0,1.99E2,3E0,4E0,1.3E1,7.2E1,1.27E2,1E0,1.2E1,4E1,3.2E1,1.6E1,1.11E2,7E0,5E0,3.1E1,9E0,8E0,2.4E1,1E0,4E0],"tree_param":{"num_deleted":"0","num_feature":"9","num_nodes":"25","size_leaf_vector":"0"}},{"base_weights":[3.7234653E2,8.7701624E2,3.0836087E2,3.749721E1,9.5478784E2,2.9372122E2,9.632537E1,7.6116833E2,1.4221367E2,3.7386636E2,2.732351E2,9.024998E1,5.3526263E2,4.75608E1,3.2589108E1,2.9405478E2,2.4137388E1,2.8871769E1,6.7475507E2,2.6106916E1,3.422E1,7.401354E1,2.066168E1],"categories":[],"categories_nodes":[],"categories_segments":[],"categories_sizes":[],"default_left":[true,false,true,false,false,true,false,true,false,false,true,false,false,false,false,true,false,false,true,false,false,false,false],"id":3,"left_children":[1,3,5,-1,7,9,-1,11,-1,13,15,-1,17,-1,-1,19,-1,-1,21,-1,-1,-1,-1],"loss_changes":[7.059758E6,6.181E5,1.663314E6,0E0,8.1776E5,2.2622E5,0E0,5.9695E4,0E0,3.0485E4,3.7147E4,0E0,1.1470675E5,0E0,0E0,5.99435E4,0E0,0E0,1.11E2,0E0,0E0,0E0,0E0],"parents":[2147483647,0,0,1,1,2,2,4,4,5,5,7,7,9,9,10,10,12,12,15,15,18,18],"right_children":[2,4,6,-1,8,10,-1,12,-1,14,16,-1,18,-1,-1,20,-1,-1,22,-1,-1,-1,-1],"split_conditions":[6.105927E6,2E1,2.4451317E8,3.749721E1,2.513276E1,1.2151084E2,9.632537E1,3.6E2,1.4221367E2,1E0,3.62E2,9.024998E1,3.61E2,4.75608E1,3.2589108E1,2.51108E1,2.4137388E1,2.8871769E1,1.2149991E2,2.6106916E1,3.422E1,7.401354E1,2.066168E1],"split_indices":[1,5,1,0,2,3,0,8,0,8,8,0,8,0,0,2,0,0,3,0,0,0,0],"split_type":[0,0,0,0,0,0,0,0,0,0,0,0,0,0,0,0,0,0,0,0,0,0,0],"sum_hessian":[2.26E2,2.4E1,2.02E2,4E0,2E1,1.99E2,3E0,1.6E1,4E0,3.7E1,1.62E2,8E0,8E0,9E0,2.8E1,9.3E1,6.9E1,4E0,4E0,5.9E1,3.4E1,3E0,1E0],"tree_param":{"num_deleted":"0","num_feature":"9","num_nodes":"23","size_leaf_vector":"0"}},{"base_weights":[3.3799487E2,8.050545E2,2.788102E2,9.806741E2,3.0927893E1,2.6517218E2,8.910097E1,2.3145718E1,1.0598601E3,3.2021484E2,2.3170898E2,1.574373E2,8.2002075E2,4.35155E2,2.9937368E1,2.9107168E1,2.2062975E1,3.0192951E1,1.0167358E2,4.6202557E1,1.1009535E1],"categories":[],"categories_nodes":[],"categories_segments":[],"categories_sizes":[],"default_left":[true,true,true,true,false,true,false,false,true,true,false,false,true,true,false,false,false,false,false,false,false],"id":4,"left_children":[1,3,5,7,-1,9,-1,-1,11,13,15,-1,17,19,-1,-1,-1,-1,-1,-1,-1],"loss_changes":[6.05045E6,1.873394E6,1.458616E6,8.22584E5,0E0,2.94184E5,0E0,0E0,6.83388E5,4.45965E4,1.9966E4,0E0,1.01793E6,2.7743875E4,0E0,0E0,0E0,0E0,0E0,0E0,0E0],"parents":[2147483647,0,0,1,1,2,2,3,3,5,5,8,8,9,9,10,10,12,12,13,13],"right_children":[2,4,6,8,-1,10,-1,-1,12,14,16,-1,18,20,-1,-1,-1,-1,-1,-1,-1],"split_conditions":[4.869891E6,5.4E-1,2.4451317E8,2.7E-1,3.0927893E1,1.1E1,8.910097E1,2.3145718E1,2.8E-1,1.4305179E7,1.2149991E2,1.574373E2,5.2E-1,8.9E-1,2.9937368E1,2.9107168E1,2.2062975E1,3.0192951E1,1.0167358E2,4.6202557E1,1.1009535E1],"split_indices":[0,6,1,6,0,7,0,0,6,0,3,0,6,6,0,0,0,0,0,0,0],"split_type":[0,0,0,0,0,0,0,0,0,0,0,0,0,0,0,0,0,0,0,0,0],"sum_hessian":[2.26E2,2.4E1,2.02E2,1.7E1,7E0,1.99E2,3E0,2E0,1.5E1,7.2E1,1.27E2,3E0,1.2E1,8E0,6.4E1,1.6E1,1.11E2,4E0,8E0,7E0,1E0],"tree_param":{"num_deleted":"0","num_feature":"9","num_nodes":"21","size_leaf_vector":"0"}},{"base_weights":[3.067099E2,7.382841E2,2.5204947E2,8.999649E2,2.822169E1,2.3934654E2,8.2418396E1,3.222293E1,1.0420159E3,2.961269E2,2.1792425E1,1.3960992E2,6.9018066E2,1.898956E1,3.3806595E1,3.806739E2,1.1823029E3,6.262401E2,3.993921E1,1.1059107E1,1.6628633E2,1.0231275E1,7.667783E1,-1.0263697E1,1.2167692E1],"categories":[],"categories_nodes":[],"categories_segments":[],"categories_sizes":[],"default_left":[false,false,true,true,false,true,false,false,true,true,false,false,false,false,false,true,true,true,false,false,false,false,false,false,false],"id":5,"left_children":[1,3,5,7,-1,9,-1,-1,11,13,-1,-1,15,-1,-1,17,19,21,23,-1,-1,-1,-1,-1,-1],"loss_changes":[5.168854E6,1.589447E6,1.278096E6,1.141454E6,0E0,1.7874E5,0E0,0E0,7.80545E5,1.674755E5,0E0,0E0,9.207645E5,0E0,0E0,5.6069894E5,1.361169E6,2.16076E5,5.910395E4,0E0,0E0,0E0,0E0,0E0,0E0],"parents":[2147483647,0,0,1,1,2,2,3,3,5,5,8,8,9,9,12,12,15,15,16,16,17,17,18,18],"right_children":[2,4,6,8,-1,10,-1,-1,12,14,-1,-1,16,-1,-1,18,20,22,24,-1,-1,-1,-1,-1,-1],"split_conditions":[6.105927E6,5.4E-1,2.4451317E8,2E1,2.822169E1,3.16E2,8.2418396E1,3.222293E1,3.6E2,2.51108E1,2.1792425E1,1.3960992E2,3.62E2,1.898956E1,3.3806595E1,1.2149991E2,2.7E-1,5.2E-1,1.2150102E2,1.1059107E1,1.6628633E2,1.0231275E1,7.667783E1,-1.0263697E1,1.2167692E1],"split_indices":[1,6,1,5,0,8,0,0,8,2,0,0,8,0,0,3,6,6,3,0,0,0,0,0,0],"split_type":[0,0,0,0,0,0,0,0,0,0,0,0,0,0,0,0,0,0,0,0,0,0,0,0,0],"sum_hessian":[2.26E2,2.4E1,2.02E2,1.7E1,7E0,1.99E2,3E0,4E0,1.3E1,5.1E1,1.48E2,5E0,8E0,1.6E1,3.5E1,6E0,2E0,3E0,3E0,1E0,1E0,1E0,2E0,1E0,2E0],"tree_param":{"num_deleted":"0","num_feature":"9","num_nodes":"25","size_leaf_vector":"0"}},{"base_weights":[2.787844E2,6.831043E2,2.2761798E2,8.343013E2,2.5752308E1,3.9853967E2,2.0356387E2,1.1491533E3,5.811125E2,4.8669852E2,1.9753065E1,2.4126106E2,1.8636453E2,1.8276356E1,1.2797577E2,5.85444E2,2.761052E1,2.3375183E1,1.7542473E2,3.5656808E2,9.410593E2,2.735172E1,2.000693E2,2.7236979E1,6.807087E1,1.4462321E2,5.853434E2,1.3713524E1,2.572956E2,1.7080654E1,2.8012632E1,2.0159904E1,1.5797202E2,-9.750501E0,2.1254986E1,9.719726E0,7.156597E1,3.088943E1,1.6894035E1],"categories":[],"categories_nodes":[],"categories_segments":[],"categories_sizes":[],"default_left":[true,true,true,true,false,true,true,true,true,true,false,true,true,false,false,false,false,false,true,true,true,false,true,false,false,false,false,false,true,false,false,false,false,false,false,false,false,false,false],"id":6,"left_children":[1,3,5,7,-1,9,11,13,19,15,-1,21,17,-1,-1,23,-1,-1,29,25,31,-1,27,-1,-1,33,35,-1,37,-1,-1,-1,-1,-1,-1,-1,-1,-1,-1],"loss_changes":[4.540598E6,1.393813E6,7.5348E5,7.67118E5,0E0,3.291595E5,7.17435E4,6.4961E5,6.34337E5,1.71078E5,0E0,1.5698E4,2.53505E4,0E0,0E0,1.1284475E5,0E0,0E0,4.37425E3,3.517355E5,1.570587E6,0E0,6.1955625E4,0E0,0E0,1.1940642E5,1.848935E5,0E0,7.0825E3,0E0,0E0,0E0,0E0,0E0,0E0,0E0,0E0,0E0,0E0],"parents":[2147483647,0,0,1,1,2,2,3,3,5,5,6,6,7,7,9,9,12,12,8,8,11,11,15,15,19,19,22,22,18,18,20,20,25,25,26,26,28,28],"right_children":[2,4,6,8,-1,10,12,14,20,16,-1,22,18,-1,-1,24,-1,-1,30,26,32,-1,28,-1,-1,34,36,-1,38,-1,-1,-1,-1,-1,-1,-1,-1,-1,-1],"split_conditions":[4.869891E6,5.4E-1,2E0,3.6E2,2.5752308E1,3.429992E7,1.1E1,3.55E2,3.62E2,1.2150961E2,1.9753065E1,1.215145E2,1.2151113E2,1.8276356E1,1.2797577E2,9.384473E6,2.761052E1,2.3375183E1,4.70296E7,1.89475E6,2.7E-1,2.735172E1,9E0,2.7236979E1,6.807087E1,2.8E-1,5.2E-1,1.3713524E1,2E0,1.7080654E1,2.8012632E1,2.0159904E1,1.5797202E2,-9.750501E0,2.1254986E1,9.719726E0,7.156597E1,3.088943E1,1.6894035E1],"split_indices":[0,6,7,8,0,0,7,8,8,3,0,3,3,0,0,0,0,0,0,0,6,0,7,0,0,6,6,0,4,0,0,0,0,0,0,0,0,0,0],"split_type":[0,0,0,0,0,0,0,0,0,0,0,0,0,0,0,0,0,0,0,0,0,0,0,0,0,0,0,0,0,0,0,0,0,0,0,0,0,0,0],"sum_hessian":[2.26E2,2.4E1,2.02E2,1.7E1,7E0,2.3E1,1.79E2,6E0,1.1E1,1.5E1,8E0,5.2E1,1.27E2,1E0,5E0,9E0,6E0,2E1,1.07E2,8E0,3E0,2.6E1,2.6E1,3E0,6E0,5E0,3E0,1.4E1,1.2E1,1.05E2,2E0,2E0,1E0,1E0,4E0,1E0,2E0,6E0,6E0],"tree_param":{"num_deleted":"0","num_feature":"9","num_nodes":"39","size_leaf_vector":"0"}},{"base_weights":[2.541787E2,6.325109E2,2.0633394E2,2.8026188E1,6.862602E2,1.9520259E2,7.113171E1,5.275383E2,1.0886625E2,2.3976517E2,1.6826299E2,6.2042816E1,3.7603308E2,3.0082788E1,2.1104666E1,1.8049777E2,1.4168555E1,1.776211E1,4.9923843E1,1.58623E1,2.0659035E2,6.473449E0,2.1322601E1],"categories":[],"categories_nodes":[],"categories_segments":[],"categories_sizes":[],"default_left":[false,true,true,false,true,true,false,true,false,false,true,false,true,false,false,true,false,false,false,false,true,false,false],"id":7,"left_children":[1,3,5,-1,7,9,-1,11,-1,13,15,-1,17,-1,-1,19,-1,-1,-1,-1,21,-1,-1],"loss_changes":[3.978467E6,2.80996E5,1.002239E6,0E0,7.6696E5,1.99756E5,0E0,5.9445E3,0E0,6.45265E4,1.604775E4,0E0,1.3133362E5,0E0,0E0,1.517475E4,0E0,0E0,0E0,0E0,1.914275E4,0E0,0E0],"parents":[2147483647,0,0,1,1,2,2,4,4,5,5,7,7,9,9,10,10,12,12,15,15,20,20],"right_children":[2,4,6,-1,8,10,-1,12,-1,14,16,-1,18,-1,-1,20,-1,-1,-1,-1,22,-1,-1],"split_conditions":[4.869891E6,2E1,2.4451317E8,2.8026188E1,2.513276E1,1.1E1,7.113171E1,3.6E2,1.0886625E2,9E1,3.65E2,6.2042816E1,3.61E2,3.0082788E1,2.1104666E1,2.511224E1,1.4168555E1,1.776211E1,4.9923843E1,1.58623E1,1E0,6.473449E0,2.1322601E1],"split_indices":[0,5,1,0,2,7,0,8,0,8,8,0,8,0,0,2,0,0,0,0,8,0,0],"split_type":[0,0,0,0,0,0,0,0,0,0,0,0,0,0,0,0,0,0,0,0,0,0,0],"sum_hessian":[2.26E2,2.4E1,2.02E2,4E0,2E1,1.99E2,3E0,1.6E1,4E0,7.2E1,1.27E2,8E0,8E0,2E1,5.2E1,8.3E1,4.4E1,4E0,4E0,4.9E1,3.4E1,2E0,3.2E1],"tree_param":{"num_deleted":"0","num_feature":"9","num_nodes":"23","size_leaf_vector":"0"}},{"base_weights":[2.3072897E2,5.7992474E2,1.8658798E2,7.0318286E2,4.508738E2,1.7622742E2,6.5796844E1,4.2061182E2,8.685567E2,2.8691E2,8.300468E1,2.1648988E2,1.5188846E2,4.6952637E1,8.801956E0,1.2139617E2,4.3219113E2,1.4153163E2,1.8236412E2,3.1007437E2,1.0702793E2,1.6190009E2,2.3992368E2,1.7723053E1,-1.2126485E1,1.3685158E1,2.4723614E1,1.2693186E1,2.203411E2,3.257705E1,2.0650038E1,3.69592E1,9.551956E0,1.847987E1,5.096877E1,1.9529858E1,1.1381316E1,1.2887319E1,-1.4706291E1,2.5264421E1,8.228782E0],"categories":[],"categories_nodes":[],"categories_segments":[],"categories_sizes":[],"default_left":[true,true,false,false,true,true,false,true,false,false,false,true,true,false,false,false,false,true,true,true,false,true,true,false,false,false,false,false,true,false,false,false,false,false,false,false,false,false,false,false,false],"id":8,"left_children":[1,3,5,7,9,11,-1,13,19,15,-1,21,17,-1,-1,23,33,25,35,31,-1,27,29,-1,37,-1,-1,-1,39,-1,-1,-1,-1,-1,-1,-1,-1,-1,-1,-1,-1],"loss_changes":[3.390736E6,8.0618E4,8.75451E5,1.48704E5,6.9441075E5,1.63107E5,0E0,5.6284125E4,3.44085E5,2.3608612E5,0E0,5.45415E4,1.45905E4,0E0,0E0,5.4335242E4,2.084275E4,1.5635625E4,3.4859375E3,3.0060938E3,0E0,2.3121188E4,7.332325E4,0E0,7.603044E4,0E0,0E0,0E0,1.4886844E4,0E0,0E0,0E0,0E0,0E0,0E0,0E0,0E0,0E0,0E0,0E0,0E0],"parents":[2147483647,0,0,1,1,2,2,3,3,4,4,5,5,7,7,9,9,12,12,8,8,11,11,15,15,17,17,21,21,22,22,19,19,16,16,18,18,24,24,28,28],"right_children":[2,4,6,8,10,12,-1,14,20,16,-1,22,18,-1,-1,24,34,26,36,32,-1,28,30,-1,38,-1,-1,-1,40,-1,-1,-1,-1,-1,-1,-1,-1,-1,-1,-1,-1],"split_conditions":[4.869891E6,3.6E2,2.4451317E8,3.57E2,3.62E2,1.1E1,6.5796844E1,1.89475E6,8.99766E5,1.89475E6,8.300468E1,2.51108E1,2.511599E1,4.6952637E1,8.801956E0,3.61E2,3.61E2,4.70296E7,3.7424836E7,3.59E2,1.0702793E2,9E0,1.9467716E7,1.7723053E1,8.99766E5,1.3685158E1,2.4723614E1,1.2693186E1,3.203256E7,3.257705E1,2.0650038E1,3.69592E1,9.551956E0,1.847987E1,5.096877E1,1.9529858E1,1.1381316E1,1.2887319E1,-1.4706291E1,2.5264421E1,8.228782E0],"split_indices":[0,8,1,8,8,7,0,0,0,0,0,2,2,0,0,8,8,0,0,8,0,7,0,0,0,0,0,0,0,0,0,0,0,0,0,0,0,0,0,0,0],"split_type":[0,0,0,0,0,0,0,0,0,0,0,0,0,0,0,0,0,0,0,0,0,0,0,0,0,0,0,0,0,0,0,0,0,0,0,0,0,0,0,0,0],"sum_hessian":[2.26E2,2.4E1,2.02E2,1E1,1.4E1,1.99E2,3E0,5E0,5E0,1.1E1,3E0,7.2E1,1.27E2,4E0,1E0,6E0,5E0,9.9E1,2.8E1,2E0,3E0,2.4E1,4.8E1,4E0,2E0,9.7E1,2E0,1.7E1,7E0,1.1E1,3.7E1,1E0,1E0,2E0,3E0,2.2E1,6E0,1E0,1E0,5E0,2E0],"tree_param":{"num_deleted":"0","num_feature":"9","num_nodes":"41","size_leaf_vector":"0"}},{"base_weights":[2.103529E2,5.3703827E2,1.6908449E2,2.247602E1,5.8581696E2,1.5944835E2,6.0862057E1,4.4427284E1,9.4990364E1,2.2547025E2,1.4647113E2,2.6994421E1,1.7296555E1,1.6112508E2,1.2323513E1,1.377687E2,1.8712926E2,1.2689989E2,2.0900373E1,2.3337256E2,1.6105002E2,7.403878E0,1.30948105E1,2.4270168E1,5.6046968E0,5.1295395E0,1.6665716E1],"categories":[],"categories_nodes":[],"categories_segments":[],"categories_sizes":[],"default_left":[true,false,true,false,false,true,false,false,false,false,true,false,false,true,false,true,true,true,false,true,true,false,false,false,false,false,false],"id":9,"left_children":[1,3,5,-1,7,9,-1,-1,-1,11,13,-1,-1,15,-1,17,19,21,-1,23,25,-1,-1,-1,-1,-1,-1],"loss_changes":[2.969561E6,2.49144E5,7.627495E5,0E0,6.602045E5,1.383315E5,0E0,0E0,0E0,2.5696875E4,3.802875E4,0E0,0E0,3.556325E4,0E0,1.760925E4,1.6684875E4,1.4324375E3,0E0,9.557375E3,1.11443125E4,0E0,0E0,0E0,0E0,0E0,0E0],"parents":[2147483647,0,0,1,1,2,2,4,4,5,5,9,9,10,10,13,13,15,15,16,16,17,17,19,19,20,20],"right_children":[2,4,6,-1,8,10,-1,-1,-1,12,14,-1,-1,16,-1,18,20,22,-1,24,26,-1,-1,-1,-1,-1,-1],"split_conditions":[6.105927E6,2E1,2.4451317E8,2.247602E1,2.513276E1,4E0,6.0862057E1,4.4427284E1,9.4990364E1,1.5399272E8,3.64E2,2.6994421E1,1.7296555E1,2.51108E1,1.2323513E1,3.59E2,1.2E1,6E0,2.0900373E1,2.511404E1,1E0,7.403878E0,1.30948105E1,2.4270168E1,5.6046968E0,5.1295395E0,1.6665716E1],"split_indices":[1,5,1,0,2,7,0,0,0,1,8,0,0,2,0,8,7,7,0,2,8,0,0,0,0,0,0],"split_type":[0,0,0,0,0,0,0,0,0,0,0,0,0,0,0,0,0,0,0,0,0,0,0,0,0,0,0],"sum_hessian":[2.26E2,2.4E1,2.02E2,4E0,2E1,1.99E2,3E0,1.6E1,4E0,3E1,1.69E2,1.4E1,1.6E1,1E2,6.9E1,5.6E1,4.4E1,5.1E1,5E0,1.3E1,3.1E1,5E0,4.6E1,1.2E1,1E0,2E0,2.9E1],"tree_param":{"num_deleted":"0","num_feature":"9","num_nodes":"27","size_leaf_vector":"0"}},{"base_weights":[1.9095833E2,3.461769E2,1.3438644E2,4.708358E2,1.3957046E1,1.6227687E2,1.1070381E2,3.009455E2,7.284452E2,1.3236736E2,1.7727899E2,9.642519E0,1.1993019E1,5.62974E1,2.3670456E1,1.0201218E1,1.668695E2,-4.844916E0,7.9193317E2,1.603605E2,2.3089474E2,1.7966751E2,6.8586297E0,1.7947742E2,1.0832073E2,9.7867065E1,4.1096097E2,2.4844933E1,4.522907E0,2.1547447E1,1.0076568E1,4.279987E0,1.23697E1,2.0171675E1,1.0144443E1,1.0788656E1,5.3552655E2,4.825232E0,6.818672E1],"categories":[],"categories_nodes":[],"categories_segments":[],"categories_sizes":[],"default_left":[true,true,true,false,false,true,true,true,false,true,true,false,false,false,false,false,true,false,true,true,false,true,false,true,true,false,true,false,false,false,false,false,false,false,false,false,true,false,false],"id":10,"left_children":[1,3,5,7,-1,9,11,13,17,15,19,-1,-1,-1,-1,-1,21,-1,25,23,27,29,-1,33,31,-1,35,-1,-1,-1,-1,-1,-1,-1,-1,-1,37,-1,-1],"loss_changes":[1.9467665E6,1.4796055E6,9.30025E4,1.400096E6,0E0,1.0187E4,8.1925E2,2.707325E5,7.288965E5,1.33495625E4,5.60725E3,0E0,0E0,0E0,0E0,0E0,2.77125E3,0E0,5.226475E5,1.9357625E4,1.8096406E4,6.5399375E3,0E0,2.6392812E4,7.8028438E3,0E0,1.6873969E5,0E0,0E0,0E0,0E0,0E0,0E0,0E0,0E0,0E0,2.523305E5,0E0,0E0],"parents":[2147483647,0,0,1,1,2,2,3,3,5,5,6,6,7,7,9,9,8,8,10,10,16,16,19,19,18,18,20,20,21,21,24,24,23,23,26,26,36,36],"right_children":[2,4,6,8,-1,10,12,14,18,16,20,-1,-1,-1,-1,-1,22,-1,26,24,28,30,-1,34,32,-1,36,-1,-1,-1,-1,-1,-1,-1,-1,-1,38,-1,-1],"split_conditions":[1.2150961E2,5.4E-1,1.2E1,2E1,1.3957046E1,2.51108E1,1.3E1,2.511675E1,2.7E-1,9E0,1.21516E2,9.642519E0,1.1993019E1,5.62974E1,2.3670456E1,1.0201218E1,2E0,-4.844916E0,1.2150102E2,1.215145E2,2E0,1.1E1,6.8586297E0,1E1,2.511347E1,9.7867065E1,5.3E-1,2.4844933E1,4.522907E0,2.1547447E1,1.0076568E1,4.279987E0,1.23697E1,2.0171675E1,1.0144443E1,1.0788656E1,4.6E1,4.825232E0,6.818672E1],"split_indices":[3,6,7,5,0,2,7,2,6,7,3,0,0,0,0,0,4,0,3,3,4,7,0,7,2,0,6,0,0,0,0,0,0,0,0,0,5,0,0],"split_type":[0,0,0,0,0,0,0,0,0,0,0,0,0,0,0,0,0,0,0,0,0,0,0,0,0,0,0,0,0,0,0,0,0,0,0,0,0,0,0],"sum_hessian":[2.26E2,5.9E1,1.67E2,3.6E1,2.3E1,7.4E1,9.3E1,2.3E1,1.3E1,2.8E1,4.6E1,4.1E1,5.2E1,3E0,2E1,1.7E1,1.1E1,1E0,1.2E1,3.8E1,8E0,9E0,2E0,2.6E1,1.2E1,7E0,5E0,7E0,1E0,5E0,4E0,3E0,9E0,1.9E1,7E0,2E0,3E0,1E0,2E0],"tree_param":{"num_deleted":"0","num_feature":"9","num_nodes":"39","size_leaf_vector":"0"}},{"base_weights":[1.7370125E2,4.4839493E2,1.3901631E2,5.719137E2,1.144284E1,1.3068654E2,5.2075092E1,4.176121E1,6.355727E2,1.6263887E2,1.11442726E2,1.0866852E1,-4.60267E0,2.421286E2,1.4913046E2,1.0432135E2,4.6125455E2,1.0849712E2,1.9801033E1,2.5782202E1,5.829066E0,1.3267317E2,5.9254926E2,1.1738605E2,1.6264189E2,9.955615E0,1.3497017E2,1.8046951E1,-2.925612E0,9.095396E0,1.6480884E2,1.4512886E1,8.231016E0,3.8383167E2,7.574883E1,1.7181913E1,1.0888137E1,1.9232405E1,6.4013877E0,1.0069413E1,5.0022687E2,4.583963E0,6.364094E1],"categories":[],"categories_nodes":[],"categories_segments":[],"categories_sizes":[],"default_left":[true,true,true,false,false,true,false,true,true,true,true,false,false,true,false,false,true,true,false,false,false,false,true,true,true,false,true,false,false,false,true,false,false,false,false,false,false,false,false,false,true,false,false],"id":11,"left_children":[1,3,5,7,-1,9,-1,11,15,13,17,-1,-1,19,23,-1,21,25,-1,-1,-1,27,33,29,35,-1,31,-1,-1,-1,37,-1,-1,39,-1,-1,-1,-1,-1,-1,41,-1,-1],"loss_changes":[2.100462E6,9.658355E5,5.774365E5,5.809395E5,0E0,1.04852E5,0E0,2.2622611E4,6.557595E5,4.2277125E4,1.1155625E4,0E0,0E0,1.09368125E4,8.7875E3,0E0,4.822175E5,1.63865E4,0E0,0E0,0E0,4.3977977E4,1.908325E4,1.3840094E4,2.507125E3,0E0,3.568125E3,0E0,0E0,0E0,7.1023594E3,0E0,0E0,1.4736525E5,0E0,0E0,0E0,0E0,0E0,0E0,2.1834569E5,0E0,0E0],"parents":[2147483647,0,0,1,1,2,2,3,3,5,5,7,7,9,9,8,8,10,10,13,13,16,16,14,14,17,17,21,21,23,23,26,26,22,22,24,24,30,30,33,33,40,40],"right_children":[2,4,6,8,-1,10,-1,12,16,14,18,-1,-1,20,24,-1,22,26,-1,-1,-1,28,34,30,36,-1,32,-1,-1,-1,38,-1,-1,40,-1,-1,-1,-1,-1,-1,42,-1,-1],"split_conditions":[4.869891E6,5.4E-1,2.4451317E8,2.7E-1,1.144284E1,1.1E1,5.2075092E1,2E1,2.8E-1,1.4305179E7,4.70296E7,1.0866852E1,-4.60267E0,8.9E-1,2.51108E1,1.0432135E2,5.2E-1,2.511599E1,1.9801033E1,2.5782202E1,5.829066E0,3.2E-1,1.89475E6,9E0,2.512193E1,9.955615E0,3.7424836E7,1.8046951E1,-2.925612E0,9.095396E0,3.203256E7,1.4512886E1,8.231016E0,5.3E-1,7.574883E1,1.7181913E1,1.0888137E1,1.9232405E1,6.4013877E0,1.0069413E1,4.6E1,4.583963E0,6.364094E1],"split_indices":[0,6,1,6,0,7,0,5,6,0,0,0,0,6,2,0,6,2,0,0,0,6,0,7,2,0,0,0,0,0,0,0,0,6,0,0,0,0,0,0,5,0,0],"split_type":[0,0,0,0,0,0,0,0,0,0,0,0,0,0,0,0,0,0,0,0,0,0,0,0,0,0,0,0,0,0,0,0,0,0,0,0,0,0,0,0,0,0,0],"sum_hessian":[2.26E2,2.4E1,2.02E2,1.7E1,7E0,1.99E2,3E0,2E0,1.5E1,7.2E1,1.27E2,1E0,1E0,8E0,6.4E1,3E0,1.2E1,1.25E2,2E0,7E0,1E0,4E0,8E0,2.2E1,4.2E1,9.7E1,2.8E1,3E0,1E0,1.6E1,6E0,2.2E1,6E0,5E0,3E0,3.4E1,8E0,4E0,2E0,2E0,3E0,1E0,2E0],"tree_param":{"num_deleted":"0","num_feature":"9","num_nodes":"43","size_leaf_vector":"0"}},{"base_weights":[1.584905E2,4.1520312E2,1.260949E2,5.302639E2,1.0441591E2,1.1835243E2,4.8169464E1,8.016815E2,3.2774838E2,5.6502666E0,1.382035E1,1.4263673E2,9.718676E1,1.0403922E1,9.006153E1,1.6339214E2,1.0638841E2,1.4461586E2,6.578595E2,1.2156267E1,8.652627E1,2.1749502E1,1.401794E2,-2.8829908E1,2.3476761E2,6.88843E0,9.47011E0,1.2144552E2,8.458433E1,3.9673145E1,1.25620926E2,4.660974E0,1.4618195E2,1.2436363E1,3.4459703E0,1.0323509E1,-4.372537E0,2.9500797E2,3.6030987E1,3.9505162E0,9.888362E0,1.5204544E2,7.5901084E0,1.0101806E2,4.553252E1,4.3547716E0,1.0498765E0,1.5969112E2,8.847616E0,1.5321968E1,-2.7793396E0,1.6217846E1,4.377904E0],"categories":[],"categories_nodes":[],"categories_segments":[],"categories_sizes":[],"default_left":[true,true,true,true,true,true,false,false,true,false,false,false,true,false,false,true,false,false,false,false,false,false,true,false,true,false,false,true,true,false,false,false,true,false,false,false,false,true,false,false,false,false,false,true,false,false,false,true,false,false,false,false,false],"id":12,"left_children":[1,3,5,7,9,11,-1,13,17,-1,-1,15,19,-1,-1,21,27,23,29,-1,25,-1,31,-1,37,-1,-1,33,39,35,-1,-1,41,-1,-1,-1,-1,43,45,-1,-1,47,-1,49,-1,-1,-1,51,-1,-1,-1,-1,-1],"loss_changes":[1.835458E6,8.386175E5,5.0189375E5,7.26643E5,5.142117E3,8.89365E4,0E0,3.89444E5,6.303121E5,0E0,0E0,5.108075E4,1.8066125E4,0E0,0E0,3.984075E4,1.5466562E3,4.189356E5,1.429729E6,0E0,5.0141875E3,0E0,1.6776062E4,0E0,8.5146375E4,0E0,0E0,5.3734375E2,7.696383E3,2.041691E4,0E0,0E0,4.531125E3,0E0,0E0,0E0,0E0,1.4060353E5,1.1855908E2,0E0,0E0,2.8821875E3,0E0,3.1155156E4,0E0,0E0,0E0,1.549375E3,0E0,0E0,0E0,0E0,0E0],"parents":[2147483647,0,0,1,1,2,2,3,3,4,4,5,5,7,7,11,11,8,8,12,12,15,15,17,17,20,20,16,16,18,18,22,22,27,27,29,29,24,24,28,28,32,32,37,37,38,38,41,41,43,43,47,47],"right_children":[2,4,6,8,10,12,-1,14,18,-1,-1,16,20,-1,-1,22,28,24,30,-1,26,-1,32,-1,38,-1,-1,34,40,36,-1,-1,42,-1,-1,-1,-1,44,46,-1,-1,48,-1,50,-1,-1,-1,52,-1,-1,-1,-1,-1],"split_conditions":[6.105927E6,5.4E-1,2.4451317E8,3.6E2,3.6E2,1.2E1,4.8169464E1,2E1,3.62E2,5.6502666E0,1.382035E1,3.62E2,1.2151322E2,1.0403922E1,9.006153E1,2E0,1.2151441E2,2.8E-1,2.7E-1,1.2156267E1,1.21516E2,2.1749502E1,6E-2,-2.8829908E1,1.2150102E2,6.88843E0,9.47011E0,9.9E-1,9E0,2E1,1.25620926E2,4.660974E0,1.1E1,1.2436363E1,3.4459703E0,1.0323509E1,-4.372537E0,5.2E-1,4.6E1,3.9505162E0,9.888362E0,2.092802E8,7.5901084E0,2E1,4.553252E1,4.3547716E0,1.0498765E0,1.2151945E2,8.847616E0,1.5321968E1,-2.7793396E0,1.6217846E1,4.377904E0],"split_indices":[1,6,1,8,8,7,0,5,8,0,0,8,3,0,0,5,3,6,6,0,3,0,6,0,3,0,0,6,7,5,0,0,7,0,0,0,0,6,5,0,0,1,0,5,0,0,0,3,0,0,0,0,0],"split_type":[0,0,0,0,0,0,0,0,0,0,0,0,0,0,0,0,0,0,0,0,0,0,0,0,0,0,0,0,0,0,0,0,0,0,0,0,0,0,0,0,0,0,0,0,0,0,0,0,0,0,0,0,0],"sum_hessian":[2.26E2,2.4E1,2.02E2,1.7E1,7E0,1.99E2,3E0,6E0,1.1E1,4E0,3E0,9E1,1.09E2,1E0,5E0,5.5E1,3.5E1,8E0,3E0,3E1,7.9E1,1.4E1,4.1E1,1E0,7E0,2.8E1,5.1E1,1.8E1,1.7E1,2E0,1E0,3E0,3.8E1,1.7E1,1E0,1E0,1E0,5E0,2E0,5E0,1.2E1,3.4E1,4E0,3E0,2E0,1E0,1E0,2.9E1,5E0,2E0,1E0,2.8E1,1E0],"tree_param":{"num_deleted":"0","num_feature":"9","num_nodes":"53","size_leaf_vector":"0"}},{"base_weights":[1.446503E2,2.692073E2,9.930464E1,1.2291713E1,3.8517447E2,1.11985725E2,7.9951324E0,4.5921124E2,9.640815E1,9.4652145E1,1.3518645E2,6.124635E2,2.8410477E2,8.710247E1,1.480822E1,5.198246E0,1.2783823E1,1.1292622E2,1.8360651E1,3.7608017E2,8.2556396E2,9.330261E0,5.711005E0,1.3400429E2,4.619047E2,1.3009852E1,4.9440074E0,4.0156673E1,9.883716E0,-2.7388418E1,2.1922586E2,1.06022545E2,4.4317688E2,7.6926125E1,1.1933988E2,2.751864E2,3.422948E1,8.544214E0,5.339411E1,1.169272E1,-4.153909E0,9.405185E1,4.2497036E1,4.1370378E0,9.9738467E-1,1.4300493E1,-2.6403701E0],"categories":[],"categories_nodes":[],"categories_segments":[],"categories_sizes":[],"default_left":[true,false,true,false,true,true,false,true,true,true,true,true,true,true,false,false,false,true,false,false,false,false,false,false,true,false,false,false,false,false,true,false,true,false,false,false,true,false,false,false,false,false,false,false,false,false,false],"id":13,"left_children":[1,3,5,-1,7,9,-1,11,15,13,17,19,23,21,-1,-1,-1,25,-1,27,31,-1,-1,29,33,-1,-1,-1,-1,-1,35,-1,37,39,-1,41,43,-1,-1,-1,-1,45,-1,-1,-1,-1,-1],"loss_changes":[1.2553895E6,9.705475E5,3.2277375E4,0E0,6.612465E5,2.701725E4,0E0,5.23718E5,4.525078E3,1.13045E4,2.2379688E4,3.44376E5,3.11733E5,4.899125E3,0E0,0E0,0E0,2.6274031E4,0E0,1.6838125E4,6.85215E4,0E0,0E0,3.7289056E5,1.597854E6,0E0,0E0,0E0,0E0,0E0,7.34005E4,0E0,8.425694E4,2.8550729E4,0E0,1.2281703E5,1.0699902E2,0E0,0E0,0E0,0E0,2.7362547E4,0E0,0E0,0E0,0E0,0E0],"parents":[2147483647,0,0,1,1,2,2,4,4,5,5,7,7,9,9,8,8,10,10,11,11,13,13,12,12,17,17,19,19,23,23,20,20,24,24,30,30,32,32,33,33,35,35,36,36,41,41],"right_children":[2,4,6,-1,8,10,-1,12,16,14,18,20,24,22,-1,-1,-1,26,-1,28,32,-1,-1,30,34,-1,-1,-1,-1,-1,36,-1,38,40,-1,42,44,-1,-1,-1,-1,46,-1,-1,-1,-1,-1],"split_conditions":[1.2150961E2,1.2149988E2,3.62E2,1.2291713E1,5.4E-1,2.51108E1,7.9951324E0,3.6E2,3.6E2,3.59E2,1.2151599E2,2E1,3.62E2,2E0,1.480822E1,5.198246E0,1.2783823E1,1.215145E2,1.8360651E1,2E0,1.2150102E2,9.330261E0,5.711005E0,2.8E-1,2.7E-1,1.3009852E1,4.9440074E0,4.0156673E1,9.883716E0,-2.7388418E1,1.2150102E2,1.06022545E2,5.3E-1,2E1,1.1933988E2,5.2E-1,4.6E1,8.544214E0,5.339411E1,1.169272E1,-4.153909E0,3.61E2,4.2497036E1,4.1370378E0,9.9738467E-1,1.4300493E1,-2.6403701E0],"split_indices":[3,3,8,0,6,2,0,8,8,8,3,5,8,4,0,0,0,3,0,5,3,0,0,6,6,0,0,0,0,0,3,0,6,5,0,6,5,0,0,0,0,8,0,0,0,0,0],"split_type":[0,0,0,0,0,0,0,0,0,0,0,0,0,0,0,0,0,0,0,0,0,0,0,0,0,0,0,0,0,0,0,0,0,0,0,0,0,0,0,0,0,0,0,0,0,0,0],"sum_hessian":[2.26E2,5.9E1,1.67E2,2.7E1,3.2E1,9.8E1,6.9E1,2.5E1,7E0,5.9E1,3.9E1,1.2E1,1.3E1,5.4E1,5E0,4E0,3E0,2.9E1,1E1,7E0,5E0,4.3E1,1.1E1,8E0,5E0,2.2E1,7E0,6E0,1E0,1E0,7E0,2E0,3E0,4E0,1E0,5E0,2E0,1E0,2E0,3E0,1E0,3E0,2E0,1E0,1E0,2E0,1E0],"tree_param":{"num_deleted":"0","num_feature":"9","num_nodes":"47","size_leaf_vector":"0"}},{"base_weights":[1.3230515E2,3.6064972E2,1.0353214E2,4.6134012E2,8.901509E1,1.979918E2,9.036234E1,6.8768524E2,2.9086044E2,2.690052E2,1.0456132E1,4.7823853E0,1.1825037E1,1.0752316E2,7.846434E1,9.389526E0,7.7100104E2,3.6714676E1,1.324343E1,1.0912158E1,7.208521E1,1.2414863E2,5.932469E2,1.2262078E2,8.642224E1,4.143438E2,9.895437E1,-2.6018995E1,2.0471469E2,1.00234116E2,6.934379E1,9.017641E1,1.3914116E2,8.210345E1,6.1627106E1,3.5176563E1,1.1337289E2,8.117017E0,4.98345E1,1.2772472E1,7.096728E0,4.0650744E0,8.626876E0,9.222701E0,-3.9462159E0,1.7658133E1,1.1333749E2,4.6067123E0,8.673001E0,1.149594E1,4.1889777E0,3.2517944E1,2.5669394E2,1.7744102E0,7.848079E0,7.775711E0,1.5305844E1,3.930182E0,9.4750977E-1,8.756174E1,3.966389E1,1.3347132E1,-2.5083497E0],"categories":[],"categories_nodes":[],"categories_segments":[],"categories_sizes":[],"default_left":[true,true,true,true,true,false,false,true,true,true,false,false,false,false,false,false,true,false,false,false,false,true,false,true,false,false,false,false,false,true,true,true,true,true,true,true,false,false,false,false,false,false,false,false,false,false,true,false,false,false,false,false,false,false,false,false,false,false,false,true,false,false,false],"id":14,"left_children":[1,3,5,7,11,9,13,15,21,17,-1,-1,-1,23,19,-1,25,-1,-1,-1,33,27,35,31,29,37,-1,-1,51,39,53,49,45,41,47,43,-1,-1,-1,-1,-1,-1,-1,-1,-1,-1,55,-1,-1,-1,-1,57,59,-1,-1,-1,-1,-1,-1,61,-1,-1,-1],"loss_changes":[1.4540878E6,6.4270875E5,2.34644E5,4.9455025E5,3.978711E3,1.3110806E5,2.8315625E4,2.7391125E5,5.31286E5,1.25619875E5,0E0,0E0,0E0,1.2021625E4,1.364625E4,0E0,5.765775E4,0E0,0E0,0E0,4.78875E3,3.319465E5,1.1666272E6,8.3565E3,8.336094E2,7.1497125E4,0E0,0E0,6.3258094E4,3.8087344E3,7.0938203E3,1.4331391E4,3.1729688E3,4.263E3,1.5534625E4,1.6413992E4,0E0,0E0,0E0,0E0,0E0,0E0,0E0,0E0,0E0,0E0,1.21245E4,0E0,0E0,0E0,0E0,9.65708E1,1.0728481E5,0E0,0E0,0E0,0E0,0E0,0E0,2.4033906E4,0E0,0E0,0E0],"parents":[2147483647,0,0,1,1,2,2,3,3,5,5,4,4,6,6,7,7,9,9,14,14,8,8,13,13,16,16,21,21,24,24,23,23,20,20,22,22,25,25,29,29,33,33,35,35,32,32,34,34,31,31,28,28,30,30,46,46,51,51,52,52,59,59],"right_children":[2,4,6,8,12,10,14,16,22,18,-1,-1,-1,24,20,-1,26,-1,-1,-1,34,28,36,32,30,38,-1,-1,52,40,54,50,46,42,48,44,-1,-1,-1,-1,-1,-1,-1,-1,-1,-1,56,-1,-1,-1,-1,58,60,-1,-1,-1,-1,-1,-1,62,-1,-1,-1],"split_conditions":[4.869891E6,5.4E-1,2E0,3.6E2,3.6E2,2E0,1.2E1,2E1,3.62E2,1.2150961E2,1.0456132E1,4.7823853E0,1.1825037E1,3.62E2,1.2148475E2,9.389526E0,8.99766E5,3.6714676E1,1.324343E1,1.0912158E1,3.42E2,2.8E-1,2.7E-1,9.1E1,1.2151441E2,5.3E-1,9.895437E1,-2.6018995E1,8.99766E5,6E0,6E0,1.215145E2,3.2E-1,1E0,1.5E1,2E1,1.1337289E2,8.117017E0,4.98345E1,1.2772472E1,7.096728E0,4.0650744E0,8.626876E0,9.222701E0,-3.9462159E0,1.7658133E1,3.59E2,4.6067123E0,8.673001E0,1.149594E1,4.1889777E0,4.6E1,5.2E-1,1.7744102E0,7.848079E0,7.775711E0,1.5305844E1,3.930182E0,9.4750977E-1,2E1,3.966389E1,1.3347132E1,-2.5083497E0],"split_indices":[0,6,7,8,8,5,7,5,8,3,0,0,0,8,3,0,0,0,0,0,8,6,6,8,3,6,0,0,0,7,7,3,6,8,7,5,0,0,0,0,0,0,0,0,0,0,8,0,0,0,0,5,6,0,0,0,0,0,0,5,0,0,0],"split_type":[0,0,0,0,0,0,0,0,0,0,0,0,0,0,0,0,0,0,0,0,0,0,0,0,0,0,0,0,0,0,0,0,0,0,0,0,0,0,0,0,0,0,0,0,0,0,0,0,0,0,0,0,0,0,0,0,0,0,0,0,0,0,0],"sum_hessian":[2.26E2,2.4E1,2.02E2,1.7E1,7E0,2.3E1,1.79E2,6E0,1.1E1,1.2E1,1.1E1,4E0,3E0,7E1,1.09E2,1E0,5E0,6E0,6E0,1.6E1,9.3E1,8E0,3E0,3.8E1,3.2E1,3E0,2E0,1E0,7E0,1.5E1,1.7E1,1.5E1,2.3E1,4.4E1,4.9E1,2E0,1E0,1E0,2E0,6E0,9E0,5E0,3.9E1,1E0,1E0,7E0,1.6E1,3.2E1,1.7E1,9E0,6E0,2E0,5E0,3E0,1.4E1,1E1,6E0,1E0,1E0,3E0,2E0,2E0,1E0],"tree_param":{"num_deleted":"0","num_feature":"9","num_nodes":"63","size_leaf_vector":"0"}},{"base_weights":[1.21339516E2,3.378213E2,9.408147E1,4.3266757E2,8.21895E1,8.7734406E1,3.87914E1,6.426733E2,2.741086E2,4.3997927E0,1.0938159E1,1.0705526E2,7.095322E1,8.920062E0,7.2005194E2,1.223662E2,8.026449E1,1.14996124E2,5.6358453E2,6.316612E1,9.052523E1,9.235741E1,3.873973E2,5.1353164E0,8.799962E0,6.749605E1,3.9326007E0,3.5553937E0,9.328036E0,3.3417725E1,1.0770425E2,1.6153932E2,1.0546232E2,-2.4718037E1,1.9116571E2,7.7111573E0,4.6512203E1,8.761563E0,-3.7489045E0,2.1590329E2,9.0013736E-1,3.5689042E0,1.0991439E2,7.752177E0,5.5828327E1,8.586575E0,1.8125101E1,8.151526E1,2.963155E2,1.14665695E2,5.4672346E0,3.8876057E0,7.5839615E0,-2.3829255E0,1.2457318E1,3.7336655E0,3.701962E1,1.2134732E2,6.214661E0,4.0436068E0,1.25682556E2,6.352662E0,1.306002E1],"categories":[],"categories_nodes":[],"categories_segments":[],"categories_sizes":[],"default_left":[true,true,true,false,false,false,false,true,true,false,false,true,true,false,true,true,true,true,true,false,true,false,true,false,false,false,false,false,false,false,false,false,false,false,false,false,false,false,false,true,false,false,true,false,false,false,false,true,true,true,false,false,false,false,false,false,false,true,false,false,true,false,false],"id":15,"left_children":[1,3,5,7,9,11,-1,13,17,-1,-1,15,19,-1,21,31,23,33,29,25,27,-1,35,-1,-1,43,-1,-1,-1,37,-1,45,41,-1,39,-1,-1,-1,-1,47,-1,-1,49,-1,51,-1,-1,53,55,57,-1,-1,-1,-1,-1,-1,-1,59,-1,-1,61,-1,-1],"loss_changes":[1.3077148E6,5.705825E5,3.4455588E5,4.2320675E5,3.4955078E3,5.72495E4,0E0,2.3555975E5,4.879008E5,0E0,0E0,2.7505812E4,1.1046875E4,0E0,4.84255E4,2.0045625E4,3.5317188E3,2.9553397E5,1.0528811E6,5.8101875E3,1.0756719E3,0E0,6.0601188E4,0E0,0E0,3.6265625E3,0E0,0E0,0E0,1.4813623E4,0E0,6.8115625E3,9.123969E3,0E0,3.4107E4,0E0,0E0,0E0,0E0,5.1490812E4,0E0,0E0,3.9673438E3,0E0,8.9249375E3,0E0,0E0,2.1112152E4,6.2712312E4,4.7406562E3,0E0,0E0,0E0,0E0,0E0,0E0,0E0,5.4409375E3,0E0,0E0,2.619375E2,0E0,0E0],"parents":[2147483647,0,0,1,1,2,2,3,3,4,4,5,5,7,7,11,11,8,8,12,12,14,14,16,16,19,19,20,20,18,18,15,15,17,17,22,22,29,29,34,34,32,32,25,25,31,31,39,39,42,42,44,44,47,47,48,48,49,49,57,57,60,60],"right_children":[2,4,6,8,10,12,-1,14,18,-1,-1,16,20,-1,22,32,24,34,30,26,28,-1,36,-1,-1,44,-1,-1,-1,38,-1,46,42,-1,40,-1,-1,-1,-1,48,-1,-1,50,-1,52,-1,-1,54,56,58,-1,-1,-1,-1,-1,-1,-1,60,-1,-1,62,-1,-1],"split_conditions":[6.105927E6,5.4E-1,2.4451317E8,3.6E2,3.6E2,1.2E1,3.87914E1,2E1,3.62E2,4.3997927E0,1.0938159E1,3.62E2,2.511599E1,8.920062E0,4.6E1,2E0,2.511128E1,2.8E-1,2.7E-1,2.511361E1,1.3E1,9.235741E1,5.3E-1,5.1353164E0,8.799962E0,3.42E2,3.9326007E0,3.5553937E0,9.328036E0,2E1,1.0770425E2,2.511139E1,6E-2,-2.4718037E1,4.6E1,7.7111573E0,4.6512203E1,8.761563E0,-3.7489045E0,5.2E-1,9.0013736E-1,3.5689042E0,1.1E1,7.752177E0,1.5E1,8.586575E0,1.8125101E1,2.513276E1,3.61E2,2.092802E8,5.4672346E0,3.8876057E0,7.5839615E0,-2.3829255E0,1.2457318E1,3.7336655E0,3.701962E1,2.510902E1,6.214661E0,4.0436068E0,7E-2,6.352662E0,1.306002E1],"split_indices":[1,6,1,8,8,7,0,5,8,0,0,8,2,0,5,5,2,6,6,2,7,0,6,0,0,8,0,0,0,5,0,2,6,0,5,0,0,0,0,6,0,0,7,0,7,0,0,2,8,1,0,0,0,0,0,0,0,2,0,0,6,0,0],"split_type":[0,0,0,0,0,0,0,0,0,0,0,0,0,0,0,0,0,0,0,0,0,0,0,0,0,0,0,0,0,0,0,0,0,0,0,0,0,0,0,0,0,0,0,0,0,0,0,0,0,0,0,0,0,0,0,0,0,0,0,0,0,0,0],"sum_hessian":[2.26E2,2.4E1,2.02E2,1.7E1,7E0,1.99E2,3E0,6E0,1.1E1,4E0,3E0,9E1,1.09E2,1E0,5E0,5.5E1,3.5E1,8E0,3E0,8.1E1,2.8E1,2E0,3E0,9E0,2.6E1,6.7E1,1.4E1,2E0,2.6E1,2E0,1E0,1.4E1,4.1E1,1E0,7E0,1E0,2E0,1E0,1E0,6E0,1E0,3E0,3.8E1,3.3E1,3.4E1,4E0,1E1,3E0,3E0,3.4E1,4E0,2E1,1.4E1,1E0,2E0,1E0,2E0,2.9E1,5E0,2E0,2.7E1,3E0,2.4E1],"tree_param":{"num_deleted":"0","num_feature":"9","num_nodes":"63","size_leaf_vector":"0"}},{"base_weights":[1.1125294E2,3.1646182E2,8.543286E1,1.3695116E1,3.4413284E2,7.953794E1,3.5882076E1,6.0843636E1,2.4615341E1,9.722174E1,6.418554E1,1.3923466E2,9.031602E1,8.713461E0,5.8117584E1,1.6829687E1,7.070062E0,8.6390465E1,1.4428531E1,5.325466E1,7.1559815E0,9.065728E1,6.2426004E0,5.5960762E1,3.7084794E0,9.2023026E1,3.221277E0,2.0717783E0,5.684948E0,8.424108E1,1.1268676E2,9.521042E1,5.0017004E0,1.4603531E0,1.1910827E2,1.1043071E1,6.6539955E0,1.2413792E1,2.9376252E0],"categories":[],"categories_nodes":[],"categories_segments":[],"categories_sizes":[],"default_left":[true,false,false,false,true,true,false,false,false,false,false,false,true,false,true,false,false,true,false,false,false,false,false,true,false,true,false,false,false,false,false,false,false,false,true,false,false,false,false],"id":16,"left_children":[1,3,5,-1,7,9,-1,-1,-1,11,13,15,17,-1,19,-1,-1,21,-1,23,-1,25,-1,27,-1,29,-1,-1,-1,31,33,35,-1,-1,37,-1,-1,-1,-1],"loss_changes":[1.1757252E6,7.70515E4,2.9861488E5,0E0,3.94054E5,4.80575E4,0E0,0E0,0E0,1.382675E4,1.0253875E4,1.0010578E4,4.69575E3,0E0,2.0722812E3,0E0,0E0,2.3163125E3,0E0,9.8771875E2,0E0,2.1441875E3,0E0,6.3884375E2,0E0,4.77E2,0E0,0E0,0E0,1.3633219E4,7.0784062E3,8.361375E3,0E0,0E0,2.2204531E3,0E0,0E0,0E0,0E0],"parents":[2147483647,0,0,1,1,2,2,4,4,5,5,9,9,10,10,11,11,12,12,14,14,17,17,19,19,21,21,23,23,25,25,29,29,30,30,31,31,34,34],"right_children":[2,4,6,-1,8,10,-1,-1,-1,12,14,16,18,-1,20,-1,-1,22,-1,24,-1,26,-1,28,-1,30,-1,-1,-1,32,34,36,-1,-1,38,-1,-1,-1,-1],"split_conditions":[4.869891E6,2E1,2.4451317E8,1.3695116E1,2.2E1,1.2E1,3.5882076E1,6.0843636E1,2.4615341E1,1.4305179E7,1.2151113E2,1.2150016E2,4.696199E7,8.713461E0,1.5E1,1.6829687E1,7.070062E0,1.1E1,1.4428531E1,4.3507896E7,7.1559815E0,4.350819E7,6.2426004E0,1.2151217E2,3.7084794E0,9E0,3.221277E0,2.0717783E0,5.684948E0,7E0,1.2151217E2,1.215145E2,5.0017004E0,1.4603531E0,1.2151945E2,1.1043071E1,6.6539955E0,1.2413792E1,2.9376252E0],"split_indices":[0,5,1,0,5,7,0,0,0,0,3,3,0,0,7,0,0,7,0,0,0,0,0,3,0,7,0,0,0,5,3,3,0,0,3,0,0,0,0],"split_type":[0,0,0,0,0,0,0,0,0,0,0,0,0,0,0,0,0,0,0,0,0,0,0,0,0,0,0,0,0,0,0,0,0,0,0,0,0,0,0],"sum_hessian":[2.26E2,2.4E1,2.02E2,4E0,2E1,1.99E2,3E0,4E0,1.6E1,9E1,1.09E2,1E1,8E1,2E1,8.9E1,6E0,4E0,7.7E1,3E0,6.9E1,2E1,6.3E1,1.4E1,5.7E1,1.2E1,6.1E1,2E0,2E0,5.5E1,4.8E1,1.3E1,3.5E1,1.3E1,1E0,1.2E1,2.1E1,1.4E1,1.1E1,1E0],"tree_param":{"num_deleted":"0","num_feature":"9","num_nodes":"39","size_leaf_vector":"0"}},{"base_weights":[1.0122752E2,2.887818E2,7.763105E1,2.369684E2,5.0156003E2,7.215734E1,3.31909E1,3.7593372E2,8.983613E1,7.6387286E0,6.1782185E1,8.845895E1,5.8015488E1,2.2276973E2,4.6644205E2,1.01868E2,6.514323E1,1.9120738E2,-9.887242E0,6.506973E1,4.2339012E1,5.579074E1,3.7115182E2,1.3710052E2,8.685953E1,2.7668152E0,6.7379005E1,7.2045296E1,-1.4314572E2,2.9827926E0,6.314195E0,7.660553E0,2.2935692E1,6.1752163E1,1.0952201E2,7.656029E1,4.9472816E1,6.9516654E0,7.3065037E-1,7.279548E0,1.538664E1,5.0524583E0,-2.6524317E1,4.8229218E-1,5.8081264E1,9.321398E0,5.2250572E1,1.2937225E1,1.0713827E1,1.3077606E1,3.3506958E0,5.4988297E1,7.550037E1,4.9577938E1,6.0948367E0,7.6609406E1,1.2084639E1,4.0623264E1,7.2229943E0,2.3162231E0,-3.7563935E-1,4.9263588E1,9.465559E1,7.7183123E0,2.957961E0,5.4973232E1,1.3873322E0,5.586569E0,1.4333267E0,2.10795E0,4.68819E0,1.262271E1,7.210871E0,3.3171794E0,6.521421E0,1.512706E0,5.806312E0],"categories":[],"categories_nodes":[],"categories_segments":[],"categories_sizes":[],"default_left":[true,false,false,true,false,true,false,true,false,false,false,true,true,true,true,true,true,true,true,true,true,false,true,false,true,false,true,true,true,false,false,false,false,false,true,true,true,false,false,false,false,false,false,false,true,false,false,false,false,false,false,true,true,false,false,false,false,true,false,false,false,true,true,false,false,true,false,false,false,false,false,false,false,false,false,false,false],"id":17,"left_children":[1,3,5,7,9,11,-1,13,17,-1,-1,15,19,21,33,23,35,31,27,25,29,37,53,39,55,-1,51,47,41,-1,-1,-1,-1,-1,49,45,43,-1,-1,-1,-1,-1,-1,-1,57,-1,65,59,-1,-1,-1,67,63,-1,-1,61,-1,69,-1,-1,-1,73,71,-1,-1,75,-1,-1,-1,-1,-1,-1,-1,-1,-1,-1,-1],"loss_changes":[9.8219725E5,1.5676538E5,2.5859475E5,4.1604588E5,1.5053162E5,4.0974938E4,0E0,4.8579625E4,1.2319949E5,0E0,0E0,2.1814375E4,9.4094375E3,1.2795331E5,2.5590775E5,1.77035E4,2.6531094E3,8.662047E3,8.6740414E4,4.5271562E3,7.746492E3,2.154038E3,8.576275E4,4.9711875E3,5.3735625E3,0E0,2.7918125E3,8.985318E3,8.434125E4,0E0,0E0,0E0,0E0,0E0,4.6497656E2,2.8216016E3,6.6384766E3,0E0,0E0,0E0,0E0,0E0,0E0,0E0,7.7089844E2,0E0,2.8221875E2,5.990835E2,0E0,0E0,0E0,3.0504688E2,7.306094E2,0E0,0E0,1.2609E4,0E0,1.126084E2,0E0,0E0,0E0,1.9435117E3,5.134703E3,0E0,0E0,2.2975977E2,0E0,0E0,0E0,0E0,0E0,0E0,0E0,0E0,0E0,0E0,0E0],"parents":[2147483647,0,0,1,1,2,2,3,3,4,4,5,5,7,7,11,11,8,8,12,12,13,13,15,15,19,19,18,18,20,20,17,17,14,14,16,16,21,21,23,23,28,28,36,36,35,35,27,27,34,34,26,26,22,22,24,24,44,44,47,47,55,55,52,52,46,46,51,51,57,57,62,62,61,61,65,65],"right_children":[2,4,6,8,10,12,-1,14,18,-1,-1,16,20,22,34,24,36,32,28,26,30,38,54,40,56,-1,52,48,42,-1,-1,-1,-1,-1,50,46,44,-1,-1,-1,-1,-1,-1,-1,58,-1,66,60,-1,-1,-1,68,64,-1,-1,62,-1,70,-1,-1,-1,74,72,-1,-1,76,-1,-1,-1,-1,-1,-1,-1,-1,-1,-1,-1],"split_conditions":[6.105927E6,3.62E2,2.4451317E8,3.6E2,2E1,1.2E1,3.31909E1,3.57E2,1.2149991E2,7.6387286E0,6.1782185E1,3.62E2,3.65E2,4.6E1,1.2150102E2,2E0,1.2151441E2,3.61E2,3.61E2,1E0,1.5E1,1.2150102E2,3.56E2,2.511139E1,3.59E2,2.7668152E0,2.511065E1,2.513276E1,2.513276E1,2.9827926E0,6.314195E0,7.660553E0,2.2935692E1,6.1752163E1,3.59E2,6E0,6E0,6.9516654E0,7.3065037E-1,7.279548E0,1.538664E1,5.0524583E0,-2.6524317E1,4.8229218E-1,2.511459E1,9.321398E0,2.5114E1,4.6E1,1.0713827E1,1.3077606E1,3.3506958E0,3.61E2,1.2151961E2,4.9577938E1,6.0948367E0,2.511224E1,1.2084639E1,1E1,7.2229943E0,2.3162231E0,-3.7563935E-1,3.6E1,4.390564E7,7.7183123E0,2.957961E0,2.510963E1,1.3873322E0,5.586569E0,1.4333267E0,2.10795E0,4.68819E0,1.262271E1,7.210871E0,3.3171794E0,6.521421E0,1.512706E0,5.806312E0],"split_indices":[1,8,1,8,5,7,0,8,3,0,0,8,8,5,3,5,3,8,8,8,7,3,8,2,8,0,2,2,2,0,0,0,0,0,8,7,7,0,0,0,0,0,0,0,2,0,2,5,0,0,0,8,3,0,0,2,0,7,0,0,0,5,1,0,0,2,0,0,0,0,0,0,0,0,0,0,0],"split_type":[0,0,0,0,0,0,0,0,0,0,0,0,0,0,0,0,0,0,0,0,0,0,0,0,0,0,0,0,0,0,0,0,0,0,0,0,0,0,0,0,0,0,0,0,0,0,0,0,0,0,0,0,0,0,0,0,0,0,0,0,0,0,0,0,0,0,0,0,0,0,0,0,0,0,0,0,0],"sum_hessian":[2.26E2,2.4E1,2.02E2,2.1E1,3E0,1.99E2,3E0,1E1,1.1E1,1E0,2E0,9E1,1.09E2,5E0,5E0,5.5E1,3.5E1,5E0,6E0,7.3E1,3.6E1,3E0,2E0,1.4E1,4.1E1,5E0,6.8E1,4E0,2E0,2.4E1,1.2E1,2E0,3E0,3E0,2E0,1.8E1,1.7E1,2E0,1E0,4E0,1E1,1E0,1E0,3E0,1.4E1,9E0,9E0,2E0,2E0,1E0,1E0,3E1,3.8E1,1E0,1E0,3.4E1,7E0,8E0,6E0,1E0,1E0,1.5E1,1.9E1,3.6E1,2E0,8E0,1E0,2.9E1,1E0,3E0,5E0,6E0,1.3E1,9E0,6E0,1E0,7E0],"tree_param":{"num_deleted":"0","num_feature":"9","num_nodes":"77","size_leaf_vector":"0"}},{"base_weights":[9.283445E1,2.6921298E2,7.065565E1,3.5492712E2,4.2704514E1,1.4029982E2,6.097722E1,-1.6239695E1,4.0233798E2,6.9379344E0,1.949726E2,1.6265675E1,6.507694E0,7.3276146E1,5.248448E1,7.2567916E0,-9.692746E0,2.6787455E1,9.421742E0,7.2003136E1,4.7346966E1,6.933692E1,1.2192393E1,7.084673E1,2.7719528E2,4.3385634E0,-4.6107087E0,8.842343E0,5.509654E0,8.095006E1,5.5342907E1,4.325316E1,5.8738375E0,7.119896E1,3.608382E2,9.071574E1,4.7464283E1,4.133236E1,7.237362E0,2.2385469E2,4.761039E1,2.6487484E1,7.421733E1,1.1220534E1,-4.6413302E0,1.4370712E0,9.319471E1,4.5963272E1,2.6970353E0,1.00439285E2,5.237171E1,3.1622343E0,4.4610366E-1,4.9809275E0,1.3179687E0,3.6221516E0,3.086159E2,9.564289E0,1.7219101E0,1.1300741E1,4.1823273E0,2.2004151E0,3.9681847E1,4.161907E1,1.0014944E1,3.1222944E1,6.6038814E0,4.4257698E1,2.2893703E0,5.926636E-1,3.4451222E0,4.7810626E0,3.0221486E0],"categories":[],"categories_nodes":[],"categories_segments":[],"categories_sizes":[],"default_left":[true,true,true,false,true,false,true,true,true,false,true,true,false,true,true,false,false,false,false,true,true,false,false,false,false,false,false,false,false,true,true,true,false,true,true,false,true,false,false,true,false,false,true,false,false,false,true,true,false,true,true,false,false,false,false,false,true,false,false,false,false,false,false,true,false,true,false,false,false,false,false,false,false],"id":18,"left_children":[1,3,5,7,11,9,13,15,23,-1,17,25,-1,21,19,-1,-1,-1,-1,27,31,29,-1,-1,33,-1,-1,-1,-1,35,41,37,-1,43,39,45,53,47,-1,55,-1,51,49,-1,-1,-1,57,63,-1,59,65,-1,-1,-1,-1,-1,61,-1,-1,-1,-1,-1,-1,67,-1,69,-1,71,-1,-1,-1,-1,-1],"loss_changes":[8.689721E5,4.7021762E5,1.2827619E5,3.2328575E5,3.6734863E3,7.953103E4,1.49554375E4,2.8530887E4,4.1657375E5,0E0,7.024978E4,1.045812E4,0E0,5.1522188E3,7.6214062E3,0E0,0E0,0E0,0E0,9.580156E2,1.6564688E3,6.571E3,0E0,0E0,1.983005E5,0E0,0E0,0E0,0E0,7.1396406E3,1.655157E4,9.240547E2,0E0,2.932209E4,3.55275E4,3.5814062E3,1.475E2,3.2829844E3,0E0,8.424553E4,0E0,1.5554727E3,6.1965156E3,0E0,0E0,0E0,3.0031875E3,7.6016562E3,0E0,1.1672109E3,1.695625E3,0E0,0E0,0E0,0E0,0E0,9.238791E4,0E0,0E0,0E0,0E0,0E0,0E0,1.3584297E3,0E0,3.6746484E2,0E0,5.9975E2,0E0,0E0,0E0,0E0,0E0],"parents":[2147483647,0,0,1,1,2,2,3,3,5,5,4,4,6,6,7,7,10,10,14,14,13,13,8,8,11,11,19,19,21,21,20,20,24,24,29,29,31,31,34,34,30,30,33,33,35,35,37,37,42,42,41,41,36,36,39,39,46,46,49,49,56,56,47,47,50,50,63,63,65,65,67,67],"right_children":[2,4,6,8,12,10,14,16,24,-1,18,26,-1,22,20,-1,-1,-1,-1,28,32,30,-1,-1,34,-1,-1,-1,-1,36,42,38,-1,44,40,46,54,48,-1,56,-1,52,50,-1,-1,-1,58,64,-1,60,66,-1,-1,-1,-1,-1,62,-1,-1,-1,-1,-1,-1,68,-1,70,-1,72,-1,-1,-1,-1,-1],"split_conditions":[4.869891E6,5.4E-1,2E0,2.7E-1,5.6E-1,1.2149988E2,1.2E1,2E1,2.8E-1,6.9379344E0,1.2150961E2,8.99766E5,6.507694E0,4.696199E7,1.2151113E2,7.2567916E0,-9.692746E0,2.6787455E1,9.421742E0,2.5128E1,1.5E1,1.215145E2,1.2192393E1,7.084673E1,5.2E-1,4.3385634E0,-4.6107087E0,8.842343E0,5.509654E0,1E1,9E0,2.513577E1,5.8738375E0,1.89475E6,8.99766E5,2.510963E1,2.5114E1,2.511361E1,7.237362E0,5.3E-1,4.761039E1,2.51108E1,3.203256E7,1.1220534E1,-4.6413302E0,1.4370712E0,9.3E-1,2.511224E1,2.6970353E0,1.1E1,2.511459E1,3.1622343E0,4.4610366E-1,4.9809275E0,1.3179687E0,3.6221516E0,4.6E1,9.564289E0,1.7219101E0,1.1300741E1,4.1823273E0,2.2004151E0,3.9681847E1,2.511077E1,1.0014944E1,1E1,6.6038814E0,3.7424348E7,2.2893703E0,5.926636E-1,3.4451222E0,4.7810626E0,3.0221486E0],"split_indices":[0,6,7,6,6,3,7,5,6,0,3,0,0,0,3,0,0,0,0,2,7,3,0,0,6,0,0,0,0,7,7,2,0,0,0,2,2,2,0,6,0,2,0,0,0,0,6,2,0,7,2,0,0,0,0,0,5,0,0,0,0,0,0,2,0,7,0,0,0,0,0,0,0],"split_type":[0,0,0,0,0,0,0,0,0,0,0,0,0,0,0,0,0,0,0,0,0,0,0,0,0,0,0,0,0,0,0,0,0,0,0,0,0,0,0,0,0,0,0,0,0,0,0,0,0,0,0,0,0,0,0,0,0,0,0,0,0,0,0,0,0,0,0,0,0,0,0,0,0],"sum_hessian":[2.26E2,2.4E1,2.02E2,1.7E1,7E0,2.3E1,1.79E2,2E0,1.5E1,1.1E1,1.2E1,4E0,3E0,7E1,1.09E2,1E0,1E0,6E0,6E0,2E1,8.9E1,6.7E1,3E0,3E0,1.2E1,3E0,1E0,8E0,1.2E1,3.4E1,3.3E1,6.9E1,2E1,4E0,8E0,2.5E1,9E0,6.7E1,2E0,5E0,3E0,1.4E1,1.9E1,3E0,1E0,1E0,2.4E1,4.9E1,1.8E1,7E0,1.2E1,1.1E1,3E0,8E0,1E0,2E0,3E0,2.3E1,1E0,5E0,2E0,1E0,2E0,4.7E1,2E0,6E0,6E0,4E1,7E0,1E0,5E0,3E1,1E1],"tree_param":{"num_deleted":"0","num_feature":"9","num_nodes":"73","size_leaf_vector":"0"}},{"base_weights":[8.499903E1,2.4926532E2,6.435047E1,2.0113672E2,4.516562E2,1.2806763E2,5.5497353E1,3.3091296E2,6.541378E1,6.3019573E1,1.7826064E2,6.893945E0,5.562486E1,6.680695E1,4.7693E1,4.936146E2,2.3991096E1,7.975979E0,4.467949E1,5.367865E1,3.44327E1,6.3120216E1,1.1277965E1,-2.4936575E1,1.5992024E2,2.4491383E1,8.614164E0,6.880693E0,6.716149E1,6.548548E1,4.631832E1,6.171891E1,-1.6105019E2,6.7160034E0,1.8951033E1,7.339852E1,5.0683136E1,2.1710184E0,5.411904E0,2.396228E0,5.1919456E0,6.837646E1,2.0529206E0,9.251538E0,1.0349467E1,2.4079332E1,6.810183E1,8.213351E1,4.3347713E1,2.2072958E1,4.8571815E1,4.582907E0,-2.8740437E1,8.178775E0,5.073707E0,4.126602E-1,2.872363E0,1.3369459E0,3.2795227E0,1.252057E0,4.538178E0,5.246827E0,3.5244247E1,6.228649E1,9.7189255E1,2.090384E0,-5.3796387E-1,9.2330734E1,4.7953133E1,1.2184399E0,4.4139248E1,2.8077638E0,1.0060876E1,5.0409853E-1,5.110907E1,1.6358155E0,6.456112E0,1.0359013E1,3.9035046E0,1.1226075E0,4.685014E0,5.334336E1,1.3265915E0,2.3016367E0,5.7525325E0],"categories":[],"categories_nodes":[],"categories_segments":[],"categories_sizes":[],"default_left":[false,true,false,true,true,false,false,true,true,false,true,false,false,true,false,false,false,false,true,false,true,true,false,true,true,false,false,false,false,true,true,true,true,false,false,false,true,false,false,false,false,true,false,false,true,true,true,true,true,true,true,false,false,false,false,false,false,false,false,false,false,false,false,true,true,false,false,true,false,false,false,false,false,false,true,false,false,false,false,false,false,false,false,false,false],"id":19,"left_children":[1,3,5,7,11,9,13,15,23,17,25,-1,-1,21,19,27,-1,-1,37,29,39,35,-1,31,33,-1,-1,-1,-1,41,49,43,51,-1,-1,47,45,-1,-1,-1,-1,53,-1,-1,65,55,67,63,59,57,61,-1,-1,-1,-1,-1,-1,-1,-1,-1,-1,-1,69,75,71,-1,-1,77,73,-1,79,-1,-1,-1,81,-1,-1,-1,-1,-1,-1,83,-1,-1,-1],"loss_changes":[7.53912E5,1.5267512E5,1.0740406E5,3.6585306E5,1.21769625E5,6.712503E4,1.27013125E4,4.444425E4,1.06452164E5,1.20578125E2,5.8723062E4,0E0,0E0,4.9150625E3,6.882547E3,1.80636E5,0E0,0E0,5.59624E2,3.3975938E3,5.5303516E3,4.9725312E3,0E0,9.250478E4,3.7411719E3,0E0,0E0,0E0,0E0,1.9754375E3,1.6050781E3,6.952502E3,9.159165E4,0E0,0E0,5.6269688E3,1.4115875E4,0E0,0E0,0E0,0E0,1.5279375E3,0E0,0E0,6.104876E2,1.2714658E3,5.3360703E3,1.7155312E3,5.883789E1,1.2147339E2,4.3571875E2,0E0,0E0,0E0,0E0,0E0,0E0,0E0,0E0,0E0,0E0,0E0,2.1287158E3,4.0648047E2,2.4740625E2,0E0,0E0,7.5696875E2,1.5029199E3,0E0,2.7707227E2,0E0,0E0,0E0,3.0698242E2,0E0,0E0,0E0,0E0,0E0,0E0,7.106445E1,0E0,0E0,0E0],"parents":[2147483647,0,0,1,1,2,2,3,3,5,5,4,4,6,6,7,7,9,9,14,14,13,13,8,8,10,10,15,15,19,19,23,23,24,24,21,21,18,18,20,20,29,29,31,31,36,36,35,35,30,30,32,32,41,41,45,45,49,49,48,48,50,50,47,47,44,44,46,46,62,62,64,64,68,68,63,63,67,67,70,70,74,74,81,81],"right_children":[2,4,6,8,12,10,14,16,24,18,26,-1,-1,22,20,28,-1,-1,38,30,40,36,-1,32,34,-1,-1,-1,-1,42,50,44,52,-1,-1,48,46,-1,-1,-1,-1,54,-1,-1,66,56,68,64,60,58,62,-1,-1,-1,-1,-1,-1,-1,-1,-1,-1,-1,70,76,72,-1,-1,78,74,-1,80,-1,-1,-1,82,-1,-1,-1,-1,-1,-1,84,-1,-1,-1],"split_conditions":[4.869891E6,3.62E2,2E0,3.6E2,2E1,1.2149988E2,1.2E1,2.2E1,1.89475E6,2.67E2,1.2150961E2,6.893945E0,5.562486E1,4.696199E7,3.65E2,2E1,2.3991096E1,7.975979E0,3.55E2,1.2151334E2,1.5E1,1.215145E2,1.1277965E1,3.61E2,3.61E2,2.4491383E1,8.614164E0,6.880693E0,6.716149E1,3.7424836E7,1E0,2E1,8.99766E5,6.7160034E0,1.8951033E1,1E1,9E0,2.1710184E0,5.411904E0,2.396228E0,5.1919456E0,1.5E1,2.0529206E0,9.251538E0,4.6E1,1.2151455E2,3.203256E7,1.2151334E2,1.2151217E2,1.2151774E2,3.41E2,4.582907E0,-2.8740437E1,8.178775E0,5.073707E0,4.126602E-1,2.872363E0,1.3369459E0,3.2795227E0,1.252057E0,4.538178E0,5.246827E0,3.51E2,1.4970706E7,1E0,2.090384E0,-5.3796387E-1,1.1E1,5.8E1,1.2184399E0,1.3854864E7,2.8077638E0,1.0060876E1,5.0409853E-1,4.3508216E7,1.6358155E0,6.456112E0,1.0359013E1,3.9035046E0,1.1226075E0,4.685014E0,4.130825E7,1.3265915E0,2.3016367E0,5.7525325E0],"split_indices":[0,8,7,8,5,3,7,5,0,8,3,0,0,0,8,5,0,0,8,3,7,3,0,8,8,0,0,0,0,0,8,5,0,0,0,7,7,0,0,0,0,5,0,0,5,3,0,3,3,3,8,0,0,0,0,0,0,0,0,0,0,0,8,0,8,0,0,7,8,0,0,0,0,0,0,0,0,0,0,0,0,0,0,0,0],"split_type":[0,0,0,0,0,0,0,0,0,0,0,0,0,0,0,0,0,0,0,0,0,0,0,0,0,0,0,0,0,0,0,0,0,0,0,0,0,0,0,0,0,0,0,0,0,0,0,0,0,0,0,0,0,0,0,0,0,0,0,0,0,0,0,0,0,0,0,0,0,0,0,0,0,0,0,0,0,0,0,0,0,0,0,0,0],"sum_hessian":[2.26E2,2.4E1,2.02E2,2.1E1,3E0,2.3E1,1.79E2,1E1,1.1E1,1.1E1,1.2E1,1E0,2E0,7E1,1.09E2,2E0,8E0,4E0,7E0,7.3E1,3.6E1,6.7E1,3E0,6E0,5E0,6E0,6E0,1E0,1E0,2.5E1,4.8E1,4E0,2E0,2E0,3E0,3.4E1,3.3E1,3E0,4E0,2.4E1,1.2E1,2.3E1,2E0,2E0,2E0,1.4E1,1.9E1,2.5E1,9E0,5E0,4.3E1,1E0,1E0,1.1E1,1.2E1,3E0,1.1E1,4E0,1E0,1E0,8E0,3.1E1,1.2E1,1.3E1,1.2E1,1E0,1E0,7E0,1.2E1,4E0,8E0,1E0,1.1E1,1E0,1.1E1,1E0,1.2E1,5E0,2E0,1E0,7E0,1E1,1E0,2E0,8E0],"tree_param":{"num_deleted":"0","num_feature":"9","num_nodes":"85","size_leaf_vector":"0"}},{"base_weights":[7.793866E1,2.312534E2,5.8673603E1,3.1008923E2,2.4966099E1,5.418257E1,2.6855661E1,-3.6267395E1,3.556505E2,-7.265564E-1,5.084039E0,4.41529E1,6.301619E1,6.549254E0,-1.1989364E1,2.699044E0,-5.579727E0,1.1974583E1,5.6381317E1,6.318208E1,2.433173E2,3.5120182E1,4.8261646E1,4.9801624E1,1.1372044E1,1.8562012E0,3.733497E1,1.2988129E2,3.988387E1,4.9701223E0,2.6062216E1,5.81866E1,3.1930607E1,5.6527954E1,1.7725838E2,5.375798E0,3.337239E0,3.7447815E0,2.1940105E0,6.4185356E1,3.8428276E0,9.744402E0,-5.356815E0,5.2114105E-1,-1.9203949E-1,1.5421967E1,3.9413831E0,2.5989034E0,2.6944159E1,7.345108E0,4.569361E0,3.8171157E-1,1.9296646E0],"categories":[],"categories_nodes":[],"categories_segments":[],"categories_sizes":[],"default_left":[false,true,true,true,true,true,false,false,false,true,false,true,false,false,false,false,false,false,true,false,false,true,true,true,false,false,true,false,false,false,true,true,true,true,false,false,false,false,true,true,false,false,false,false,false,true,false,false,false,false,false,false,false],"id":20,"left_children":[1,3,5,7,9,11,-1,13,19,15,-1,21,17,-1,-1,-1,-1,-1,23,-1,27,25,29,31,-1,-1,35,33,-1,-1,37,39,45,41,47,-1,-1,-1,43,49,-1,-1,-1,-1,-1,51,-1,-1,-1,-1,-1,-1,-1],"loss_changes":[6.5690275E5,3.9882912E5,1.7679481E5,2.9694662E5,5.3551733E3,1.49373125E4,0E0,3.3381535E4,3.4263662E5,9.137967E3,0E0,1.9050312E3,3.2393531E4,0E0,0E0,0E0,0E0,0E0,3.0177531E4,0E0,1.7754081E5,5.538633E2,7.4996875E2,1.1178844E4,0E0,0E0,9.321484E1,2.1257344E4,0E0,0E0,1.548362E3,4.4079375E3,3.0982969E3,2.774339E4,6.2719953E4,0E0,0E0,0E0,4.7252388E1,4.0113438E3,0E0,0E0,0E0,0E0,0E0,4.209585E2,0E0,0E0,0E0,0E0,0E0,0E0,0E0],"parents":[2147483647,0,0,1,1,2,2,3,3,4,4,5,5,7,7,9,9,12,12,8,8,11,11,18,18,21,21,20,20,22,22,23,23,27,27,26,26,30,30,31,31,33,33,38,38,32,32,34,34,39,39,45,45],"right_children":[2,4,6,8,10,12,-1,14,20,16,-1,22,18,-1,-1,-1,-1,-1,24,-1,28,26,30,32,-1,-1,36,34,-1,-1,38,40,46,42,48,-1,-1,-1,44,50,-1,-1,-1,-1,-1,52,-1,-1,-1,-1,-1,-1,-1],"split_conditions":[6.105927E6,5.4E-1,2.4451317E8,2.7E-1,5.6E-1,2.511133E1,2.6855661E1,2E1,2.8E-1,8.99766E5,5.084039E0,2.9E-1,1.4358936E7,6.549254E0,-1.1989364E1,2.699044E0,-5.579727E0,1.1974583E1,1.21516E2,6.318208E1,5.3E-1,1.4358936E7,2.04E0,1.2151433E2,1.1372044E1,1.8562012E0,2.1867948E7,5.2E-1,3.988387E1,4.9701223E0,2.510872E1,3.7424836E7,4.130825E7,1.89475E6,1.89475E6,5.375798E0,3.337239E0,3.7447815E0,2.13E0,2.8E-1,3.8428276E0,9.744402E0,-5.356815E0,5.2114105E-1,-1.9203949E-1,2.6644244E7,3.9413831E0,2.5989034E0,2.6944159E1,7.345108E0,4.569361E0,3.8171157E-1,1.9296646E0],"split_indices":[1,6,1,6,6,2,0,5,6,0,0,6,0,0,0,0,0,0,3,0,6,0,6,3,0,0,0,6,0,0,2,0,0,0,0,0,0,0,6,6,0,0,0,0,0,0,0,0,0,0,0,0,0],"split_type":[0,0,0,0,0,0,0,0,0,0,0,0,0,0,0,0,0,0,0,0,0,0,0,0,0,0,0,0,0,0,0,0,0,0,0,0,0,0,0,0,0,0,0,0,0,0,0,0,0,0,0,0,0],"sum_hessian":[2.26E2,2.4E1,2.02E2,1.7E1,7E0,1.99E2,3E0,2E0,1.5E1,4E0,3E0,9.6E1,1.03E2,1E0,1E0,3E0,1E0,9E0,9.4E1,3E0,1.2E1,3.3E1,6.3E1,8.6E1,8E0,5E0,2.8E1,8E0,4E0,5.8E1,5E0,5.7E1,2.9E1,4E0,4E0,3E0,2.5E1,3E0,2E0,4.2E1,1.5E1,3E0,1E0,1E0,1E0,1E1,1.9E1,2E0,2E0,2.6E1,1.6E1,3E0,7E0],"tree_param":{"num_deleted":"0","num_feature":"9","num_nodes":"53","size_leaf_vector":"0"}},{"base_weights":[7.113856E1,2.1347844E2,5.3258583E1,2.86389E2,2.2744904E1,4.908916E1,2.4841492E1,4.6489844E2,1.5839275E2,-1.6059387E1,6.556404E0,6.1132233E1,3.867999E1,6.049437E0,5.2221674E2,-3.1928467E1,5.1628213E0,4.3944977E1,2.7104609E1,2.999707E1,4.076848E2,7.035814E1,4.5082706E1,6.881231E1,2.6723282E2,-8.5730284E-1,1.6317261E0,-3.445395E0,8.6705055E1,2.7100468E1,5.0073067E1,-3.0462519E1,1.09903E2,5.533388E1,8.15347E1,1.7542114E0,4.340905E0,-5.3007417E0,5.1147157E-1,1.7171484E1,4.5636223E1,4.19212E1,7.683578E0,6.910478E0,4.2606552E1,2.867041E0,9.137616E-1,1.0486248E1,4.738421E0,4.9363026E1,2.8928873E1,3.94068E1,8.823485E0,1.4505811E0,3.307927E0,1.4870178E2,-4.328898E0,1.2115789E1,4.870918E0,5.118124E-1,3.2198365E0,-6.410126E-1,-8.322144E-3,3.444368E1,2.5147865E1,4.3488373E1,5.820508E0,5.8268345E1,2.7161255E0,2.32278E0,3.5308382E-1,4.7938908E1,1.7566245E0,7.9851418E0,-5.0889773E0,6.7056665E0,2.4198365E0,4.272155E1,8.239371E0,2.685817E0,4.8517165E0],"categories":[],"categories_nodes":[],"categories_segments":[],"categories_sizes":[],"default_left":[true,true,false,true,true,false,false,false,true,true,false,false,false,false,true,true,true,true,true,true,false,true,true,false,true,false,false,false,false,true,true,false,false,true,true,false,false,false,false,false,true,false,false,false,false,false,false,false,false,true,true,false,false,false,false,true,true,true,false,false,false,false,false,true,false,true,false,true,false,false,false,false,false,false,false,false,false,true,false,false,false],"id":21,"left_children":[1,3,5,7,9,11,-1,13,19,15,-1,21,17,-1,23,37,25,39,35,31,27,33,29,-1,41,-1,-1,-1,-1,53,43,-1,55,51,47,-1,-1,-1,-1,45,49,-1,-1,-1,57,-1,-1,-1,-1,65,59,67,-1,-1,-1,63,61,69,-1,-1,-1,-1,-1,73,-1,71,-1,75,-1,-1,-1,77,-1,-1,-1,-1,-1,79,-1,-1,-1],"loss_changes":[5.663531E5,3.4114825E5,1.5298438E5,3.3763712E5,1.4345449E4,2.2707094E4,0E0,1.30667125E5,3.7186694E5,1.8487256E3,0E0,1.03025625E4,5.51275E3,0E0,6.9931625E4,2.613612E3,5.9953546E2,2.567125E3,5.0072246E3,2.7412394E5,8.42287E5,4.891875E3,1.8735625E3,0E0,8.353506E4,0E0,0E0,0E0,0E0,2.7316797E2,8.9239844E2,0E0,3.610018E4,1.0671391E4,1.8930844E4,0E0,0E0,0E0,0E0,2.9230603E2,2.8682812E3,0E0,0E0,0E0,3.5034688E3,0E0,0E0,0E0,0E0,3.2567188E2,1.0029404E3,3.0367559E3,0E0,0E0,0E0,6.1796703E4,2.59752E1,3.949668E2,0E0,0E0,0E0,0E0,0E0,1.9562816E4,0E0,3.4264844E3,0E0,4.7326367E2,0E0,0E0,0E0,2.0526719E3,0E0,0E0,0E0,0E0,0E0,1.3631211E3,0E0,0E0,0E0],"parents":[2147483647,0,0,1,1,2,2,3,3,4,4,5,5,7,7,9,9,12,12,8,8,11,11,14,14,16,16,20,20,22,22,19,19,21,21,18,18,15,15,17,17,24,24,30,30,39,39,34,34,40,40,33,33,29,29,32,32,44,44,50,50,56,56,55,55,49,49,51,51,57,57,65,65,63,63,67,67,71,71,77,77],"right_children":[2,4,6,8,10,12,-1,14,20,16,-1,22,18,-1,24,38,26,40,36,32,28,34,30,-1,42,-1,-1,-1,-1,54,44,-1,56,52,48,-1,-1,-1,-1,46,50,-1,-1,-1,58,-1,-1,-1,-1,66,60,68,-1,-1,-1,64,62,70,-1,-1,-1,-1,-1,74,-1,72,-1,76,-1,-1,-1,78,-1,-1,-1,-1,-1,80,-1,-1,-1],"split_conditions":[6.105927E6,5.4E-1,2.4451317E8,3.6E2,3.6E2,1.2E1,2.4841492E1,3.55E2,3.62E2,1.2149991E2,6.556404E0,3.62E2,3.65E2,6.049437E0,1.2150102E2,5.6E-1,3.56E2,1E0,1.5E1,2.8E-1,2.7E-1,2.511224E1,2.511128E1,6.881231E1,3.56E2,-8.5730284E-1,1.6317261E0,-3.445395E0,8.6705055E1,9E0,2.511139E1,-3.0462519E1,1.2150102E2,3.59E2,1.5399272E8,1.7542114E0,4.340905E0,-5.3007417E0,5.1147157E-1,2.510954E1,1.08E0,4.19212E1,7.683578E0,6.910478E0,2.511347E1,2.867041E0,9.137616E-1,1.0486248E1,4.738421E0,2.511599E1,1.3E1,2.51091E1,8.823485E0,1.4505811E0,3.307927E0,5.2E-1,5.3E-1,3.757905E7,4.870918E0,5.118124E-1,3.2198365E0,-6.410126E-1,-8.322144E-3,3.2E-1,2.5147865E1,2.511361E1,5.820508E0,3.53E2,2.7161255E0,2.32278E0,3.5308382E-1,2.511091E1,1.7566245E0,7.9851418E0,-5.0889773E0,6.7056665E0,2.4198365E0,2.9E-1,8.239371E0,2.685817E0,4.8517165E0],"split_indices":[1,6,1,8,8,7,0,8,8,3,0,8,8,0,3,6,8,8,7,6,6,2,2,0,8,0,0,0,0,7,2,0,3,8,1,0,0,0,0,2,6,0,0,0,2,0,0,0,0,2,7,2,0,0,0,6,6,1,0,0,0,0,0,6,0,2,0,8,0,0,0,2,0,0,0,0,0,6,0,0,0],"split_type":[0,0,0,0,0,0,0,0,0,0,0,0,0,0,0,0,0,0,0,0,0,0,0,0,0,0,0,0,0,0,0,0,0,0,0,0,0,0,0,0,0,0,0,0,0,0,0,0,0,0,0,0,0,0,0,0,0,0,0,0,0,0,0,0,0,0,0,0,0,0,0,0,0,0,0,0,0,0,0,0,0],"sum_hessian":[2.26E2,2.4E1,2.02E2,1.7E1,7E0,1.99E2,3E0,6E0,1.1E1,4E0,3E0,9E1,1.09E2,1E0,5E0,2E0,2E0,7.3E1,3.6E1,8E0,3E0,5.5E1,3.5E1,2E0,3E0,1E0,1E0,2E0,1E0,9E0,2.6E1,1E0,7E0,2.6E1,2.9E1,2.4E1,1.2E1,1E0,1E0,5E0,6.8E1,1E0,2E0,5E0,2.1E1,1E0,4E0,1.6E1,1.3E1,5.4E1,1.4E1,1.9E1,7E0,4E0,5E0,5E0,2E0,4E0,1.7E1,2E0,1.2E1,1E0,1E0,3E0,2E0,3.6E1,1.8E1,6E0,1.3E1,1E0,3E0,3E1,6E0,2E0,1E0,4E0,2E0,2.8E1,2E0,9E0,1.9E1],"tree_param":{"num_deleted":"0","num_feature":"9","num_nodes":"81","size_leaf_vector":"0"}},{"base_weights":[6.545249E1,2.004186E2,4.8508625E1,2.6912E2,2.0788109E1,4.464058E1,2.2978367E1,-3.2157024E1,3.0878946E2,-1.6360595E0,4.362129E0,5.5624565E1,3.514801E1,6.3940616E0,-1.1217615E1,2.3133454E0,-5.0357056E0,5.099043E1,3.1908978E1,5.531706E1,2.0984222E2,7.943867E1,5.170383E1,3.4724483E0,6.1590767E0,1.124111E2,3.432498E1,4.484993E1,6.30755E0,2.8452515E1,4.1341863E0,9.424691E0,4.2819386E0,4.8366516E1,1.5397348E2,5.284453E1,1.2465123E1,3.0021662E1,1.9021647E0,8.463078E0,-4.834526E0,6.3738453E1,4.1564404E1,2.7455545E1,5.2757843E1,2.347135E1,2.1908977E0,3.266022E-1,1.5168599E1,6.9133415E0,2.4875244E1,3.1777264E1,1.5671763E0,1.690312E0,6.0651857E-1,4.2900475E1,5.417374E-1,1.1029134E0,7.6900606E0,7.5378114E-1,2.8141785E0,2.7417015E1,4.3749576E0,4.37296E0,1.232988E0,1.0742638E0,2.8771513E0],"categories":[],"categories_nodes":[],"categories_segments":[],"categories_sizes":[],"default_left":[false,true,true,false,true,true,false,true,true,true,false,true,true,false,false,false,false,false,false,false,true,false,true,false,false,true,false,true,false,false,false,false,false,false,true,true,true,true,false,false,false,true,false,true,true,false,false,false,true,false,true,true,false,false,false,true,false,false,false,false,false,true,false,false,false,false,false],"id":22,"left_children":[1,3,5,7,9,11,-1,13,19,15,-1,21,17,-1,-1,-1,-1,23,29,-1,25,31,27,-1,-1,33,-1,35,-1,37,-1,-1,-1,39,45,41,47,43,-1,-1,-1,49,55,51,57,-1,-1,-1,53,-1,59,61,-1,-1,-1,63,-1,-1,-1,-1,-1,65,-1,-1,-1,-1,-1],"loss_changes":[5.0939244E5,3.029272E5,1.3208181E5,2.2505662E5,4.1674883E3,1.8898156E4,0E0,3.0241559E4,2.7081475E5,7.1989097E3,0E0,4.3892812E3,4.0175E3,0E0,0E0,0E0,0E0,7.925117E2,1.8885312E3,0E0,1.3038956E5,1.9293438E3,3.4842344E3,0E0,0E0,1.6509445E4,0E0,1.3322086E4,0E0,4.9442578E2,0E0,0E0,0E0,2.16274E4,4.817211E4,2.6347969E3,2.4889343E2,2.052129E3,0E0,0E0,0E0,2.4736016E3,9.266719E2,2.3538594E3,4.189085E3,0E0,0E0,0E0,3.9590088E1,0E0,1.440625E1,8.886094E2,0E0,0E0,0E0,4.3796875E1,0E0,0E0,0E0,0E0,0E0,4.1365234E2,0E0,0E0,0E0,0E0,0E0],"parents":[2147483647,0,0,1,1,2,2,3,3,4,4,5,5,7,7,9,9,12,12,8,8,11,11,17,17,20,20,22,22,18,18,21,21,25,25,27,27,29,29,33,33,35,35,37,37,34,34,36,36,41,41,43,43,48,48,42,42,44,44,50,50,51,51,55,55,61,61],"right_children":[2,4,6,8,10,12,-1,14,20,16,-1,22,18,-1,-1,-1,-1,24,30,-1,26,32,28,-1,-1,34,-1,36,-1,38,-1,-1,-1,40,46,42,48,44,-1,-1,-1,50,56,52,58,-1,-1,-1,54,-1,60,62,-1,-1,-1,64,-1,-1,-1,-1,-1,66,-1,-1,-1,-1,-1],"split_conditions":[6.105927E6,5.4E-1,2.4451317E8,2.7E-1,5.6E-1,1.2E1,2.2978367E1,2E1,2.8E-1,8.99766E5,4.362129E0,1.4305179E7,1.2148475E2,6.3940616E0,-1.1217615E1,2.3133454E0,-5.0357056E0,1.5403043E7,1.5E1,5.531706E1,5.3E-1,1.2150016E2,1.2151576E2,3.4724483E0,6.1590767E0,5.2E-1,3.432498E1,1.215145E2,6.30755E0,4.3507896E7,4.1341863E0,9.424691E0,4.2819386E0,1.89475E6,4.6E1,2.8E-1,1.2151455E2,4.3507856E7,1.9021647E0,8.463078E0,-4.834526E0,1E1,1.2151436E2,3.7424836E7,1.21516E2,2.347135E1,2.1908977E0,3.266022E-1,6E-2,6.9133415E0,3.7431456E7,3.203256E7,1.5671763E0,1.690312E0,6.0651857E-1,9.9E-1,5.417374E-1,1.1029134E0,7.6900606E0,7.5378114E-1,2.8141785E0,3.8E-1,4.3749576E0,4.37296E0,1.232988E0,1.0742638E0,2.8771513E0],"split_indices":[1,6,1,6,6,7,0,5,6,0,0,0,3,0,0,0,0,0,7,0,6,3,3,0,0,6,0,3,0,0,0,0,0,0,5,6,3,0,0,0,0,7,3,0,3,0,0,0,6,0,0,0,0,0,0,6,0,0,0,0,0,6,0,0,0,0,0],"split_type":[0,0,0,0,0,0,0,0,0,0,0,0,0,0,0,0,0,0,0,0,0,0,0,0,0,0,0,0,0,0,0,0,0,0,0,0,0,0,0,0,0,0,0,0,0,0,0,0,0,0,0,0,0,0,0,0,0,0,0,0,0,0,0,0,0,0,0],"sum_hessian":[2.26E2,2.4E1,2.02E2,1.7E1,7E0,1.99E2,3E0,2E0,1.5E1,4E0,3E0,9E1,1.09E2,1E0,1E0,3E0,1E0,1.6E1,9.3E1,3E0,1.2E1,1E1,8E1,8E0,8E0,8E0,4E0,5.3E1,2.7E1,7.1E1,2.2E1,6E0,4E0,4E0,4E0,4.2E1,1.1E1,5.9E1,1.2E1,3E0,1E0,1.9E1,2.3E1,5.5E1,4E0,2E0,2E0,3E0,8E0,1.6E1,3E0,3.9E1,1.6E1,6E0,2E0,2.2E1,1E0,2E0,2E0,1E0,2E0,3.1E1,8E0,2.1E1,1E0,3E0,2.8E1],"tree_param":{"num_deleted":"0","num_feature":"9","num_nodes":"67","size_leaf_vector":"0"}},{"base_weights":[5.9842705E1,1.8500671E2,4.4133625E1,2.4854744E2,1.8914268E1,4.0544632E1,2.1254988E1,-3.0549185E1,2.8534384E2,-2.016931E0,4.0349703E0,5.0493614E1,3.1945526E1,6.0743575E0,-1.0656735E1,2.1398437E0,-4.7839203E0,4.6457935E1,2.8981094E1,5.1168285E1,1.9375154E2,7.274089E1,4.6849E1,3.1637866E0,5.6116014E0,1.0442453E2,3.1578985E1,4.4384384E1,8.319681E0,2.5893229E1,3.738741E0,5.0323024E0,9.939139E0,4.4255577E1,1.4370859E2,4.7213955E1,2.9352593E0,2.7330946E1,1.7265825E0,7.828347E0,-4.5927997E0,4.2075916E1,5.999832E1,2.0448344E0,2.1906597E1,2.4886667E1,4.9240673E1,4.9068798E1,2.1088808E1,2.8807703E1,1.4196781E0,8.146641E0,3.42491E1,1.0293864E0,7.1773925E0,5.729653E1,3.37302E1,2.4798803E1,3.986071E0,2.4417115E-2,2.267346E1,4.9299927E0,4.19217E1,7.4020805E0,4.2452602E0,9.9369353E-1,2.5993586E0,5.588262E0,1.7480354E0,7.1609193E-1,2.3406982E-2,5.8805995E0,1.0479008E0,3.0720022E0,1.3804356E0],"categories":[],"categories_nodes":[],"categories_segments":[],"categories_sizes":[],"default_left":[true,true,true,false,true,true,false,true,true,true,false,true,false,false,false,false,false,true,true,false,true,false,true,false,false,true,false,true,false,true,false,false,false,false,false,true,false,false,false,false,false,true,true,false,false,true,false,true,true,true,false,false,true,false,false,true,true,false,false,false,true,true,true,false,false,false,false,false,false,false,false,false,false,false,false],"id":23,"left_children":[1,3,5,7,9,11,-1,13,19,15,-1,21,17,-1,-1,-1,-1,23,29,-1,25,31,27,-1,-1,33,-1,35,-1,37,-1,-1,-1,39,43,41,-1,45,-1,-1,-1,47,51,-1,-1,49,53,55,59,57,-1,-1,61,-1,-1,63,71,65,-1,-1,73,69,67,-1,-1,-1,-1,-1,-1,-1,-1,-1,-1,-1,-1],"loss_changes":[4.38165E5,2.5913975E5,1.140845E5,1.935725E5,3.670737E3,1.54974375E4,0E0,2.7293008E4,2.3255525E5,6.388411E3,0E0,3.9706875E3,3.385914E3,0E0,0E0,0E0,0E0,6.578789E2,1.4719297E3,0E0,1.0874094E5,1.5702461E3,3.563625E3,0E0,0E0,1.4913211E4,0E0,1.9317656E3,0E0,4.211797E2,0E0,0E0,0E0,1.8939188E4,4.1963312E4,1.6794531E3,0E0,1.9877695E3,0E0,0E0,0E0,6.156453E3,6.0544336E3,0E0,0E0,1.9382852E3,3.6491602E3,2.6106484E3,4.569048E2,7.8391797E2,0E0,0E0,1.8179102E3,0E0,0E0,2.319211E3,8.1294043E3,3.0991797E2,0E0,0E0,5.0368506E2,2.9752625E1,1.4117178E3,0E0,0E0,0E0,0E0,0E0,0E0,0E0,0E0,0E0,0E0,0E0,0E0],"parents":[2147483647,0,0,1,1,2,2,3,3,4,4,5,5,7,7,9,9,12,12,8,8,11,11,17,17,20,20,22,22,18,18,21,21,25,25,27,27,29,29,33,33,35,35,34,34,37,37,41,41,45,45,42,42,46,46,47,47,49,49,48,48,52,52,55,55,57,57,62,62,61,61,56,56,60,60],"right_children":[2,4,6,8,10,12,-1,14,20,16,-1,22,18,-1,-1,-1,-1,24,30,-1,26,32,28,-1,-1,34,-1,36,-1,38,-1,-1,-1,40,44,42,-1,46,-1,-1,-1,48,52,-1,-1,50,54,56,60,58,-1,-1,62,-1,-1,64,72,66,-1,-1,74,70,68,-1,-1,-1,-1,-1,-1,-1,-1,-1,-1,-1,-1],"split_conditions":[4.869891E6,5.4E-1,2.4451317E8,2.7E-1,5.6E-1,1.2E1,2.1254988E1,2E1,2.8E-1,8.99766E5,4.0349703E0,1.4305179E7,1.2148475E2,6.0743575E0,-1.0656735E1,2.1398437E0,-4.7839203E0,1.5403043E7,1.5E1,5.1168285E1,5.3E-1,1.3854864E7,4.696199E7,3.1637866E0,5.6116014E0,5.2E-1,3.1578985E1,1.1E1,8.319681E0,4.3507896E7,3.738741E0,5.0323024E0,9.939139E0,1.89475E6,1.89475E6,9E0,2.9352593E0,4.3507856E7,1.7265825E0,7.828347E0,-4.5927997E0,7E0,3.203256E7,2.0448344E0,2.1906597E1,3.7424836E7,1.21516E2,1.215145E2,8E0,3.203256E7,1.4196781E0,8.146641E0,4.130825E7,1.0293864E0,7.1773925E0,4.390564E7,3.0790596E7,3.8E-1,3.986071E0,2.4417115E-2,1.2151322E2,3.7431456E7,3.757905E7,7.4020805E0,4.2452602E0,9.9369353E-1,2.5993586E0,5.588262E0,1.7480354E0,7.1609193E-1,2.3406982E-2,5.8805995E0,1.0479008E0,3.0720022E0,1.3804356E0],"split_indices":[0,6,1,6,6,7,0,5,6,0,0,0,3,0,0,0,0,0,7,0,6,0,0,0,0,6,0,7,0,0,0,0,0,0,0,7,0,0,0,0,0,5,0,0,0,0,3,3,5,0,0,0,0,0,0,1,1,6,0,0,3,0,1,0,0,0,0,0,0,0,0,0,0,0,0],"split_type":[0,0,0,0,0,0,0,0,0,0,0,0,0,0,0,0,0,0,0,0,0,0,0,0,0,0,0,0,0,0,0,0,0,0,0,0,0,0,0,0,0,0,0,0,0,0,0,0,0,0,0,0,0,0,0,0,0,0,0,0,0,0,0,0,0,0,0,0,0,0,0,0,0,0,0],"sum_hessian":[2.26E2,2.4E1,2.02E2,1.7E1,7E0,1.99E2,3E0,2E0,1.5E1,4E0,3E0,9E1,1.09E2,1E0,1E0,3E0,1E0,1.6E1,9.3E1,3E0,1.2E1,1E1,8E1,8E0,8E0,8E0,4E0,7.7E1,3E0,7.1E1,2.2E1,7E0,3E0,4E0,4E0,6.3E1,1.4E1,5.9E1,1.2E1,3E0,1E0,4.8E1,1.5E1,2E0,2E0,5.5E1,4E0,3.5E1,1.3E1,3.9E1,1.6E1,7E0,8E0,2E0,2E0,2.1E1,1.4E1,3.1E1,8E0,1E0,1.2E1,2E0,6E0,8E0,1.3E1,3E0,2.8E1,3E0,3E0,1E0,1E0,6E0,8E0,5E0,7E0],"tree_param":{"num_deleted":"0","num_feature":"9","num_nodes":"75","size_leaf_vector":"0"}},{"base_weights":[5.4849377E1,1.7077573E2,4.0302536E1,2.2954555E2,1.7196678E1,8.278659E1,3.4414097E1,3.8980032E2,1.1693479E2,1.177339E2,3.802811E1,-1.6753235E1,5.53349E0,4.226034E1,2.9036842E1,4.9323945E0,4.383257E2,7.2853004E1,1.4579568E2,3.9597885E1,7.6957054E0,3.342532E1,1.9475111E1,-2.7578949E1,1.3274812E0,-5.6253257E0,3.6346136E2,4.802307E0,2.7027748E1,2.1889986E2,5.8478497E1,1.9660862E1,5.853383E0,-6.473694E0,-4.544736E0,8.824127E0,3.6185098E0,-2.9021729E1,7.704553E1,1.2113099E1,3.213474E0,-3.426366E1,7.933066E1,3.6109028E1,2.0462122E1,9.193697E0,3.5555787E0,4.266838E1,2.7876495E1,3.652995E1,4.8333497E0,2.3190308E-2,1.1610901E0,1.2243642E1,3.8055996E1,-3.7317964E-1,3.0085251E0,3.511569E1,5.6152424E1,-2.749235E1,1.19520386E2,1.1259155E0,2.3350313E0,1.2898252E0,4.7664872E-1,-1.0370972E0,6.6043094E-2,5.7706423E0,-1.0123901E1,4.892914E0,2.4498641E0,1.4886835E1,4.1307274E1,2.5934448E1,2.044615E1,-2.67807E-2,1.9566803E-1,-3.3031068E0,-8.207459E-1,4.2539124E1,2.7322754E1,7.434419E0,3.1721497E1,1.6896261E-1,6.4652306E-1,3.2549694E1,4.8234687E0,1.299349E0,3.656281E1,4.683492E0,3.877757E1,5.251592E0,3.4182987E1,1.0021651E0,1.96792E0,6.366699E0,-4.363159E0,1.5136863E1,4.2476377E0,6.802872E-1,2.2236634E-2,3.546262E0,3.015549E-1,6.698896E0,2.2358224E0,5.1691437E0,1.6169312E0,1.8214264E0,4.96224E-1],"categories":[],"categories_nodes":[],"categories_segments":[],"categories_sizes":[],"default_left":[true,false,true,true,true,false,false,false,true,true,false,true,false,true,true,false,true,true,true,true,false,true,true,false,false,true,true,false,true,true,false,false,false,true,false,true,false,true,false,true,false,false,true,true,true,false,false,false,true,false,false,false,false,true,false,false,false,true,true,true,true,true,false,false,false,false,false,false,false,true,false,true,false,true,false,false,false,false,false,true,true,false,true,false,false,true,false,false,true,true,false,false,true,false,false,false,false,true,false,false,false,false,false,false,false,false,false,false,false],"id":24,"left_children":[1,3,5,7,11,9,13,15,25,17,27,23,-1,19,21,-1,29,45,31,47,-1,43,39,33,-1,41,37,-1,35,49,-1,-1,-1,65,-1,51,-1,67,-1,63,-1,-1,59,53,61,-1,-1,57,55,-1,-1,-1,-1,69,79,-1,-1,71,81,77,73,75,-1,-1,-1,-1,-1,-1,-1,83,-1,93,85,95,-1,-1,-1,-1,-1,91,87,-1,89,-1,-1,97,-1,-1,103,99,105,-1,101,-1,-1,-1,-1,107,-1,-1,-1,-1,-1,-1,-1,-1,-1,-1,-1],"loss_changes":[3.7592138E5,2.2169788E5,4.793447E4,2.792543E5,1.1285354E4,3.306333E4,6.367328E3,9.4032375E4,3.646165E5,5.7510312E3,2.1423828E1,1.9914806E3,0E0,3.511539E3,3.9647969E3,0E0,6.4812375E4,1.7135586E3,1.9529969E4,1.2579062E3,0E0,1.8355547E3,3.059162E3,1.2142566E3,0E0,2.848617E5,6.613129E5,0E0,1.01427344E3,8.222719E4,0E0,0E0,0E0,9.0260315E1,0E0,9.3085724E1,0E0,2.4631957E4,0E0,8.272583E1,0E0,0E0,3.763139E4,2.321961E3,8.1141016E2,0E0,0E0,3.3238984E3,1.299127E3,0E0,0E0,0E0,0E0,4.2062933E2,1.4842266E3,0E0,0E0,3.8940195E3,5.197199E3,4.93396E1,4.239317E4,3.9975793E0,0E0,0E0,0E0,0E0,0E0,0E0,0E0,1.4259087E1,0E0,3.593921E1,6.799609E1,1.3277508E4,0E0,0E0,0E0,0E0,0E0,1.2894453E3,2.040582E3,0E0,1.5354248E3,0E0,0E0,1.9498154E3,0E0,0E0,3.2563457E3,2.685173E1,1.2079053E3,0E0,8.1036523E2,0E0,0E0,0E0,0E0,1.2879614E2,0E0,0E0,0E0,0E0,0E0,0E0,0E0,0E0,0E0,0E0,0E0],"parents":[2147483647,0,0,1,1,2,2,3,3,5,5,4,4,6,6,7,7,9,9,13,13,14,14,11,11,8,8,10,10,16,16,18,18,23,23,28,28,26,26,22,22,25,25,21,21,17,17,19,19,29,29,35,35,43,43,48,48,47,47,42,42,44,44,39,39,33,33,37,37,53,53,57,57,60,60,61,61,59,59,54,54,58,58,69,69,72,72,80,80,82,82,79,79,71,71,73,73,85,85,89,89,92,92,88,88,90,90,97,97],"right_children":[2,4,6,8,12,10,14,16,26,18,28,24,-1,20,22,-1,30,46,32,48,-1,44,40,34,-1,42,38,-1,36,50,-1,-1,-1,66,-1,52,-1,68,-1,64,-1,-1,60,54,62,-1,-1,58,56,-1,-1,-1,-1,70,80,-1,-1,72,82,78,74,76,-1,-1,-1,-1,-1,-1,-1,84,-1,94,86,96,-1,-1,-1,-1,-1,92,88,-1,90,-1,-1,98,-1,-1,104,100,106,-1,102,-1,-1,-1,-1,108,-1,-1,-1,-1,-1,-1,-1,-1,-1,-1,-1],"split_conditions":[4.869891E6,5.4E-1,2E0,3.6E2,3.6E2,2E0,1.2E1,2E1,3.62E2,2.1867948E7,2.67E2,4.6E1,5.53349E0,4.696199E7,3.65E2,4.9323945E0,8.99766E5,1.4305179E7,3.2580228E7,1.1E1,7.6957054E0,1.08E0,1.5E1,3.57E2,1.3274812E0,2.8E-1,2.7E-1,4.802307E0,3.55E2,3.56E2,5.8478497E1,1.9660862E1,5.853383E0,8.99766E5,-4.544736E0,8E0,3.6185098E0,2E1,7.704553E1,5.4E-1,3.213474E0,-3.426366E1,8.99766E5,1E0,1.3E1,9.193697E0,3.5555787E0,9E0,5.8E1,3.652995E1,4.8333497E0,2.3190308E-2,1.1610901E0,9.1E-1,3.7424836E7,-3.7317964E-1,3.0085251E0,2E0,3.203256E7,4.6E1,5.2E-1,2.8279636E7,2.3350313E0,1.2898252E0,4.7664872E-1,-1.0370972E0,6.6043094E-2,5.7706423E0,-1.0123901E1,3.203256E7,2.4498641E0,4.5E1,9.1E1,1.89475E6,2.044615E1,-2.67807E-2,1.9566803E-1,-3.3031068E0,-8.207459E-1,3.4E-1,4.3507856E7,7.434419E0,4.130825E7,1.6896261E-1,6.4652306E-1,7E-2,4.8234687E0,1.299349E0,4.3507896E7,3.7431456E7,1E1,5.251592E0,3.61E2,1.0021651E0,1.96792E0,6.366699E0,-4.363159E0,6E-2,4.2476377E0,6.802872E-1,2.2236634E-2,3.546262E0,3.015549E-1,6.698896E0,2.2358224E0,5.1691437E0,1.6169312E0,1.8214264E0,4.96224E-1],"split_indices":[0,6,7,8,8,5,7,5,8,0,8,5,0,0,8,0,0,0,0,7,0,6,7,8,0,6,6,0,8,8,0,0,0,0,0,5,0,5,0,6,0,0,0,8,7,0,0,7,8,0,0,0,0,6,0,0,0,4,0,5,6,0,0,0,0,0,0,0,0,0,0,5,8,0,0,0,0,0,0,6,0,0,0,0,0,6,0,0,0,0,7,0,8,0,0,0,0,6,0,0,0,0,0,0,0,0,0,0,0],"split_type":[0,0,0,0,0,0,0,0,0,0,0,0,0,0,0,0,0,0,0,0,0,0,0,0,0,0,0,0,0,0,0,0,0,0,0,0,0,0,0,0,0,0,0,0,0,0,0,0,0,0,0,0,0,0,0,0,0,0,0,0,0,0,0,0,0,0,0,0,0,0,0,0,0,0,0,0,0,0,0,0,0,0,0,0,0,0,0,0,0,0,0,0,0,0,0,0,0,0,0,0,0,0,0,0,0,0,0,0,0],"sum_hessian":[2.26E2,2.4E1,2.02E2,1.7E1,7E0,2.3E1,1.79E2,6E0,1.1E1,1.2E1,1.1E1,4E0,3E0,7E1,1.09E2,1E0,5E0,6E0,6E0,6.7E1,3E0,7.3E1,3.6E1,3E0,1E0,8E0,3E0,4E0,7E0,3E0,2E0,3E0,3E0,2E0,1E0,3E0,4E0,2E0,1E0,2.4E1,1.2E1,1E0,7E0,5.9E1,1.4E1,3E0,3E0,5.1E1,1.6E1,1E0,2E0,1E0,2E0,5E0,5.4E1,1E0,1.5E1,3.5E1,1.6E1,2E0,5E0,2E0,1.2E1,2.1E1,3E0,1E0,1E0,1E0,1E0,4E0,1E0,9E0,2.6E1,3E0,2E0,1E0,1E0,1E0,1E0,3.6E1,1.8E1,8E0,8E0,2E0,2E0,1.4E1,1.2E1,8E0,1E1,2E0,6E0,1.4E1,2.2E1,6E0,3E0,2E0,1E0,6E0,8E0,1E0,1E0,2.1E1,1E0,2E0,8E0,3E0,3E0,4E0,2E0],"tree_param":{"num_deleted":"0","num_feature":"9","num_nodes":"109","size_leaf_vector":"0"}},{"base_weights":[5.0599846E1,1.602131E2,3.6851418E1,1.1906419E1,2.2013739E2,3.376693E1,1.8186295E1,7.632503E0,3.1992228E1,4.2292915E1,2.6406643E1,6.1608963E1,3.9147614E1,2.3075634E1,3.4914783E1,3.2284138E0,7.375399E0,2.5174877E1,1.2020701E0,3.700276E1,7.118528E0,3.9241356E1,1.5711082E0,2.3095793E1,6.2523093E0,3.946498E1,2.4030433E0,2.6077125E0,4.4523804E1,1.9844328E1,3.009445E1,3.5074738E1,5.0443535E1,1.3030366E0,4.5842595E0,2.6713324E1,1.4832485E1,1.8427322E1,4.258781E1,1.668285E0,3.255869E0,6.7832994E0,2.9381401E1,2.8922966E0,1.4741735E0,3.2041748E0,1.1773518E0,4.4493103E0,3.586924E1,1.628348E1,-3.6542866E0,6.35512E0,3.3337475E1,6.462723E-1,2.1124268E-2,3.7421203E-1,1.8217783E0,-1.3824616E-1,3.8134854E0,4.781456E0,1.4956611E0,1.858841E-1,-7.340271E-1],"categories":[],"categories_nodes":[],"categories_segments":[],"categories_sizes":[],"default_left":[false,true,true,false,true,true,false,false,false,false,true,false,true,false,true,false,false,true,false,false,false,false,false,false,false,true,false,false,false,false,false,true,true,false,false,true,false,false,false,false,false,false,true,false,false,false,false,true,true,true,false,false,true,false,false,false,false,false,false,false,false,false,false],"id":25,"left_children":[1,3,5,-1,7,9,-1,-1,-1,11,13,15,19,17,21,-1,-1,23,-1,25,-1,27,-1,29,-1,31,-1,-1,33,35,39,37,41,-1,-1,43,49,45,51,-1,-1,-1,47,-1,-1,-1,-1,53,59,55,61,-1,57,-1,-1,-1,-1,-1,-1,-1,-1,-1,-1],"loss_changes":[3.3618725E5,3.5435E4,8.465819E4,0E0,1.0473459E5,1.14339375E4,0E0,0E0,0E0,3.1168438E3,2.3117969E3,1.5365742E3,2.9319453E3,1.6003516E3,1.7929766E3,0E0,0E0,3.8361836E3,0E0,1.5430156E3,0E0,4.3835156E2,0E0,9.046875E2,0E0,1.3154141E3,0E0,0E0,2.5652344E1,1.2562402E3,8.4765625E1,5.3438086E3,3.8671172E3,0E0,0E0,7.623047E1,8.6423047E2,1.1627476E3,4.280672E3,0E0,0E0,0E0,1.2962046E3,0E0,0E0,0E0,0E0,2.423373E1,1.0335127E3,6.1107324E2,7.460829E1,0E0,4.216834E3,0E0,0E0,0E0,0E0,0E0,0E0,0E0,0E0,0E0,0E0],"parents":[2147483647,0,0,1,1,2,2,4,4,5,5,9,9,10,10,11,11,13,13,12,12,14,14,17,17,19,19,21,21,23,23,25,25,28,28,29,29,31,31,30,30,32,32,35,35,37,37,42,42,36,36,38,38,47,47,49,49,52,52,48,48,50,50],"right_children":[2,4,6,-1,8,10,-1,-1,-1,12,14,16,20,18,22,-1,-1,24,-1,26,-1,28,-1,30,-1,32,-1,-1,34,36,40,38,42,-1,-1,44,50,46,52,-1,-1,-1,48,-1,-1,-1,-1,54,60,56,62,-1,58,-1,-1,-1,-1,-1,-1,-1,-1,-1,-1],"split_conditions":[4.869891E6,2.513276E1,2.4451317E8,1.1906419E1,2E1,1.2E1,1.8186295E1,7.632503E0,3.1992228E1,1.4305179E7,2.511599E1,2.511065E1,4.696199E7,2.511361E1,3.7424836E7,3.2284138E0,7.375399E0,2.511224E1,1.2020701E0,1.1E1,7.118528E0,1.5403043E7,1.5711082E0,1.5E1,6.2523093E0,9E0,2.4030433E0,2.6077125E0,1.3E1,2.510968E1,2.8279756E7,2.51108E1,3.203256E7,1.3030366E0,4.5842595E0,3.2539124E7,5.2E1,2.510872E1,2.511242E1,1.668285E0,3.255869E0,6.7832994E0,4.130825E7,2.8922966E0,1.4741735E0,3.2041748E0,1.1773518E0,3.7431456E7,3.757905E7,2.511006E1,1.3E1,6.35512E0,2.511347E1,6.462723E-1,2.1124268E-2,3.7421203E-1,1.8217783E0,-1.3824616E-1,3.8134854E0,4.781456E0,1.4956611E0,1.858841E-1,-7.340271E-1],"split_indices":[0,2,1,0,5,7,0,0,0,0,2,2,0,2,0,0,0,2,0,7,0,0,0,7,0,7,0,0,7,2,0,2,0,0,0,0,5,2,2,0,0,0,0,0,0,0,0,0,1,2,7,0,2,0,0,0,0,0,0,0,0,0,0],"split_type":[0,0,0,0,0,0,0,0,0,0,0,0,0,0,0,0,0,0,0,0,0,0,0,0,0,0,0,0,0,0,0,0,0,0,0,0,0,0,0,0,0,0,0,0,0,0,0,0,0,0,0,0,0,0,0,0,0,0,0,0,0,0,0],"sum_hessian":[2.26E2,2.4E1,2.02E2,1.6E1,8E0,1.99E2,3E0,4E0,4E0,9E1,1.09E2,1E1,8E1,8.1E1,2.8E1,4E0,6E0,6.7E1,1.4E1,7.7E1,3E0,2.2E1,6E0,6.5E1,2E0,6.3E1,1.4E1,8E0,1.4E1,4.7E1,1.8E1,4.8E1,1.5E1,1E0,1.3E1,1.8E1,2.9E1,1.6E1,3.2E1,4E0,1.4E1,7E0,8E0,1.4E1,4E0,4E0,1.2E1,2E0,6E0,2.7E1,2E0,8E0,2.4E1,1E0,1E0,4E0,2.3E1,3E0,2.1E1,3E0,3E0,1E0,1E0],"tree_param":{"num_deleted":"0","num_feature":"9","num_nodes":"63","size_leaf_vector":"0"}},{"base_weights":[4.6184986E1,1.4625308E2,3.363382E1,2.0080614E2,5.2270584E0,3.0773863E1,1.6822332E1,3.533238E2,9.510366E1,-2.5440662E1,4.2254944E0,3.859402E1,2.4024696E1,4.3041506E0,3.9786392E2,-3.6302593E1,-6.0985107E0,2.786569E1,1.5693391E1,-1.8699137E1,3.2738403E2,4.496964E1,2.7604336E1,5.311667E1,1.984209E2,-1.5805634E0,6.6578674E-1,-4.077889E0,7.159364E1,1.57535E1,3.0971151E1,-3.4150085E1,6.4338684E1,3.4685764E1,5.272614E1,9.476284E0,2.6442182E0,-4.9128084E0,-5.3258055E-1,3.024233E1,1.6501417E1,3.410813E1,3.7173665E0,4.4230076E1,2.5947298E1,5.8985966E-1,1.0812925E0,4.3507893E-2,1.9030058E1,7.0042834E0,2.7932571E1,1.0314778E1,3.1866385E1,2.3930302E1,5.7238708E0,7.474921E-1,2.0026733E1,1.0281259E2,-3.405536E0,1.2365402E0,4.8129935E0,-1.7006378E-1,1.7658997E-1,2.230536E0,3.3495384E1,1.7049026E1,1.8289314E1,2.255371E0,3.6959228E-1,2.1827562E0,3.6467102E0,3.828186E1,1.5045217E1,3.1280172E0,1.5650861E1,5.2595825E0,3.025237E0,2.113737E1,9.004265E0,3.4149442E0,1.2955383E0,8.450013E-2,5.232849E-1,1.5706513E0,-1.2787782E-1,-5.4107517E-1,1.5612854E0,5.377701E0,2.8371751E0,2.7307398E0,9.505859E0,1.6108607E0,5.776581E-1,5.433421E0,-4.740326E0,4.4589033E0,1.5009288E0,8.294515E-1,-1.6863708E-1,1.5368843E0,-6.973038E-1],"categories":[],"categories_nodes":[],"categories_segments":[],"categories_sizes":[],"default_left":[true,true,false,true,true,true,false,false,true,true,false,true,true,false,true,true,true,false,true,false,true,false,false,false,true,false,false,false,false,true,true,false,true,true,true,true,false,false,false,false,true,false,false,true,true,false,false,true,true,false,true,false,false,true,false,false,true,false,false,false,false,false,false,false,true,true,false,false,false,false,true,true,true,false,true,false,false,true,true,false,false,false,false,false,false,false,false,true,false,false,true,false,false,false,false,false,false,false,false,false,false],"id":26,"left_children":[1,3,5,7,9,11,-1,13,19,15,-1,21,17,-1,23,37,25,39,35,31,27,33,29,-1,41,-1,-1,-1,-1,55,43,-1,57,53,49,45,-1,-1,-1,51,47,-1,-1,59,75,-1,-1,61,77,-1,73,69,63,71,-1,-1,67,65,-1,-1,-1,-1,-1,-1,79,93,-1,-1,-1,-1,81,95,91,-1,87,83,-1,89,85,-1,-1,-1,-1,-1,-1,-1,-1,97,-1,-1,99,-1,-1,-1,-1,-1,-1,-1,-1,-1,-1],"loss_changes":[2.8018644E5,1.9128538E5,7.296197E4,2.565845E5,1.01594795E4,9.628703E3,0E0,7.961544E4,3.2333166E5,8.290737E2,0E0,5.1346562E3,3.08275E3,0E0,5.412325E4,9.302307E2,4.7671503E2,1.4996094E3,2.222002E3,2.632145E5,6.013974E5,2.6381016E3,9.4848047E2,0E0,7.933514E4,0E0,0E0,0E0,0E0,2.040647E2,6.508418E2,0E0,3.3786145E4,5.17958E3,1.0923797E4,5.5770996E1,0E0,0E0,0E0,1.6131094E3,6.234143E2,0E0,0E0,1.5045996E2,1.800252E3,0E0,0E0,1.2015462E1,8.433057E1,0E0,8.6038086E1,3.8100928E2,1.0949609E2,1.9743379E3,0E0,0E0,1.6424854E2,3.8089816E4,0E0,0E0,0E0,0E0,0E0,0E0,1.621289E2,1.2188078E4,0E0,0E0,0E0,0E0,1.7797737E1,3.5823926E2,4.4934082E1,0E0,5.0084387E2,3.6161414E2,0E0,4.580869E2,4.6552893E2,0E0,0E0,0E0,0E0,0E0,0E0,0E0,0E0,9.6405975E1,0E0,0E0,5.9024506E2,0E0,0E0,0E0,0E0,0E0,0E0,0E0,0E0,0E0,0E0],"parents":[2147483647,0,0,1,1,2,2,3,3,4,4,5,5,7,7,9,9,12,12,8,8,11,11,14,14,16,16,20,20,22,22,19,19,21,21,18,18,15,15,17,17,24,24,30,30,35,35,40,40,34,34,39,39,33,33,29,29,32,32,43,43,47,47,52,52,57,57,56,56,51,51,53,53,50,50,44,44,48,48,64,64,70,70,75,75,78,78,74,74,77,77,72,72,65,65,71,71,87,87,90,90],"right_children":[2,4,6,8,10,12,-1,14,20,16,-1,22,18,-1,24,38,26,40,36,32,28,34,30,-1,42,-1,-1,-1,-1,56,44,-1,58,54,50,46,-1,-1,-1,52,48,-1,-1,60,76,-1,-1,62,78,-1,74,70,64,72,-1,-1,68,66,-1,-1,-1,-1,-1,-1,80,94,-1,-1,-1,-1,82,96,92,-1,88,84,-1,90,86,-1,-1,-1,-1,-1,-1,-1,-1,98,-1,-1,100,-1,-1,-1,-1,-1,-1,-1,-1,-1,-1],"split_conditions":[6.105927E6,5.4E-1,2.4451317E8,3.6E2,3.6E2,1.2E1,1.6822332E1,3.55E2,3.62E2,1.2149991E2,4.2254944E0,3.62E2,3.65E2,4.3041506E0,1.2150102E2,5.6E-1,3.56E2,1.08E0,1.5E1,2.8E-1,2.7E-1,2.511224E1,2.511128E1,5.311667E1,3.56E2,-1.5805634E0,6.6578674E-1,-4.077889E0,7.159364E1,9E0,2.511139E1,-3.4150085E1,1.2150102E2,3.59E2,1.5399272E8,2.511091E1,2.6442182E0,-4.9128084E0,-5.3258055E-1,1E0,1.3E1,3.410813E1,3.7173665E0,3.757905E7,2.511347E1,5.8985966E-1,1.0812925E0,2.51091E1,3.47E2,7.0042834E0,2.67E2,2.510954E1,2.510943E1,2.51091E1,5.7238708E0,7.474921E-1,2.511065E1,5.2E-1,-3.405536E0,1.2365402E0,4.8129935E0,-1.7006378E-1,1.7658997E-1,2.230536E0,1.2151961E2,3.2E-1,1.8289314E1,2.255371E0,3.6959228E-1,2.1827562E0,2.511065E1,3.53E2,4.390564E7,3.1280172E0,3.55E2,3.757905E7,3.025237E0,2.510968E1,1.5E1,3.4149442E0,1.2955383E0,8.450013E-2,5.232849E-1,1.5706513E0,-1.2787782E-1,-5.4107517E-1,1.5612854E0,7.2E-1,2.8371751E0,2.7307398E0,8.1839304E7,1.6108607E0,5.776581E-1,5.433421E0,-4.740326E0,4.4589033E0,1.5009288E0,8.294515E-1,-1.6863708E-1,1.5368843E0,-6.973038E-1],"split_indices":[1,6,1,8,8,7,0,8,8,3,0,8,8,0,3,6,8,6,7,6,6,2,2,0,8,0,0,0,0,7,2,0,3,8,1,2,0,0,0,8,7,0,0,1,2,0,0,2,8,0,8,2,2,2,0,0,2,6,0,0,0,0,0,0,3,6,0,0,0,0,2,8,1,0,8,1,0,2,7,0,0,0,0,0,0,0,0,6,0,0,1,0,0,0,0,0,0,0,0,0,0],"split_type":[0,0,0,0,0,0,0,0,0,0,0,0,0,0,0,0,0,0,0,0,0,0,0,0,0,0,0,0,0,0,0,0,0,0,0,0,0,0,0,0,0,0,0,0,0,0,0,0,0,0,0,0,0,0,0,0,0,0,0,0,0,0,0,0,0,0,0,0,0,0,0,0,0,0,0,0,0,0,0,0,0,0,0,0,0,0,0,0,0,0,0,0,0,0,0,0,0,0,0,0,0],"sum_hessian":[2.26E2,2.4E1,2.02E2,1.7E1,7E0,1.99E2,3E0,6E0,1.1E1,4E0,3E0,9E1,1.09E2,1E0,5E0,2E0,2E0,7.3E1,3.6E1,8E0,3E0,5.5E1,3.5E1,2E0,3E0,1E0,1E0,2E0,1E0,9E0,2.6E1,1E0,7E0,2.6E1,2.9E1,2.4E1,1.2E1,1E0,1E0,5.9E1,1.4E1,1E0,2E0,5E0,2.1E1,8E0,1.6E1,2E0,1.2E1,1.6E1,1.3E1,5E0,5.4E1,1.9E1,7E0,4E0,5E0,5E0,2E0,1E0,4E0,1E0,1E0,1E1,4.4E1,3E0,2E0,4E0,1E0,1E0,4E0,6E0,1.3E1,9E0,4E0,4E0,1.7E1,9E0,3E0,4.2E1,2E0,2E0,2E0,1E0,3E0,1E0,2E0,3E0,1E0,5E0,4E0,1.1E1,2E0,2E0,1E0,4E0,2E0,2E0,1E0,3E0,1E0],"tree_param":{"num_deleted":"0","num_feature":"9","num_nodes":"101","size_leaf_vector":"0"}},{"base_weights":[4.2530853E1,1.373099E2,3.0649046E1,1.8873598E2,4.4375076E0,2.7996653E1,1.5560645E1,-3.8060303E1,2.1946428E2,-1.1804602E1,2.363077E0,2.719268E1,6.059317E0,5.304376E0,-1.1013422E1,8.5800934E-1,-4.667169E0,4.0135715E1,1.4661537E2,3.0964508E1,1.941205E1,7.6118614E1,2.4418648E1,4.0458885E1,2.3561224E1,9.916662E0,2.1733158E1,2.8769703E1,1.082438E2,2.4113796E0,1.3095612E1,2.5580645E1,1.6018256E0,4.7548042E1,2.6379429E1,1.1940491E0,6.6532516E-1,5.8478656E0,-4.503305E0,-3.2978618E0,2.2116814E0,1.0217388E1,4.679355E0,6.686631E1,3.8632088E0,9.7060347E-1,1.707003E1,2.1399454E1,5.60782E0,1.677597E-1,-6.62439E-1,3.3243027E0,7.6527286E0,-1.182869E-1,1.3755753E1,2.3182001E1,8.56333E0,1.4699062E1,2.6329803E-1,2.3685033E0,5.806168E-1,3.002716E-1,1.1269501E0,9.941139E-1,2.6381226E0],"categories":[],"categories_nodes":[],"categories_segments":[],"categories_sizes":[],"default_left":[false,true,true,false,true,true,false,true,true,true,false,false,false,false,false,false,false,false,true,true,true,true,false,true,true,false,false,true,false,false,true,true,false,true,true,false,false,false,false,true,false,true,false,false,false,false,false,false,false,false,false,false,false,false,true,true,true,true,false,false,false,false,false,false,false],"id":27,"left_children":[1,3,5,7,9,11,-1,13,17,15,-1,19,-1,-1,-1,-1,-1,-1,21,23,25,27,-1,33,29,35,31,37,45,-1,39,47,-1,43,41,-1,-1,-1,-1,49,-1,53,-1,51,-1,-1,-1,55,-1,-1,-1,-1,-1,-1,57,59,61,63,-1,-1,-1,-1,-1,-1,-1],"loss_changes":[2.5142681E5,1.6999016E5,6.292508E4,1.3379606E5,2.7728643E3,3.5936562E3,0E0,2.5540613E4,1.53166E5,3.9542227E3,0E0,5.1803125E3,0E0,0E0,0E0,0E0,0E0,0E0,7.083269E4,8.25468E3,1.2611504E3,1.0575695E4,0E0,4.3351484E3,1.2371875E2,1.9625732E1,7.556074E2,1.3596484E4,2.9114797E4,0E0,9.6027124E2,2.6254395E3,0E0,3.6174844E3,6.450503E3,0E0,0E0,0E0,0E0,6.076606E1,0E0,5.406686E2,0E0,7.0433984E2,0E0,0E0,0E0,4.4215332E2,0E0,0E0,0E0,0E0,0E0,0E0,6.621985E1,7.225391E1,4.1400757E1,2.3798608E2,0E0,0E0,0E0,0E0,0E0,0E0,0E0],"parents":[2147483647,0,0,1,1,2,2,3,3,4,4,5,5,7,7,9,9,8,8,11,11,18,18,19,19,20,20,21,21,24,24,26,26,23,23,25,25,27,27,30,30,34,34,33,33,28,28,31,31,39,39,43,43,41,41,47,47,54,54,55,55,56,56,57,57],"right_children":[2,4,6,8,10,12,-1,14,18,16,-1,20,-1,-1,-1,-1,-1,-1,22,24,26,28,-1,34,30,36,32,38,46,-1,40,48,-1,44,42,-1,-1,-1,-1,50,-1,54,-1,52,-1,-1,-1,56,-1,-1,-1,-1,-1,-1,58,60,62,64,-1,-1,-1,-1,-1,-1,-1],"split_conditions":[4.869891E6,5.4E-1,2.4451317E8,2.7E-1,5.6E-1,4.70296E7,1.5560645E1,2E1,2.8E-1,8.99766E5,2.363077E0,3.7424836E7,6.059317E0,5.304376E0,-1.1013422E1,8.5800934E-1,-4.667169E0,4.0135715E1,5.3E-1,3.4E-1,4.130825E7,5.2E-1,2.4418648E1,1.215145E2,2.04E0,3.7431456E7,1.2151675E2,1.89475E6,1.89475E6,2.4113796E0,1.2151793E2,1.21516E2,1.6018256E0,1.4358936E7,1.2151859E2,1.1940491E0,6.6532516E-1,5.8478656E0,-4.503305E0,2.13E0,2.2116814E0,1.2151455E2,4.679355E0,9.384473E6,3.8632088E0,9.7060347E-1,1.707003E1,2E1,5.60782E0,1.677597E-1,-6.62439E-1,3.3243027E0,7.6527286E0,-1.182869E-1,3.2E-1,9E0,4.3507856E7,2.9E-1,2.6329803E-1,2.3685033E0,5.806168E-1,3.002716E-1,1.1269501E0,9.941139E-1,2.6381226E0],"split_indices":[0,6,1,6,6,0,0,5,6,0,0,0,0,0,0,0,0,0,6,6,0,6,0,3,6,0,3,0,0,0,3,3,0,0,3,0,0,0,0,6,0,3,0,0,0,0,0,4,0,0,0,0,0,0,6,5,0,6,0,0,0,0,0,0,0],"split_type":[0,0,0,0,0,0,0,0,0,0,0,0,0,0,0,0,0,0,0,0,0,0,0,0,0,0,0,0,0,0,0,0,0,0,0,0,0,0,0,0,0,0,0,0,0,0,0,0,0,0,0,0,0,0,0,0,0,0,0,0,0,0,0,0,0],"sum_hessian":[2.26E2,2.4E1,2.02E2,1.7E1,7E0,1.99E2,3E0,2E0,1.5E1,4E0,3E0,1.96E2,3E0,1E0,1E0,3E0,1E0,3E0,1.2E1,1.3E2,6.6E1,8E0,4E0,5.5E1,7.5E1,1.4E1,5.2E1,4E0,4E0,7E1,5E0,2.9E1,2.3E1,3.5E1,2E1,7E0,7E0,3E0,1E0,2E0,3E0,1.2E1,8E0,9E0,2.6E1,2E0,2E0,2.7E1,2E0,1E0,1E0,3E0,6E0,3E0,9E0,2.3E1,4E0,8E0,1E0,2.2E1,1E0,2E0,2E0,7E0,1E0],"tree_param":{"num_deleted":"0","num_feature":"9","num_nodes":"65","size_leaf_vector":"0"}},{"base_weights":[3.889131E1,1.2665026E2,2.789198E1,1.742085E2,3.8129578E0,2.5431639E1,1.4393603E1,-3.6157288E1,2.0276405E2,-1.1386023E1,2.1858444E0,3.225393E1,1.9556547E1,5.0391574E0,-1.046275E1,-4.43382E0,7.9365695E-1,2.613575E1,1.676265E1,3.712553E1,1.3532335E2,2.5372547E1,3.573174E1,3.3725803E0,2.0915447E1,2.6161657E1,1.809328E2,4.05887E1,2.268357E1,1.856487E1,7.7153687E0,1.3231389E1,3.6735386E1,1.7379852E1,3.6335735E0,2.6170172E1,9.693139E1,4.2472473E-1,8.59039E-1,1.7815556E1,4.54357E1,1.6691599E1,5.233971E0,2.19887E0,8.171755E0,2.3543787E1,4.0299377E-1,-4.2781405E0,5.4092774E0,5.6715264E0,3.4280754E1,1.8411454E0,5.740835E-1,2.2589378E0,8.587845E-1,2.4325793E0,5.515854E-1,3.6733553E-1,1.0524086E0,3.0096188E1,5.6048675E0,1.3807069E1,2.2796692E1,-4.7839327E0,1.354534E2,5.588162E0,2.1724274E0,4.3851776E1,1.9253782E1,1.792981E0,3.2838E1,2.0048069E1,9.078996E0,9.059001E-1,2.1669666E1,4.9054146E0,1.1893281E0,1.5031962E0,3.969804E0,9.881416E0,-6.2931824E-1,-1.09415434E-1,2.3396313E1,2.4100594E1,9.657942E0,1.1427796E-1,1.1351494E0,8.879781E-1,2.606076E0,3.0272214E0,1.5448803E0,-6.1114097E-1,1.7187964E0],"categories":[],"categories_nodes":[],"categories_segments":[],"categories_sizes":[],"default_left":[true,false,false,true,true,false,false,true,true,true,false,true,false,false,false,false,false,true,false,false,false,false,true,false,true,true,true,true,true,true,true,true,false,true,false,false,true,false,false,true,true,true,false,false,true,true,false,false,false,false,true,false,false,false,false,false,false,false,false,true,false,false,true,false,true,false,false,true,true,false,true,true,false,false,false,false,false,false,false,true,false,false,true,true,true,false,false,false,false,false,false,false,false],"id":28,"left_children":[1,3,5,7,9,11,-1,13,19,15,-1,21,17,-1,-1,-1,-1,23,29,-1,25,31,27,-1,33,47,35,49,45,41,37,43,39,51,-1,-1,63,-1,-1,53,65,61,-1,-1,57,55,-1,-1,-1,-1,59,-1,-1,-1,-1,-1,-1,-1,-1,67,-1,71,69,-1,73,-1,-1,75,81,-1,77,83,79,-1,-1,-1,-1,-1,-1,85,-1,-1,89,87,91,-1,-1,-1,-1,-1,-1,-1,-1],"loss_changes":[2.1558834E5,1.453839E5,5.429758E4,1.1545944E5,2.443065E3,7.385547E3,0E0,2.30504E4,1.3157119E5,3.5355E3,0E0,1.2712266E3,1.5838711E3,0E0,0E0,0E0,0E0,5.229043E2,1.1611816E3,0E0,5.9990984E4,4.2045137E3,2.7550156E3,0E0,5.134072E2,1.1942447E4,3.569522E4,2.2265E3,1.9395117E2,3.3021504E3,9.034729E0,6.178718E2,1.9888789E3,1.2243262E2,0E0,0E0,3.9941152E4,0E0,0E0,1.1436621E2,1.5105781E3,8.1230664E2,0E0,0E0,9.890375E1,1.0548828E2,0E0,0E0,0E0,0E0,1.2280117E3,0E0,0E0,0E0,0E0,0E0,0E0,0E0,0E0,3.4808535E3,0E0,1.1753467E3,3.3974805E2,0E0,4.938042E4,0E0,0E0,1.4117051E3,1.542855E3,0E0,1.401123E1,5.6725635E2,4.0756445E2,0E0,0E0,0E0,0E0,0E0,0E0,3.3388232E2,0E0,0E0,3.520254E2,1.564458E2,9.362476E2,0E0,0E0,0E0,0E0,0E0,0E0,0E0,0E0],"parents":[2147483647,0,0,1,1,2,2,3,3,4,4,5,5,7,7,9,9,12,12,8,8,11,11,17,17,20,20,22,22,18,18,21,21,24,24,26,26,30,30,32,32,29,29,31,31,28,28,25,25,27,27,33,33,39,39,45,45,44,44,50,50,41,41,36,36,40,40,59,59,62,62,61,61,64,64,67,67,70,70,72,72,68,68,71,71,79,79,83,83,82,82,84,84],"right_children":[2,4,6,8,10,12,-1,14,20,16,-1,22,18,-1,-1,-1,-1,24,30,-1,26,32,28,-1,34,48,36,50,46,42,38,44,40,52,-1,-1,64,-1,-1,54,66,62,-1,-1,58,56,-1,-1,-1,-1,60,-1,-1,-1,-1,-1,-1,-1,-1,68,-1,72,70,-1,74,-1,-1,76,82,-1,78,84,80,-1,-1,-1,-1,-1,-1,86,-1,-1,90,88,92,-1,-1,-1,-1,-1,-1,-1,-1],"split_conditions":[6.105927E6,5.4E-1,2.4451317E8,2.7E-1,5.6E-1,1.2E1,1.4393603E1,2E1,2.8E-1,1.2149991E2,2.1858444E0,2.511133E1,1.2151322E2,5.0391574E0,-1.046275E1,-4.43382E0,7.9365695E-1,2.5128E1,2.511361E1,3.712553E1,5.2E-1,9E0,1.5399272E8,3.3725803E0,2.513653E1,2.513276E1,1.2149991E2,2E0,2.512532E1,2.511224E1,2.5114E1,2.510902E1,3.5E-1,1.2151217E2,3.6335735E0,2.6170172E1,4.6E1,4.2472473E-1,8.59039E-1,2.511091E1,1.1E1,1.5E1,5.233971E0,2.19887E0,2.511021E1,9E0,4.0299377E-1,-4.2781405E0,5.4092774E0,5.6715264E0,1.21516E2,1.8411454E0,5.740835E-1,2.2589378E0,8.587845E-1,2.4325793E0,5.515854E-1,3.6733553E-1,1.0524086E0,2.511242E1,5.6048675E0,2.510968E1,1.2151955E2,-4.7839327E0,5.3E-1,5.588162E0,2.1724274E0,1E1,2.511347E1,1.792981E0,2.511064E1,1.2151927E2,2.13E0,9.059001E-1,2.1669666E1,4.9054146E0,1.1893281E0,1.5031962E0,3.969804E0,2.511006E1,-6.2931824E-1,-1.09415434E-1,1E1,1E0,1.2151945E2,1.1427796E-1,1.1351494E0,8.879781E-1,2.606076E0,3.0272214E0,1.5448803E0,-6.1114097E-1,1.7187964E0],"split_indices":[1,6,1,6,6,7,0,5,6,3,0,2,3,0,0,0,0,2,2,0,6,7,1,0,2,2,3,7,2,2,2,2,6,3,0,0,5,0,0,2,7,7,0,0,2,5,0,0,0,0,3,0,0,0,0,0,0,0,0,2,0,2,3,0,6,0,0,7,2,0,2,3,6,0,0,0,0,0,0,2,0,0,7,5,3,0,0,0,0,0,0,0,0],"split_type":[0,0,0,0,0,0,0,0,0,0,0,0,0,0,0,0,0,0,0,0,0,0,0,0,0,0,0,0,0,0,0,0,0,0,0,0,0,0,0,0,0,0,0,0,0,0,0,0,0,0,0,0,0,0,0,0,0,0,0,0,0,0,0,0,0,0,0,0,0,0,0,0,0,0,0,0,0,0,0,0,0,0,0,0,0,0,0,0,0,0,0,0,0],"sum_hessian":[2.26E2,2.4E1,2.02E2,1.7E1,7E0,1.99E2,3E0,2E0,1.5E1,4E0,3E0,9E1,1.09E2,1E0,1E0,1E0,3E0,3E1,7.9E1,3E0,1.2E1,3.3E1,5.7E1,1E1,2E1,4E0,8E0,4E1,1.7E1,6.5E1,1.4E1,1.7E1,1.6E1,1.8E1,2E0,3E0,5E0,4E0,1E1,6E0,1E1,6.3E1,2E0,5E0,1.2E1,1.6E1,1E0,1E0,3E0,9E0,3.1E1,1.6E1,2E0,3E0,3E0,1.5E1,1E0,5E0,7E0,2.8E1,3E0,4.5E1,1.8E1,1E0,4E0,6E0,4E0,1.1E1,1.7E1,1.4E1,4E0,1.8E1,2.7E1,2E0,2E0,9E0,2E0,2E0,2E0,2.6E1,1E0,3E0,1.4E1,1.2E1,6E0,4E0,2.2E1,2E0,1E1,6E0,8E0,2E0,4E0],"tree_param":{"num_deleted":"0","num_feature":"9","num_nodes":"93","size_leaf_vector":"0"}},{"base_weights":[3.569768E1,1.1699888E2,2.550937E1,1.6105403E2,3.2499008E0,2.3229197E1,1.3314078E1,-3.4349427E0,1.8762631E2,-1.0975403E1,2.0219055E1,2.9464994E1,1.7859318E1,3.434112E1,1.252597E2,9.534709E0,2.6136048E0,2.6728533E1,1.6065317E1,7.341339E-1,-4.2121186E0,4.3610443E1,2.7180243E1,6.3316013E1,2.1170639E1,1.7569621E0,3.2917612E0,2.2658895E1,3.492926E1,2.7832477E0,6.4263763E0,2.1636047E0,-7.3339844E-1,1.4207153E1,2.1183687E1,2.3771704E1,9.019712E1,2.4002932E1,4.0587303E1,1.3117242E1,2.461131E1,2.7276339E1,4.2248154E0,1.1778036E1,1.954558E1,5.0035796E0,-4.0642333E0,3.4428833E0,7.8388925E0,5.024719E0,2.4297344E1,3.391335E0,1.624827E1,6.3181386E0,1.4993031E1,3.7051494E0,1.984732E0,7.7261453E0,6.2013024E-1,5.788513E0,1.4384234E0,8.4550583E-1,1.4187347E1,5.766933E0,2.2862951E1,8.724439E0,1.7055817E-1,6.9695573E0,2.5783556E1,-2.0729613E0,4.9019065E-1,4.153477E0,1.3003151E1,1.0533005E0,1.4082846E-1,1.1475143E0,-2.7923736E-1,2.2052853E0,1.2134167E1,2.4838125E1,1.6034393E-1,7.366622E0,3.1687972E-1,1.85318E-1,9.9789584E-1,4.885033E0,1.221443E0,2.0688095E1,3.0098969E1,5.1366467E0,1.6456736E1,9.264485E0,5.491242E-1,1.4209085E0,2.2808075E-1,7.775062E-1,2.2298585E-1,-1.0121002E-1,-3.158203E-1,2.164747E0,1.0239509E0,1.1219287E0,5.809675E-3,4.1068116E-1,1.081662E0,3.6145673E0,1.8024784E0,2.319591E0,9.386631E-1],"categories":[],"categories_nodes":[],"categories_segments":[],"categories_sizes":[],"default_left":[false,true,true,false,true,true,false,false,true,true,true,true,true,false,true,true,false,true,true,false,false,false,false,true,false,false,false,true,true,false,false,false,false,true,true,true,true,true,true,true,true,true,true,false,true,false,false,false,true,false,true,false,true,false,true,false,false,true,true,true,false,false,false,false,true,true,false,true,true,true,false,false,true,false,false,false,false,false,false,true,false,true,false,false,false,false,false,false,true,false,true,true,false,false,false,false,false,false,false,false,false,false,false,false,false,false,false,false,false],"id":29,"left_children":[1,3,5,7,9,11,-1,-1,13,19,15,21,17,-1,23,31,-1,25,33,-1,-1,29,27,35,-1,-1,-1,41,37,-1,-1,-1,-1,43,39,45,61,47,63,59,55,49,57,53,51,-1,-1,-1,65,-1,79,-1,67,81,77,-1,-1,73,69,75,-1,-1,-1,-1,71,83,-1,95,85,97,-1,-1,93,-1,-1,-1,-1,-1,89,87,-1,91,-1,-1,-1,-1,-1,99,105,101,107,103,-1,-1,-1,-1,-1,-1,-1,-1,-1,-1,-1,-1,-1,-1,-1,-1,-1],"loss_changes":[1.850445E5,1.2475734E5,4.6727188E4,9.99065E4,2.1530432E3,6.170867E3,0E0,0E0,1.12436875E5,3.161672E3,3.677246E0,1.7556719E3,1.3208477E3,0E0,5.6208344E4,7.710798E2,0E0,3.8529883E2,5.9305273E2,0E0,0E0,1.7959199E3,2.046457E3,7.4228125E3,0E0,0E0,0E0,4.4811523E3,7.5679297E2,0E0,0E0,0E0,0E0,7.034629E2,3.1308887E2,1.0492453E4,1.992111E4,1.7524126E3,3.8285625E3,3.0566406E-1,1.5360059E2,1.7216211E3,1.4666309E2,8.1805615E2,4.4384082E2,0E0,0E0,0E0,1.7707733E1,0E0,4.510703E2,0E0,1.5013291E3,4.599939E1,3.7826514E2,0E0,0E0,9.156662E1,9.0879974E1,1.7843185E2,0E0,0E0,0E0,0E0,1.3009209E3,2.460785E1,0E0,2.4659058E1,2.2202852E3,2.5600357E0,0E0,0E0,7.103528E1,0E0,0E0,0E0,0E0,0E0,6.716494E2,2.287832E2,0E0,2.5147095E0,0E0,0E0,0E0,0E0,0E0,2.894336E1,4.436172E2,3.391491E2,4.969685E2,3.6105957E0,0E0,0E0,0E0,0E0,0E0,0E0,0E0,0E0,0E0,0E0,0E0,0E0,0E0,0E0,0E0,0E0,0E0],"parents":[2147483647,0,0,1,1,2,2,3,3,4,4,5,5,8,8,10,10,12,12,9,9,11,11,14,14,17,17,22,22,21,21,15,15,18,18,23,23,28,28,34,34,27,27,33,33,35,35,37,37,41,41,44,44,43,43,40,40,42,42,39,39,36,36,38,38,48,48,52,52,58,58,64,64,57,57,59,59,54,54,50,50,53,53,65,65,68,68,79,79,78,78,81,81,72,72,67,67,69,69,87,87,89,89,91,91,88,88,90,90],"right_children":[2,4,6,8,10,12,-1,-1,14,20,16,22,18,-1,24,32,-1,26,34,-1,-1,30,28,36,-1,-1,-1,42,38,-1,-1,-1,-1,44,40,46,62,48,64,60,56,50,58,54,52,-1,-1,-1,66,-1,80,-1,68,82,78,-1,-1,74,70,76,-1,-1,-1,-1,72,84,-1,96,86,98,-1,-1,94,-1,-1,-1,-1,-1,90,88,-1,92,-1,-1,-1,-1,-1,100,106,102,108,104,-1,-1,-1,-1,-1,-1,-1,-1,-1,-1,-1,-1,-1,-1,-1,-1,-1],"split_conditions":[4.869891E6,5.4E-1,2.4451317E8,2.7E-1,5.6E-1,1.2E1,1.3314078E1,-3.4349427E0,2.8E-1,8.99766E5,5.8E-1,1.4305179E7,1.2148475E2,3.434112E1,5.3E-1,5.7E-1,2.6136048E0,1.5403043E7,1.5E1,7.341339E-1,-4.2121186E0,1.3854864E7,1.2151576E2,5.2E-1,2.1170639E1,1.7569621E0,3.2917612E0,1.215145E2,9E0,2.7832477E0,6.4263763E0,2.1636047E0,-7.3339844E-1,2E1,3.203256E7,1.89475E6,8.99766E5,3.0790596E7,2E0,2.9E-1,3.2539124E7,1.4358936E7,1.4358936E7,3.8E-1,3.7424836E7,5.0035796E0,-4.0642333E0,3.4428833E0,3.203256E7,5.024719E0,1.2151441E2,3.391335E0,4.3507856E7,1.3E1,5.1E-1,3.7051494E0,1.984732E0,6E-2,1E1,2.8E-1,1.4384234E0,8.4550583E-1,1.4187347E1,5.766933E0,1E1,2.8279636E7,1.7055817E-1,4.350782E7,4.3507896E7,2.6644244E7,4.9019065E-1,4.153477E0,4.3508216E7,1.0533005E0,1.4082846E-1,1.1475143E0,-2.7923736E-1,2.2052853E0,9.7E-1,1.2151334E2,1.6034393E-1,3.7431456E7,3.1687972E-1,1.85318E-1,9.9789584E-1,4.885033E0,1.221443E0,1E1,1E1,1.2151334E2,1.08E0,1.5606177E7,5.491242E-1,1.4209085E0,2.2808075E-1,7.775062E-1,2.2298585E-1,-1.0121002E-1,-3.158203E-1,2.164747E0,1.0239509E0,1.1219287E0,5.809675E-3,4.1068116E-1,1.081662E0,3.6145673E0,1.8024784E0,2.319591E0,9.386631E-1],"split_indices":[0,6,1,6,6,7,0,0,6,0,6,0,3,0,6,6,0,0,7,0,0,0,3,6,0,0,0,3,7,0,0,0,0,4,0,0,0,1,4,6,0,0,0,6,0,0,0,0,0,0,3,0,0,7,6,0,0,6,7,6,0,0,0,0,7,0,0,0,0,0,0,0,0,0,0,0,0,0,6,3,0,0,0,0,0,0,0,7,7,3,6,0,0,0,0,0,0,0,0,0,0,0,0,0,0,0,0,0,0],"split_type":[0,0,0,0,0,0,0,0,0,0,0,0,0,0,0,0,0,0,0,0,0,0,0,0,0,0,0,0,0,0,0,0,0,0,0,0,0,0,0,0,0,0,0,0,0,0,0,0,0,0,0,0,0,0,0,0,0,0,0,0,0,0,0,0,0,0,0,0,0,0,0,0,0,0,0,0,0,0,0,0,0,0,0,0,0,0,0,0,0,0,0,0,0,0,0,0,0,0,0,0,0,0,0,0,0,0,0,0,0],"sum_hessian":[2.26E2,2.4E1,2.02E2,1.7E1,7E0,1.99E2,3E0,2E0,1.5E1,4E0,3E0,9E1,1.09E2,3E0,1.2E1,2E0,1E0,1.6E1,9.3E1,3E0,1E0,1E1,8E1,8E0,4E0,8E0,8E0,5.3E1,2.7E1,7E0,3E0,1E0,1E0,7.1E1,2.2E1,4E0,4E0,1.1E1,1.6E1,8E0,1.4E1,4.2E1,1.1E1,5.1E1,2E1,3E0,1E0,6E0,5E0,3E0,3.9E1,2E0,1.8E1,2E1,3.1E1,2E0,1.2E1,5E0,6E0,2E0,6E0,2E0,2E0,7E0,9E0,4E0,1E0,1E1,8E0,4E0,2E0,2E0,7E0,3E0,2E0,1E0,1E0,7E0,2.4E1,3.8E1,1E0,1.4E1,6E0,1E0,3E0,2E0,6E0,2.4E1,1.4E1,1E1,1.4E1,