{"learner":{"attributes":{"scikit_learn":"{\"n_estimators\": 500, \"objective\": \"reg:squarederror\", \"max_depth\": 10, \"learning_rate\": 0.1, \"verbosity\": null, \"booster\": null, \"tree_method\": \"gpu_hist\", \"gamma\": 0.2, \"min_child_weight\": null, \"max_delta_step\": null, \"subsample\": null, \"colsample_bytree\": 0.7, \"colsample_bylevel\": null, \"colsample_bynode\": null, \"reg_alpha\": null, \"reg_lambda\": null, \"scale_pos_weight\": null, \"base_score\": null, \"missing\": NaN, \"num_parallel_tree\": null, \"kwargs\": {}, \"random_state\": 4, \"n_jobs\": null, \"monotone_constraints\": null, \"interaction_constraints\": null, \"importance_type\": \"gain\", \"gpu_id\": 0, \"validate_parameters\": null, \"_estimator_type\": \"regressor\"}"},"feature_names":["id","host_id","latitude","longitude","minimum_nights","number_of_reviews","reviews_per_month","calculated_host_listings_count","availability_365"],"feature_types":["int","int","float","float","int","int","float","int","int"],"gradient_booster":{"model":{"gbtree_model_param":{"num_trees":"500","size_leaf_vector":"0"},"tree_info":[0,0,0,0,0,0,0,0,0,0,0,0,0,0,0,0,0,0,0,0,0,0,0,0,0,0,0,0,0,0,0,0,0,0,0,0,0,0,0,0,0,0,0,0,0,0,0,0,0,0,0,0,0,0,0,0,0,0,0,0,0,0,0,0,0,0,0,0,0,0,0,0,0,0,0,0,0,0,0,0,0,0,0,0,0,0,0,0,0,0,0,0,0,0,0,0,0,0,0,0,0,0,0,0,0,0,0,0,0,0,0,0,0,0,0,0,0,0,0,0,0,0,0,0,0,0,0,0,0,0,0,0,0,0,0,0,0,0,0,0,0,0,0,0,0,0,0,0,0,0,0,0,0,0,0,0,0,0,0,0,0,0,0,0,0,0,0,0,0,0,0,0,0,0,0,0,0,0,0,0,0,0,0,0,0,0,0,0,0,0,0,0,0,0,0,0,0,0,0,0,0,0,0,0,0,0,0,0,0,0,0,0,0,0,0,0,0,0,0,0,0,0,0,0,0,0,0,0,0,0,0,0,0,0,0,0,0,0,0,0,0,0,0,0,0,0,0,0,0,0,0,0,0,0,0,0,0,0,0,0,0,0,0,0,0,0,0,0,0,0,0,0,0,0,0,0,0,0,0,0,0,0,0,0,0,0,0,0,0,0,0,0,0,0,0,0,0,0,0,0,0,0,0,0,0,0,0,0,0,0,0,0,0,0,0,0,0,0,0,0,0,0,0,0,0,0,0,0,0,0,0,0,0,0,0,0,0,0,0,0,0,0,0,0,0,0,0,0,0,0,0,0,0,0,0,0,0,0,0,0,0,0,0,0,0,0,0,0,0,0,0,0,0,0,0,0,0,0,0,0,0,0,0,0,0,0,0,0,0,0,0,0,0,0,0,0,0,0,0,0,0,0,0,0,0,0,0,0,0,0,0,0,0,0,0,0,0,0,0,0,0,0,0,0,0,0,0,0,0,0,0,0,0,0,0,0,0,0,0,0,0,0,0,0,0,0,0,0,0,0,0,0,0,0,0,0,0,0,0,0,0,0,0,0,0,0,0,0,0,0,0,0,0,0,0,0,0,0,0,0,0,0,0,0,0,0,0,0,0,0,0,0,0,0,0,0,0,0,0,0],"trees":[{"base_weights":[2.3186335E3,2.1836685E3,4.0136072E3,4.9508335E1,2.225944E3,2.9925001E1,4.2763077E2,2.5180858E2,1.8342678E3,2.4169307E3,1.3687551E3,1.004625E2,2.514879E2,2.00224E3,6.8052E1,2.517E2,1.6119412E3,6.645556E1,2.3802222E2],"categories":[],"categories_nodes":[],"categories_segments":[],"categories_sizes":[],"default_left":[true,true,true,false,true,false,false,false,true,true,true,false,false,true,false,false,true,false,false],"id":0,"left_children":[1,3,5,-1,7,-1,-1,-1,9,11,13,-1,-1,15,-1,-1,17,-1,-1],"loss_changes":[3.8360576E7,1.267552E7,1.2381008E7,0E0,1.6893056E7,0E0,0E0,0E0,1.9475712E7,2.453472E6,2.0000784E7,0E0,0E0,9.65496E5,0E0,0E0,1.0791804E7,0E0,0E0],"parents":[2147483647,0,0,1,1,2,2,4,4,8,8,9,9,10,10,13,13,16,16],"right_children":[2,4,6,-1,8,-1,-1,-1,10,12,14,-1,-1,16,-1,-1,18,-1,-1],"split_conditions":[3.65E2,4E0,5.193504E6,4.9508335E1,1.1E1,2.9925001E1,4.2763077E2,2.5180858E2,1.5379517E7,1.2154528E2,4E-2,1.004625E2,2.514879E2,3.3977824E7,6.8052E1,2.517E2,3.397817E7,6.645556E1,2.3802222E2],"split_indices":[8,7,0,0,7,0,0,0,0,3,6,0,0,0,0,0,0,0,0],"split_type":[0,0,0,0,0,0,0,0,0,0,0,0,0,0,0,0,0,0,0],"sum_hessian":[2.05E2,1.92E2,1.3E1,5E0,1.87E2,1E0,1.2E1,1.04E2,8.3E1,3.5E1,4.8E1,3E0,3.2E1,2.4E1,2.4E1,8E0,1.6E1,8E0,8E0],"tree_param":{"num_deleted":"0","num_feature":"9","num_nodes":"19","size_leaf_vector":"0"}},{"base_weights":[2.0951926E3,1.9719207E3,3.644929E3,4.5382534E1,2.0098816E3,2.842871E1,3.8815717E2,2.2686755E2,1.6624623E3,2.185014E3,1.2446189E3,2.2710118E2,9.292777E1,1.8242632E3,6.1519E1,2.2932666E2,1.4686575E3,6.0548397E1,2.168647E2],"categories":[],"categories_nodes":[],"categories_segments":[],"categories_sizes":[],"default_left":[true,true,true,false,true,false,false,false,false,false,false,false,false,true,false,false,true,false,false],"id":1,"left_children":[1,3,5,-1,7,-1,-1,-1,9,11,13,-1,-1,15,-1,-1,17,-1,-1],"loss_changes":[3.2166464E7,1.0210112E7,1.0030304E7,0E0,1.313152E7,0E0,0E0,0E0,1.562144E7,1.777264E6,1.6755136E7,0E0,0E0,8.0148E5,0E0,0E0,8.958528E6,0E0,0E0],"parents":[2147483647,0,0,1,1,2,2,4,4,8,8,9,9,10,10,13,13,16,16],"right_children":[2,4,6,-1,8,-1,-1,-1,10,12,14,-1,-1,16,-1,-1,18,-1,-1],"split_conditions":[3.65E2,4E0,5.193504E6,4.5382534E1,1.1E1,2.842871E1,3.8815717E2,2.2686755E2,1.5379517E7,1.12E2,1E0,2.2710118E2,9.292777E1,3.3977824E7,6.1519E1,2.2932666E2,3.397817E7,6.0548397E1,2.168647E2],"split_indices":[8,7,0,0,7,0,0,0,0,5,5,0,0,0,0,0,0,0,0],"split_type":[0,0,0,0,0,0,0,0,0,0,0,0,0,0,0,0,0,0,0],"sum_hessian":[2.05E2,1.92E2,1.3E1,5E0,1.87E2,1E0,1.2E1,1.04E2,8.3E1,3.5E1,4.8E1,3.2E1,3E0,2.4E1,2.4E1,8E0,1.6E1,8E0,8E0],"tree_param":{"num_deleted":"0","num_feature":"9","num_nodes":"19","size_leaf_vector":"0"}},{"base_weights":[1.8933293E3,1.4400736E3,2.2258052E3,1.6227291E3,9.280477E2,3.523273E2,2.0439684E2,1.4410778E3,2.0508574E2,5.0010494E1,1.208532E3,1.6124728E3,5.001591E1,1.3826347E2,3.8409115E1,2.1842545E2,1.4076696E3,1.6621065E2,5.4449245E1],"categories":[],"categories_nodes":[],"categories_segments":[],"categories_sizes":[],"default_left":[true,true,true,true,true,false,false,true,false,false,true,true,false,false,false,false,true,false,false],"id":2,"left_children":[1,3,5,7,9,-1,-1,11,-1,-1,13,15,-1,-1,-1,-1,17,-1,-1],"loss_changes":[2.7838208E7,6.911216E6,2.0402048E7,2.0996E6,2.51642E6,0E0,0E0,7.095664E6,0E0,0E0,1.622002E6,1.726512E6,0E0,0E0,0E0,0E0,6.342588E6,0E0,0E0],"parents":[2147483647,0,0,1,1,2,2,3,3,4,4,7,7,10,10,11,11,16,16],"right_children":[2,4,6,8,10,-1,-1,12,-1,-1,14,16,-1,-1,-1,-1,18,-1,-1],"split_conditions":[1.2821925E8,3.6E-1,1.3275978E8,1.1E1,3.6E1,3.523273E2,2.0439684E2,6E0,2.0508574E2,5.0010494E1,2.6103188E7,1.2156965E2,5.001591E1,1.3826347E2,3.8409115E1,2.1842545E2,1E0,1.6621065E2,5.4449245E1],"split_indices":[1,6,1,5,5,0,0,5,0,0,1,3,0,0,0,0,5,0,0],"split_type":[0,0,0,0,0,0,0,0,0,0,0,0,0,0,0,0,0,0,0],"sum_hessian":[2.05E2,8.9E1,1.16E2,6.4E1,2.5E1,1.2E1,1.04E2,4.8E1,1.6E1,1.1E1,1.4E1,4E1,8E0,1.1E1,3E0,8E0,3.2E1,2.4E1,8E0],"tree_param":{"num_deleted":"0","num_feature":"9","num_nodes":"19","size_leaf_vector":"0"}},{"base_weights":[1.7111693E3,1.6084171E3,3.005455E3,1.315338E3,1.8415182E2,2.5086859E1,3.1980487E2,1.4314495E3,5.9106636E1,1.2967668E3,1.8554613E2,1.5260547E3,8.79696E2,1.3359731E3,1.9900981E2,4.6476803E1,1.2558932E2,1.5407216E2,4.4312557E1],"categories":[],"categories_nodes":[],"categories_segments":[],"categories_sizes":[],"default_left":[false,true,false,true,false,false,false,true,false,false,false,true,true,false,false,false,false,false,false],"id":3,"left_children":[1,3,5,7,-1,-1,-1,9,-1,11,-1,13,15,17,-1,-1,-1,-1,-1],"loss_changes":[2.2562048E7,1.0762976E7,6.624936E6,6.638496E6,0E0,0E0,0E0,1.934032E6,0E0,4.49092E6,0E0,6.93112E5,3.162576E6,4.801544E6,0E0,0E0,0E0,0E0,0E0],"parents":[2147483647,0,0,1,1,2,2,3,3,7,7,9,9,11,11,12,12,13,13],"right_children":[2,4,6,8,-1,-1,-1,10,-1,12,-1,14,16,18,-1,-1,-1,-1,-1],"split_conditions":[3.65E2,1.2821925E8,1.2821925E8,1.52E2,1.8415182E2,2.5086859E1,3.1980487E2,2.505159E1,5.9106636E1,6E0,1.8554613E2,2.505151E1,2.505152E1,1E0,1.9900981E2,4.6476803E1,1.2558932E2,1.5407216E2,4.4312557E1],"split_indices":[8,1,1,8,0,0,0,2,0,5,0,2,2,5,0,0,0,0,0],"split_type":[0,0,0,0,0,0,0,0,0,0,0,0,0,0,0,0,0,0,0],"sum_hessian":[2.05E2,1.92E2,1.3E1,8.8E1,1.04E2,1E0,1.2E1,7.5E1,1.3E1,6E1,1.5E1,3.7E1,2.3E1,2.9E1,8E0,1.2E1,1.1E1,2.3E1,6E0],"tree_param":{"num_deleted":"0","num_feature":"9","num_nodes":"19","size_leaf_vector":"0"}},{"base_weights":[1.5465725E3,1.1849928E3,1.8114923E3,1.4571252E3,9.275529E2,2.9028452E2,1.6591201E3,1.7000658E3,5.097084E2,1.3584336E3,4.5957016E1,1.5626988E2,2.0663179E2,1.868767E2,1.2491085E2,6.616927E1,3.500447E1,1.8047252E2,1.0422538E3,2.7751907E1,1.6911826E2],"categories":[],"categories_nodes":[],"categories_segments":[],"categories_sizes":[],"default_left":[false,true,true,true,true,false,true,true,true,true,false,false,false,false,false,false,false,false,false,false,false],"id":4,"left_children":[1,3,5,7,9,-1,11,13,15,17,-1,-1,-1,-1,-1,-1,-1,-1,19,-1,-1],"loss_changes":[1.7586048E7,4.95364E6,1.4639968E7,8.80044E6,9.256296E6,0E0,8.93504E5,1.76248E5,1.104175E4,1.646728E6,0E0,0E0,0E0,0E0,0E0,0E0,0E0,0E0,7.967058E6,0E0,0E0],"parents":[2147483647,0,0,1,1,2,2,3,3,4,4,6,6,7,7,8,8,9,9,18,18],"right_children":[2,4,6,8,10,-1,12,14,16,18,-1,-1,-1,-1,-1,-1,-1,-1,20,-1,-1],"split_conditions":[1.2821925E8,1.5379517E7,1.3275978E8,1.0007698E7,4E-2,2.9028452E2,3.808349E7,3.3E-1,2.6103188E7,3.3977824E7,4.5957016E1,1.5626988E2,2.0663179E2,1.868767E2,1.2491085E2,6.616927E1,3.500447E1,1.8047252E2,3.397817E7,2.7751907E1,1.6911826E2],"split_indices":[1,0,1,1,6,0,0,6,1,0,0,0,0,0,0,0,0,0,0,0,0],"split_type":[0,0,0,0,0,0,0,0,0,0,0,0,0,0,0,0,0,0,0,0,0],"sum_hessian":[2.05E2,8.9E1,1.16E2,4.1E1,4.8E1,1.2E1,1.04E2,3.2E1,9E0,2.4E1,2.4E1,8.8E1,1.6E1,2.1E1,1.1E1,3E0,6E0,8E0,1.6E1,8E0,8E0],"tree_param":{"num_deleted":"0","num_feature":"9","num_nodes":"21","size_leaf_vector":"0"}},{"base_weights":[1.3991456E3,1.3136208E3,2.478228E3,1.0829106E3,1.4966644E3,2.2082228E1,2.6348883E2,1.1781302E3,4.8865356E2,9.647826E1,1.5305847E3,1.0954069E3,1.6722484E2,5.9811428E1,3.317938E1,1.2543896E2,1.6090639E2,1.258598E3,8.600304E2,1.1000978E3,1.6470883E2,3.7944496E1,1.1435872E2,1.26844475E2,3.6575153E1],"categories":[],"categories_nodes":[],"categories_segments":[],"categories_sizes":[],"default_left":[true,true,true,true,false,false,false,false,true,false,true,true,false,false,false,false,false,false,true,true,false,false,false,false,false],"id":5,"left_children":[1,3,5,7,9,-1,-1,11,13,-1,15,17,-1,-1,-1,-1,-1,19,21,23,-1,-1,-1,-1,-1],"loss_changes":[1.5755936E7,6.529664E6,4.3692E6,4.46036E6,4.17696E5,0E0,0E0,1.27472E6,4.192925E4,0E0,8.4128E4,1.529544E6,0E0,0E0,0E0,0E0,0E0,5.27928E5,3.790544E6,3.244812E6,0E0,0E0,0E0,0E0,0E0],"parents":[2147483647,0,0,1,1,2,2,3,3,4,4,7,7,8,8,10,10,11,11,17,17,18,18,19,19],"right_children":[2,4,6,8,10,-1,-1,12,14,-1,16,18,-1,-1,-1,-1,-1,20,22,24,-1,-1,-1,-1,-1],"split_conditions":[3.65E2,1.2821925E8,1.2821925E8,1.52E2,2.504737E1,2.2082228E1,2.6348883E2,2.505161E1,3.3E-1,9.647826E1,3.8E1,6E0,1.6722484E2,5.9811428E1,3.317938E1,1.2543896E2,1.6090639E2,2.505151E1,2.505152E1,1E0,1.6470883E2,3.7944496E1,1.1435872E2,1.26844475E2,3.6575153E1],"split_indices":[8,1,1,8,2,0,0,2,6,0,8,5,0,0,0,0,0,2,2,5,0,0,0,0,0],"split_type":[0,0,0,0,0,0,0,0,0,0,0,0,0,0,0,0,0,0,0,0,0,0,0,0,0],"sum_hessian":[2.05E2,1.92E2,1.3E1,8.8E1,1.04E2,1E0,1.2E1,7.5E1,1.3E1,8E0,9.6E1,6.7E1,8E0,6E0,7E0,2.5E1,7.1E1,3.7E1,3E1,2.9E1,8E0,1.2E1,1.8E1,2.3E1,6E0],"tree_param":{"num_deleted":"0","num_feature":"9","num_nodes":"25","size_leaf_vector":"0"}},{"base_weights":[1.266071E3,1.1880797E3,2.2508032E3,1.0642164E3,1.4649426E2,2.0978224E1,2.3916677E3,1.1660802E3,2.7658548E2,1.5779771E2,2.8636914E3,1.2063813E3,3.374061E1,3.7489105E1,1.4754817E2,3.631355E2,1.380105E2,9.8210016E2,1.2922282E2,5.551406E0,2.4871231E1,1.4661864E3,3.548163E1,5.262969E1,1.6010907E2],"categories":[],"categories_nodes":[],"categories_segments":[],"categories_sizes":[],"default_left":[true,true,true,true,false,false,true,true,true,false,true,true,false,false,true,false,false,true,false,false,false,true,false,false,false],"id":6,"left_children":[1,3,5,7,-1,-1,9,11,13,-1,15,17,-1,-1,19,-1,-1,21,-1,-1,-1,23,-1,-1,-1],"loss_changes":[1.3146784E7,5.059584E6,3.523376E6,1.0669136E7,0E0,0E0,4.74216E5,3.633936E6,1.60332E5,0E0,2.960616E6,9.45088E5,0E0,0E0,6.998794E4,0E0,0E0,1.0411516E7,0E0,0E0,0E0,1.693252E6,0E0,0E0,0E0],"parents":[2147483647,0,0,1,1,2,2,3,3,6,6,7,7,8,8,10,10,11,11,14,14,17,17,21,21],"right_children":[2,4,6,8,-1,-1,10,12,14,-1,16,18,-1,-1,20,-1,-1,22,-1,-1,-1,24,-1,-1,-1],"split_conditions":[3.65E2,3.397817E7,5.193504E6,3.3977824E7,1.4649426E2,2.0978224E1,1.8957302E7,2.16E2,3.3977856E7,1.5779771E2,2.7449632E7,1.2156965E2,3.374061E1,3.7489105E1,1.2E1,3.631355E2,1.380105E2,1.5379517E7,1.2922282E2,5.551406E0,2.4871231E1,6.268087E6,3.548163E1,5.262969E1,1.6010907E2],"split_indices":[8,0,0,0,0,0,0,8,0,0,0,3,0,0,7,0,0,0,0,0,0,0,0,0,0],"split_type":[0,0,0,0,0,0,0,0,0,0,0,0,0,0,0,0,0,0,0,0,0,0,0,0,0],"sum_hessian":[2.05E2,1.92E2,1.3E1,1.36E2,5.6E1,1E0,1.2E1,1.2E2,1.6E1,6E0,6E0,1.14E2,6E0,8E0,8E0,3E0,3E0,3.5E1,7.9E1,5E0,3E0,1.9E1,1.6E1,3E0,1.6E1],"tree_param":{"num_deleted":"0","num_feature":"9","num_nodes":"25","size_leaf_vector":"0"}},{"base_weights":[1.1458013E3,1.072513E3,2.0742886E3,9.9053735E2,1.4399544E2,1.9929152E1,2.203189E3,2.440023E1,1.01290063E3,1.4427223E2,2.6489146E3,1.0856317E3,7.8242004E2,3.3590036E2,1.2765972E2,1.1588501E3,8.907341E2,2.529217E2,1.1111821E3,1.0120424E3,1.4472177E2,3.415674E1,1.3617361E2,3.0652658E1,1.046703E3,1.2376643E2,7.48807E1,1.1478206E3,6.2504565E2,5.088782E0,2.300589E1,1.0944155E2,4.8682423E1,1.4691443E2,8.834075E2,3.0060331E1,8.800385E1,5.8942535E1,9.8708E1],"categories":[],"categories_nodes":[],"categories_segments":[],"categories_sizes":[],"default_left":[true,true,true,true,false,false,true,false,true,false,true,true,true,false,false,false,true,false,true,true,false,false,true,false,false,false,false,true,true,false,false,false,false,false,false,false,false,false,false],"id":7,"left_children":[1,3,5,7,-1,-1,9,-1,11,-1,13,15,17,-1,-1,19,23,21,25,27,-1,-1,29,-1,31,-1,-1,33,35,-1,-1,-1,-1,-1,37,-1,-1,-1,-1],"loss_changes":[1.1793024E7,4.387056E6,2.944556E6,2.440736E6,0E0,0E0,5.84824E5,0E0,1.765616E6,0E0,2.533176E6,6.23104E5,6.856196E6,0E0,0E0,1.964456E6,2.959414E6,1.29424125E5,2.19078E5,2.277664E6,0E0,0E0,6.0356547E4,0E0,2.15182E5,0E0,0E0,2.1856E6,1.1418755E6,0E0,0E0,0E0,0E0,0E0,1.80136E5,0E0,0E0,0E0,0E0],"parents":[2147483647,0,0,1,1,2,2,3,3,6,6,8,8,10,10,11,11,12,12,15,15,17,17,16,16,18,18,19,19,22,22,24,24,27,27,28,28,34,34],"right_children":[2,4,6,8,-1,-1,10,-1,12,-1,14,16,18,-1,-1,20,24,22,26,28,-1,-1,30,-1,32,-1,-1,34,36,-1,-1,-1,-1,-1,38,-1,-1,-1,-1],"split_conditions":[3.65E2,3.8083428E7,5.193504E6,4E0,1.4399544E2,1.9929152E1,1.8957302E7,2.440023E1,3.3977824E7,1.4427223E2,2.7449632E7,1.9E1,3.397817E7,3.3590036E2,1.2765972E2,1.2E1,2.4E1,3.3977856E7,3.8083376E7,6E0,1.4472177E2,3.415674E1,1.2E1,3.0652658E1,1.12E2,1.2376643E2,7.48807E1,1.3275978E8,1.8483236E7,5.088782E0,2.300589E1,1.0944155E2,4.8682423E1,1.4691443E2,2.7450964E7,3.0060331E1,8.800385E1,5.8942535E1,9.8708E1],"split_indices":[8,0,0,7,0,0,0,0,0,0,0,5,0,0,0,5,5,0,0,5,0,0,7,0,5,0,0,1,0,0,0,0,0,0,0,0,0,0,0],"split_type":[0,0,0,0,0,0,0,0,0,0,0,0,0,0,0,0,0,0,0,0,0,0,0,0,0,0,0,0,0,0,0,0,0,0,0,0,0,0,0],"sum_hessian":[2.05E2,1.92E2,1.3E1,1.6E2,3.2E1,1E0,1.2E1,5E0,1.55E2,6E0,6E0,1.15E2,4E1,3E0,3E0,8E1,3.5E1,1.6E1,2.4E1,5.6E1,2.4E1,8E0,8E0,8E0,2.7E1,1.6E1,8E0,4E1,1.6E1,5E0,3E0,2.4E1,3E0,1.6E1,2.4E1,8E0,8E0,8E0,1.6E1],"tree_param":{"num_deleted":"0","num_feature":"9","num_nodes":"39","size_leaf_vector":"0"}},{"base_weights":[1.0400231E3,9.7140393E2,1.9117E3,8.979523E2,1.3003223E2,1.8932814E1,2.0296263E3,2.2367342E1,9.181299E2,1.3190604E2,2.4502458E3,9.8358685E2,7.1054126E2,3.107078E2,1.1808523E2,8.546026E2,1.0716422E2,2.3129102E2,1.00800977E3,1.0961353E3,2.9285099E1,3.1120584E1,1.2567719E2,7.429776E1,1.1631795E2,8.568582E1,1.3131592E2,4.664618E0,2.1280441E1],"categories":[],"categories_nodes":[],"categories_segments":[],"categories_sizes":[],"default_left":[true,true,false,true,false,false,true,false,false,false,true,true,true,false,false,true,false,false,true,false,false,false,true,false,false,false,false,false,false],"id":8,"left_children":[1,3,5,7,-1,-1,9,-1,11,-1,13,15,17,-1,-1,19,-1,21,23,25,-1,-1,27,-1,-1,-1,-1,-1,-1],"loss_changes":[1.0464592E7,3.495184E6,2.45932E6,1.985104E6,0E0,0E0,6.53392E5,0E0,1.420872E6,0E0,2.167448E6,4.01672E5,5.611892E6,0E0,0E0,6.734428E6,0E0,1.0437044E5,1.63908E5,7.44248E5,0E0,0E0,5.2045266E4,0E0,0E0,0E0,0E0,0E0,0E0],"parents":[2147483647,0,0,1,1,2,2,3,3,6,6,8,8,10,10,11,11,12,12,15,15,17,17,18,18,19,19,22,22],"right_children":[2,4,6,8,-1,-1,10,-1,12,-1,14,16,18,-1,-1,20,-1,22,24,26,-1,-1,28,-1,-1,-1,-1,-1,-1],"split_conditions":[3.65E2,3.8083428E7,5.193504E6,4E0,1.3003223E2,1.8932814E1,1.8957302E7,2.2367342E1,3.3977824E7,1.3190604E2,2.7449632E7,1.8483236E7,3.397817E7,3.107078E2,1.1808523E2,1.5379517E7,1.0716422E2,3.3977856E7,2.504833E1,6.268087E6,2.9285099E1,3.1120584E1,1.2E1,7.429776E1,1.1631795E2,8.568582E1,1.3131592E2,4.664618E0,2.1280441E1],"split_indices":[8,0,0,7,0,0,0,0,0,0,0,0,0,0,0,0,0,0,2,0,0,0,7,0,0,0,0,0,0],"split_type":[0,0,0,0,0,0,0,0,0,0,0,0,0,0,0,0,0,0,0,0,0,0,0,0,0,0,0,0,0],"sum_hessian":[2.05E2,1.92E2,1.3E1,1.6E2,3.2E1,1E0,1.2E1,5E0,1.55E2,6E0,6E0,1.15E2,4E1,3E0,3E0,5.1E1,6.4E1,1.6E1,2.4E1,3.5E1,1.6E1,8E0,8E0,1.1E1,1.3E1,1.9E1,1.6E1,5E0,3E0],"tree_param":{"num_deleted":"0","num_feature":"9","num_nodes":"29","size_leaf_vector":"0"}},{"base_weights":[9.4249243E2,8.7816785E2,1.7619323E3,7.364675E2,9.8991223E2,2.2664775E3,1.1002135E3,7.983902E2,3.4771085E2,1.09228836E2,2.8740475E2,6.162034E1,1.014381E3,1.7986134E1,1.2059979E2,7.4197656E2,1.1359161E2,4.0419434E2,2.0503378E1,8.044055E2,1.0761169E2,8.6513116E2,5.670782E2,2.9650854E1,6.3284035E1,6.724471E1,1.01725586E2,7.625193E2,1.11104515E2,3.0501026E1,7.937038E1,8.81307E1,2.4631592E1],"categories":[],"categories_nodes":[],"categories_segments":[],"categories_sizes":[],"default_left":[true,true,true,true,true,true,true,true,true,false,false,false,true,false,false,true,false,false,false,false,false,false,true,false,false,false,false,true,false,false,false,false,false],"id":9,"left_children":[1,3,5,7,11,9,13,15,17,-1,-1,-1,19,-1,-1,21,-1,23,-1,25,-1,27,29,-1,-1,-1,-1,31,-1,-1,-1,-1,-1],"loss_changes":[9.311024E6,2.326976E6,2.180528E6,1.864876E6,3.35072E5,1.854524E6,5.61959E5,6.04296E5,2.9951125E4,0E0,0E0,0E0,3.91776E5,0E0,0E0,9.74092E5,0E0,3.395475E4,0E0,4.6222E4,0E0,1.11688E5,1.599042E6,0E0,0E0,0E0,0E0,1.622476E6,0E0,0E0,0E0,0E0,0E0],"parents":[2147483647,0,0,1,1,2,2,3,3,5,5,4,4,6,6,7,7,8,8,12,12,15,15,17,17,19,19,21,21,22,22,27,27],"right_children":[2,4,6,8,12,10,14,16,18,-1,-1,-1,20,-1,-1,22,-1,24,-1,26,-1,28,30,-1,-1,-1,-1,32,-1,-1,-1,-1,-1],"split_conditions":[3.65E2,1.2821925E8,5E0,1.52E2,2.504737E1,2.50512E1,1.2821925E8,2.505161E1,1.0007698E7,1.09228836E2,2.8740475E2,6.162034E1,3.8E1,1.7986134E1,1.2059979E2,6E0,1.1359161E2,2.505152E1,2.0503378E1,1.2E1,1.0761169E2,5E0,1.2156965E2,2.9650854E1,6.3284035E1,6.724471E1,1.01725586E2,1E0,1.11104515E2,3.0501026E1,7.937038E1,8.81307E1,2.4631592E1],"split_indices":[8,1,5,8,2,2,1,2,1,0,0,0,8,0,0,5,0,2,0,5,0,5,3,0,0,0,0,5,0,0,0,0,0],"split_type":[0,0,0,0,0,0,0,0,0,0,0,0,0,0,0,0,0,0,0,0,0,0,0,0,0,0,0,0,0,0,0,0,0],"sum_hessian":[2.05E2,1.92E2,1.3E1,8.8E1,1.04E2,6E0,7E0,7.5E1,1.3E1,3E0,3E0,8E0,9.6E1,1E0,6E0,6.7E1,8E0,8E0,5E0,2.5E1,7.1E1,3.7E1,3E1,7E0,1E0,1.8E1,7E0,2.9E1,8E0,1.5E1,1.5E1,2.3E1,6E0],"tree_param":{"num_deleted":"0","num_feature":"9","num_nodes":"33","size_leaf_vector":"0"}},{"base_weights":[8.5520526E2,1.0819915E3,7.198706E2,8.8197296E2,1.4049142E3,6.708476E2,9.930802E1,9.079129E2,3.6317104E1,2.0095251E3,9.9096844E2,1.662218E1,6.8288025E2,6.068882E1,9.8518105E1,2.0113342E1,1.13552666E2,1.3516112E2,2.6584937E2,5.254343E2,7.198492E2,1.01228546E2,2.3678173E1,6.58358E2,8.56394E1,7.597486E1,4.9724362E2,5.716792E1,2.3969482E1],"categories":[],"categories_nodes":[],"categories_segments":[],"categories_sizes":[],"default_left":[true,true,true,false,true,true,false,false,false,true,true,false,false,false,false,false,false,false,false,true,true,false,false,true,false,false,false,false,false],"id":10,"left_children":[1,3,5,7,9,11,-1,13,-1,17,15,-1,19,-1,-1,-1,-1,-1,-1,21,23,-1,-1,25,-1,-1,27,-1,-1],"loss_changes":[5.54368E6,3.605192E6,1.101744E6,3.29696E5,4.76608E6,5.84772E5,0E0,4.72048E5,0E0,6.76404E5,1.826794E6,0E0,2.7368E5,0E0,0E0,0E0,0E0,0E0,0E0,3.273581E6,1.7506E5,0E0,0E0,6.84026E5,0E0,0E0,3.997535E5,0E0,0E0],"parents":[2147483647,0,0,1,1,2,2,3,3,4,4,5,5,7,7,10,10,9,9,12,12,19,19,20,20,23,23,26,26],"right_children":[2,4,6,8,10,12,-1,14,-1,18,16,-1,20,-1,-1,-1,-1,-1,-1,22,24,-1,-1,26,-1,-1,28,-1,-1],"split_conditions":[1.2156963E2,1.2154596E2,6.1E-1,2.505044E1,5E0,4E0,9.930802E1,2.504833E1,3.6317104E1,2.50512E1,2.505098E1,1.662218E1,1.2156965E2,6.068882E1,9.8518105E1,2.0113342E1,1.13552666E2,1.3516112E2,2.6584937E2,6E0,1.2E1,1.01228546E2,2.3678173E1,5E-2,8.56394E1,7.597486E1,2.505108E1,5.716792E1,2.3969482E1],"split_indices":[3,3,6,2,5,7,0,2,0,2,2,0,3,0,0,0,0,0,0,5,5,0,0,6,0,0,2,0,0],"split_type":[0,0,0,0,0,0,0,0,0,0,0,0,0,0,0,0,0,0,0,0,0,0,0,0,0,0,0,0,0],"sum_hessian":[2.05E2,7.4E1,1.31E2,4.8E1,2.6E1,1.14E2,1.7E1,4.5E1,3E0,9E0,1.7E1,3E0,1.11E2,1.1E1,3.4E1,3E0,1.4E1,6E0,3E0,2.4E1,8.7E1,8E0,1.6E1,6.4E1,2.3E1,3.7E1,2.7E1,2E1,7E0],"tree_param":{"num_deleted":"0","num_feature":"9","num_nodes":"29","size_leaf_vector":"0"}},{"base_weights":[7.755769E2,6.0155444E2,9.028115E2,6.8270795E2,3.75534E2,8.3127466E2,1.908209E3,8.3019366E2,4.1352298E2,7.8592944E2,1.25786156E2,5.7927E1,2.5280302E1,8.802587E1,2.4591069E2,1.0885587E2,6.713614E2,1.1121223E2,9.386073E1,7.10587E2,9.623615E2,8.499592E1,1.9988165E1,3.1773026E1,7.5213293E2,2.3344841E1,-2.3380852E1,1.0415884E2,5.7588257E1,7.767247E2,4.7060455E1,-9.399451E0,8.838485E0,5.0748516E1,8.077894E1],"categories":[],"categories_nodes":[],"categories_segments":[],"categories_sizes":[],"default_left":[true,false,false,true,false,true,false,true,false,true,false,false,false,false,false,false,true,true,false,false,false,false,false,false,true,false,false,false,false,true,false,false,false,false,false],"id":11,"left_children":[1,3,5,7,11,9,13,15,17,19,-1,-1,-1,-1,-1,-1,21,25,-1,23,27,-1,-1,-1,29,-1,31,-1,-1,33,-1,-1,-1,-1,-1],"loss_changes":[4.018096E6,1.394432E6,6.828752E6,2.237258E6,5.036815E5,1.15856E6,1.799422E6,9.51688E5,3.8640815E6,6.8532E5,0E0,0E0,0E0,0E0,0E0,0E0,2.187855E6,2.8514466E5,0E0,1.001468E6,2.57516E5,0E0,0E0,0E0,1.05252E5,0E0,7.933735E4,0E0,0E0,1.00256E5,0E0,0E0,0E0,0E0,0E0],"parents":[2147483647,0,0,1,1,2,2,3,3,5,5,4,4,6,6,7,7,8,8,9,9,16,16,19,19,17,17,20,20,24,24,26,26,29,29],"right_children":[2,4,6,8,12,10,14,16,18,20,-1,-1,-1,-1,-1,-1,22,26,-1,24,28,-1,-1,-1,30,-1,32,-1,-1,34,-1,-1,-1,-1,-1],"split_conditions":[1.2821925E8,3.6E-1,2.50512E1,3.3977824E7,1.072857E6,3.8083516E7,1.8957302E7,1.4E-1,3.397817E7,1.2E1,1.25786156E2,5.7927E1,2.5280302E1,8.802587E1,2.4591069E2,1.0885587E2,1.5379517E7,3.3977856E7,9.386073E1,2.7450964E7,8.8E-1,8.499592E1,1.9988165E1,3.1773026E1,4.1E-1,2.3344841E1,1.2E1,1.0415884E2,5.7588257E1,2.504737E1,4.7060455E1,-9.399451E0,8.838485E0,5.0748516E1,8.077894E1],"split_indices":[1,6,2,0,0,0,0,6,0,5,0,0,0,0,0,0,0,0,0,0,6,0,0,0,6,0,7,0,0,2,0,0,0,0,0],"split_type":[0,0,0,0,0,0,0,0,0,0,0,0,0,0,0,0,0,0,0,0,0,0,0,0,0,0,0,0,0,0,0,0,0,0,0],"sum_hessian":[2.05E2,8.9E1,1.16E2,6.4E1,2.5E1,1.1E2,6E0,4E1,2.4E1,1.02E2,8E0,8E0,1.7E1,3E0,3E0,1.3E1,2.7E1,1.6E1,8E0,7.5E1,2.7E1,1.9E1,8E0,8E0,6.7E1,8E0,8E0,2.1E1,6E0,6E1,7E0,5E0,3E0,8E0,5.2E1],"tree_param":{"num_deleted":"0","num_feature":"9","num_nodes":"35","size_leaf_vector":"0"}},{"base_weights":[7.040654E2,6.5175275E2,1.3749427E3,5.4880066E2,7.3280975E2,1.7846202E3,8.446072E2,6.195215E2,3.429745E2,2.2746739E2,8.484118E1,5.8997217E2,7.7007184E2,9.229307E1,1.4817151E1,8.584579E1,5.7092584E2,4.875616E1,7.594507E1,1.8203688E1,4.5642285E2,1.1343966E3,7.359705E2,6.2088464E2,4.1685312E2,1.24551796E2,3.4495552E1,5.0149258E1,1.240029E1,3.327235E1,7.5375206E1,6.4543506E2,2.3243496E1,1.821144E1,6.0527485E1,8.3349724E1,5.675019E2,6.576886E1,1.7721867E1],"categories":[],"categories_nodes":[],"categories_segments":[],"categories_sizes":[],"default_left":[true,true,false,false,true,true,false,true,true,false,false,true,false,false,false,false,true,false,false,false,true,false,true,true,false,false,false,false,false,false,false,false,false,false,false,false,true,false,false],"id":12,"left_children":[1,3,5,7,11,9,13,15,19,-1,-1,17,21,-1,-1,-1,23,-1,-1,-1,27,25,29,31,33,-1,-1,-1,-1,-1,-1,35,-1,-1,-1,-1,37,-1,-1],"loss_changes":[6.333536E6,1.208424E6,1.534428E6,1.083022E6,1.04536E5,1.281686E6,2.99626E5,2.64616E5,3.73367E5,0E0,0E0,8.0987E4,1.59036E5,0E0,0E0,0E0,1.79928E5,0E0,0E0,0E0,1.4756275E5,8.9705E3,2.94156E5,2.40978E5,6.4167875E5,0E0,0E0,0E0,0E0,0E0,0E0,8.3927E4,0E0,0E0,0E0,0E0,9.39396E5,0E0,0E0],"parents":[2147483647,0,0,1,1,2,2,3,3,5,5,4,4,6,6,7,7,11,11,8,8,12,12,16,16,21,21,20,20,22,22,23,23,24,24,31,31,36,36],"right_children":[2,4,6,8,12,10,14,16,20,-1,-1,18,22,-1,-1,-1,24,-1,-1,-1,28,26,30,32,34,-1,-1,-1,-1,-1,-1,36,-1,-1,-1,-1,38,-1,-1],"split_conditions":[3.65E2,1.3275978E8,5E0,3.6E-1,3.8E1,1.2156825E2,1.2156819E2,1.2156963E2,3.6E1,2.2746739E2,8.484118E1,1.2E1,8.7E1,9.229307E1,1.4817151E1,8.584579E1,6E0,4.875616E1,7.594507E1,1.8203688E1,2.6103188E7,6.8E-1,9.2E1,1.45E2,1.2156965E2,1.24551796E2,3.4495552E1,5.0149258E1,1.240029E1,3.327235E1,7.5375206E1,1.2156965E2,2.3243496E1,1.821144E1,6.0527485E1,8.3349724E1,1E0,6.576886E1,1.7721867E1],"split_indices":[8,1,5,6,8,3,3,3,5,0,0,5,8,0,0,0,5,0,0,0,1,6,8,8,3,0,0,0,0,0,0,3,0,0,0,0,5,0,0],"split_type":[0,0,0,0,0,0,0,0,0,0,0,0,0,0,0,0,0,0,0,0,0,0,0,0,0,0,0,0,0,0,0,0,0,0,0,0,0,0,0],"sum_hessian":[2.05E2,1.92E2,1.3E1,8.8E1,1.04E2,6E0,7E0,6.4E1,2.4E1,3E0,3E0,2.5E1,7.9E1,6E0,1E0,8E0,5.6E1,1.8E1,7E0,1.1E1,1.3E1,4E0,7.5E1,4E1,1.6E1,3E0,1E0,1.1E1,2E0,4E0,7.1E1,3.7E1,3E0,8E0,8E0,8E0,2.9E1,2.3E1,6E0],"tree_param":{"num_deleted":"0","num_feature":"9","num_nodes":"39","size_leaf_vector":"0"}},{"base_weights":[6.397135E2,5.9086664E2,1.267408E3,7.053191E2,5.3263245E2,1.6507754E3,7.7353546E2,7.4149347E2,2.4410969E1,7.8478096E1,2.104076E2,4.9445197E2,7.469727E2,1.4076324E1,8.438225E1,6.0293463E2,9.676807E1,5.0558633E2,1.4837857E1,8.4754834E2,4.678471E1,4.2813565E2,6.5829216E1,3.9310583E2,5.32097E2,4.0515224E1,9.499968E1,1.2471057E1,4.4438244E1,7.594086E1,1.7605696E1,4.8518146E2,6.3503437E1,5.5784126E1,3.6494986E2,4.2011913E1,1.814079E1],"categories":[],"categories_nodes":[],"categories_segments":[],"categories_sizes":[],"default_left":[false,true,true,true,true,false,false,true,false,false,false,false,true,false,false,false,false,true,false,true,false,true,false,false,true,false,false,false,false,false,false,true,false,false,true,false,false],"id":13,"left_children":[1,3,5,7,11,9,13,15,-1,-1,-1,17,19,-1,-1,21,-1,23,-1,25,-1,27,-1,29,31,-1,-1,-1,-1,-1,-1,33,-1,-1,35,-1,-1],"loss_changes":[5.567264E6,9.1068E5,1.37375E6,8.534E5,7.10896E5,1.096652E6,2.37026E5,1.202946E6,0E0,0E0,0E0,3.68114E5,1.08795E5,0E0,0E0,8.5866E4,0E0,1.21824E5,0E0,1.5898E5,0E0,3.737E3,0E0,1.8539408E6,1.12048E5,0E0,0E0,0E0,0E0,0E0,0E0,3.5552E5,0E0,0E0,1.97186E5,0E0,0E0],"parents":[2147483647,0,0,1,1,2,2,3,3,5,5,4,4,6,6,7,7,11,11,12,12,15,15,17,17,19,19,21,21,23,23,24,24,31,31,34,34],"right_children":[2,4,6,8,12,10,14,16,-1,-1,-1,18,20,-1,-1,22,-1,24,-1,26,-1,28,-1,30,32,-1,-1,-1,-1,-1,-1,34,-1,-1,36,-1,-1],"split_conditions":[3.65E2,1.2156963E2,5E0,1.3E1,6.1E-1,2.50512E1,2.505098E1,2.504925E1,2.4410969E1,7.8478096E1,2.104076E2,2.16E2,8.8E-1,1.4076324E1,8.438225E1,2.504833E1,9.676807E1,1.2156965E2,1.4837857E1,1.8E1,4.678471E1,1.36E2,6.5829216E1,6E0,1.2E1,4.0515224E1,9.499968E1,1.2471057E1,4.4438244E1,7.594086E1,1.7605696E1,5E-2,6.3503437E1,5.5784126E1,2.505108E1,4.2011913E1,1.814079E1],"split_indices":[8,3,5,5,6,2,2,2,0,0,0,8,6,0,0,2,0,3,0,5,0,8,0,5,5,0,0,0,0,0,0,6,0,0,2,0,0],"split_type":[0,0,0,0,0,0,0,0,0,0,0,0,0,0,0,0,0,0,0,0,0,0,0,0,0,0,0,0,0,0,0,0,0,0,0,0,0],"sum_hessian":[2.05E2,1.92E2,1.3E1,6.1E1,1.31E2,6E0,7E0,5.6E1,5E0,3E0,3E0,1.14E2,1.7E1,1E0,6E0,3.7E1,1.9E1,1.1E2,4E0,1.1E1,6E0,1.1E1,2.6E1,2.4E1,8.6E1,3E0,8E0,1E0,1E1,8E0,1.6E1,6.3E1,2.3E1,3.7E1,2.6E1,1.9E1,7E0],"tree_param":{"num_deleted":"0","num_feature":"9","num_nodes":"37","size_leaf_vector":"0"}},{"base_weights":[5.810886E2,5.3547974E2,1.1683339E3,4.9993936E2,8.740188E1,7.0848914E2,1.5269658E3,1.2307351E1,5.1017923E2,1.3372498E1,7.714947E1,1.9462679E2,7.259225E1,4.8059E2,6.292596E2,6.299509E2,4.3141275E2,6.968666E2,3.8656853E1,7.188055E1,4.14555E1,1.8151358E1,4.990414E2,7.686455E2,3.6538513E1,6.19999E2,4.2662442E2,9.063193E1,4.2282696E1,5.0175045E1,8.4016235E1,2.6990917E1,5.8192065E2,1.7540998E1,-1.2442714E2,6.2585243E1,3.5617966E1,-1.6210129E1,8.8483E0],"categories":[],"categories_nodes":[],"categories_segments":[],"categories_sizes":[],"default_left":[true,true,false,true,false,true,true,false,false,false,false,false,false,true,true,true,false,true,false,false,false,false,true,true,false,true,true,false,false,false,false,true,false,false,true,false,false,false,false],"id":14,"left_children":[1,3,5,7,-1,9,11,-1,13,-1,-1,-1,-1,15,17,19,21,23,-1,-1,-1,-1,25,27,-1,29,31,-1,-1,-1,-1,33,35,-1,37,-1,-1,-1,-1],"loss_changes":[4.891808E6,1.88518E6,1.226972E6,6.20264E5,0E0,1.8653875E5,9.38314E5,0E0,3.03624E5,0E0,0E0,0E0,0E0,7.71244E5,2.39249E5,3.336E5,1.768456E6,2.66397E5,0E0,0E0,0E0,0E0,4.88802E5,4.73766E5,0E0,3.59468E5,3.521804E6,0E0,0E0,0E0,0E0,4.0387228E5,1.83689E5,0E0,8.653406E4,0E0,0E0,0E0,0E0],"parents":[2147483647,0,0,1,1,2,2,3,3,5,5,6,6,8,8,13,13,14,14,15,15,16,16,17,17,22,22,23,23,25,25,26,26,31,31,32,32,34,34],"right_children":[2,4,6,8,-1,10,12,-1,14,-1,-1,-1,-1,16,18,20,22,24,-1,-1,-1,-1,26,28,-1,30,32,-1,-1,-1,-1,34,36,-1,38,-1,-1,-1,-1],"split_conditions":[3.65E2,3.808349E7,1.8957302E7,4E0,8.740188E1,5.193504E6,2.7449632E7,1.2307351E1,4.5E-1,1.3372498E1,7.714947E1,1.9462679E2,7.259225E1,1.5379517E7,9.1E-1,3.3E-1,2.7450964E7,2.983462E7,3.8656853E1,7.188055E1,4.14555E1,1.8151358E1,3.3977824E7,1.03E2,3.6538513E1,3.2200044E7,3.397817E7,9.063193E1,4.2282696E1,5.0175045E1,8.4016235E1,3.3977856E7,3.8083456E7,1.7540998E1,1.23E2,6.2585243E1,3.5617966E1,-1.6210129E1,8.8483E0],"split_indices":[8,0,0,7,0,0,0,0,6,0,0,0,0,0,6,6,0,0,0,0,0,0,0,8,0,0,0,0,0,0,0,0,0,0,8,0,0,0,0],"split_type":[0,0,0,0,0,0,0,0,0,0,0,0,0,0,0,0,0,0,0,0,0,0,0,0,0,0,0,0,0,0,0,0,0,0,0,0,0,0,0],"sum_hessian":[2.05E2,1.92E2,1.3E1,1.76E2,1.6E1,7E0,6E0,5E0,1.71E2,1E0,6E0,3E0,3E0,1.41E2,3E1,3.2E1,1.09E2,2.2E1,8E0,2.1E1,1.1E1,2.4E1,8.5E1,1.7E1,5E0,2.9E1,5.6E1,1.1E1,6E0,2.1E1,8E0,1.6E1,4E1,8E0,8E0,3.2E1,8E0,7E0,1E0],"tree_param":{"num_deleted":"0","num_feature":"9","num_nodes":"39","size_leaf_vector":"0"}},{"base_weights":[5.280265E2,4.8546478E2,1.0770533E3,4.088183E2,5.4580835E2,1.4124432E3,6.4895557E2,4.685073E2,2.620491E2,6.714782E1,1.8002974E2,3.326948E2,5.672079E2,1.2703883E1,7.0536674E1,4.1623123E2,6.180088E1,8.718249E0,3.4708843E1,1.3521294E1,3.2500183E2,5.3028424E2,7.753286E1,4.680012E2,1.3414237E1,3.631265E1,1.0078392E1,4.7102353E2,6.489282E2,4.8589566E2,1.8100332E1,3.720963E2,5.744893E2,7.688914E2,4.2634853E1,4.060412E2,6.0822797E2,5.988217E2,1.8022249E2,2.9873273E2,4.3137433E2,8.192764E2,2.9425938E1,4.3159237E1,-1.1636866E1,4.062083E1,6.655688E1,4.9724728E1,2.7564526E2,2.348445E1,8.484087E1,3.2083603E2,8.127084E0,-3.491382E0,6.647326E1,5.1422853E0,2.1891088E1,5.0118694E0,3.5583218E1,3.5425558E2,1.7646194E1,2.7227509E1,6.2802044E1],"categories":[],"categories_nodes":[],"categories_segments":[],"categories_sizes":[],"default_left":[true,true,true,false,false,false,false,true,true,false,false,true,true,false,false,false,false,false,false,false,true,true,false,true,false,false,false,false,true,true,false,true,true,true,false,false,true,false,true,false,false,true,false,false,false,false,false,false,true,false,false,false,false,false,false,false,false,false,false,true,false,false,false],"id":15,"left_children":[1,3,5,7,11,9,13,15,19,-1,-1,17,21,-1,-1,23,-1,-1,-1,-1,25,27,-1,29,-1,-1,-1,31,33,35,-1,39,37,41,-1,43,53,45,55,51,47,49,-1,-1,-1,-1,-1,-1,57,-1,-1,59,-1,-1,-1,-1,-1,-1,-1,61,-1,-1,-1],"loss_changes":[4.290832E6,6.69512E5,1.093503E6,6.56913E5,2.90148E5,8.02844E5,1.459265E5,2.27317E5,1.7962662E5,0E0,0E0,1.214575E4,3.11204E5,0E0,0E0,6.52805E5,0E0,0E0,0E0,0E0,1.17270875E5,2.77906E5,0E0,1.22614E5,0E0,0E0,0E0,3.90134E5,3.39719E5,1.24248E5,0E0,1.46465E4,1.51103E5,1.17635E5,0E0,3.972765E5,4.95635E5,5.105E4,3.692125E3,6.044475E4,2.70695E4,2.2092E4,0E0,0E0,0E0,0E0,0E0,0E0,1.0875606E5,0E0,0E0,1.4686E4,0E0,0E0,0E0,0E0,0E0,0E0,0E0,9.832625E4,0E0,0E0,0E0],"parents":[2147483647,0,0,1,1,2,2,3,3,5,5,4,4,6,6,7,7,11,11,8,8,12,12,15,15,20,20,21,21,23,23,27,27,28,28,29,29,32,32,31,31,33,33,35,35,37,37,40,40,41,41,39,39,36,36,38,38,48,48,51,51,59,59],"right_children":[2,4,6,8,12,10,14,16,20,-1,-1,18,22,-1,-1,24,-1,-1,-1,-1,26,28,-1,30,-1,-1,-1,32,34,36,-1,40,38,42,-1,44,54,46,56,52,48,50,-1,-1,-1,-1,-1,-1,58,-1,-1,60,-1,-1,-1,-1,-1,-1,-1,62,-1,-1,-1],"split_conditions":[3.65E2,1.2821925E8,5E0,3.3E-1,2.504833E1,2.50512E1,1.2821925E8,2.505152E1,2.505152E1,6.714782E1,1.8002974E2,1.36E2,3.34E2,1.2703883E1,7.0536674E1,6E0,6.180088E1,8.718249E0,3.4708843E1,1.3521294E1,2.6103188E7,1.2E1,7.753286E1,1.45E2,1.3414237E1,3.631265E1,1.0078392E1,1.8290814E8,9.4E1,1.2E1,1.8100332E1,9.2E1,2.42E2,8.8E-1,4.2634853E1,9E1,1E0,1.36E2,2.50486E1,3.8E1,5E0,1E0,2.9425938E1,4.3159237E1,-1.1636866E1,4.062083E1,6.655688E1,4.9724728E1,2.5E-1,2.348445E1,8.484087E1,4.1E-1,8.127084E0,-3.491382E0,6.647326E1,5.1422853E0,2.1891088E1,5.0118694E0,3.5583218E1,6E0,1.7646194E1,2.7227509E1,6.2802044E1],"split_indices":[8,1,5,6,2,2,1,2,2,0,0,8,8,0,0,5,0,0,0,0,1,5,0,8,0,0,0,1,8,7,0,8,8,6,0,8,8,8,2,8,5,8,0,0,0,0,0,0,6,0,0,6,0,0,0,0,0,0,0,5,0,0,0],"split_type":[0,0,0,0,0,0,0,0,0,0,0,0,0,0,0,0,0,0,0,0,0,0,0,0,0,0,0,0,0,0,0,0,0,0,0,0,0,0,0,0,0,0,0,0,0,0,0,0,0,0,0,0,0,0,0,0,0,0,0,0,0,0,0],"sum_hessian":[2.05E2,1.92E2,1.3E1,8.8E1,1.04E2,6E0,7E0,6.1E1,2.7E1,3E0,3E0,1.1E1,9.3E1,1E0,6E0,4.8E1,1.3E1,1E0,1E1,1E1,1.7E1,8.2E1,1.1E1,4E1,8E0,1.4E1,3E0,5.8E1,2.4E1,3.7E1,3E0,3.2E1,2.6E1,1.4E1,1E1,2.5E1,1.2E1,2.4E1,2E0,1.7E1,1.5E1,1.2E1,2E0,2.4E1,1E0,8E0,1.6E1,9E0,6E0,1E0,1.1E1,1.5E1,2E0,1E0,1.1E1,1E0,1E0,2E0,4E0,1.1E1,4E0,1E1,1E0],"tree_param":{"num_deleted":"0","num_feature":"9","num_nodes":"63","size_leaf_vector":"0"}},{"base_weights":[4.8114536E2,6.179334E2,3.9977982E2,4.770507E2,8.507231E2,4.3611197E2,2.2683379E2,3.422578E1,5.5101093E1,4.0625977E2,7.193462E1,5.6656726E2,1.2771312E3,-8.0831375E0,6.45362E1,9.322492E0,4.149802E2,1.469549E2,6.2111744E1,1.2202558E1,6.473406E1,1.2443229E2,-1.3970044E2,2.9769046E2,4.4946323E2,7.163311E0,1.72523E1,-2.007807E1,-1.3154954E0,5.8187664E1,1.2972777E1,3.121737E2,5.1033618E2,1.6662264E1,3.70867E1,5.52555E1,3.983623E1],"categories":[],"categories_nodes":[],"categories_segments":[],"categories_sizes":[],"default_left":[true,false,true,true,false,true,false,false,false,true,false,true,true,true,false,false,true,false,false,false,false,true,true,false,true,false,false,false,false,false,false,true,false,false,false,false,false],"id":16,"left_children":[1,3,5,7,11,9,13,-1,-1,15,-1,19,17,21,-1,-1,23,-1,-1,-1,-1,25,27,29,31,-1,-1,-1,-1,-1,-1,33,35,-1,-1,-1,-1],"loss_changes":[2.045712E6,2.053866E6,7.30498E5,2.99909E5,2.547912E6,6.20916E5,2.4632005E6,0E0,0E0,2.34293E5,0E0,5.67336E5,3.49524E5,3.1388578E5,0E0,0E0,2.58516E5,0E0,0E0,0E0,0E0,1.0493984E4,6.692361E4,1.1178312E6,4.50764E5,0E0,0E0,0E0,0E0,0E0,0E0,1.51777E5,1.1526E4,0E0,0E0,0E0,0E0],"parents":[2147483647,0,0,1,1,2,2,3,3,5,5,4,4,6,6,9,9,12,12,11,11,13,13,16,16,21,21,22,22,23,23,24,24,31,31,32,32],"right_children":[2,4,6,8,12,10,14,-1,-1,16,-1,20,18,22,-1,-1,24,-1,-1,-1,-1,26,28,30,32,-1,-1,-1,-1,-1,-1,34,36,-1,-1,-1,-1],"split_conditions":[1.2156963E2,1.2154596E2,3.3977824E7,3.8083428E7,1.8957302E7,3.2200044E7,3.397817E7,3.422578E1,5.5101093E1,6E0,7.193462E1,5.193504E6,1.2156825E2,3.3977856E7,6.45362E1,9.322492E0,1.2156965E2,1.469549E2,6.2111744E1,1.2202558E1,6.473406E1,1.2E1,1.2E1,1.5379517E7,6E0,7.163311E0,1.72523E1,-2.007807E1,-1.3154954E0,5.8187664E1,1.2972777E1,2.7450964E7,2.7E1,1.6662264E1,3.70867E1,5.52555E1,3.983623E1],"split_indices":[3,3,0,0,0,0,0,0,0,7,0,0,3,0,0,0,3,0,0,0,0,7,7,0,5,0,0,0,0,0,0,0,5,0,0,0,0],"split_type":[0,0,0,0,0,0,0,0,0,0,0,0,0,0,0,0,0,0,0,0,0,0,0,0,0,0,0,0,0,0,0,0,0,0,0,0,0],"sum_hessian":[2.05E2,7.4E1,1.31E2,4.8E1,2.6E1,1.07E2,2.4E1,1.9E1,2.9E1,9.9E1,8E0,1.7E1,9E0,1.6E1,8E0,3E0,9.6E1,6E0,3E0,3E0,1.4E1,8E0,8E0,2.4E1,7.2E1,5E0,3E0,5E0,3E0,8E0,1.6E1,2.4E1,4.8E1,8E0,1.6E1,3.2E1,1.6E1],"tree_param":{"num_deleted":"0","num_feature":"9","num_nodes":"37","size_leaf_vector":"0"}},{"base_weights":[4.3664316E2,3.9935233E2,9.19535E2,3.3635626E2,4.4894565E2,1.2169109E3,5.4438916E2,3.9761722E2,2.6157437E2,5.7453358E1,1.5550604E2,2.7167062E2,4.6680048E2,1.1458545E1,5.8942036E1,2.9300977E2,6.4866675E2,6.571051E0,2.844206E1,2.8587936E2,1.1950515E1,3.5430914E2,5.0242328E2,3.301031E2,1.2655687E2,1.9549005E2,3.9939172E2,8.047826E1,4.714353E2,6.74952E1,1.6662237E1,4.152545E2,1.6527539E2,3.8331757E1,2.3921582E2,4.5082466E1,2.6267477E2,2.8658731E1,5.2637493E1,1.8090437E1,2.793628E0,1.5276598E2,4.898273E2,2.866091E1,2.8016317E1,4.9560748E2,2.186298E2,7.2956543E0,3.0500257E1,4.275626E1,2.0441798E2,5.4399685E1,2.1749651E1,-1.0640933E1,7.6956825E0,1.3269938E1,3.671062E1,7.910184E1,4.6061017E2,1.0870447E2,-4.5715652E1,5.1128745E0,2.0348122E1,1.2773912E1,2.5189428E1,-6.687386E1,2.4804797E2,3.2435498E2,5.40882E2,-1.1200244E1,7.6572356E0,-1.27909E1,2.7598207E0,3.3097534E1,8.604334E0,3.4447376E1,2.7598207E0,4.4254016E2,7.758097E1,2.1124678E1,4.7358044E1],"categories":[],"categories_nodes":[],"categories_segments":[],"categories_sizes":[],"default_left":[false,true,true,false,true,false,true,true,false,false,false,false,false,false,false,false,true,false,false,false,false,true,true,true,true,true,true,false,false,false,false,false,true,false,true,false,true,false,false,false,false,false,true,true,false,true,true,false,false,false,true,false,false,false,false,false,false,false,false,true,true,false,false,false,false,true,true,false,true,false,false,false,false,false,false,false,false,false,false,false,false],"id":17,"left_children":[1,3,5,7,11,9,13,15,19,-1,-1,17,21,-1,-1,23,29,-1,-1,25,-1,31,27,33,43,35,45,-1,41,-1,-1,37,39,-1,47,59,49,-1,-1,-1,-1,61,57,53,-1,51,55,-1,-1,-1,63,-1,-1,-1,-1,-1,-1,-1,67,65,69,-1,-1,-1,-1,71,75,73,77,-1,-1,-1,-1,-1,-1,-1,-1,79,-1,-1,-1],"loss_changes":[3.342312E6,4.51964E5,8.99357E5,3.03721E5,2.05532E5,6.27103E5,8.72975E4,1.0442325E6,1.143145E5,0E0,0E0,1.28224375E4,1.9867E5,0E0,0E0,1.743235E5,5.2256E4,0E0,0E0,2.91294E5,0E0,2.309075E5,2.67094E5,4.3727E4,1.1226976E5,2.1046988E5,1.525275E5,0E0,3.06134E5,0E0,0E0,1.2080125E5,1.2117969E4,0E0,1.19937625E5,5.1183555E4,5.6685938E4,0E0,0E0,0E0,0E0,1.5369047E4,1.72445E5,4.732897E4,0E0,2.801E3,4.059572E4,0E0,0E0,0E0,1.5148875E4,0E0,0E0,0E0,0E0,0E0,0E0,0E0,4.58935E5,1.3891644E5,4.100061E4,0E0,0E0,0E0,0E0,2.0828402E4,5.4264266E4,9.387E3,4.65286E5,0E0,0E0,0E0,0E0,0E0,0E0,0E0,0E0,9.3802E4,0E0,0E0,0E0],"parents":[2147483647,0,0,1,1,2,2,3,3,5,5,4,4,6,6,7,7,11,11,8,8,12,12,15,15,19,19,22,22,16,16,21,21,23,23,25,25,31,31,32,32,28,28,24,24,26,26,34,34,36,36,45,45,43,43,46,46,42,42,35,35,41,41,50,50,59,59,58,58,60,60,65,65,67,67,66,66,68,68,77,77],"right_children":[2,4,6,8,12,10,14,16,20,-1,-1,18,22,-1,-1,24,30,-1,-1,26,-1,32,28,34,44,36,46,-1,42,-1,-1,38,40,-1,48,60,50,-1,-1,-1,-1,62,58,54,-1,52,56,-1,-1,-1,64,-1,-1,-1,-1,-1,-1,-1,68,66,70,-1,-1,-1,-1,72,76,74,78,-1,-1,-1,-1,-1,-1,-1,-1,80,-1,-1,-1],"split_conditions":[3.65E2,1.3275978E8,5E0,8.2E1,2.504833E1,2.50512E1,1.2821925E8,7E0,1.76E2,5.7453358E1,1.5550604E2,1.36E2,3.8E1,1.1458545E1,5.8942036E1,4E0,1.2156966E2,6.571051E0,2.844206E1,1.24E2,1.1950515E1,4E0,8.7E1,6E0,2.505152E1,2.505151E1,1.52E2,8.047826E1,9.2E1,6.74952E1,1.6662237E1,6E0,1.7E1,3.8331757E1,2.505152E1,9E1,6E0,2.8658731E1,5.2637493E1,1.8090437E1,2.793628E0,5E0,9.4E1,1E0,2.8016317E1,3.5E1,2.505152E1,7.2956543E0,3.0500257E1,4.275626E1,2.505152E1,5.4399685E1,2.1749651E1,-1.0640933E1,7.6956825E0,1.3269938E1,3.671062E1,7.910184E1,1.8290814E8,8.7E1,1E0,5.1128745E0,2.0348122E1,1.2773912E1,2.5189428E1,1E0,1E0,2.16E2,2.504931E1,-1.1200244E1,7.6572356E0,-1.27909E1,2.7598207E0,3.3097534E1,8.604334E0,3.4447376E1,2.7598207E0,1.36E2,7.758097E1,2.1124678E1,4.7358044E1],"split_indices":[8,1,5,8,2,2,1,8,8,0,0,8,8,0,0,8,3,0,0,8,0,8,8,5,2,2,8,0,8,0,0,5,5,0,2,8,5,0,0,0,0,5,8,5,0,5,2,0,0,0,2,0,0,0,0,0,0,0,1,8,5,0,0,0,0,5,5,8,2,0,0,0,0,0,0,0,0,8,0,0,0],"split_type":[0,0,0,0,0,0,0,0,0,0,0,0,0,0,0,0,0,0,0,0,0,0,0,0,0,0,0,0,0,0,0,0,0,0,0,0,0,0,0,0,0,0,0,0,0,0,0,0,0,0,0,0,0,0,0,0,0,0,0,0,0,0,0,0,0,0,0,0,0,0,0,0,0,0,0,0,0,0,0,0,0],"sum_hessian":[2.05E2,1.92E2,1.3E1,8.8E1,1.04E2,6E0,7E0,4.6E1,4.2E1,3E0,3E0,1.1E1,9.3E1,1E0,6E0,3.4E1,1.2E1,1E0,1E1,3.5E1,7E0,2.5E1,6.8E1,2.7E1,7E0,2.1E1,1.4E1,4E0,6.4E1,1.1E1,1E0,1.8E1,7E0,1.5E1,1.2E1,7E0,1.4E1,1E1,8E0,6E0,1E0,4E0,6E1,5E0,2E0,8E0,6E0,4E0,8E0,2E0,1.2E1,6E0,2E0,1E0,4E0,5E0,1E0,3E0,5.7E1,4E0,3E0,2E0,2E0,6E0,6E0,2E0,2E0,2.3E1,3.4E1,2E0,1E0,1E0,1E0,2.2E1,1E0,1E0,1E0,2.6E1,8E0,4E0,2.2E1],"tree_param":{"num_deleted":"0","num_feature":"9","num_nodes":"81","size_leaf_vector":"0"}},{"base_weights":[3.989067E2,5.27568E2,3.385345E2,3.9102942E2,9.127443E2,3.6826788E2,1.8346207E2,3.295009E2,5.2131496E1,3.450667E2,6.134971E1,5.388985E1,1.083162E3,-1.7364944E1,5.424173E1,2.6979315E2,4.264336E2,1.4384299E2,7.254144E1,1.03602295E1,3.5787802E2,1.04466286E2,-1.3726674E2,3.324873E1,2.2073198E1,3.1754727E2,4.5744656E2,-1.9105433E1,-2.2268693E0,1.6026571E1,4.973489E1,5.5789876E0,1.5136434E1,4.3298508E2,2.2782999E2,4.9359476E2,2.4263745E2,5.449583E1,3.329546E1,9.206603E1,4.323345E2,1.1934449E2,3.4075305E2,2.957544E1,9.093571E0,2.5457892E2,5.15725E2,1.5516006E1,9.679622E0,3.5861124E2,1.0811435E1,2.015918E0,2.8136148E1,6.237608E1,2.6771704E1,2.8494E2,4.5472355E1,2.9606125E1,7.0181885E0],"categories":[],"categories_nodes":[],"categories_segments":[],"categories_sizes":[],"default_left":[false,false,true,true,false,true,true,true,false,true,false,false,true,false,false,false,false,false,false,false,false,true,true,false,false,true,true,false,false,false,false,false,false,true,false,true,true,false,false,false,true,true,false,false,false,false,true,false,false,true,false,false,false,false,false,true,false,false,false],"id":18,"left_children":[1,3,5,7,11,9,13,15,-1,19,-1,-1,17,21,-1,23,29,-1,-1,-1,25,31,27,-1,-1,33,35,-1,-1,-1,-1,-1,-1,37,41,39,43,-1,-1,-1,45,47,49,-1,-1,51,53,-1,-1,55,-1,-1,-1,-1,-1,57,-1,-1,-1],"loss_changes":[1.42152E6,3.00894E6,5.91787E5,2.21024E5,4.35645E5,4.65366E5,1.811617E6,9.330575E4,0E0,3.06298E5,0E0,0E0,2.27505E5,2.6267206E5,0E0,3.50575E3,1.4679675E5,0E0,0E0,0E0,2.76385E5,1.2100859E4,5.1414656E4,0E0,0E0,7.09181E5,9.76545E4,0E0,0E0,0E0,0E0,0E0,0E0,1.88178E5,5.22857E5,2.03696E5,2.1452969E4,0E0,0E0,0E0,1.94816E5,5.1705938E3,5.2628E4,0E0,0E0,5.083325E4,2.08121E5,0E0,0E0,1.204525E4,0E0,0E0,0E0,0E0,0E0,1.2659125E4,0E0,0E0,0E0],"parents":[2147483647,0,0,1,1,2,2,3,3,5,5,4,4,6,6,7,7,12,12,9,9,13,13,15,15,20,20,22,22,16,16,21,21,25,25,26,26,33,33,35,35,34,34,36,36,40,40,41,41,42,42,45,45,46,46,49,49,55,55],"right_children":[2,4,6,8,12,10,14,16,-1,20,-1,-1,18,22,-1,24,30,-1,-1,-1,26,32,28,-1,-1,34,36,-1,-1,-1,-1,-1,-1,38,42,40,44,-1,-1,-1,46,48,50,-1,-1,52,54,-1,-1,56,-1,-1,-1,-1,-1,58,-1,-1,-1],"split_conditions":[1.2156871E2,1.2154596E2,3.3977824E7,3.808349E7,1.8957302E7,3.2200044E7,3.397817E7,1E0,5.2131496E1,6E0,6.134971E1,5.388985E1,2.7449632E7,3.3977856E7,5.424173E1,3.8083376E7,6.268087E6,1.4384299E2,7.254144E1,1.03602295E1,4.5E-1,1.2E1,1.2E1,3.324873E1,2.2073198E1,1.5379517E7,2.983462E7,-1.9105433E1,-2.2268693E0,1.6026571E1,4.973489E1,5.5789876E0,1.5136434E1,2E-1,2.7450964E7,4.6E-1,1.1E1,5.449583E1,3.329546E1,9.206603E1,1.8E1,1.9E-1,4.3E-1,2.957544E1,9.093571E0,4.8E-1,8.8E-1,1.5516006E1,9.679622E0,6E-2,1.0811435E1,2.015918E0,2.8136148E1,6.237608E1,2.6771704E1,5E-2,4.5472355E1,2.9606125E1,7.0181885E0],"split_indices":[3,3,0,0,0,0,0,5,0,7,0,0,0,0,0,0,0,0,0,0,6,7,7,0,0,0,0,0,0,0,0,0,0,6,0,6,5,0,0,0,5,6,6,0,0,6,6,0,0,6,0,0,0,0,0,6,0,0,0],"split_type":[0,0,0,0,0,0,0,0,0,0,0,0,0,0,0,0,0,0,0,0,0,0,0,0,0,0,0,0,0,0,0,0,0,0,0,0,0,0,0,0,0,0,0,0,0,0,0,0,0,0,0,0,0,0,0,0,0,0,0],"sum_hessian":[2.05E2,6.3E1,1.42E2,4.8E1,1.5E1,1.18E2,2.4E1,3.5E1,1.3E1,1.1E2,8E0,6E0,9E0,1.6E1,8E0,2.4E1,1.1E1,3E0,6E0,6E0,1.04E2,8E0,8E0,8E0,1.6E1,7.7E1,2.7E1,5E0,3E0,3E0,8E0,5E0,3E0,3.2E1,4.5E1,2.2E1,5E0,1.3E1,1.9E1,1E0,2.1E1,2.4E1,2.1E1,3E0,2E0,8E0,1.3E1,7E0,1.7E1,1.9E1,2E0,1E0,7E0,8E0,5E0,1.3E1,6E0,1.2E1,1E0],"tree_param":{"num_deleted":"0","num_feature":"9","num_nodes":"59","size_leaf_vector":"0"}},{"base_weights":[3.6399057E2,3.321006E2,7.776172E2,3.146598E2,6.537062E2,4.5703775E2,1.0329055E3,7.5950294E0,3.2086862E2,1.0367591E1,4.9270718E1,1.7065979E1,6.927545E1,1.3305473E2,4.7703743E1,3.439574E2,2.747276E2,3.228554E2,5.589641E1,-1.5664773E1,3.698693E2,2.6565158E2,3.6419095E2,9.632138E1,-1.259104E2,4.942025E1,3.3355545E2,4.3839138E1,2.2125377E2,5.114073E0,1.4001203E1,2.908337E2,4.5314007E1,4.8252875E2,2.718955E2,-1.5918543E1,7.014487E0,1.1012296E2,2.8797256E2,5.658609E2,3.0094442E1,2.4502673E2,3.8576046E1,1.192782E2,3.34276E2,1.474131E2,8.230098E0,4.2288517E1,7.3367294E1,2.566972E2,3.861413E2,5.432309E0,1.34894E1,2.013688E2,3.524246E1,3.029328E1,1.9995726E1,4.060477E0,1.6065382E1,6.718055E1,3.0635218E1,2.850826E1,1.2155932E1,2.3034966E1,2.7982748E0],"categories":[],"categories_nodes":[],"categories_segments":[],"categories_sizes":[],"default_left":[true,true,true,true,true,true,true,false,true,false,false,false,false,false,false,true,true,true,false,false,false,true,true,true,true,false,true,false,true,false,false,true,false,true,true,false,false,true,true,false,false,false,false,true,true,false,false,false,false,true,false,false,false,true,false,false,false,false,false,false,false,false,false,false,false],"id":19,"left_children":[1,3,5,7,11,9,13,-1,15,-1,-1,-1,-1,-1,-1,17,19,21,-1,23,25,27,33,29,35,-1,31,-1,37,-1,-1,41,-1,39,43,-1,-1,45,53,47,-1,55,-1,51,49,57,-1,-1,-1,61,59,-1,-1,63,-1,-1,-1,-1,-1,-1,-1,-1,-1,-1,-1],"loss_changes":[2.459004E6,8.76856E5,6.73685E5,2.4982E5,5.153425E4,4.9751875E4,5.23426E5,0E0,9.7266E4,0E0,0E0,0E0,0E0,0E0,0E0,3.45835E5,1.8016415E6,1.58623E5,0E0,2.220096E5,5.63925E4,2.787985E5,5.24125E5,1.060543E4,6.987972E4,0E0,7.7675E4,0E0,2.7228262E5,0E0,0E0,4.89725E4,0E0,2.080025E5,3.028605E5,0E0,0E0,5.5050312E3,6.8577375E4,7.3629E4,0E0,4.671375E3,0E0,4.8440625E3,1.47E3,1.9620078E3,0E0,0E0,0E0,1.5212875E4,9.0498625E4,0E0,0E0,5.8877562E4,0E0,0E0,0E0,0E0,0E0,0E0,0E0,0E0,0E0,0E0,0E0],"parents":[2147483647,0,0,1,1,2,2,3,3,5,5,4,4,6,6,8,8,15,15,16,16,17,17,19,19,20,20,21,21,23,23,26,26,22,22,24,24,28,28,33,33,31,31,34,34,37,37,39,39,44,44,43,43,38,38,41,41,45,45,50,50,49,49,53,53],"right_children":[2,4,6,8,12,10,14,-1,16,-1,-1,-1,-1,-1,-1,18,20,22,-1,24,26,28,34,30,36,-1,32,-1,38,-1,-1,42,-1,40,44,-1,-1,46,54,48,-1,56,-1,52,50,58,-1,-1,-1,62,60,-1,-1,64,-1,-1,-1,-1,-1,-1,-1,-1,-1,-1,-1],"split_conditions":[3.65E2,3.8083516E7,1.8957302E7,4E0,1.36E2,4E0,2.7449632E7,7.5950294E0,3.3977824E7,1.0367591E1,4.9270718E1,1.7065979E1,6.927545E1,1.3305473E2,4.7703743E1,3.2200044E7,3.397817E7,1.2E1,5.589641E1,3.3977856E7,3.8083344E7,1.5379517E7,1.9E1,1.2E1,1.23E2,4.942025E1,1E0,4.3839138E1,2.7450964E7,5.114073E0,1.4001203E1,3.808349E7,4.5314007E1,8.7E1,1.2156965E2,-1.5918543E1,7.014487E0,3E0,9.2E1,3.8E1,3.0094442E1,3.8083376E7,3.8576046E1,5E0,9.2E1,1.8483236E7,8.230098E0,4.2288517E1,7.3367294E1,7E0,9.4E1,5.432309E0,1.34894E1,3.8E1,3.524246E1,3.029328E1,1.9995726E1,4.060477E0,1.6065382E1,6.718055E1,3.0635218E1,2.850826E1,1.2155932E1,2.3034966E1,2.7982748E0],"split_indices":[8,0,0,7,8,7,0,0,0,0,0,0,0,0,0,0,0,5,0,0,0,0,5,7,8,0,5,0,0,0,0,0,0,8,3,0,0,8,8,8,0,0,0,8,8,0,0,0,0,8,8,0,0,8,0,0,0,0,0,0,0,0,0,0,0],"split_type":[0,0,0,0,0,0,0,0,0,0,0,0,0,0,0,0,0,0,0,0,0,0,0,0,0,0,0,0,0,0,0,0,0,0,0,0,0,0,0,0,0,0,0,0,0,0,0,0,0,0,0,0,0,0,0,0,0,0,0,0,0,0,0,0,0],"sum_hessian":[2.05E2,1.92E2,1.3E1,1.84E2,8E0,7E0,6E0,5E0,1.79E2,1E0,6E0,1E0,7E0,3E0,3E0,1.15E2,6.4E1,1.07E2,8E0,1.6E1,4.8E1,4.8E1,5.9E1,8E0,8E0,8E0,4E1,8E0,4E1,5E0,3E0,3.2E1,8E0,2.4E1,3.5E1,7E0,1E0,1.6E1,2.4E1,1.5E1,9E0,2.4E1,8E0,1.1E1,2.4E1,5E0,1.1E1,1E1,5E0,1.2E1,1.2E1,3E0,8E0,1.2E1,1.2E1,8E0,1.6E1,1E0,4E0,1E0,1.1E1,9E0,3E0,1E1,2E0],"tree_param":{"num_deleted":"0","num_feature":"9","num_nodes":"65","size_leaf_vector":"0"}},{"base_weights":[3.325452E2,4.409007E2,2.8172495E2,3.2346082E2,7.73004E2,3.0641742E2,1.529199E2,2.7310156E2,4.2985172E1,2.872087E2,5.0927837E1,4.504751E1,9.2147394E2,-1.3497828E1,4.502734E1,2.225357E2,3.5568863E2,1.0642431E2,4.4125954E1,2.928236E2,6.380394E0,8.881316E0,-1.1430905E1,2.7600554E1,1.8113783E1,1.3812866E1,4.12861E1,2.4180627E2,3.296074E2,3.1388928E2,1.6005104E2,4.4010583E2,2.4371661E2,2.3533157E2,3.7938248E1,4.791937E1,2.3646211E2,1.0077863E2,2.5422656E2,9.284241E0,3.0638758E1,2.4494858E1,5.5155334E0,1.2254188E1,5.218232E0,5.673328E0,2.6106123E1,5.0841927E1,1.5890007E2,2.47141E1,5.652732E1,8.3563846E-1,6.6480956E0],"categories":[],"categories_nodes":[],"categories_segments":[],"categories_sizes":[],"default_left":[false,true,false,false,true,true,true,true,false,true,false,false,true,false,false,true,true,false,false,true,false,false,false,false,false,false,false,true,true,false,true,true,true,true,false,false,true,false,true,false,false,false,false,false,false,false,false,false,true,false,true,false,false],"id":20,"left_children":[1,3,5,7,11,9,13,15,-1,19,-1,-1,17,21,-1,23,25,-1,-1,27,-1,-1,-1,-1,-1,-1,-1,29,31,33,37,35,39,41,-1,-1,45,43,47,-1,-1,-1,-1,-1,-1,-1,-1,-1,49,-1,51,-1,-1],"loss_changes":[1.01016E6,2.246103E6,4.07955E5,1.451375E5,3.51072E5,3.17438E5,1.2432E6,7.118575E4,0E0,1.20555E5,0E0,0E0,2.1599E5,1.854918E5,0E0,5.343375E3,9.2233125E4,0E0,0E0,1.22973E5,0E0,0E0,0E0,0E0,0E0,0E0,0E0,2.38527E5,4.62187E5,3.9344E4,1.13929625E5,8.56885E4,3.1194975E5,1.0748375E4,0E0,0E0,1.17161875E4,1.1584906E4,1.3729381E5,0E0,0E0,0E0,0E0,0E0,0E0,0E0,0E0,0E0,5.82975E4,0E0,1.8418398E3,0E0,0E0],"parents":[2147483647,0,0,1,1,2,2,3,3,5,5,4,4,6,6,7,7,12,12,9,9,13,13,15,15,16,16,19,19,27,27,28,28,29,29,31,31,30,30,32,32,33,33,37,37,36,36,38,38,48,48,50,50],"right_children":[2,4,6,8,12,10,14,16,-1,20,-1,-1,18,22,-1,24,26,-1,-1,28,-1,-1,-1,-1,-1,-1,-1,30,32,34,38,36,40,42,-1,-1,46,44,48,-1,-1,-1,-1,-1,-1,-1,-1,-1,50,-1,52,-1,-1],"split_conditions":[1.2156871E2,1.2154596E2,3.3977824E7,3.808349E7,1.8957302E7,3.2200044E7,3.397817E7,1E0,4.2985172E1,2.505181E1,5.0927837E1,4.504751E1,1.2156825E2,3.3977856E7,4.502734E1,3.8083376E7,6.268087E6,1.0642431E2,4.4125954E1,1.2E1,6.380394E0,8.881316E0,-1.1430905E1,2.7600554E1,1.8113783E1,1.3812866E1,4.12861E1,1.6E-1,1.9E1,6E-2,2.7450964E7,6.8E-1,1.2156965E2,5E-2,3.7938248E1,4.791937E1,7.1E-1,2E-1,4.1E-1,9.284241E0,3.0638758E1,2.4494858E1,5.5155334E0,1.2254188E1,5.218232E0,5.673328E0,2.6106123E1,5.0841927E1,1.1E1,2.47141E1,4.2E-1,8.3563846E-1,6.6480956E0],"split_indices":[3,3,0,0,0,0,0,5,0,2,0,0,3,0,0,0,0,0,0,5,0,0,0,0,0,0,0,6,5,6,0,6,3,6,0,0,6,6,6,0,0,0,0,0,0,0,0,0,5,0,6,0,0],"split_type":[0,0,0,0,0,0,0,0,0,0,0,0,0,0,0,0,0,0,0,0,0,0,0,0,0,0,0,0,0,0,0,0,0,0,0,0,0,0,0,0,0,0,0,0,0,0,0,0,0,0,0,0,0],"sum_hessian":[2.05E2,6.3E1,1.42E2,4.8E1,1.5E1,1.18E2,2.4E1,3.5E1,1.3E1,1.1E2,8E0,6E0,9E0,1.6E1,8E0,2.4E1,1.1E1,6E0,3E0,1.07E2,3E0,8E0,8E0,8E0,1.6E1,3E0,8E0,4.8E1,5.9E1,2.4E1,2.4E1,2.4E1,3.5E1,1.3E1,1.1E1,1.9E1,5E0,1.6E1,8E0,1.1E1,2.4E1,1.2E1,1E0,1E1,6E0,1E0,4E0,1E0,7E0,3E0,4E0,1E0,3E0],"tree_param":{"num_deleted":"0","num_feature":"9","num_nodes":"53","size_leaf_vector":"0"}},{"base_weights":[3.028211E2,2.749948E2,6.647966E2,2.3047026E2,3.1011563E2,8.90916E2,3.8384256E2,2.6704846E2,1.4124464E2,4.0816505E1,1.150938E2,1.8451387E2,3.228508E2,9.385022E0,4.1186287E1,2.1487738E2,3.3566656E2,3.233362E0,1.9540903E1,7.493478E0,1.7392043E2,3.0268365E2,4.475047E1,2.2602676E2,9.6086044E1,2.0685547E1,9.261458E0,8.0140114E1,3.544019E2,2.632899E2,3.5558643E2,2.3580057E1,4.6430645E0,-3.6888092E0,1.5709826E1,4.197076E2,2.385857E1,2.871669E2,6.877094E1,-7.1683745E0,1.5594943E1,4.752047E2,2.5829343E2,2.856972E2,5.850111E2,9.5831785E0,3.878025E1,2.7917603E1,3.135609E2,2.1439427E2,3.3489993E2,3.0292204E1,6.1482754E1,3.820886E2,5.5053223E1,1.3386169E1,7.0178285E0,2.5210521E2,1.0295738E2,3.5517635E1,1.3458554E2,4.1027077E1,1.8587234E2,6.443766E1,8.472632E0,-4.71044E0,6.8626404E0,9.286365E0,4.0663376E1,2.9493835E0,-1.814331E0,-3.246924E0,2.0109356E1,5.6511946E0,2.2631413E1,-5.5474367E0,1.386084E2,8.183948E0,-2.60459E0,1.876526E2,4.4736477E1,-1.1071778E-2,-2.6107788E-1,5.6171064E0,1.657843E1,2.19102E1,9.787354E-1],"categories":[],"categories_nodes":[],"categories_segments":[],"categories_sizes":[],"default_left":[true,true,true,true,true,true,true,true,true,false,false,false,true,false,false,false,false,false,false,false,true,false,false,true,true,false,false,true,true,true,true,false,false,false,false,false,false,false,false,false,false,false,true,true,true,false,true,false,true,true,true,false,false,true,true,false,false,true,true,false,false,false,true,false,false,false,false,false,false,false,false,false,false,false,false,false,true,false,false,true,false,false,false,false,false,false,false],"id":21,"left_children":[1,3,5,7,11,9,13,15,19,-1,-1,17,21,-1,-1,23,27,-1,-1,-1,25,29,-1,31,39,-1,-1,33,41,37,35,-1,-1,-1,-1,43,-1,49,45,-1,-1,51,47,53,63,-1,55,65,61,57,59,-1,-1,67,77,69,-1,79,75,-1,71,-1,73,-1,-1,-1,-1,-1,-1,-1,81,-1,-1,-1,-1,-1,83,-1,-1,85,-1,-1,-1,-1,-1,-1,-1],"loss_changes":[1.892108E6,2.30329E5,5.47437E5,2.52751E5,1.08383E5,4.089085E5,2.6352E4,1.498255E5,4.7635688E4,0E0,0E0,1.35780625E4,1.00856E5,0E0,0E0,2.8611125E4,9.12825E4,0E0,0E0,0E0,2.9042812E4,8.1437E4,0E0,4.8733125E4,6.1395375E4,0E0,0E0,3.2813875E4,1.4429175E5,2.2176675E5,1.47437E5,0E0,0E0,0E0,0E0,2.7591175E5,0E0,8.798775E4,1.9646328E3,0E0,0E0,3.02465E4,1.8223062E5,2.67982E5,1.830015E5,0E0,3.0472026E3,1.5448828E4,7.1926875E4,6.2294125E4,5.78015E4,0E0,0E0,2.613025E4,1.2993291E4,1.0328899E3,0E0,1.0482556E5,4.7226984E4,0E0,5.0971273E4,0E0,2.38315E4,0E0,0E0,0E0,0E0,0E0,0E0,0E0,3.781457E0,0E0,0E0,0E0,0E0,0E0,4.129578E3,0E0,0E0,7.0574375E4,0E0,0E0,0E0,0E0,0E0,0E0,0E0],"parents":[2147483647,0,0,1,1,2,2,3,3,5,5,4,4,6,6,7,7,11,11,8,8,12,12,15,15,20,20,16,16,21,21,23,23,27,27,30,30,29,29,24,24,28,28,35,35,38,38,42,42,37,37,41,41,43,43,46,46,49,49,50,50,48,48,44,44,47,47,53,53,55,55,60,60,62,62,58,58,54,54,57,57,70,70,76,76,79,79],"right_children":[2,4,6,8,12,10,14,16,20,-1,-1,18,22,-1,-1,24,28,-1,-1,-1,26,30,-1,32,40,-1,-1,34,42,38,36,-1,-1,-1,-1,44,-1,50,46,-1,-1,52,48,54,64,-1,56,66,62,58,60,-1,-1,68,78,70,-1,80,76,-1,72,-1,74,-1,-1,-1,-1,-1,-1,-1,82,-1,-1,-1,-1,-1,84,-1,-1,86,-1,-1,-1,-1,-1,-1,-1],"split_conditions":[3.65E2,1.2821925E8,9E-2,3.3E-1,2.504833E1,2.50512E1,1.2821925E8,1.2E1,2.505152E1,4.0816505E1,1.150938E2,1.36E2,3.35E2,9.385022E0,4.1186287E1,9E1,1E0,3.233362E0,1.9540903E1,7.493478E0,2.505159E1,3.1E-1,4.475047E1,2.2E-1,2.505151E1,2.0685547E1,9.261458E0,2.505151E1,7.8E1,1.8E-1,9.4E1,2.3580057E1,4.6430645E0,-3.6888092E0,1.5709826E1,3.3E1,2.385857E1,1.36E2,1.9E-1,-7.1683745E0,1.5594943E1,3.8E1,1.24E2,4E0,8.8E-1,9.5831785E0,2.5E-1,4E-2,1.52E2,9.4E1,2.42E2,3.0292204E1,6.1482754E1,1E0,4.8E-1,2E-1,7.0178285E0,9.2E1,1.8290814E8,3.5517635E1,2.50486E1,4.1027077E1,1.2156965E2,6.443766E1,8.472632E0,-4.71044E0,6.8626404E0,9.286365E0,4.0663376E1,2.9493835E0,2.4E-1,-3.246924E0,2.0109356E1,5.6511946E0,2.2631413E1,-5.5474367E0,2.50486E1,8.183948E0,-2.60459E0,3.8E1,4.4736477E1,-1.1071778E-2,-2.6107788E-1,5.6171064E0,1.657843E1,2.19102E1,9.787354E-1],"split_indices":[8,1,6,6,2,2,1,7,2,0,0,8,8,0,0,8,8,0,0,0,2,6,0,6,2,0,0,2,8,6,8,0,0,0,0,8,0,8,6,0,0,8,8,8,6,0,6,6,8,8,8,0,0,8,6,6,0,8,1,0,2,0,3,0,0,0,0,0,0,0,6,0,0,0,0,0,2,0,0,8,0,0,0,0,0,0,0],"split_type":[0,0,0,0,0,0,0,0,0,0,0,0,0,0,0,0,0,0,0,0,0,0,0,0,0,0,0,0,0,0,0,0,0,0,0,0,0,0,0,0,0,0,0,0,0,0,0,0,0,0,0,0,0,0,0,0,0,0,0,0,0,0,0,0,0,0,0,0,0,0,0,0,0,0,0,0,0,0,0,0,0,0,0,0,0,0,0],"sum_hessian":[2.05E2,1.92E2,1.3E1,8.8E1,1.04E2,6E0,7E0,6.1E1,2.7E1,3E0,3E0,1.1E1,9.3E1,1E0,6E0,3.7E1,2.4E1,1E0,1E1,1E1,1.7E1,8.3E1,1E1,3.3E1,4E0,1.1E1,6E0,2E0,2.2E1,5.1E1,3.2E1,3.1E1,2E0,1E0,1E0,1.9E1,1.3E1,4.5E1,6E0,1E0,3E0,8E0,1.4E1,1.2E1,7E0,2E0,4E0,3E0,1.1E1,2E1,2.5E1,5E0,3E0,8E0,4E0,3E0,1E0,1.4E1,6E0,2.2E1,3E0,5E0,6E0,6E0,1E0,1E0,2E0,1E0,7E0,1E0,2E0,1E0,2E0,2E0,4E0,1E0,5E0,3E0,1E0,1.2E1,2E0,1E0,1E0,2E0,3E0,1E1,2E0],"tree_param":{"num_deleted":"0","num_feature":"9","num_nodes":"87","size_leaf_vector":"0"}},{"base_weights":[2.765758E2,3.684417E2,2.335269E2,2.6739822E2,6.5485974E2,2.5547975E2,1.1969032E2,2.2417513E2,3.594435E1,2.3852892E2,4.3615345E1,3.7656036E1,7.841833E2,-2.826305E1,3.8585888E1,2.5032307E2,1.1791758E1,1.0646177E2,5.1190895E1,7.3651805E0,2.4724901E2,6.2026917E1,-1.1541268E2,3.2460743E1,1.643028E1,1.982786E1,1.0981877E1,2.1690636E2,3.2294467E2,-1.668672E1,-9.3777317E-1,6.188111E-1,2.5100708E0,2.9698282E2,1.5474483E2,5.5199054E2,2.8409537E2,3.832972E1,2.217136E2,7.817643E1,4.62215E0,8.0675545E1,2.3188062E2,1.6519672E2,3.742087E2,1.4835632E1,2.4980165E1,2.4836955E2,4.4660847E1,4.636615E1,1.7766138E1,1.0959829E1,6.3339016E1,5.4909058E1,1.9279211E1,3.841949E1,2.0180067E1,4.293028E1,7.537298E1,6.196008E0,5.0311893E-1,-7.3711E0,1.2235274E1,5.593487E0,-1.7238566E-1,8.615243E0,3.7665696E0],"categories":[],"categories_nodes":[],"categories_segments":[],"categories_sizes":[],"default_left":[true,true,true,true,true,true,true,false,false,false,false,false,true,false,false,false,false,false,false,false,true,true,true,false,false,true,false,true,true,false,false,false,false,true,true,true,true,false,false,false,false,false,true,true,true,false,false,true,true,false,false,false,true,true,false,false,false,false,false,false,false,false,false,false,false,false,false],"id":22,"left_children":[1,3,5,7,11,9,13,15,-1,19,-1,-1,17,21,-1,23,-1,-1,-1,-1,27,25,29,-1,-1,31,-1,33,35,-1,-1,-1,-1,37,41,39,43,-1,45,-1,-1,51,47,53,49,-1,-1,55,59,-1,-1,-1,57,61,-1,-1,-1,63,65,-1,-1,-1,-1,-1,-1,-1,-1],"loss_changes":[7.28633E5,1.677094E6,3.26784E5,1.143675E5,2.805585E5,2.60411E5,9.95419E5,7.05055E4,0E0,1.413795E5,0E0,0E0,2.185635E5,1.4092723E5,0E0,1.25585E5,0E0,0E0,0E0,0E0,1.71116E5,1.5973465E4,4.7538953E4,0E0,0E0,2.7619604E2,0E0,3.42302E5,9.2334E4,0E0,0E0,0E0,0E0,1.2941275E5,2.44109E5,3.12503E5,2.1675525E5,0E0,4.149625E3,0E0,0E0,5.5936562E3,5.682275E4,2.8978594E4,1.6376938E5,0E0,0E0,4.897375E4,1.7449556E3,0E0,0E0,0E0,1.1849766E3,4.3717184E4,0E0,0E0,0E0,5.3228027E3,8.1964844E2,0E0,0E0,0E0,0E0,0E0,0E0,0E0,0E0],"parents":[2147483647,0,0,1,1,2,2,3,3,5,5,4,4,6,6,7,7,12,12,9,9,13,13,15,15,21,21,20,20,22,22,25,25,27,27,28,28,33,33,35,35,34,34,36,36,38,38,42,42,44,44,41,41,43,43,47,47,52,52,48,48,53,53,57,57,58,58],"right_children":[2,4,6,8,12,10,14,16,-1,20,-1,-1,18,22,-1,24,-1,-1,-1,-1,28,26,30,-1,-1,32,-1,34,36,-1,-1,-1,-1,38,42,40,44,-1,46,-1,-1,52,48,54,50,-1,-1,56,60,-1,-1,-1,58,62,-1,-1,-1,64,66,-1,-1,-1,-1,-1,-1,-1,-1],"split_conditions":[1.2156871E2,1.2154596E2,3.3977824E7,3.808349E7,1.8957302E7,3.2200044E7,3.397817E7,3.8083456E7,3.594435E1,4E0,4.3615345E1,3.7656036E1,2.7449632E7,3.3977856E7,3.8585888E1,1.2154508E2,1.1791758E1,1.0646177E2,5.1190895E1,7.3651805E0,4.5E-1,1.2E1,1.2E1,3.2460743E1,1.643028E1,6E-2,1.0981877E1,1.5379517E7,4.6E-1,-1.668672E1,-9.3777317E-1,6.188111E-1,2.5100708E0,2E-1,2.7450964E7,2.983462E7,1.8E1,3.832972E1,2.8E1,7.817643E1,4.62215E0,1.9E-1,4.3E-1,4.8E-1,8.8E-1,1.4835632E1,2.4980165E1,2.9834724E7,2.983462E7,4.636615E1,1.7766138E1,1.0959829E1,2.5E-1,2.983462E7,1.9279211E1,3.841949E1,2.0180067E1,2.3E-1,4E-1,6.196008E0,5.0311893E-1,-7.3711E0,1.2235274E1,5.593487E0,-1.7238566E-1,8.615243E0,3.7665696E0],"split_indices":[3,3,0,0,0,0,0,0,0,7,0,0,0,0,0,3,0,0,0,0,6,7,7,0,0,6,0,0,6,0,0,0,0,6,0,0,5,0,5,0,0,6,6,6,6,0,0,0,0,0,0,0,6,0,0,0,0,6,6,0,0,0,0,0,0,0,0],"split_type":[0,0,0,0,0,0,0,0,0,0,0,0,0,0,0,0,0,0,0,0,0,0,0,0,0,0,0,0,0,0,0,0,0,0,0,0,0,0,0,0,0,0,0,0,0,0,0,0,0,0,0,0,0,0,0,0,0,0,0,0,0,0,0,0,0,0,0],"sum_hessian":[2.05E2,6.3E1,1.42E2,4.8E1,1.5E1,1.18E2,2.4E1,3.5E1,1.3E1,1.1E2,8E0,6E0,9E0,1.6E1,8E0,2.7E1,8E0,3E0,6E0,6E0,1.04E2,8E0,8E0,1.3E1,1.4E1,5E0,3E0,7.7E1,2.7E1,5E0,3E0,2E0,3E0,3.2E1,4.5E1,2E0,2.5E1,1.3E1,1.9E1,1E0,1E0,2.4E1,2.1E1,1.2E1,1.3E1,7E0,1.2E1,1.9E1,2E0,8E0,5E0,7E0,1.7E1,3E0,9E0,3E0,1.6E1,8E0,9E0,1E0,1E0,1E0,2E0,6E0,2E0,6E0,3E0],"tree_param":{"num_deleted":"0","num_feature":"9","num_nodes":"67","size_leaf_vector":"0"}},{"base_weights":[2.5241953E2,4.3037268E2,2.3309224E2,2.2164291E2,7.5653186E2,2.2000206E2,4.689966E1,6.73388E0,3.4428375E1,9.847713E1,3.3915955E1,2.0594243E2,2.8093573E2,2.696525E2,1.8637993E2,5.243909E2,2.4606328E2,3.1603333E2,1.6214994E1,7.42676E1,4.3910403E0,7.375851E1,2.1434967E2,2.9375092E2,1.2608169E2,2.30673E1,3.9539837E1,2.744331E2,1.8332117E2,1.9801294E1,6.6966446E1,1.0000834E1,5.7994217E1,5.4227577E1,2.17995E2,2.116606E2,3.973844E1,-2.1947672E1,1.0692163E1,-1.5053712E-1,2.3180786E2,-2.5643454E1,2.5207785E2,3.9239677E1,6.9073875E1,2.264625E2,4.2427776E1,2.9150742E2,1.5298517E1,5.1140437E0,-1.6086426E0,7.876784E0,3.4840972E0,3.515605E1,2.2409193E2,-7.002539E0,3.7103882E0,5.7392082E1,-1.0582972E2,3.5538025E1,1.828076E1,1.5641585E2,4.645214E2,1.8366547E1,1.01582365E1,-1.5296163E1,-8.6744386E-1,1.9407509E2,3.2365208E1,5.886206E0,4.779602E-1,-1.8981934E-3,-2.393982E-1,2.0351831E1,4.1473956E0,5.7755536E-1,2.3218155E0,5.674938E1,1.2928833E1,2.023211E1,8.164988E0],"categories":[],"categories_nodes":[],"categories_segments":[],"categories_sizes":[],"default_left":[true,true,true,false,true,true,false,false,false,false,false,true,true,true,false,true,true,true,false,false,false,true,true,true,true,false,false,false,true,false,true,false,true,false,true,true,false,true,false,false,true,false,false,true,true,false,true,true,false,false,true,false,false,false,true,false,false,true,true,false,false,true,true,true,false,false,false,false,false,false,false,false,false,false,false,false,false,false,false,false,false],"id":23,"left_children":[1,3,5,7,9,11,-1,-1,-1,-1,-1,13,15,17,21,19,23,25,-1,-1,-1,31,27,33,29,-1,-1,35,41,-1,37,-1,43,-1,39,45,-1,55,-1,-1,47,57,53,49,51,59,69,61,-1,-1,71,-1,-1,-1,67,-1,-1,63,65,-1,-1,73,77,75,-1,-1,-1,79,-1,-1,-1,-1,-1,-1,-1,-1,-1,-1,-1,-1,-1],"loss_changes":[6.0819E5,1.1258238E6,4.77369E5,2.2282825E5,3.3283125E5,9.6351E4,0E0,0E0,0E0,0E0,0E0,1.366915E5,1.34153E5,1.13295E5,3.55889E5,2.82034E5,1.28890875E5,5.783425E4,0E0,0E0,0E0,4.5453594E3,1.249345E5,2.5833112E5,2.926211E4,0E0,0E0,1.47428E5,9.4036575E5,0E0,2.721474E4,0E0,1.0298516E3,0E0,5.189175E4,4.5501E4,0E0,1.1115405E4,0E0,0E0,3.0694562E4,1.19265055E5,5.763975E4,4.4574004E3,5.741797E2,4.759175E4,1.5748252E3,1.1432331E5,0E0,0E0,3.6998277E0,0E0,0E0,0E0,5.9714875E4,0E0,0E0,1.365523E4,3.9885164E4,0E0,0E0,2.4043562E4,3.0188938E4,2.3242163E2,0E0,0E0,0E0,1.5000375E4,0E0,0E0,0E0,0E0,0E0,0E0,0E0,0E0,0E0,0E0,0E0,0E0,0E0],"parents":[2147483647,0,0,1,1,2,2,3,3,4,4,5,5,11,11,12,12,13,13,15,15,14,14,16,16,17,17,22,22,24,24,21,21,23,23,27,27,30,30,34,34,28,28,32,32,35,35,40,40,43,43,44,44,42,42,37,37,41,41,45,45,47,47,57,57,58,58,54,54,46,46,50,50,61,61,63,63,62,62,67,67],"right_children":[2,4,6,8,10,12,-1,-1,-1,-1,-1,14,16,18,22,20,24,26,-1,-1,-1,32,28,34,30,-1,-1,36,42,-1,38,-1,44,-1,40,46,-1,56,-1,-1,48,58,54,50,52,60,70,62,-1,-1,72,-1,-1,-1,68,-1,-1,64,66,-1,-1,74,78,76,-1,-1,-1,80,-1,-1,-1,-1,-1,-1,-1,-1,-1,-1,-1,-1,-1],"split_conditions":[6E0,1.8957302E7,3.8083516E7,7.014236E6,2.7449632E7,4.5E-1,4.689966E1,6.73388E0,3.4428375E1,9.847713E1,3.3915955E1,1.5379517E7,4.6E-1,3.3E-1,2.7450964E7,2.983462E7,2.7450768E7,1.2E1,1.6214994E1,7.42676E1,4.3910403E0,1.9E-1,3.3977824E7,6.8E-1,1.1E1,2.30673E1,3.9539837E1,3.2200044E7,3.397817E7,1.9801294E1,4.8E-1,1.0000834E1,2.5E-1,5.4227577E1,7.1E-1,4.3E-1,3.973844E1,2.983462E7,1.0692163E1,-1.5053712E-1,9.1E-1,3.3977856E7,1.8290814E8,2.3E-1,4E-1,2.9834724E7,2.983462E7,8.7E-1,1.5298517E1,5.1140437E0,2.4E-1,7.876784E0,3.4840972E0,3.515605E1,8E-2,-7.002539E0,3.7103882E0,1.2E1,1.2E1,3.5538025E1,1.828076E1,8.4E-1,2.7450088E7,6E-2,1.01582365E1,-1.5296163E1,-8.6744386E-1,1.2154595E2,3.2365208E1,5.886206E0,4.779602E-1,-1.8981934E-3,-2.393982E-1,2.0351831E1,4.1473956E0,5.7755536E-1,2.3218155E0,5.674938E1,1.2928833E1,2.023211E1,8.164988E0],"split_indices":[7,0,0,0,0,6,0,0,0,0,0,0,6,6,0,0,0,7,0,0,0,6,0,6,5,0,0,0,0,0,6,0,6,0,6,6,0,0,0,0,6,0,1,6,6,0,0,6,0,0,6,0,0,0,6,0,0,7,7,0,0,6,0,6,0,0,0,3,0,0,0,0,0,0,0,0,0,0,0,0,0],"split_type":[0,0,0,0,0,0,0,0,0,0,0,0,0,0,0,0,0,0,0,0,0,0,0,0,0,0,0,0,0,0,0,0,0,0,0,0,0,0,0,0,0,0,0,0,0,0,0,0,0,0,0,0,0,0,0,0,0,0,0,0,0,0,0,0,0,0,0,0,0,0,0,0,0,0,0,0,0,0,0,0,0],"sum_hessian":[2.05E2,1.8E1,1.87E2,1.2E1,6E0,1.79E2,8E0,6E0,6E0,3E0,3E0,1.49E2,3E1,3.2E1,1.17E2,2E0,2.8E1,2.1E1,1.1E1,1E0,1E0,2.4E1,9.3E1,1.9E1,9E0,1.2E1,9E0,2.9E1,6.4E1,3E0,6E0,7E0,1.7E1,3E0,1.6E1,2.1E1,8E0,2E0,4E0,1E0,1.5E1,1.6E1,4.8E1,8E0,9E0,1.9E1,2E0,7E0,8E0,6E0,2E0,6E0,3E0,8E0,4E1,1E0,1E0,8E0,8E0,3E0,1.6E1,5E0,2E0,5E0,3E0,5E0,3E0,3.3E1,7E0,1E0,1E0,1E0,1E0,3E0,2E0,2E0,3E0,1E0,1E0,3E1,3E0],"tree_param":{"num_deleted":"0","num_feature":"9","num_nodes":"81","size_leaf_vector":"0"}},{"base_weights":[2.3100114E2,2.0891222E2,5.1901263E2,1.971583E2,4.2730798E2,2.9595398E2,6.997921E2,4.4458556E0,2.0115297E2,8.210828E0,3.1477362E1,9.09231E0,4.5799072E1,9.109137E1,3.1372253E1,1.8733344E2,2.615329E2,2.4507582E2,1.6959758E2,4.9817142E2,2.2803468E2,1.379305E1,2.923789E2,7.055422E1,4.1714907E0,6.743204E1,1.9496503E2,2.7255347E2,1.1619365E2,1.5496526E1,3.4617428E1,2.5032047E2,1.6641692E2,-2.0850342E1,1.5306094E1,9.125759E1,5.3096676E1,5.0160513E2,2.026264E2,1.9323012E2,3.620612E1,-6.652417E0,3.5248659E0,3.7923584E0,6.435245E1,9.9109146E1,2.836296E2,3.5857143E1,6.330259E1,-2.3261826E1,2.2882756E2,4.672484E0,1.0863228E2,2.0650717E2,4.0306396E1,5.3911915E1,1.8430353E1,3.3011513E1,1.97785E2,-6.8860435E1,9.994693E0,2.660193E0,1.2248939E1,7.201631E0,3.2227921E0,1.7103157E1,5.4126797E1,4.675699E0,-1.5282186E0,3.287267E1,1.6560217E1,8.109033E0,2.1599318E1,-1.8005371E-3,-2.2743225E-1,-3.428703E0,9.634974E0,5.5918946E0,4.5406494E-1,1.7013102E0,-1.2465804E1],"categories":[],"categories_nodes":[],"categories_segments":[],"categories_sizes":[],"default_left":[false,true,false,true,true,true,true,false,false,false,false,false,false,false,false,true,true,false,true,true,true,false,false,false,false,false,true,true,true,false,false,true,false,true,false,true,true,false,false,true,false,false,false,false,false,true,true,false,true,true,true,false,true,false,true,false,false,false,true,true,false,false,false,false,false,false,true,false,false,false,false,false,false,false,false,false,false,false,false,false,false],"id":24,"left_children":[1,3,5,7,11,9,13,-1,15,-1,-1,-1,-1,-1,-1,17,19,21,25,23,27,-1,29,-1,-1,35,31,37,33,-1,-1,39,49,41,-1,51,47,43,45,53,-1,-1,-1,-1,-1,65,55,67,63,59,57,-1,61,69,77,-1,-1,-1,71,79,-1,-1,-1,-1,-1,-1,75,-1,73,-1,-1,-1,-1,-1,-1,-1,-1,-1,-1,-1,-1],"loss_changes":[1.202116E6,4.11185E5,3.5743575E5,1.039045E5,5.1248875E4,6.3505E3,2.84779E5,0E0,1.012025E5,0E0,0E0,0E0,0E0,0E0,0E0,1.120525E5,1.3213575E5,1.26926125E5,2.9267125E5,2.5453562E5,1.1272275E5,0E0,1.0898375E5,0E0,0E0,3.6932266E3,1.0689E5,2.1869975E5,5.3715766E4,0E0,0E0,1.2141825E5,7.747914E5,1.0031656E4,0E0,1.1141094E3,8.9716406E2,2.3881669E5,1.1443869E5,3.6344688E4,0E0,0E0,0E0,0E0,0E0,1.9859766E4,1.29029375E5,3.7389082E3,3.8682422E2,1.023909E5,8.877525E4,0E0,2.4250625E3,4.5549938E4,1.4212749E3,0E0,0E0,0E0,6.7476875E4,6.4410805E4,0E0,0E0,0E0,0E0,0E0,0E0,2.9435186E4,0E0,3.3393784E0,0E0,0E0,0E0,0E0,0E0,0E0,0E0,0E0,0E0,0E0,0E0,0E0],"parents":[2147483647,0,0,1,1,2,2,3,3,5,5,4,4,6,6,8,8,15,15,16,16,17,17,19,19,18,18,20,20,22,22,26,26,28,28,25,25,27,27,31,31,33,33,37,37,38,38,36,36,32,32,35,35,39,39,46,46,50,50,49,49,52,52,48,48,45,45,47,47,53,53,58,58,68,68,66,66,54,54,59,59],"right_children":[2,4,6,8,12,10,14,-1,16,-1,-1,-1,-1,-1,-1,18,20,22,26,24,28,-1,30,-1,-1,36,32,38,34,-1,-1,40,50,42,-1,52,48,44,46,54,-1,-1,-1,-1,-1,66,56,68,64,60,58,-1,62,70,78,-1,-1,-1,72,80,-1,-1,-1,-1,-1,-1,76,-1,74,-1,-1,-1,-1,-1,-1,-1,-1,-1,-1,-1,-1],"split_conditions":[3.65E2,3.8083516E7,1.8957302E7,4E0,1.36E2,5.193504E6,2.7449632E7,4.4458556E0,4.5E-1,8.210828E0,3.1477362E1,9.09231E0,4.5799072E1,9.109137E1,3.1372253E1,1.5379517E7,4.6E-1,4E0,2.7450964E7,2.983462E7,2.7450768E7,1.379305E1,1.072857E6,7.055422E1,4.1714907E0,1.9E-1,3.3977824E7,6.8E-1,8.5E1,1.5496526E1,3.4617428E1,3.2200044E7,3.397817E7,2.983462E7,1.5306094E1,1.8483236E7,2.5E-1,1E0,9.2E1,4.3E-1,3.620612E1,-6.652417E0,3.5248659E0,3.7923584E0,6.435245E1,3E0,9.4E1,2.3E-1,4E-1,1.23E2,3.2E1,4.672484E0,1E0,2.9834724E7,2.983462E7,5.3911915E1,1.8430353E1,3.3011513E1,1.36E2,3.3977856E7,9.994693E0,2.660193E0,1.2248939E1,7.201631E0,3.2227921E0,1.7103157E1,8.7E-1,4.675699E0,2.4E-1,3.287267E1,1.6560217E1,8.109033E0,2.1599318E1,-1.8005371E-3,-2.2743225E-1,-3.428703E0,9.634974E0,5.5918946E0,4.5406494E-1,1.7013102E0,-1.2465804E1],"split_indices":[8,0,0,7,8,0,0,0,6,0,0,0,0,0,0,0,6,8,0,0,0,0,0,0,0,6,0,6,8,0,0,0,0,0,0,0,6,8,8,6,0,0,0,0,0,8,8,6,6,8,8,0,8,0,0,0,0,0,8,0,0,0,0,0,0,0,6,0,6,0,0,0,0,0,0,0,0,0,0,0,0],"split_type":[0,0,0,0,0,0,0,0,0,0,0,0,0,0,0,0,0,0,0,0,0,0,0,0,0,0,0,0,0,0,0,0,0,0,0,0,0,0,0,0,0,0,0,0,0,0,0,0,0,0,0,0,0,0,0,0,0,0,0,0,0,0,0,0,0,0,0,0,0,0,0,0,0,0,0,0,0,0,0,0,0],"sum_hessian":[2.05E2,1.92E2,1.3E1,1.84E2,8E0,7E0,6E0,5E0,1.79E2,1E0,6E0,1E0,7E0,3E0,3E0,1.49E2,3E1,3.2E1,1.17E2,2E0,2.8E1,1.1E1,2.1E1,1E0,1E0,2.4E1,9.3E1,1.9E1,9E0,7E0,1.4E1,2.9E1,6.4E1,2E0,7E0,7E0,1.7E1,3E0,1.6E1,2.1E1,8E0,1E0,1E0,1E0,2E0,8E0,8E0,8E0,9E0,1.6E1,4.8E1,3E0,4E0,1.9E1,2E0,1E0,7E0,9E0,3.9E1,1.2E1,4E0,1E0,3E0,6E0,3E0,2E0,6E0,6E0,2E0,3E0,1.6E1,6E0,3.3E1,1E0,1E0,2E0,4E0,1E0,1E0,5E0,7E0],"tree_param":{"num_deleted":"0","num_feature":"9","num_nodes":"81","size_leaf_vector":"0"}},{"base_weights":[2.1141647E2,3.6559125E2,1.9471042E2,1.8577536E2,6.4730774E2,1.838304E2,3.9067623E1,5.72183E0,2.8779306E1,8.425953E1,2.9019331E1,2.0079427E2,1.5072827E2,1.8817809E2,3.2987804E1,-2.0980913E1,2.0722476E2,1.5194812E2,2.1462958E2,4.8826973E1,-8.845759E1,1.6017917E2,2.5768167E1,2.5394897E1,1.2585163E2,1.5595357E0,8.646766E0,1.023637E2,2.708603E1,2.895377E1,1.5664812E2,-1.2982663E1,-4.289627E-1,6.359829E0,1.6314985E1,1.1869462E1,6.9215403E0,5.227805E0,1.8460106E2,1.9375608E1,8.123197E0],"categories":[],"categories_nodes":[],"categories_segments":[],"categories_sizes":[],"default_left":[true,false,true,true,true,true,false,false,false,false,false,true,false,true,false,true,true,false,false,true,true,false,false,false,true,false,false,false,false,false,true,false,false,false,false,false,false,false,false,false,false],"id":25,"left_children":[1,3,5,7,9,11,-1,-1,-1,-1,-1,13,15,17,-1,19,21,23,29,25,31,27,-1,-1,33,-1,-1,35,-1,-1,37,-1,-1,-1,-1,-1,-1,-1,39,-1,-1],"loss_changes":[4.594E5,8.42231E5,3.29019E5,1.5402931E5,2.436645E5,7.0812E4,0E0,0E0,0E0,0E0,0E0,1.268355E5,6.349106E5,7.0888E4,0E0,8.4395984E4,7.503975E4,9.84715E4,2.152415E5,9.909252E3,3.0780617E4,1.51448E5,0E0,0E0,8.482344E4,0E0,0E0,2.6113594E3,0E0,0E0,9.5377625E4,0E0,0E0,0E0,0E0,0E0,0E0,0E0,1.07585E4,0E0,0E0],"parents":[2147483647,0,0,1,1,2,2,3,3,4,4,5,5,11,11,12,12,13,13,15,15,16,16,17,17,19,19,21,21,18,18,20,20,24,24,27,27,30,30,38,38],"right_children":[2,4,6,8,10,12,-1,-1,-1,-1,-1,14,16,18,-1,20,22,24,30,26,32,28,-1,-1,34,-1,-1,36,-1,-1,38,-1,-1,-1,-1,-1,-1,-1,40,-1,-1],"split_conditions":[6E0,1.8957302E7,3.8083516E7,7.014236E6,2.7449632E7,3.3977824E7,3.9067623E1,5.72183E0,2.8779306E1,8.425953E1,2.9019331E1,3.2200044E7,3.397817E7,1.2E1,3.2987804E1,3.3977856E7,2.50486E1,1.5379517E7,1.9E1,1.2E1,1.2E1,1E0,2.5768167E1,2.5394897E1,2.7450964E7,1.5595357E0,8.646766E0,3.8083428E7,2.708603E1,2.895377E1,2.4E1,-1.2982663E1,-4.289627E-1,6.359829E0,1.6314985E1,1.1869462E1,6.9215403E0,5.227805E0,1.4E1,1.9375608E1,8.123197E0],"split_indices":[7,0,0,0,0,0,0,0,0,0,0,0,0,5,0,0,2,0,5,7,7,5,0,0,0,0,0,0,0,0,5,0,0,0,0,0,0,0,7,0,0],"split_type":[0,0,0,0,0,0,0,0,0,0,0,0,0,0,0,0,0,0,0,0,0,0,0,0,0,0,0,0,0,0,0,0,0,0,0,0,0,0,0,0,0],"sum_hessian":[2.05E2,1.8E1,1.87E2,1.2E1,6E0,1.79E2,8E0,6E0,6E0,3E0,3E0,1.15E2,6.4E1,1.07E2,8E0,1.6E1,4.8E1,4.8E1,5.9E1,8E0,8E0,2.7E1,2.1E1,8E0,4E1,5E0,3E0,1.9E1,8E0,2.4E1,3.5E1,5E0,3E0,1.6E1,2.4E1,1.1E1,8E0,8E0,2.7E1,2.4E1,3E0],"tree_param":{"num_deleted":"0","num_feature":"9","num_nodes":"41","size_leaf_vector":"0"}},{"base_weights":[1.9220697E2,1.7311482E2,4.4167682E2,1.4329503E2,1.9674191E2,5.987594E2,2.4901997E1,1.6802347E2,8.342155E1,1.0781422E2,2.0600137E2,2.6842884E1,7.794002E1,1.2828845E2,2.2169977E2,2.3961793E-1,1.1717984E2,4.6281767E0,1.0148355E2,1.9174602E2,2.9613302E1,1.3507045E2,5.651316E1,1.3590976E1,5.042505E0,1.5964906E2,2.3651259E2,4.8470295E1,2.3465578E2,1.2495235E1,4.675367E0,1.4710975E1,5.4368774E1,1.7353189E2,4.561204E1,3.1522787E2,1.7066881E2,-2.7693727E0,1.0039917E1,-3.9383729E0,9.033332E0,2.8833832E2,1.4558207E1,2.523944E1,7.5084963E0,6.6259646E0,2.4101074E1,2.0408914E2,5.0026807E2,1.1395142E1,2.0953764E2,1.2599376E2,2.0525375E2,1.6567663E1,4.6074776E1,7.219025E-1,2.8839905E0,2.4636867E2,-6.1245037E1,1.6629973E2,2.1624722E1,2.798732E1,1.3938571E2,2.2171204E2,5.9305115E1,-3.7399323E0,4.0126405E0,4.3050537E0,5.164258E0,6.006089E1,4.9452395E0,1.7846217E2,5.6457653E1,1.0650357E2,3.6998318E1,-6.111853E0,1.1981917E1,2.2690356E2,5.374927E0,1.7147645E0,-5.691691E-1,3.1415854E0,1.701397E2,-7.767493E0,-1.4192628E0,-8.836878E0,5.46851E1,2.4945145E1,1.4989063E0,1.8939592E1,2.9535795E1,7.4453944E-1,7.6443605E0,1.3634673E1,-3.8422527E0,9.335505E0,2.1580599E1],"categories":[],"categories_nodes":[],"categories_segments":[],"categories_sizes":[],"default_left":[true,true,true,false,true,true,false,true,true,true,true,false,false,false,true,false,true,false,true,false,false,true,true,false,false,true,true,true,false,false,false,false,true,true,true,true,true,false,false,false,false,true,false,true,false,false,true,true,true,true,true,true,false,false,false,false,false,true,true,false,true,false,true,true,true,false,false,true,false,false,false,true,false,true,false,false,false,true,false,false,false,false,true,false,false,false,true,false,false,false,false,false,false,false,false,false,false],"id":26,"left_children":[1,3,5,7,9,11,-1,13,17,15,19,-1,-1,21,27,-1,23,-1,29,25,-1,31,39,-1,-1,33,41,37,35,-1,-1,-1,43,51,45,53,49,-1,-1,-1,-1,47,-1,55,-1,-1,67,57,69,65,61,59,63,-1,-1,-1,-1,71,83,73,85,-1,81,77,75,-1,-1,79,-1,-1,-1,87,-1,93,-1,-1,-1,89,-1,-1,-1,-1,95,-1,-1,-1,91,-1,-1,-1,-1,-1,-1,-1,-1,-1,-1],"loss_changes":[9.046995E5,1.07787E5,2.745795E5,1.1775475E5,6.424975E4,2.0848475E5,0E0,1.0379375E5,1.4086078E4,1.1566875E4,6.39945E4,0E0,0E0,1.0864375E4,4.4735375E4,0E0,6.900172E3,0E0,1.7278016E4,8.293825E4,0E0,2.5035938E4,1.97739E4,0E0,0E0,7.4409E4,1.13537E5,1.4645762E4,6.4778375E4,0E0,0E0,0E0,1.7255898E3,4.3507375E4,1.5121211E3,1.19529E5,9.047397E4,0E0,0E0,0E0,0E0,2.5499888E5,0E0,5.13313E1,0E0,0E0,2.5037366E3,1.9458012E5,1.964745E5,7.1084067E3,2.0199812E4,8.474441E4,4.9305E4,0E0,0E0,0E0,0E0,2.0176169E5,1.2167861E3,1.4328778E5,3.028744E4,0E0,2.1218938E4,7.85975E3,3.6472465E4,0E0,0E0,6.1113544E2,0E0,0E0,0E0,1.4712384E5,0E0,6.146447E4,0E0,0E0,0E0,5.4675E2,0E0,0E0,0E0,0E0,8.9225E2,0E0,0E0,0E0,5.598039E3,0E0,0E0,0E0,0E0,0E0,0E0,0E0,0E0,0E0,0E0],"parents":[2147483647,0,0,1,1,2,2,3,3,4,4,5,5,7,7,9,9,8,8,10,10,13,13,16,16,19,19,14,14,18,18,21,21,25,25,28,28,27,27,22,22,26,26,32,32,34,34,41,41,36,36,33,33,35,35,43,43,47,47,51,51,50,50,52,52,49,49,46,46,48,48,57,57,59,59,64,64,63,63,67,67,62,62,58,58,60,60,71,71,77,77,86,86,73,73,82,82],"right_children":[2,4,6,8,10,12,-1,14,18,16,20,-1,-1,22,28,-1,24,-1,30,26,-1,32,40,-1,-1,34,42,38,36,-1,-1,-1,44,52,46,54,50,-1,-1,-1,-1,48,-1,56,-1,-1,68,58,70,66,62,60,64,-1,-1,-1,-1,72,84,74,86,-1,82,78,76,-1,-1,80,-1,-1,-1,88,-1,94,-1,-1,-1,90,-1,-1,-1,-1,96,-1,-1,-1,92,-1,-1,-1,-1,-1,-1,-1,-1,-1,-1],"split_conditions":[3.65E2,1.2821925E8,9E-2,3.3E-1,2.504833E1,2.50512E1,2.4901997E1,1.2E1,2.505152E1,1.36E2,3.35E2,2.6842884E1,7.794002E1,9E1,1E0,2.3961793E-1,1.2154595E2,4.6281767E0,2.505159E1,3.1E-1,2.9613302E1,2.1E-1,2.505151E1,1.3590976E1,5.042505E0,1.8E-1,9.4E1,2.505151E1,7.8E1,1.2495235E1,4.675367E0,1.4710975E1,2.505152E1,1.36E2,1.9E-1,3.8E1,1.24E2,-2.7693727E0,1.0039917E1,-3.9383729E0,9.033332E0,8.5E1,1.4558207E1,2.2E-1,7.5084963E0,6.6259646E0,2.5E-1,8E1,8.8E-1,4E-2,1.45E2,9.4E1,2.42E2,1.6567663E1,4.6074776E1,7.219025E-1,2.8839905E0,3.3E1,4.8E-1,9.2E1,1.8290814E8,2.798732E1,1.2156965E2,1E-1,2.50486E1,-3.7399323E0,4.0126405E0,2E-1,5.164258E0,6.006089E1,4.9452395E0,4E0,5.6457653E1,3.8E1,3.6998318E1,-6.111853E0,1.1981917E1,2.09E2,5.374927E0,1.7147645E0,-5.691691E-1,3.1415854E0,2.505151E1,-7.767493E0,-1.4192628E0,-8.836878E0,2.50486E1,2.4945145E1,1.4989063E0,1.8939592E1,2.9535795E1,7.4453944E-1,7.6443605E0,1.3634673E1,-3.8422527E0,9.335505E0,2.1580599E1],"split_indices":[8,1,6,6,2,2,0,7,2,8,8,0,0,8,8,0,3,0,2,6,0,6,2,0,0,6,8,2,8,0,0,0,2,8,6,8,8,0,0,0,0,8,0,6,0,0,6,8,6,6,8,8,8,0,0,0,0,8,6,8,1,0,3,6,2,0,0,6,0,0,0,8,0,8,0,0,0,8,0,0,0,0,2,0,0,0,2,0,0,0,0,0,0,0,0,0,0],"split_type":[0,0,0,0,0,0,0,0,0,0,0,0,0,0,0,0,0,0,0,0,0,0,0,0,0,0,0,0,0,0,0,0,0,0,0,0,0,0,0,0,0,0,0,0,0,0,0,0,0,0,0,0,0,0,0,0,0,0,0,0,0,0,0,0,0,0,0,0,0,0,0,0,0,0,0,0,0,0,0,0,0,0,0,0,0,0,0,0,0,0,0,0,0,0,0,0,0],"sum_hessian":[2.05E2,1.92E2,1.3E1,8.8E1,1.04E2,6E0,7E0,6.1E1,2.7E1,1.1E1,9.3E1,3E0,3E0,3.7E1,2.4E1,1E0,1E1,1E1,1.7E1,8.3E1,1E1,3.3E1,4E0,7E0,3E0,5.1E1,3.2E1,2E0,2.2E1,1.1E1,6E0,2.8E1,5E0,4.5E1,6E0,8E0,1.4E1,1E0,1E0,1E0,3E0,1.9E1,1.3E1,3E0,2E0,2E0,4E0,1.5E1,4E0,3E0,1.1E1,2E1,2.5E1,5E0,3E0,1E0,2E0,1.3E1,2E0,1.4E1,6E0,4E0,7E0,2.2E1,3E0,1E0,2E0,3E0,1E0,3E0,1E0,1.2E1,1E0,1.2E1,2E0,1E0,2E0,2.1E1,1E0,1E0,2E0,2E0,5E0,1E0,1E0,1E0,5E0,8E0,4E0,1.6E1,5E0,2E0,3E0,1E1,2E0,3E0,2E0],"tree_param":{"num_deleted":"0","num_feature":"9","num_nodes":"97","size_leaf_vector":"0"}},{"base_weights":[1.7607076E2,2.3383075E2,1.4898886E2,1.6245503E2,4.3780444E2,1.6360835E2,7.344046E1,1.340332E2,2.2393583E1,1.5250972E2,2.8231287E1,2.4178045E1,5.3124084E2,-2.8128462E1,2.5713282E1,1.5630855E2,4.9839573E0,7.2094536E1,3.469467E1,1.3878146E2,2.0473642E2,3.438513E1,-8.751667E0,2.0930706E1,9.642269E1,2.7258646E2,1.0284273E2,1.4902777E2,5.0714817E1,4.6245747E0,7.997925E0,1.0498063E1,4.664319E0,1.1059376E2,1.6541718E0,3.149699E-1,1.1271302E0,1.3057032E1,1.8461338E1,8.927966E0,3.2376877E2,1.3533192E2,3.7883975E2,1.19657545E1,1.9041748E0,4.201784E1,2.0553423E2,6.2575756E1,8.794796E0,-3.2808167E1,3.779665E0,1.848072E2,9.6896805E1,5.7663036E1,4.7244507E1,2.463889E1,1.3245967E2,-7.3791537E0,2.4579284E0,5.137106E1,1.4422621E2,1.0144049E2,-5.872339E0,7.266257E1,3.905422E1,7.59449E0,1.5704879E1,1.5649081E2,1.438676E1,-1.3483032E0,1.4424268E1,2.3688912E0,4.897758E0,3.7896607E0,-1.6316468E0,3.5876663E0,8.7558775E0,2.699676E1,1.2058506E1],"categories":[],"categories_nodes":[],"categories_segments":[],"categories_sizes":[],"default_left":[true,true,true,true,false,true,true,false,false,true,false,false,true,false,false,true,false,false,false,false,true,true,false,false,true,false,false,true,false,false,true,false,false,true,false,false,false,false,true,false,true,true,true,false,false,false,true,false,false,true,false,false,true,true,false,false,true,false,false,false,true,true,false,false,true,false,false,true,true,false,false,false,false,false,false,false,false,false,false],"id":27,"left_children":[1,3,5,7,11,9,13,15,-1,19,-1,-1,17,21,-1,23,-1,-1,-1,27,25,29,-1,-1,31,39,33,41,37,-1,35,-1,-1,43,-1,-1,-1,-1,49,-1,45,51,47,-1,-1,-1,53,-1,-1,57,-1,55,59,61,-1,-1,65,-1,-1,63,67,69,-1,75,71,-1,-1,77,73,-1,-1,-1,-1,-1,-1,-1,-1,-1,-1],"loss_changes":[2.87398E5,8.606375E5,1.4592525E5,5.5607625E4,1.646085E5,1.13722E5,4.736686E5,5.9725562E4,0E0,5.11715E4,0E0,0E0,9.948475E4,6.612297E4,0E0,6.868619E4,0E0,0E0,0E0,7.4556625E4,1.1714975E5,2.4468477E3,0E0,0E0,1.4935156E3,8.367881E4,4.8598125E3,2.0367588E5,2.5921293E4,0E0,2.797905E1,0E0,0E0,5.1897812E3,0E0,0E0,0E0,0E0,1.0161846E4,0E0,1.62295E4,1.30416625E5,2.3227131E5,0E0,0E0,0E0,2.0956792E5,0E0,0E0,8.869535E3,0E0,7.3743875E4,9.170744E4,3.1432434E4,0E0,0E0,1.5865906E4,0E0,0E0,3.7183281E3,3.2782062E4,2.1620742E4,0E0,1.2424453E3,1.584332E3,0E0,0E0,4.8935344E4,2.7838232E3,0E0,0E0,0E0,0E0,0E0,0E0,0E0,0E0,0E0,0E0],"parents":[2147483647,0,0,1,1,2,2,3,3,5,5,4,4,6,6,7,7,12,12,9,9,13,13,15,15,20,20,19,19,21,21,24,24,26,26,30,30,28,28,25,25,27,27,33,33,40,40,42,42,38,38,41,41,46,46,51,51,49,49,52,52,53,53,59,59,56,56,60,60,61,61,64,64,68,68,63,63,67,67],"right_children":[2,4,6,8,12,10,14,16,-1,20,-1,-1,18,22,-1,24,-1,-1,-1,28,26,30,-1,-1,32,40,34,42,38,-1,36,-1,-1,44,-1,-1,-1,-1,50,-1,46,52,48,-1,-1,-1,54,-1,-1,58,-1,56,60,62,-1,-1,66,-1,-1,64,68,70,-1,76,72,-1,-1,78,74,-1,-1,-1,-1,-1,-1,-1,-1,-1,-1],"split_conditions":[1.2156871E2,1.2154596E2,3.3977824E7,3.808349E7,1.8957302E7,3.2200044E7,3.397817E7,3.8083456E7,2.2393583E1,6.1E-1,2.8231287E1,2.4178045E1,2.7449632E7,3.3977856E7,2.5713282E1,1.2154508E2,4.9839573E0,7.2094536E1,3.469467E1,4.7E-1,8.8E-1,6E-2,-8.751667E0,2.0930706E1,1.2154595E2,1.8E1,1.13E2,4.5E-1,1.1E1,4.6245747E0,8E-2,1.0498063E1,4.664319E0,1.77E0,1.6541718E0,3.149699E-1,1.1271302E0,1.3057032E1,4.8E-1,8.927966E0,6.8E-1,1.5379517E7,2.983462E7,1.19657545E1,1.9041748E0,4.201784E1,8.7E-1,6.2575756E1,8.794796E0,2.983462E7,3.779665E0,2E-1,2.7450964E7,8.4E-1,4.7244507E1,2.463889E1,2.8E1,-7.3791537E0,2.4579284E0,1.9E-1,4.3E-1,7.1E-1,-5.872339E0,1.8483236E7,2.5E-1,7.59449E0,1.5704879E1,2.9834724E7,2.983462E7,-1.3483032E0,1.4424268E1,2.3688912E0,4.897758E0,3.7896607E0,-1.6316468E0,3.5876663E0,8.7558775E0,2.699676E1,1.2058506E1],"split_indices":[3,3,0,0,0,0,0,0,0,6,0,0,0,0,0,3,0,0,0,6,6,6,0,0,3,5,5,6,5,0,6,0,0,6,0,0,0,0,6,0,6,0,0,0,0,0,6,0,0,0,0,6,0,6,0,0,5,0,0,6,6,6,0,0,6,0,0,0,0,0,0,0,0,0,0,0,0,0,0],"split_type":[0,0,0,0,0,0,0,0,0,0,0,0,0,0,0,0,0,0,0,0,0,0,0,0,0,0,0,0,0,0,0,0,0,0,0,0,0,0,0,0,0,0,0,0,0,0,0,0,0,0,0,0,0,0,0,0,0,0,0,0,0,0,0,0,0,0,0,0,0,0,0,0,0,0,0,0,0,0,0],"sum_hessian":[2.05E2,6.3E1,1.42E2,4.8E1,1.5E1,1.18E2,2.4E1,3.5E1,1.3E1,1.1E2,8E0,6E0,9E0,1.6E1,8E0,2.7E1,8E0,3E0,6E0,9E1,2E1,8E0,8E0,1.3E1,1.4E1,1.1E1,9E0,8E1,1E1,5E0,3E0,1.1E1,3E0,8E0,1E0,2E0,1E0,2E0,8E0,3E0,8E0,7.7E1,3E0,7E0,1E0,3E0,5E0,1E0,2E0,2E0,6E0,3.2E1,4.5E1,4E0,1E0,1.3E1,1.9E1,1E0,1E0,2.4E1,2.1E1,3E0,1E0,7E0,1.7E1,7E0,1.2E1,1.9E1,2E0,1E0,2E0,8E0,9E0,1E0,1E0,3E0,4E0,3E0,1.6E1],"tree_param":{"num_deleted":"0","num_feature":"9","num_nodes":"79","size_leaf_vector":"0"}},{"base_weights":[1.6117563E2,2.8395493E2,1.4790976E2,5.080857E2,1.4142644E2,1.24150276E2,1.6550868E2,2.2227583E1,6.6687416E1,9.610339E1,1.6256912E2,4.159263E0,2.2105648E1,1.4651828E2,2.2041727E2,1.25839615E1,8.021775E1,1.6994934E2,1.0728674E2,1.906125E1,7.620376E1,4.2736267E2,1.7277187E2,2.0201619E-1,9.3117E1,1.197225E2,5.345964E1,8.432332E0,2.20611E2,1.735035E2,5.944701E1,1.349624E2,3.1045103E1,3.7103424E0,8.766056E0,-9.6741945E-1,7.55867E0,9.4501564E1,3.7512306E1,2.2425343E1,3.6001832E0,3.8866498E2,1.5683765E2,1.1037043E2,2.1013716E1,-7.010156E0,3.8159424E1,1.853164E1,8.0368195E1,-7.695821E1,1.0975863E2,2.939738E-1,1.0707734E0,1.7466081E2,5.1533875E1,4.1965797E1,1.0894728E2,1.3980036E1,3.311678E0,1.1034058E0,4.218225E0,-9.993665E0,-1.5500672E0,7.4698715E1,1.5344642E1,1.0760852E1,2.0552027E1,7.6856865E1,2.0721613E2,2.7392225E1,-1.1931031E0,1.1410825E1,1.5766419E0,-1.2808838E0,9.393595E1,4.4882275E1,1.0858336E1,2.3842468E0,4.661157E0,4.659448E0,1.8745483E0,4.540929E0,9.0440895E1,1.3248316E1,1.1227702E1,1.5105835E0,-6.891561E-1,1.0141223E1,4.3145175E0,7.2628784E0,-5.5787234E0],"categories":[],"categories_nodes":[],"categories_segments":[],"categories_sizes":[],"default_left":[true,false,true,true,true,true,false,false,false,false,true,false,false,false,true,false,true,true,true,false,true,false,true,true,true,true,true,true,true,true,false,true,false,false,false,false,true,false,false,false,false,true,true,true,false,false,true,false,false,true,true,false,false,true,false,false,true,false,false,false,false,false,false,true,false,false,true,true,true,false,false,false,false,false,true,false,false,false,false,false,false,false,true,false,true,false,false,false,false,false,false],"id":28,"left_children":[1,3,5,7,11,9,13,-1,-1,15,19,-1,-1,17,21,-1,23,31,25,-1,33,29,27,35,47,37,49,45,41,39,-1,43,-1,-1,-1,-1,51,65,-1,-1,-1,53,67,63,-1,-1,59,-1,55,61,57,-1,-1,69,-1,79,71,-1,-1,-1,-1,-1,-1,81,-1,-1,77,73,75,-1,-1,-1,-1,-1,83,-1,-1,85,-1,-1,-1,-1,87,-1,89,-1,-1,-1,-1,-1,-1],"loss_changes":[2.93528E5,5.350986E5,5.80625E4,1.6945312E5,9.415266E4,7.4889E4,7.719225E4,0E0,0E0,1.399675E4,6.782181E4,0E0,0E0,5.6225E4,1.7266375E5,0E0,3.7138344E4,1.9897112E5,1.5689281E4,0E0,1.2271406E3,6.654431E4,1.7110069E5,5.090592E2,2.1544844E4,1.3202781E5,6.718597E4,1.6682541E4,1.21237875E5,1.28610625E4,0E0,5.2603562E4,0E0,0E0,0E0,0E0,2.6703308E1,2.201975E4,0E0,0E0,0E0,1.8425375E4,4.0484375E4,3.9245344E4,0E0,0E0,8.016211E1,0E0,2.7255594E4,2.6875078E3,9.184984E3,0E0,0E0,5.883229E4,0E0,6.312754E2,5.895375E3,0E0,0E0,0E0,0E0,0E0,0E0,5.1147344E3,0E0,0E0,2.2560872E3,1.192307E4,1.4190794E5,0E0,0E0,0E0,0E0,0E0,1.7641555E4,0E0,0E0,5.761148E2,0E0,0E0,0E0,0E0,1.8513203E3,0E0,1.6396127E4,0E0,0E0,0E0,0E0,0E0,0E0],"parents":[2147483647,0,0,1,1,2,2,3,3,5,5,4,4,6,6,9,9,13,13,10,10,14,14,16,16,18,18,22,22,21,21,17,17,20,20,23,23,25,25,29,29,28,28,31,31,27,27,24,24,26,26,36,36,41,41,48,48,50,50,46,46,49,49,43,43,37,37,42,42,53,53,56,56,67,67,68,68,66,66,55,55,63,63,74,74,77,77,82,82,84,84],"right_children":[2,4,6,8,12,10,14,-1,-1,16,20,-1,-1,18,22,-1,24,32,26,-1,34,30,28,36,48,38,50,46,42,40,-1,44,-1,-1,-1,-1,52,66,-1,-1,-1,54,68,64,-1,-1,60,-1,56,62,58,-1,-1,70,-1,80,72,-1,-1,-1,-1,-1,-1,82,-1,-1,78,74,76,-1,-1,-1,-1,-1,84,-1,-1,86,-1,-1,-1,-1,88,-1,90,-1,-1,-1,-1,-1,-1],"split_conditions":[6E0,5E0,2.6103188E7,2.50512E1,1.2821925E8,1.2E1,1.2E1,2.2227583E1,6.6687416E1,1E0,3.3E-1,4.159263E0,2.2105648E1,2.505044E1,4.6E-1,1.25839615E1,5E0,2.504931E1,4.1E-1,1.906125E1,2.505152E1,4.5E-1,1.7E1,6E-2,1.4E-1,6E0,4.4E-1,4.8E-1,6.8E-1,4.3E-1,5.944701E1,1E0,3.1045103E1,3.7103424E0,8.766056E0,-9.6741945E-1,8E-2,1.9E-1,3.7512306E1,2.2425343E1,3.6001832E0,6.6E-1,8.7E-1,2.50486E1,2.1013716E1,-7.010156E0,5.1E-1,1.853164E1,2.505152E1,4.2E-1,1.1E1,2.939738E-1,1.0707734E0,6.3E-1,5.1533875E1,4E-1,3.7E1,1.3980036E1,3.311678E0,1.1034058E0,4.218225E0,-9.993665E0,-1.5500672E0,1.2154508E2,1.5344642E1,1.0760852E1,2.5E-1,7.1E-1,8.8E-1,2.7392225E1,-1.1931031E0,1.1410825E1,1.5766419E0,-1.2808838E0,8.4E-1,4.4882275E1,1.0858336E1,2E-1,4.661157E0,4.659448E0,1.8745483E0,4.540929E0,1.2154595E2,1.3248316E1,1.8E1,1.5105835E0,-6.891561E-1,1.0141223E1,4.3145175E0,7.2628784E0,-5.5787234E0],"split_indices":[7,5,1,2,1,7,5,0,0,5,6,0,0,2,6,0,5,2,6,0,2,6,5,6,6,5,6,6,6,6,0,5,0,0,0,0,6,6,0,0,0,6,6,2,0,0,6,0,2,6,5,0,0,6,0,6,5,0,0,0,0,0,0,3,0,0,6,6,6,0,0,0,0,0,6,0,0,6,0,0,0,0,3,0,5,0,0,0,0,0,0],"split_type":[0,0,0,0,0,0,0,0,0,0,0,0,0,0,0,0,0,0,0,0,0,0,0,0,0,0,0,0,0,0,0,0,0,0,0,0,0,0,0,0,0,0,0,0,0,0,0,0,0,0,0,0,0,0,0,0,0,0,0,0,0,0,0,0,0,0,0,0,0,0,0,0,0,0,0,0,0,0,0,0,0,0,0,0,0,0,0,0,0,0,0],"sum_hessian":[2.05E2,1.8E1,1.87E2,6E0,1.2E1,8.3E1,1.04E2,3E0,3E0,5E1,3.3E1,6E0,6E0,8E1,2.4E1,1.5E1,3.5E1,4.8E1,3.2E1,2.4E1,9E0,3E0,2.1E1,5E0,3E1,2.5E1,7E0,5E0,1.6E1,2E0,1E0,4E1,8E0,3E0,6E0,2E0,3E0,2.4E1,1E0,1E0,1E0,3E0,1.3E1,3.2E1,8E0,1E0,4E0,2E0,2.8E1,2E0,5E0,2E0,1E0,2E0,1E0,1.3E1,1.5E1,3E0,2E0,1E0,3E0,1E0,1E0,1.9E1,1.3E1,2E1,4E0,6E0,7E0,1E0,1E0,1.4E1,1E0,1E0,5E0,1E0,6E0,3E0,1E0,1E1,3E0,8E0,1.1E1,3E0,2E0,1E0,2E0,8E0,3E0,1E0,1E0],"tree_param":{"num_deleted":"0","num_feature":"9","num_nodes":"91","size_leaf_vector":"0"}},{"base_weights":[1.4784721E2,2.6162155E2,1.3556232E2,1.2930421E2,4.6997925E2,1.2744454E2,2.8285522E1,3.8027692E0,2.0210873E1,6.1685852E1,2.0560516E1,1.1619292E2,1.777768E2,1.5534827E2,1.04258E2,3.929435E2,1.4938792E2,1.0883265E2,2.18539E2,5.647463E1,2.4669006E0,7.5408455E1,1.4334393E2,1.8638766E2,6.0449646E1,1.4329544E1,8.136586E1,9.865054E1,-9.3082405E1,7.3076577E0,1.1213011E1,3.692317E2,1.3240157E2,8.893664E0,2.4852606E1,2.2093163E1,1.22816284E2,5.896692E1,1.2262149E1,-1.3135248E1,-1.2406693E0,-1.2168397E0,1.4219772E2,1.0037402E2,1.9145834E1,1.6592773E2,4.895718E1,1.6089113E2,6.284704E1,-6.6596437E0,3.5407764E1,7.906242E0,2.90436E0,8.2152695E1,1.3983615E1,3.1580276E1,1.0104455E2,1.04823E0,3.9018555E0,1.0089361E1,2.227988E2,1.9197887E2,8.214807E1,2.6022608E1,-1.1334473E0,9.890937E1,4.1373115E0,6.391644E1,1.6464803E2,2.8645182E1,9.334245E0,8.703109E1,3.3788147E2,2.2001293E1,4.5100662E1,2.438736E1,1.6562897E0,1.0870166E1,3.9909027E0,3.56367E1,5.5030837E0,-3.771106E-1,3.090635E0,4.2638165E1,8.044055E0,3.0406084E0,6.4354453E0,1.2254694E1,1.066626E0,8.143851E0,1.9593409E0,3.5567627E0,7.400147E-1],"categories":[],"categories_nodes":[],"categories_segments":[],"categories_sizes":[],"default_left":[true,true,true,true,true,true,false,false,false,false,false,false,true,true,true,true,true,false,true,false,false,false,true,false,true,false,true,true,true,true,false,true,true,false,false,false,true,false,false,false,false,false,true,true,false,true,false,true,true,false,true,false,false,false,false,true,false,false,false,false,true,false,true,false,false,true,false,true,true,true,false,true,true,false,false,false,false,false,false,false,false,false,false,false,false,false,false,false,false,false,false,false,false],"id":29,"left_children":[1,3,5,7,9,11,-1,-1,-1,-1,-1,13,15,17,21,19,23,25,33,-1,-1,27,35,31,29,-1,37,47,39,49,-1,45,41,-1,-1,-1,43,51,-1,-1,-1,-1,61,53,-1,63,-1,59,55,-1,57,-1,-1,65,-1,73,67,-1,-1,-1,75,71,69,-1,-1,77,-1,89,79,91,-1,87,83,81,85,-1,-1,-1,-1,-1,-1,-1,-1,-1,-1,-1,-1,-1,-1,-1,-1,-1,-1],"loss_changes":[2.524615E5,4.6304712E5,1.8874125E5,7.8703734E4,1.4498825E5,8.128125E4,0E0,0E0,0E0,0E0,0E0,5.3901E4,1.306575E5,7.321456E4,1.2224875E5,1.7587997E5,8.416306E4,8.218859E3,2.8420062E4,0E0,0E0,2.8330812E5,5.0907875E4,1.4853388E5,2.6644613E4,0E0,5.706547E3,1.2805125E5,2.615754E4,1.4818309E4,0E0,1.6628938E4,2.5806188E4,0E0,0E0,0E0,4.3942312E4,4.3183047E3,0E0,0E0,0E0,0E0,3.205875E4,1.2240844E4,0E0,5.3096117E4,0E0,5.9235812E4,4.5775797E4,0E0,4.0999023E1,0E0,0E0,1.29910625E4,0E0,2.116004E3,3.1982875E4,0E0,0E0,0E0,3.9424562E4,9.309103E4,2.7165703E3,0E0,0E0,5.483547E3,0E0,8.500555E3,1.06483E5,1.7799707E2,0E0,1.4965855E4,3.4052344E4,3.7886265E3,5.8956836E2,0E0,0E0,0E0,0E0,0E0,0E0,0E0,0E0,0E0,0E0,0E0,0E0,0E0,0E0,0E0,0E0,0E0,0E0],"parents":[2147483647,0,0,1,1,2,2,3,3,4,4,5,5,11,11,12,12,13,13,15,15,14,14,16,16,17,17,21,21,24,24,23,23,18,18,22,22,26,26,28,28,32,32,36,36,31,31,27,27,29,29,37,37,43,43,48,48,50,50,47,47,42,42,45,45,53,53,56,56,62,62,61,61,55,55,60,60,65,65,68,68,73,73,72,72,74,74,71,71,67,67,69,69],"right_children":[2,4,6,8,10,12,-1,-1,-1,-1,-1,14,16,18,22,20,24,26,34,-1,-1,28,36,32,30,-1,38,48,40,50,-1,46,42,-1,-1,-1,44,52,-1,-1,-1,-1,62,54,-1,64,-1,60,56,-1,58,-1,-1,66,-1,74,68,-1,-1,-1,76,72,70,-1,-1,78,-1,90,80,92,-1,88,84,82,86,-1,-1,-1,-1,-1,-1,-1,-1,-1,-1,-1,-1,-1,-1,-1,-1,-1,-1],"split_conditions":[6E0,1.8957302E7,3.8083516E7,7.014236E6,2.7449632E7,4.5E-1,2.8285522E1,3.8027692E0,2.0210873E1,6.1685852E1,2.0560516E1,1.5379517E7,4.6E-1,1.2E1,3.397817E7,2.983462E7,2.7450768E7,2E-1,1.072857E6,5.647463E1,2.4669006E0,3.3977856E7,3.8083344E7,6.8E-1,2.983462E7,1.4329544E1,4.2E-1,5E-2,1.2E1,4.8E-1,1.1213011E1,6.6E-1,7.1E-1,8.893664E0,2.4852606E1,2.2093163E1,4E-2,3.3E-1,1.2262149E1,-1.3135248E1,-1.2406693E0,-1.2168397E0,9.1E-1,3.808349E7,1.9145834E1,6.3E-1,4.895718E1,3.2200044E7,1.0007698E7,-6.6596437E0,5.1E-1,7.906242E0,2.90436E0,3.8083428E7,1.3983615E1,1.2E1,3.1E-1,1.04823E0,3.9018555E0,1.0089361E1,3.3977824E7,8.7E-1,1.13E0,2.6022608E1,-1.1334473E0,1.2154595E2,4.1373115E0,1.9E-1,4.1E-1,9.4E-1,9.334245E0,8.4E-1,2.7450088E7,8E-2,1.8483236E7,2.438736E1,1.6562897E0,1.0870166E1,3.9909027E0,3.56367E1,5.5030837E0,-3.771106E-1,3.090635E0,4.2638165E1,8.044055E0,3.0406084E0,6.4354453E0,1.2254694E1,1.066626E0,8.143851E0,1.9593409E0,3.5567627E0,7.400147E-1],"split_indices":[7,0,0,0,0,6,0,0,0,0,0,0,6,7,0,0,0,6,0,0,0,0,0,6,0,0,6,6,7,6,0,6,6,0,0,0,6,6,0,0,0,0,6,0,0,6,0,0,1,0,6,0,0,0,0,7,6,0,0,0,0,6,6,0,0,3,0,6,6,6,0,6,0,6,0,0,0,0,0,0,0,0,0,0,0,0,0,0,0,0,0,0,0],"split_type":[0,0,0,0,0,0,0,0,0,0,0,0,0,0,0,0,0,0,0,0,0,0,0,0,0,0,0,0,0,0,0,0,0,0,0,0,0,0,0,0,0,0,0,0,0,0,0,0,0,0,0,0,0,0,0,0,0,0,0,0,0,0,0,0,0,0,0,0,0,0,0,0,0,0,0,0,0,0,0,0,0,0,0,0,0,0,0,0,0,0,0,0,0],"sum_hessian":[2.05E2,1.8E1,1.87E2,1.2E1,6E0,1.79E2,8E0,6E0,6E0,3E0,3E0,1.49E2,3E1,3.2E1,1.17E2,2E0,2.8E1,2E1,1.2E1,1E0,1E0,6.9E1,4.8E1,1.9E1,9E0,7E0,1.3E1,6.1E1,8E0,5E0,4E0,3E0,1.6E1,3E0,9E0,8E0,4E1,1E1,3E0,5E0,3E0,1E0,1.5E1,3.2E1,8E0,2E0,1E0,2.1E1,4E1,1E0,4E0,5E0,5E0,2.4E1,8E0,2.3E1,1.7E1,1E0,3E0,1.2E1,9E0,7E0,8E0,1E0,1E0,1.6E1,8E0,1.2E1,5E0,2E0,6E0,5E0,2E0,1.5E1,8E0,8E0,1E0,1.3E1,3E0,1E0,4E0,4E0,1.1E1,1E0,1E0,6E0,2E0,3E0,2E0,8E0,4E0,1E0,1E0],"tree_param":{"num_deleted":"0","num_feature":"9","num_nodes":"93","size_leaf_vector":"0"}},{"base_weights":[1.3589655E2,1.2203431E2,3.1729037E2,1.147741E2,2.5771243E2,1.7486868E1,4.3473087E2,1.2722556E2,8.982948E1,2.2158813E0,2.8438679E1,5.7059425E1,1.9018476E1,9.6744156E1,1.519981E2,-3.275135E1,1.3052428E2,2.2081173E1,8.056821E1,-6.6488045E1,6.151432E1,1.05791985E2,1.8204474E2,2.2355099E1,1.0400449E2,3.21678E1,1.1231791E2,1.5734742E0,6.902553E0,1.2887731E1,1.1970487E2,3.0581216E2,1.0545322E2,-1.542155E-2,-1.080315E2,1.4029086E2,1.7373156E1,3.505417E1,1.862847E0,4.5462746E1,-4.569987E1,-8.777385E-1,6.559906E0,-5.353125E0,3.2927612E1,3.9262104E1,1.7134964E2,8.6729675E1,2.7740906E1,-3.0843537E0,-1.1465214E2,3.2413785E2,3.3789184E0,1.6255954E2,6.7001205E1,1.0035521E2,1.9327742E1,4.2613463E0,2.3599963E0,-9.56311E0,2.70813E0,1.112894E1,2.0999118E2,1.354039E1,6.3415405E1,9.22749E0,3.755476E0,7.0311813E0,1.9242744E1,4.777888E1,2.5276596E2,-1.3138234E1,-4.8551087E0,9.341984E1,-1.1171722E1,-9.638672E-1,9.930322E1,4.2506247E0,-1.7061402E0,-1.3478028E0,6.3567443E0,-7.662628E-1,1.385496E0,3.385487E1,1.4326172E2,-4.9884357E1,3.255643E2,6.565137E1,-1.0040479E1,7.250034E1,1.2153636E1,-3.8793538E0,-1.6524414E0,-2.662832E1,9.564901E1,2.6929443E0,1.1320032E1,2.4663383E1,-7.6779056E0,4.7576477E1,1.7116993E1,3.1953492E0,-4.9262147E0,-1.0767701E0,4.9486694E-1,3.6915894E0,1.1112494E1,-7.738241E-1,8.932189E0,-1.1559937E0,-6.32666E0,7.0301515E-1,9.1446905E0],"categories":[],"categories_nodes":[],"categories_segments":[],"categories_sizes":[],"default_left":[false,true,false,true,true,false,true,true,true,false,false,false,false,false,true,true,true,false,true,true,true,true,false,false,true,false,true,false,false,true,true,true,true,true,true,false,true,true,false,true,true,false,true,false,true,true,false,true,false,false,true,true,false,true,true,true,false,false,false,false,false,false,true,false,true,false,false,false,false,false,true,false,false,true,true,false,true,false,false,false,false,false,false,false,true,true,true,true,false,true,false,true,false,true,true,false,false,false,false,false,false,false,false,false,false,false,false,false,false,false,false,false,false],"id":30,"left_children":[1,3,5,7,9,-1,11,13,15,-1,-1,-1,-1,17,21,19,23,-1,25,33,27,35,31,-1,29,37,53,-1,-1,39,55,51,47,41,49,45,43,57,-1,79,59,-1,81,-1,77,73,61,75,-1,-1,71,69,-1,67,65,63,-1,-1,-1,-1,-1,-1,83,-1,93,-1,-1,-1,-1,-1,85,-1,-1,95,91,87,89,-1,-1,-1,-1,-1,-1,-1,97,109,99,111,-1,107,-1,103,-1,101,105,-1,-1,-1,-1,-1,-1,-1,-1,-1,-1,-1,-1,-1,-1,-1,-1,-1,-1],"loss_changes":[4.7927175E5,1.60536E5,1.5814425E5,4.6032E4,5.02475E4,0E0,1.2405575E5,7.666225E4,3.2852094E5,0E0,0E0,0E0,0E0,9.66035E4,7.098325E4,5.8153566E4,9.7635E4,0E0,7.629531E4,3.589787E4,6.332012E2,8.29725E4,3.2797338E5,0E0,5.567997E4,2.0674219E2,5.9688625E4,0E0,0E0,1.5437085E4,2.9006188E4,5.8837625E4,5.6430938E4,4.0325546E2,5.519844E2,5.602903E4,1.1688572E4,4.6628125E2,0E0,6.192288E3,1.3491975E4,0E0,5.2118207E2,0E0,4.555826E3,1.7431953E4,1.14425E4,2.6558578E4,0E0,0E0,1.3624375E3,2.1793875E4,0E0,2.50435E4,9.930609E3,2.8959375E4,0E0,0E0,0E0,0E0,0E0,0E0,2.01275E4,0E0,4.8985906E4,0E0,0E0,0E0,0E0,0E0,2.5859738E5,0E0,0E0,8.9721484E2,9.203116E1,3.3088832E4,3.7027031E3,0E0,0E0,0E0,0E0,0E0,0E0,0E0,1.7815888E5,8.072422E2,1.2727431E5,3.8936104E3,0E0,1.6888031E4,0E0,2.3571722E2,0E0,8.20375E3,6.805125E3,0E0,0E0,0E0,0E0,0E0,0E0,0E0,0E0,0E0,0E0,0E0,0E0,0E0,0E0,0E0,0E0,0E0,0E0],"parents":[2147483647,0,0,1,1,2,2,3,3,4,4,6,6,7,7,8,8,13,13,15,15,14,14,16,16,18,18,20,20,24,24,22,22,19,19,21,21,25,25,29,29,33,33,36,36,35,35,32,32,34,34,31,31,26,26,30,30,37,37,40,40,46,46,55,55,54,54,53,53,51,51,50,50,45,45,47,47,44,44,39,39,42,42,62,62,70,70,75,75,76,76,74,74,64,64,73,73,84,84,86,86,93,93,91,91,94,94,89,89,85,85,87,87],"right_children":[2,4,6,8,10,-1,12,14,16,-1,-1,-1,-1,18,22,20,24,-1,26,34,28,36,32,-1,30,38,54,-1,-1,40,56,52,48,42,50,46,44,58,-1,80,60,-1,82,-1,78,74,62,76,-1,-1,72,70,-1,68,66,64,-1,-1,-1,-1,-1,-1,84,-1,94,-1,-1,-1,-1,-1,86,-1,-1,96,92,88,90,-1,-1,-1,-1,-1,-1,-1,98,110,100,112,-1,108,-1,104,-1,102,106,-1,-1,-1,-1,-1,-1,-1,-1,-1,-1,-1,-1,-1,-1,-1,-1,-1,-1],"split_conditions":[3.65E2,3.8083516E7,1.8957302E7,3.3977824E7,1.36E2,1.7486868E1,2.7449632E7,1.8483236E7,3.397817E7,2.2158813E0,2.8438679E1,5.7059425E1,1.9018476E1,1.4E-1,3.8E1,1.23E2,3.2E1,2.2081173E1,2.505152E1,3.3977856E7,1.24E2,4E0,9.4E1,2.2355099E1,1.36E2,4E-1,3.3E-1,1.5734742E0,6.902553E0,3.8083456E7,9E-2,8.8E-1,3.2200044E7,6E-2,1E0,1E0,2.7450088E7,1.5457178E7,1.862847E0,2.50473E1,3.808349E7,-8.777385E-1,4E0,-5.353125E0,3.2200044E7,4E-2,1.9E-1,1.03E2,2.7740906E1,-3.0843537E0,8.7E1,8E1,3.3789184E0,4E0,1.072857E6,2.14E2,1.9327742E1,4.2613463E0,2.3599963E0,-9.56311E0,2.70813E0,1.112894E1,4.1E-1,1.354039E1,3.34E2,9.22749E0,3.755476E0,7.0311813E0,1.9242744E1,4.777888E1,8.5E1,-1.3138234E1,-4.8551087E0,2.9834748E7,2.7450964E7,2.7450768E7,2.983462E7,4.2506247E0,-1.7061402E0,-1.3478028E0,6.3567443E0,-7.662628E-1,1.385496E0,3.385487E1,2.983462E7,2.7450768E7,2.983462E7,2.7450088E7,-1.0040479E1,2.5E-1,1.2153636E1,2.7450768E7,-1.6524414E0,3.8083376E7,2.504737E1,2.6929443E0,1.1320032E1,2.4663383E1,-7.6779056E0,4.7576477E1,1.7116993E1,3.1953492E0,-4.9262147E0,-1.0767701E0,4.9486694E-1,3.6915894E0,1.1112494E1,-7.738241E-1,8.932189E0,-1.1559937E0,-6.32666E0,7.0301515E-1,9.1446905E0],"split_indices":[8,0,0,0,8,0,0,0,0,0,0,0,0,6,8,8,8,0,2,0,8,8,8,0,8,6,6,0,0,0,6,6,0,6,8,8,0,0,0,2,0,0,8,0,0,6,6,8,0,0,8,8,0,8,0,8,0,0,0,0,0,0,6,0,8,0,0,0,0,0,8,0,0,0,0,0,0,0,0,0,0,0,0,0,0,0,0,0,0,6,0,0,0,0,2,0,0,0,0,0,0,0,0,0,0,0,0,0,0,0,0,0,0],"split_type":[0,0,0,0,0,0,0,0,0,0,0,0,0,0,0,0,0,0,0,0,0,0,0,0,0,0,0,0,0,0,0,0,0,0,0,0,0,0,0,0,0,0,0,0,0,0,0,0,0,0,0,0,0,0,0,0,0,0,0,0,0,0,0,0,0,0,0,0,0,0,0,0,0,0,0,0,0,0,0,0,0,0,0,0,0,0,0,0,0,0,0,0,0,0,0,0,0,0,0,0,0,0,0,0,0,0,0,0,0,0,0,0,0],"sum_hessian":[2.05E2,1.92E2,1.3E1,1.84E2,8E0,7E0,6E0,1.2E2,6.4E1,1E0,7E0,3E0,3E0,5.6E1,6.4E1,1.6E1,4.8E1,5E0,5.1E1,1.2E1,4E0,2.7E1,3.7E1,9E0,3.9E1,2.1E1,3E1,1E0,3E0,6E0,3.3E1,1.3E1,2.4E1,5E0,7E0,1.9E1,8E0,1.6E1,5E0,4E0,2E0,2E0,3E0,1E0,7E0,5E0,1.4E1,2.3E1,1E0,1E0,6E0,1.2E1,1E0,1.3E1,1.7E1,2.8E1,5E0,8E0,8E0,1E0,1E0,7E0,7E0,1.3E1,1.5E1,8E0,9E0,4E0,9E0,2E0,1E1,4E0,2E0,2E0,3E0,3E0,2E1,6E0,1E0,1E0,3E0,1E0,2E0,1E0,6E0,2E0,8E0,2E0,1E0,1.1E1,9E0,2E0,1E0,4E0,1.1E1,1E0,1E0,4E0,2E0,3E0,5E0,1E0,3E0,1E0,1E0,3E0,8E0,2E0,9E0,1E0,1E0,1E0,1E0],"tree_param":{"num_deleted":"0","num_feature":"9","num_nodes":"113","size_leaf_vector":"0"}},{"base_weights":[1.2461175E2,1.11806206E2,2.9224445E2,1.0519174E2,2.3534723E2,1.5956772E2,4.021258E2,1.1695749E2,8.167102E1,4.3983645E0,1.6979635E1,2.1050904E0,2.595029E1,5.2779934E1,1.7592085E1,8.8294716E1,1.402932E2,-3.0232788E1,1.1882803E2,2.0241085E1,7.34295E1,-6.148061E1,5.7058105E1,9.774632E1,1.679516E2,2.0343151E1,9.470647E1,2.9336681E1,1.0235248E2,1.4947999E0,6.3848634E0,1.1335258E1,1.0908565E2,2.829716E2,9.682234E1,-5.6966145E-2,-9.9863266E1,1.2994917E2,1.5323717E1,3.1938265E1,1.7076081E0,4.1918285E1,-4.3414875E1,-8.19222E-1,6.058716E0,-5.0854735E0,2.9952866E1,3.729897E1,1.5834596E2,7.889504E1,2.6353882E1,-2.9301362E0,-1.0575763E2,2.0574115E2,4.246124E1,1.4818031E2,6.1022354E1,9.1237434E1,1.771711E1,3.8825638E0,2.1502197E0,-9.084949E0,2.5727174E0,1.0155159E1,1.9534709E2,1.2283077E1,5.7890915E1,7.688877E1,2.5105295E0,6.4686813E0,1.7510904E1,3.701799E2,7.012207E0,-1.2087207E1,-4.531435E0,8.874886E1,-1.061319E1,-9.157715E-1,9.0340195E1,3.8862812E1,-1.6208375E0,-1.2804139E0,5.879993E0,-7.2795105E-1,1.2931294E0,3.216211E1,1.3136208E2,1.0293376E1,5.0999557E1,-3.6854248E0,-1.5698242E0,1.1245545E0,4.159143E0,6.5930214E1,1.1059814E1,2.5583007E0,1.0754028E1,6.2368732E1,-9.538465E0,-3.4218994E1,1.0658411E1,-5.575407E0,7.8108345E1,4.4860867E1,-1.0981934E0,2.2690317E1,-7.1660438E0,-1.022937E0,4.701233E-1,3.209973E0,-5.882361E0,2.4316213E0,9.719358E0,6.678589E-1,8.687451E0,9.751404E-1,6.312371E0,1.0293116E1,2.4796526E0],"categories":[],"categories_nodes":[],"categories_segments":[],"categories_sizes":[],"default_left":[true,true,true,false,true,true,true,true,true,false,false,false,false,false,false,false,false,true,true,false,true,false,true,true,true,false,false,false,true,false,false,true,false,true,false,true,false,true,true,true,false,true,true,false,true,false,true,true,true,true,false,false,true,true,false,true,true,true,false,false,false,false,false,false,true,false,