{"learner":{"attributes":{"scikit_learn":"{\"n_estimators\": 500, \"objective\": \"reg:squarederror\", \"max_depth\": 10, \"learning_rate\": 0.1, \"verbosity\": null, \"booster\": null, \"tree_method\": \"gpu_hist\", \"gamma\": 0.2, \"min_child_weight\": null, \"max_delta_step\": null, \"subsample\": null, \"colsample_bytree\": 0.7, \"colsample_bylevel\": null, \"colsample_bynode\": null, \"reg_alpha\": null, \"reg_lambda\": null, \"scale_pos_weight\": null, \"base_score\": null, \"missing\": NaN, \"num_parallel_tree\": null, \"kwargs\": {}, \"random_state\": 4, \"n_jobs\": null, \"monotone_constraints\": null, \"interaction_constraints\": null, \"importance_type\": \"gain\", \"gpu_id\": 0, \"validate_parameters\": null, \"_estimator_type\": \"regressor\"}"},"feature_names":["id","host_id","latitude","longitude","minimum_nights","number_of_reviews","reviews_per_month","calculated_host_listings_count","availability_365"],"feature_types":["int","int","float","float","int","int","float","int","int"],"gradient_booster":{"model":{"gbtree_model_param":{"num_trees":"500","size_leaf_vector":"0"},"tree_info":[0,0,0,0,0,0,0,0,0,0,0,0,0,0,0,0,0,0,0,0,0,0,0,0,0,0,0,0,0,0,0,0,0,0,0,0,0,0,0,0,0,0,0,0,0,0,0,0,0,0,0,0,0,0,0,0,0,0,0,0,0,0,0,0,0,0,0,0,0,0,0,0,0,0,0,0,0,0,0,0,0,0,0,0,0,0,0,0,0,0,0,0,0,0,0,0,0,0,0,0,0,0,0,0,0,0,0,0,0,0,0,0,0,0,0,0,0,0,0,0,0,0,0,0,0,0,0,0,0,0,0,0,0,0,0,0,0,0,0,0,0,0,0,0,0,0,0,0,0,0,0,0,0,0,0,0,0,0,0,0,0,0,0,0,0,0,0,0,0,0,0,0,0,0,0,0,0,0,0,0,0,0,0,0,0,0,0,0,0,0,0,0,0,0,0,0,0,0,0,0,0,0,0,0,0,0,0,0,0,0,0,0,0,0,0,0,0,0,0,0,0,0,0,0,0,0,0,0,0,0,0,0,0,0,0,0,0,0,0,0,0,0,0,0,0,0,0,0,0,0,0,0,0,0,0,0,0,0,0,0,0,0,0,0,0,0,0,0,0,0,0,0,0,0,0,0,0,0,0,0,0,0,0,0,0,0,0,0,0,0,0,0,0,0,0,0,0,0,0,0,0,0,0,0,0,0,0,0,0,0,0,0,0,0,0,0,0,0,0,0,0,0,0,0,0,0,0,0,0,0,0,0,0,0,0,0,0,0,0,0,0,0,0,0,0,0,0,0,0,0,0,0,0,0,0,0,0,0,0,0,0,0,0,0,0,0,0,0,0,0,0,0,0,0,0,0,0,0,0,0,0,0,0,0,0,0,0,0,0,0,0,0,0,0,0,0,0,0,0,0,0,0,0,0,0,0,0,0,0,0,0,0,0,0,0,0,0,0,0,0,0,0,0,0,0,0,0,0,0,0,0,0,0,0,0,0,0,0,0,0,0,0,0,0,0,0,0,0,0,0,0,0,0,0,0,0,0,0,0,0,0,0,0,0,0,0,0,0,0,0,0,0,0,0,0,0,0,0,0,0,0,0,0,0,0,0,0,0,0,0,0,0,0,0,0,0,0,0,0,0],"trees":[{"base_weights":[3.4976086E3,4.3653133E4,2.5011768E3,5.12015E3,1.0059925E5,3.154007E3,1.0702838E3,8.6055554E2,2.172825E3,1.1793378E3,3.8841333E3,1.9999967E4,8.99125E1,6.579583E2,1.1580127E3,1.1065714E3,-3.3333335E-2,2.8055315E3,4.8122563E3,1.5816898E2,1.0537906E3,1.7530605E3,9.340671E2,4.6720455E1,8.9386664E2,1.2694E2,4.6633335E1,3.723871E3,5.503196E3,1.937889E2,7.993581E2,1.500625E2,6.17125E1,2.0468695E2,9.7936365E2,3.8402952E3,2.011241E3,2.0508E2,1.00548E3,4.554989E3,1.972E3,1.0853914E3,6.574711E2,1.5558083E3,3.0660208E3,7.049412E1,1.0431284E3,2.6444266E2,5.155268E3,7.0599854E3,4.590164E3,4.08625E1,1.14231255E2,2.9136562E3,5.303483E3,1.332E2,3.3142857E1,9.66506E2,1.2505577E3,2.3916897E3,6.233653E3,1.5428143E3,4.7158037E3,8.8822504E2,2.4269565E3,1.1253125E3,3.9734E3,1.7671034E2,1.3157031E2,3.1956667E3,1.1063334E3,5.2524E1,7.520536E1,2.0815501E2,3.686143E2,9.806667E1,4.38125E1,6.083594E2,2.6696155E3,4.91125E1,1.2192084E2,1.315E2,3.5451428E2,2.24655E3,4.804344E2,7.704775E2,4.1362354E3,4.315E3,1.8023684E3,3.1389413E2,1.2305385E2,2.104875E2,5.591596E3,1.0109412E2,1.53285E2,2.84E2,1.155E2,2.8786072E3,7.503875E2,5.913957E2,2.340125E2,1.1367084E2,2.5755624E2,1.3760834E2,2.8418002E2,8.9822504E2,9.0262505E1,2.1249092E2,4.231625E2],"categories":[],"categories_nodes":[],"categories_segments":[],"categories_sizes":[],"default_left":[true,true,true,true,true,true,true,true,false,true,true,false,false,true,true,true,false,true,true,false,true,true,true,false,true,false,false,true,true,false,true,false,false,false,true,true,true,false,true,true,true,true,true,true,true,false,true,false,true,true,true,false,false,true,true,false,false,true,true,true,true,false,true,false,true,false,true,false,false,true,true,false,false,false,false,false,false,false,true,false,false,false,false,true,false,false,true,true,true,false,false,false,true,false,false,false,false,true,false,false,false,false,false,false,false,false,false,false,false],"id":0,"left_children":[1,3,5,7,11,9,13,15,-1,21,17,-1,-1,23,19,25,-1,35,27,-1,37,33,29,-1,31,-1,-1,39,49,-1,41,-1,-1,-1,51,47,43,-1,45,53,69,55,71,67,63,-1,57,-1,65,61,59,-1,-1,73,91,-1,-1,75,93,89,85,-1,77,-1,87,-1,83,-1,-1,81,79,-1,-1,-1,-1,-1,-1,-1,95,-1,-1,-1,-1,103,-1,-1,97,105,101,-1,-1,-1,99,-1,-1,-1,-1,107,-1,-1,-1,-1,-1,-1,-1,-1,-1,-1,-1],"loss_changes":[2.4778428E10,3.2399475E10,5.6457574E8,6.887394E8,5.9281584E10,5.966323E8,6.18328E6,1.906499E6,0E0,1.4404304E7,2.9082573E8,0E0,0E0,1.202396E6,5.265776E6,1.3778E5,0E0,1.0980838E8,1.0133222E8,0E0,4.151408E6,5.496904E6,9.539288E6,0E0,1.592657E6,0E0,0E0,8.71143E7,1.0546918E8,0E0,2.289628E6,0E0,0E0,0E0,5.56237E5,8.22919E7,3.510147E7,0E0,6.79008E5,3.860269E7,2.0828136E7,3.835014E6,2.55342E5,7.19008E5,6.764982E7,0E0,5.23752E5,0E0,1.5707898E8,5.942043E8,2.1633382E8,0E0,0E0,2.61176E6,1.4955648E7,0E0,0E0,1.98856E5,2.09068E5,2.1299904E7,7.921126E7,0E0,6.212435E7,0E0,1.934552E7,0E0,2.5079648E7,0E0,0E0,1.253368E6,4.42842E5,0E0,0E0,0E0,0E0,0E0,0E0,0E0,7.4672E4,0E0,0E0,0E0,0E0,1.2709E6,0E0,0E0,5.0398336E7,7.152443E7,6.85134E6,0E0,0E0,0E0,1.3412416E7,0E0,0E0,0E0,0E0,5.28492E6,0E0,0E0,0E0,0E0,0E0,0E0,0E0,0E0,0E0,0E0,0E0],"parents":[2147483647,0,0,1,1,2,2,3,3,5,5,4,4,6,6,7,7,10,10,14,14,9,9,13,13,15,15,18,18,22,22,24,24,21,21,17,17,20,20,27,27,30,30,36,36,38,38,35,35,28,28,34,34,39,39,41,41,46,46,50,50,49,49,44,44,48,48,43,43,40,40,42,42,53,53,57,57,62,62,70,70,69,69,66,66,60,60,64,64,59,59,54,54,58,58,78,78,86,86,92,92,88,88,83,83,87,87,97,97],"right_children":[2,4,6,8,12,10,14,16,-1,22,18,-1,-1,24,20,26,-1,36,28,-1,38,34,30,-1,32,-1,-1,40,50,-1,42,-1,-1,-1,52,48,44,-1,46,54,70,56,72,68,64,-1,58,-1,66,62,60,-1,-1,74,92,-1,-1,76,94,90,86,-1,78,-1,88,-1,84,-1,-1,82,80,-1,-1,-1,-1,-1,-1,-1,96,-1,-1,-1,-1,104,-1,-1,98,106,102,-1,-1,-1,100,-1,-1,-1,-1,108,-1,-1,-1,-1,-1,-1,-1,-1,-1,-1,-1],"split_conditions":[2E0,4.6E-1,9E0,4.4E-1,5E-1,2.7098036E7,2.2086844E7,3.418793E7,2.172825E3,1.2E-1,1.2151342E2,1.9999967E4,8.99125E1,1.2151386E2,1E1,2.8649796E7,-3.3333335E-2,4E-2,4E0,1.5816898E2,2.844981E7,1.648382E7,1.2151097E2,4.6720455E1,9.660798E6,1.2694E2,4.6633335E1,2.1E-1,1.8E1,1.937889E2,1.2151312E2,1.500625E2,6.17125E1,2.0468695E2,1.8766784E7,1.2151313E2,3.47E2,2.0508E2,2.899124E7,1.2151412E2,2.8349516E7,1.0023167E7,1.2151481E2,7E0,3.52E2,7.049412E1,1.2151429E2,2.6444266E2,1.2151315E2,7E0,1.93E2,4.08625E1,1.14231255E2,3.4188384E7,1E0,1.332E2,3.3142857E1,3.814051E7,2.8991444E7,1E-1,1.2151435E2,1.5428143E3,1.215154E2,8.8822504E2,1.3E-1,1.1253125E3,3.52E2,1.7671034E2,1.3157031E2,1.2151824E2,2.8377934E7,5.2524E1,7.520536E1,2.0815501E2,3.686143E2,9.806667E1,4.38125E1,6.083594E2,1.2151946E2,4.91125E1,1.2192084E2,1.315E2,3.5451428E2,2.9115064E7,4.804344E2,7.704775E2,1.2151601E2,3.61E2,3.64E2,3.1389413E2,1.2305385E2,2.104875E2,1.215154E2,1.0109412E2,1.53285E2,2.84E2,1.155E2,2.8991072E7,7.503875E2,5.913957E2,2.340125E2,1.1367084E2,2.5755624E2,1.3760834E2,2.8418002E2,8.9822504E2,9.0262505E1,2.1249092E2,4.231625E2],"split_indices":[7,6,7,6,6,0,0,0,0,6,3,0,0,3,7,0,0,6,8,0,0,0,3,0,0,0,0,6,8,0,3,0,0,0,0,3,8,0,0,3,0,0,3,7,8,0,3,0,3,7,8,0,0,0,8,0,0,0,0,6,3,0,3,0,6,0,8,0,0,3,0,0,0,0,0,0,0,0,3,0,0,0,0,0,0,0,3,8,8,0,0,0,3,0,0,0,0,0,0,0,0,0,0,0,0,0,0,0,0],"split_type":[0,0,0,0,0,0,0,0,0,0,0,0,0,0,0,0,0,0,0,0,0,0,0,0,0,0,0,0,0,0,0,0,0,0,0,0,0,0,0,0,0,0,0,0,0,0,0,0,0,0,0,0,0,0,0,0,0,0,0,0,0,0,0,0,0,0,0,0,0,0,0,0,0,0,0,0,0,0,0,0,0,0,0,0,0,0,0,0,0,0,0,0,0,0,0,0,0,0,0,0,0,0,0,0,0,0,0,0,0],"sum_hessian":[6.21E2,1.4E1,6.07E2,9E0,5E0,4.16E2,1.91E2,8E0,1E0,1.13E2,3.03E2,2E0,3E0,3.5E1,1.56E2,6E0,2E0,1.42E2,1.61E2,2.8E1,1.28E2,3.2E1,8.1E1,2.1E1,1.4E1,4E0,2E0,6.5E1,9.6E1,8E0,7.3E1,3E0,1.1E1,2.2E1,1E1,6E1,8.2E1,4E0,1.24E2,4.3E1,2.2E1,2.2E1,5.1E1,5.9E1,2.3E1,1.6E1,1.08E2,3.3E1,2.7E1,3.3E1,6.3E1,3E0,7E0,1.5E1,2.8E1,1.6E1,6E0,8.3E1,2.5E1,2.8E1,3.5E1,6E0,2.7E1,1E0,2.2E1,3E0,2.4E1,2.8E1,3.1E1,8E0,1.4E1,2.4E1,2.7E1,9E0,6E0,8E1,3E0,1.5E1,1.2E1,3E0,1.1E1,2E0,6E0,9E0,1.5E1,1.9E1,1.6E1,4E0,1.8E1,1.6E1,1.2E1,3E0,2.5E1,1.6E1,9E0,1E1,2E0,1.3E1,3E0,2.2E1,3E0,1.1E1,7E0,5E0,4E0,1E0,3E0,1E1,3E0],"tree_param":{"num_deleted":"0","num_feature":"9","num_nodes":"109","size_leaf_vector":"0"}},{"base_weights":[3.2067454E3,4.078357E4,2.2744114E3,6.890499E2,6.743669E4,2.8700447E3,9.689246E2,9.648566E1,-3.1111112E-2,1.0688395E3,3.5360554E3,1.1244525E4,8.940789E3,5.993424E2,1.0474982E3,1.5865287E3,8.383422E2,1.4466078E4,4.3523647E1,1.428975E2,9.536196E2,2.5588816E3,4.376795E3,4.2260693E1,8.185983E2,1.851082E2,9.472574E2,1.0572793E2,2.0641838E3,3.3858738E3,5.0059087E3,1.3880782E2,5.605552E1,3.493839E3,1.8409142E3,7.125346E2,1.7656323E2,1.886736E2,9.08666E2,3.779781E1,1.0950197E2,6.4290063E3,4.1716704E3,9.840845E2,5.760997E2,6.3859344E1,9.4245105E2,1.4053647E3,2.853083E3,4.136141E3,1.8033673E3,2.387762E2,4.712153E3,1.410573E3,4.2802183E3,1.20663536E2,3.0302042E1,8.438139E2,2.243379E3,1.0409141E3,3.6121487E3,2.9301018E3,1.00710223E3,1.5964867E2,1.1882428E3,2.6583389E3,4.808855E3,8.7154443E2,1.1352858E3,2.1675876E3,5.6701904E3,2.8978058E1,5.9430176E1,5.513257E2,2.4333846E2,2.3509177E3,4.5955225E3,3.861415E2,2.0836742E2,6.9728217E2,3.8041436E3,2.843511E2,1.1169503E3,9.1579384E1,1.3948935E2,8.838108E1,4.052656E1,1.2953679E2,8.230309E1,1.9470096E2,5.064183E3,4.5429066E1,1.1074477E2,3.8041763E3,1.322769E2,1.2273339E2,3.2412735E2,1.23307434E2,3.132916E2,2.6361501E3,6.941085E2,8.533138E2,1.9095907E3,5.348274E2,2.1646158E2,8.874534E2,3.4993936E3,1.2191016E2,5.8233448E1,1.9317355E2,3.914253E2,6.793257E1,2.6624582E2,5.097106E1,4.046359E2],"categories":[],"categories_nodes":[],"categories_segments":[],"categories_sizes":[],"default_left":[false,true,false,true,false,false,true,false,false,true,true,false,false,true,true,true,false,true,false,false,false,false,true,false,false,false,true,false,false,true,true,false,false,true,true,true,false,false,true,false,false,true,true,true,true,false,true,false,true,true,true,false,true,false,true,false,false,false,true,false,true,true,false,false,false,true,true,true,true,true,true,false,false,false,false,true,true,false,false,false,false,false,false,false,false,false,false,false,false,false,true,false,false,false,false,false,false,false,false,true,false,false,true,false,false,false,false,false,false,false,false,false,false,false,false],"id":1,"left_children":[1,3,5,7,11,9,13,-1,-1,15,21,-1,17,23,19,25,35,27,-1,-1,37,33,29,-1,31,-1,39,-1,-1,49,41,-1,-1,51,47,43,-1,-1,45,-1,-1,53,69,55,71,-1,67,63,57,65,61,-1,59,-1,73,-1,-1,-1,93,-1,75,95,91,-1,87,77,89,85,83,81,79,-1,-1,-1,-1,97,105,-1,-1,-1,99,-1,107,-1,-1,-1,-1,-1,-1,-1,103,-1,-1,101,-1,-1,-1,-1,-1,109,-1,-1,111,-1,-1,-1,113,-1,-1,-1,-1,-1,-1,-1,-1],"loss_changes":[2.1698484E10,1.5983194E10,4.699945E8,1.3312128E6,2.2689997E10,4.964631E8,4.947744E6,0E0,0E0,1.2273096E7,2.3855104E8,0E0,2.2868208E8,1.049066E6,4.259856E6,3.99668E6,8.191396E6,2.2660435E8,0E0,0E0,3.696744E6,8.955955E7,8.404173E7,0E0,1.426161E6,0E0,5.95523E5,0E0,0E0,7.090304E7,8.833894E7,0E0,0E0,7.094906E7,3.2580864E7,2.137636E6,0E0,0E0,5.38704E5,0E0,0E0,5.0047654E8,1.7991155E8,3.120508E6,9.3572E4,0E0,5.00936E5,5.92792E5,6.2795616E7,3.0958464E7,1.7684216E7,0E0,1.3786854E8,0E0,5.0346176E7,0E0,0E0,0E0,2.8016328E7,0E0,2.0202816E7,7.9056E5,3.28978E5,0E0,1.85816E5,3.01592E6,1.133056E7,1.2226E5,2.0409E5,1.7418304E7,6.0982016E7,0E0,0E0,0E0,0E0,7.500848E6,2.9919008E7,0E0,0E0,0E0,4.3989024E7,0E0,2.7E1,0E0,0E0,0E0,0E0,0E0,0E0,0E0,9.84032E6,0E0,0E0,5.5380584E7,0E0,0E0,0E0,0E0,0E0,5.043096E6,0E0,0E0,4.674908E6,0E0,0E0,0E0,1.7560576E7,0E0,0E0,0E0,0E0,0E0,0E0,0E0,0E0],"parents":[2147483647,0,0,1,1,2,2,3,3,5,5,4,4,6,6,9,9,12,12,14,14,10,10,13,13,15,15,17,17,22,22,24,24,21,21,16,16,20,20,26,26,30,30,35,35,38,38,34,34,29,29,33,33,41,41,43,43,48,48,52,52,50,50,47,47,49,49,46,46,42,42,44,44,54,54,60,60,65,65,70,70,69,69,68,68,67,67,64,64,66,66,62,62,58,58,61,61,75,75,80,80,93,93,90,90,76,76,82,82,99,99,102,102,106,106],"right_children":[2,4,6,8,12,10,14,-1,-1,16,22,-1,18,24,20,26,36,28,-1,-1,38,34,30,-1,32,-1,40,-1,-1,50,42,-1,-1,52,48,44,-1,-1,46,-1,-1,54,70,56,72,-1,68,64,58,66,62,-1,60,-1,74,-1,-1,-1,94,-1,76,96,92,-1,88,78,90,86,84,82,80,-1,-1,-1,-1,98,106,-1,-1,-1,100,-1,108,-1,-1,-1,-1,-1,-1,-1,104,-1,-1,102,-1,-1,-1,-1,-1,110,-1,-1,112,-1,-1,-1,114,-1,-1,-1,-1,-1,-1,-1,-1],"split_conditions":[2E0,1E0,9E0,3.418793E7,1.15E2,2.7098036E7,2.2086844E7,9.648566E1,-3.1111112E-2,6E0,1.2151342E2,1.1244525E4,1.75E2,1.2151386E2,1E1,1.648382E7,2E0,2.8649796E7,4.3523647E1,1.428975E2,2.844981E7,1E0,4E0,4.2260693E1,9.660798E6,1.851082E2,3E0,1.0572793E2,2.0641838E3,2E0,1.8E1,1.3880782E2,5.605552E1,1.2151313E2,3.47E2,1.2151312E2,1.7656323E2,1.886736E2,2.899124E7,3.779781E1,1.0950197E2,7E0,1.93E2,1.0023167E7,1E0,6.3859344E1,1.2151429E2,7E0,3.52E2,1.2151412E2,2.8349516E7,2.387762E2,1.2151315E2,1.410573E3,1.215154E2,1.20663536E2,3.0302042E1,8.438139E2,3E0,1.0409141E3,3.57E2,1.2151824E2,2.8377934E7,1.5964867E2,6E0,7E0,1E0,3.814051E7,2.8991444E7,2E0,1.2151435E2,2.8978058E1,5.9430176E1,5.513257E2,2.4333846E2,2.9115064E7,3.59E2,3.861415E2,2.0836742E2,6.9728217E2,1.2151601E2,2.843511E2,1.7E1,9.1579384E1,1.3948935E2,8.838108E1,4.052656E1,1.2953679E2,8.230309E1,1.9470096E2,1.215154E2,4.5429066E1,1.1074477E2,3.61E2,1.322769E2,1.2273339E2,3.2412735E2,1.23307434E2,3.132916E2,2.8991072E7,6.941085E2,8.533138E2,2.850142E7,5.348274E2,2.1646158E2,8.874534E2,2.8501014E7,1.2191016E2,5.8233448E1,1.9317355E2,3.914253E2,6.793257E1,2.6624582E2,5.097106E1,4.046359E2],"split_indices":[7,8,7,0,8,0,0,0,0,5,3,0,8,3,7,0,4,0,0,0,0,5,8,0,0,0,7,0,0,5,8,0,0,3,8,3,0,0,0,0,0,7,8,0,8,0,3,7,8,3,0,0,3,0,3,0,0,0,5,0,8,3,0,0,5,7,8,0,0,5,3,0,0,0,0,0,8,0,0,0,3,0,5,0,0,0,0,0,0,0,3,0,0,8,0,0,0,0,0,0,0,0,0,0,0,0,0,0,0,0,0,0,0,0,0],"split_type":[0,0,0,0,0,0,0,0,0,0,0,0,0,0,0,0,0,0,0,0,0,0,0,0,0,0,0,0,0,0,0,0,0,0,0,0,0,0,0,0,0,0,0,0,0,0,0,0,0,0,0,0,0,0,0,0,0,0,0,0,0,0,0,0,0,0,0,0,0,0,0,0,0,0,0,0,0,0,0,0,0,0,0,0,0,0,0,0,0,0,0,0,0,0,0,0,0,0,0,0,0,0,0,0,0,0,0,0,0,0,0,0,0,0,0],"sum_hessian":[6.21E2,1.4E1,6.07E2,6E0,8E0,4.16E2,1.91E2,4E0,2E0,1.13E2,3.03E2,4E0,4E0,3.5E1,1.56E2,3.3E1,8E1,2E0,2E0,2.8E1,1.28E2,1.42E2,1.61E2,2.1E1,1.4E1,2.2E1,1.1E1,1E0,1E0,6.5E1,9.6E1,3E0,1.1E1,6E1,8.2E1,7.2E1,8E0,4E0,1.24E2,3E0,8E0,3.3E1,6.3E1,2.2E1,5E1,1.6E1,1.08E2,5.9E1,2.3E1,4.3E1,2.2E1,3.3E1,2.7E1,6E0,2.7E1,1.6E1,6E0,1E0,2.2E1,3E0,2.4E1,8E0,1.4E1,2.8E1,3.1E1,1.5E1,2.8E1,8.3E1,2.5E1,2.8E1,3.5E1,4E0,4.6E1,1.5E1,1.2E1,1.2E1,1.2E1,3E0,1.2E1,1.9E1,1.6E1,1.6E1,1.2E1,1.6E1,9E0,8E1,3E0,2.2E1,9E0,3E0,2.5E1,3E0,1.1E1,7E0,1.5E1,2E0,6E0,6E0,6E0,1.3E1,3E0,1E0,6E0,2.2E1,3E0,1E0,1.1E1,9E0,3E0,1E1,3E0,3E0,3E0,2E0,9E0],"tree_param":{"num_deleted":"0","num_feature":"9","num_nodes":"115","size_leaf_vector":"0"}},{"base_weights":[2.930571E3,3.760885E4,2.0702014E3,4.588136E3,8.637523E4,2.6145317E3,8.772016E2,7.402079E2,1.9609746E3,3.6155322E3,1.6663068E3,1.7917006E4,-4.8146934E3,9.116374E2,4.1008297E1,9.518203E2,-2.9037038E-2,1.2216455E3,3.0452065E3,8.709031E2,1.782304E2,2.0614705E3,4.0478335E3,-6.753959E2,5.015509E1,4.0622135E1,1.0888157E2,4.2224404E3,1.8853474E3,9.628459E2,3.876598E3,2.183389E3,1.404225E2,1.4563752E3,6.013375E2,9.2599945E2,5.0989624E2,4.7218247E3,4.202188E1,3.9688809E3,9.388057E1,1.2910048E2,8.3007324E2,1.1546409E2,4.922043E2,2.8232895E1,5.827097E2,1.0589288E3,1.6754247E3,6.0576843E2,2.3668904E3,1.3174005E2,2.2775308E2,3.6893958E3,1.00307434E3,4.8223984E1,8.441501E1,3.0796157E3,1.508689E3,2.5994263E3,1.14939835E2,1.230943E3,3.3378498E1,7.771484E1,3.905537E1,6.100819E1,2.42488E1,1.1359003E2,4.0593604E3,2.495079E1,5.1169834E1,4.947555E3,6.460202E1,1.2340676E2,2.0042765E3,3.8899207E3,5.467566E3,1.2542687E3,2.0727293E1,6.875638E1,3.8989238E3,1.2793715E2,2.9328302E2,3.264462E3,1.00307434E3,3.9836743E3,1.6466506E3,4.5229147E2,7.014803E1,1.366991E2,8.357638E2,8.0162317E2,1.3666317E3,2.4627734E2,6.1227264E2,5.6596893E2,7.450585E1,6.4651115E1,1.9174043E2,1.533167E2,6.670098E1,3.410707E2,4.3402097E2,2.4227295E1,8.74788E1],"categories":[],"categories_nodes":[],"categories_segments":[],"categories_sizes":[],"default_left":[true,false,false,true,true,true,false,true,false,true,true,false,true,true,false,false,false,false,true,true,false,false,true,false,false,false,false,true,false,false,true,true,false,true,true,true,true,false,false,false,false,false,false,false,false,false,true,true,false,true,true,false,false,true,false,false,false,true,true,true,false,true,false,false,false,false,false,false,false,false,false,false,false,false,true,true,false,true,false,false,true,false,false,true,false,true,false,false,false,false,true,false,true,false,false,false,false,false,false,false,false,false,false,false,false],"id":2,"left_children":[1,3,5,7,11,9,13,15,-1,21,17,-1,23,19,-1,25,-1,33,27,35,-1,31,29,-1,-1,-1,-1,37,49,-1,39,51,-1,47,43,41,45,53,-1,67,-1,-1,55,-1,69,-1,65,61,57,63,59,-1,-1,71,-1,-1,-1,79,73,81,-1,77,-1,-1,-1,-1,-1,-1,75,-1,-1,83,-1,-1,91,85,93,89,-1,-1,87,-1,-1,95,-1,101,97,-1,-1,-1,103,-1,99,-1,-1,-1,-1,-1,-1,-1,-1,-1,-1,-1,-1],"loss_changes":[1.8480222E10,2.375821E10,3.9253325E8,5.6350554E8,5.163436E10,3.8978074E8,2.714608E6,1.4105645E6,0E0,1.2736358E8,1.2871872E8,0E0,4.462587E7,4.760736E6,0E0,8.09115E4,0E0,2.3149008E7,6.3041344E7,2.948952E6,0E0,6.20032E5,1.12704E8,0E0,0E0,0E0,0E0,4.5485024E7,1.581904E7,0E0,3.8024704E7,1.6032E4,0E0,8.586032E6,2.269718E6,4.110384E6,2.497335E5,8.357645E7,0E0,3.358157E7,0E0,0E0,1.80488E5,0E0,6.6303E4,0E0,1.969E4,5.202208E6,1.2913488E7,2.843325E4,2.674432E6,0E0,0E0,7.338483E7,0E0,0E0,0E0,1.1038028E7,6.917408E6,3.289608E6,0E0,5.99624E5,0E0,0E0,0E0,0E0,0E0,0E0,1.3090816E7,0E0,0E0,8.703174E7,0E0,0E0,7.721509E7,2.1201792E7,1.0513184E7,5.0864E5,0E0,0E0,6.803144E6,0E0,0E0,6.819772E7,0E0,1.0936576E7,6.55916E5,0E0,0E0,0E0,1.96675E4,0E0,1.540624E6,0E0,0E0,0E0,0E0,0E0,0E0,0E0,0E0,0E0,0E0,0E0,0E0],"parents":[2147483647,0,0,1,1,2,2,3,3,5,5,4,4,6,6,7,7,10,10,13,13,9,9,12,12,15,15,18,18,22,22,21,21,17,17,19,19,27,27,30,30,35,35,34,34,36,36,33,33,28,28,31,31,37,37,42,42,48,48,50,50,47,47,49,49,46,46,39,39,44,44,53,53,58,58,68,68,61,61,57,57,59,59,71,71,75,75,80,80,77,77,74,74,76,76,83,83,86,86,92,92,85,85,90,90],"right_children":[2,4,6,8,12,10,14,16,-1,22,18,-1,24,20,-1,26,-1,34,28,36,-1,32,30,-1,-1,-1,-1,38,50,-1,40,52,-1,48,44,42,46,54,-1,68,-1,-1,56,-1,70,-1,66,62,58,64,60,-1,-1,72,-1,-1,-1,80,74,82,-1,78,-1,-1,-1,-1,-1,-1,76,-1,-1,84,-1,-1,92,86,94,90,-1,-1,88,-1,-1,96,-1,102,98,-1,-1,-1,104,-1,100,-1,-1,-1,-1,-1,-1,-1,-1,-1,-1,-1,-1],"split_conditions":[2E0,4.6E-1,9E0,4.4E-1,5E-1,2E0,3.1E1,2.2104762E8,1.9609746E3,1.2151313E2,1.2151722E2,1.7917006E4,6.6E-1,1.8E1,4.1008297E1,1.15587896E8,-2.9037038E-2,1.2151367E2,1.2151793E2,7E0,1.782304E2,1E0,1.2151315E2,-6.753959E2,5.015509E1,4.0622135E1,1.0888157E2,1.61E0,1.5255814E8,9.628459E2,1.2151634E2,1.2151164E2,1.404225E2,1.2894472E8,4E0,3.383412E6,3.383412E6,1.27E0,4.202188E1,1.2151338E2,9.388057E1,1.2910048E2,4.7893244E7,1.1546409E2,1.2151386E2,2.8232895E1,1.6E1,8.660945E7,1.3E-1,3.3122806E7,1.2151946E2,1.3174005E2,2.2775308E2,6.8E-1,1.00307434E3,4.8223984E1,8.441501E1,1.2E-1,1.3E1,1.2151824E2,1.14939835E2,1.2151359E2,3.3378498E1,7.771484E1,3.905537E1,6.100819E1,2.42488E1,1.1359003E2,1E-1,2.495079E1,5.1169834E1,6.3E-1,6.460202E1,1.2340676E2,1.4E1,1E0,2.4979898E8,2.8E1,2.0727293E1,6.875638E1,3E0,1.2793715E2,2.9328302E2,3.3E-1,1.00307434E3,1.2151412E2,5.139439E7,4.5229147E2,7.014803E1,1.366991E2,3.383412E6,8.0162317E2,7E0,2.4627734E2,6.1227264E2,5.6596893E2,7.450585E1,6.4651115E1,1.9174043E2,1.533167E2,6.670098E1,3.410707E2,4.3402097E2,2.4227295E1,8.74788E1],"split_indices":[7,6,7,6,6,5,5,1,0,3,3,0,6,5,0,1,0,3,3,5,0,5,3,0,0,0,0,6,1,0,3,3,0,1,5,1,1,6,0,3,0,0,1,0,3,0,5,1,6,1,3,0,0,6,0,0,0,6,5,3,0,3,0,0,0,0,0,0,6,0,0,6,0,0,5,5,1,5,0,0,5,0,0,6,0,3,1,0,0,0,1,0,7,0,0,0,0,0,0,0,0,0,0,0,0],"split_type":[0,0,0,0,0,0,0,0,0,0,0,0,0,0,0,0,0,0,0,0,0,0,0,0,0,0,0,0,0,0,0,0,0,0,0,0,0,0,0,0,0,0,0,0,0,0,0,0,0,0,0,0,0,0,0,0,0,0,0,0,0,0,0,0,0,0,0,0,0,0,0,0,0,0,0,0,0,0,0,0,0,0,0,0,0,0,0,0,0,0,0,0,0,0,0,0,0,0,0,0,0,0,0,0,0],"sum_hessian":[6.21E2,1.4E1,6.07E2,9E0,5E0,4.16E2,1.91E2,8E0,1E0,2.01E2,2.15E2,2E0,3E0,1.77E2,1.4E1,6E0,2E0,1.64E2,5.1E1,1.71E2,6E0,4.5E1,1.56E2,2E0,1E0,2E0,4E0,2.4E1,2.7E1,3E0,1.53E2,3.6E1,9E0,1.18E2,4.6E1,1.47E2,2.4E1,2.1E1,3E0,1.48E2,5E0,2.8E1,1.19E2,6E0,4E1,7E0,1.7E1,4.4E1,7.4E1,8E0,1.9E1,5E0,3.1E1,1.9E1,2E0,6E0,1.13E2,6E0,6.8E1,1.5E1,4E0,3.5E1,9E0,3E0,5E0,1.5E1,2E0,5E0,1.43E2,4E0,3.6E1,1.3E1,6E0,4.6E1,2.2E1,1.31E2,1.2E1,3.4E1,1E0,2E0,4E0,4E0,1.1E1,1.1E1,2E0,1.25E2,6E0,3E0,1E0,2.5E1,9E0,1E0,2.1E1,3E0,9E0,5E0,6E0,2E0,4E0,1.6E1,5E0,5.2E1,7.3E1,1E0,8E0],"tree_param":{"num_deleted":"0","num_feature":"9","num_nodes":"105","size_leaf_vector":"0"}},{"base_weights":[2.6844485E3,1.5868827E3,5.4788774E3,2.7719014E3,1.154749E3,5.8012645E4,2.6149087E3,1.8113984E3,6.4984165E3,8.061964E4,9.598989E3,1.7116427E3,8.8357776E2,1.7042783E3,4.1693765E3,2.7314675E3,7.0795416E2,4.7646633E1,9.655299E3,9.958812E2,1.980126E3,1.0697736E3,6.977941E2,2.3545535E3,5.2058604E3,1.9983551E3,6.912917E1,3.9349749E3,1.216178E3,1.8629258E3,3.7914726E1,1.5157896E3,3.800955E3,2.1826926E3,5.0933188E2,7.037886E2,2.9928809E3,2.3784765E1,4.658544E3,1.352989E3,2.440747E3,9.515045E2,5.387895E2,3.851413E3,7.2526685E2,1.212509E3,6.999815E1,1.1487069E3,5.4920465E2,1.5507701E3,3.0307832E3,1.6591812E3,5.8170868E1,2.8493158E2,6.3708508E1,5.2186444E2,1.8136055E2,2.8605637E1,6.047754E2,5.2378345E3,9.390088E2,5.7140186E1,1.293771E2,9.6871576E2,2.0982273E3,1.2543285E3,7.525237E1,1.19925224E2,4.2994795E3,4.8399033E2,7.5447876E1,1.00904004E3,6.2203247E1,2.1182808E3,4.3449653E3,4.45791E2,2.360524E2,8.90328E1,1.7661874E3,9.385203E1,-2.7101234E-2,4.419533E3,1.4022278E2,3.5795803E1,5.762923E1,2.0296848E1,1.7188594E3,6.6729844E3,3.1689033E3,1.0899758E3,1.4371329E2,4.880355E3,1.24095055E2,6.6101814E1,1.86302E3,5.6327435E1,6.094992E2,2.5988513E2,1.2304169E3,6.9581566E1,1.1422086E2,5.604672E1,4.111656E1,2.26893E3,1.094162E2,5.696454E2,3.3609262E2,1.06847984E2,6.282976E1,5.4119446E2,9.542185E1,4.2581525E2,1.1423787E3,1.8177959E2,8.439302E1,7.565164E1,7.6154193E2,1.3312143E2,3.1629118E1,1.2145548E2,3.1857275E1,5.2967964E1,1.8001245E1,2.6527512E1,6.71665E1,1.999647E2,9.532273E1,1.4812517E2,2.669491E2,2.709219E3,5.507006E2,2.9934355E1,8.191559E2,1.15076256E2,2.4000746E1,3.2079507E2,1.1411706E2],"categories":[],"categories_nodes":[],"categories_segments":[],"categories_sizes":[],"default_left":[true,true,false,false,true,true,true,true,false,true,true,true,true,true,true,true,true,false,false,false,true,true,false,false,true,false,false,true,false,false,false,false,true,true,true,true,true,false,true,true,false,true,true,true,false,true,false,true,true,true,true,false,false,false,false,false,false,false,true,true,false,false,false,false,false,true,false,false,true,true,false,false,false,true,false,false,false,false,true,false,false,true,false,false,false,false,true,true,true,true,false,false,false,false,true,false,false,false,false,false,false,false,false,true,false,false,false,false,false,false,false,true,true,false,false,false,false,false,false,false,false,false,false,false,false,false,false,false,false,true,false,false,false,false,false,false,false],"id":3,"left_children":[1,3,5,7,11,9,13,15,27,17,29,25,21,19,23,31,47,-1,-1,33,49,45,41,35,43,39,-1,37,-1,-1,-1,51,81,53,83,79,75,-1,55,77,73,71,69,67,-1,65,-1,61,57,63,59,85,-1,-1,-1,-1,-1,-1,109,87,111,-1,-1,107,103,89,-1,-1,105,101,-1,99,-1,97,95,-1,-1,-1,93,-1,-1,91,-1,-1,-1,-1,113,131,115,133,-1,129,-1,-1,125,-1,-1,-1,117,-1,-1,-1,-1,127,-1,-1,-1,-1,-1,123,-1,121,119,-1,-1,-1,-1,-1,-1,-1,-1,-1,-1,-1,-1,-1,-1,-1,-1,135,-1,-1,-1,-1,-1,-1,-1],"loss_changes":[1.8990234E9,2.2621389E8,2.6177942E10,4.1416896E8,4.832211E7,9.076519E9,2.2929024E8,9.552976E7,3.0056858E8,7.6156846E9,3.2596736E8,2.992112E7,7.002144E6,1.8936864E7,1.0248563E8,6.1846496E7,2.517744E6,0E0,0E0,1.7366442E7,2.9584E7,4.957336E6,4.126568E6,2.3183128E7,7.741421E7,2.0394592E7,0E0,4.7044256E7,0E0,0E0,0E0,2.51726E6,3.386541E7,7.45778E6,3.6977E4,1.3223752E6,5.22616E6,0E0,1.4437216E7,5.309664E6,2.02704E7,1.87468E5,4.9767E5,2.4552448E7,0E0,5.5652E5,0E0,1.81945E5,3.38818E5,1.5811808E7,9.203136E7,1.56302E6,0E0,0E0,0E0,0E0,0E0,0E0,1.05684E5,8.54624E6,7.65975E5,0E0,0E0,3.13562E5,2.316536E6,5.36672E5,0E0,0E0,8.38848E6,1.09289E5,0E0,6.65144E5,0E0,1.5149616E7,3.6275216E7,0E0,0E0,0E0,6.94804E5,0E0,0E0,2.4703712E7,0E0,0E0,0E0,0E0,2.8372E5,4.594213E7,5.8599104E7,1.842152E6,0E0,9.570112E6,0E0,0E0,8.2716E4,0E0,0E0,0E0,1.145354E6,0E0,0E0,0E0,0E0,3.302616E6,0E0,0E0,0E0,0E0,0E0,7.57807E5,0E0,3.2301812E4,8.8749E4,0E0,0E0,0E0,0E0,0E0,0E0,0E0,0E0,0E0,0E0,0E0,0E0,0E0,0E0,0E0,0E0,1.031396E6,0E0,0E0,0E0,0E0,0E0,0E0,0E0],"parents":[2147483647,0,0,1,1,2,2,3,3,5,5,4,4,6,6,7,7,9,9,13,13,12,12,14,14,11,11,8,8,10,10,15,15,19,19,23,23,27,27,25,25,22,22,24,24,21,21,16,16,20,20,31,31,33,33,38,38,48,48,50,50,47,47,49,49,45,45,43,43,42,42,41,41,40,40,36,36,39,39,35,35,32,32,34,34,51,51,59,59,65,65,81,81,78,78,74,74,73,73,71,71,69,69,64,64,68,68,63,63,58,58,60,60,86,86,88,88,98,98,112,112,111,111,109,109,94,94,103,103,91,91,87,87,89,89,129,129],"right_children":[2,4,6,8,12,10,14,16,28,18,30,26,22,20,24,32,48,-1,-1,34,50,46,42,36,44,40,-1,38,-1,-1,-1,52,82,54,84,80,76,-1,56,78,74,72,70,68,-1,66,-1,62,58,64,60,86,-1,-1,-1,-1,-1,-1,110,88,112,-1,-1,108,104,90,-1,-1,106,102,-1,100,-1,98,96,-1,-1,-1,94,-1,-1,92,-1,-1,-1,-1,114,132,116,134,-1,130,-1,-1,126,-1,-1,-1,118,-1,-1,-1,-1,128,-1,-1,-1,-1,-1,124,-1,122,120,-1,-1,-1,-1,-1,-1,-1,-1,-1,-1,-1,-1,-1,-1,-1,-1,136,-1,-1,-1,-1,-1,-1,-1],"split_conditions":[2.504592E1,1.8E1,2.504593E1,4E0,1E0,1.15E2,2.1326629E8,1E0,1.215155E2,1E0,1.75E2,2.2104762E8,1.2151338E2,1.5255814E8,1.88E2,1.2151412E2,6E0,4.7646633E1,9.655299E3,1E0,3.43E2,1.7691578E8,6E0,1.2151324E2,2.4979898E8,2.04E2,6.912917E1,3.383412E6,1.216178E3,1.8629258E3,3.7914726E1,2.0221278E8,1.215154E2,2.504606E1,1.2151671E2,3.7511504E8,2E0,2.3784765E1,2.504508E1,1.5255814E8,1.2151601E2,1.2151656E2,2.504525E1,2.504617E1,7.2526685E2,2.504452E1,6.999815E1,2E0,3.383412E6,2.5046968E1,3.61E2,4.7893244E7,5.8170868E1,2.8493158E2,6.3708508E1,5.2186444E2,1.8136055E2,2.8605637E1,9.825775E7,3E0,3E0,5.7140186E1,1.293771E2,2.76E2,1.2151946E2,9.825775E7,7.525237E1,1.19925224E2,2.2104762E8,2.504371E1,7.5447876E1,2.50423E1,6.2203247E1,2.504425E1,1.0784989E8,4.45791E2,2.360524E2,8.90328E1,2.504388E1,9.385203E1,-2.7101234E-2,2.504508E1,1.4022278E2,3.5795803E1,5.762923E1,2.0296848E1,1.2151407E2,3.57E2,9E0,8.660945E7,1.4371329E2,2.504431E1,1.24095055E2,6.6101814E1,2.504579E1,5.6327435E1,6.094992E2,2.5988513E2,3.61E2,6.9581566E1,1.1422086E2,5.604672E1,4.111656E1,1.2151824E2,1.094162E2,5.696454E2,3.3609262E2,1.06847984E2,6.282976E1,1.2151481E2,9.542185E1,3.63E2,9E0,1.8177959E2,8.439302E1,7.565164E1,7.6154193E2,1.3312143E2,3.1629118E1,1.2145548E2,3.1857275E1,5.2967964E1,1.8001245E1,2.6527512E1,6.71665E1,1.999647E2,9.532273E1,1.4812517E2,2.669491E2,3E0,5.507006E2,2.9934355E1,8.191559E2,1.15076256E2,2.4000746E1,3.2079507E2,1.1411706E2],"split_indices":[2,8,2,8,5,8,1,5,3,8,8,1,3,1,8,3,5,0,0,5,8,1,5,3,1,8,0,1,0,0,0,1,3,2,3,1,8,0,2,1,3,3,2,2,0,2,0,5,1,2,8,1,0,0,0,0,0,0,1,5,5,0,0,8,3,1,0,0,1,2,0,2,0,2,1,0,0,0,2,0,0,2,0,0,0,0,3,8,5,1,0,2,0,0,2,0,0,0,8,0,0,0,0,3,0,0,0,0,0,3,0,8,5,0,0,0,0,0,0,0,0,0,0,0,0,0,0,0,0,8,0,0,0,0,0,0,0],"split_type":[0,0,0,0,0,0,0,0,0,0,0,0,0,0,0,0,0,0,0,0,0,0,0,0,0,0,0,0,0,0,0,0,0,0,0,0,0,0,0,0,0,0,0,0,0,0,0,0,0,0,0,0,0,0,0,0,0,0,0,0,0,0,0,0,0,0,0,0,0,0,0,0,0,0,0,0,0,0,0,0,0,0,0,0,0,0,0,0,0,0,0,0,0,0,0,0,0,0,0,0,0,0,0,0,0,0,0,0,0,0,0,0,0,0,0,0,0,0,0,0,0,0,0,0,0,0,0,0,0,0,0,0,0,0,0,0,0],"sum_hessian":[6.21E2,4.47E2,1.74E2,1.18E2,3.29E2,8E0,1.66E2,9.5E1,2.3E1,5E0,3E0,1.06E2,2.23E2,1.06E2,6E1,5.1E1,4.4E1,1E0,4E0,3.1E1,7.5E1,1.09E2,1.14E2,2.3E1,3.7E1,8.2E1,2.4E1,1.7E1,6E0,1E0,2E0,2.5E1,2.6E1,8E0,2.3E1,7E0,1.6E1,3E0,1.4E1,3.5E1,4.7E1,4.2E1,7.2E1,2.4E1,1.3E1,7.7E1,3.2E1,1E1,3.4E1,5.5E1,2E1,2.1E1,4E0,5E0,3E0,1.1E1,3E0,7E0,2.7E1,9E0,1.1E1,3E0,7E0,2.8E1,2.7E1,6.9E1,8E0,4E0,2E1,6E1,1.2E1,3.4E1,8E0,4.2E1,5E0,3E0,1.3E1,1.8E1,1.7E1,5E0,2E0,2E1,6E0,9E0,1.4E1,1E0,2E1,4E0,5E0,4E1,2.9E1,1.7E1,3E0,2E0,1.5E1,2E0,3E0,2.6E1,1.6E1,1.2E1,2.2E1,2.6E1,3.4E1,2.2E1,5E0,6E0,1.4E1,2E1,8E0,2.5E1,2E0,4E0,7E0,1.7E1,3E0,4E0,1E0,1.4E1,2E0,6E0,1E0,2E0,2E0,9E0,1.6E1,1.2E1,3E0,9E0,1.3E1,5E0,1.2E1,1E0,3E0,3.7E1,3E0,3E0,2E0],"tree_param":{"num_deleted":"0","num_feature":"9","num_nodes":"137","size_leaf_vector":"0"}},{"base_weights":[2.453907E3,3.2392889E4,1.7112446E3,4.0844316E3,7.4174836E4,2.1643809E3,7.181767E2,6.0541406E2,1.7697795E3,8.5204095E2,2.6979656E3,1.6078847E4,-9.329095E3,4.4947318E2,7.752159E2,7.784991E1,-2.5561525E-2,1.9455684E3,3.3791008E3,1.0581902E2,7.0559204E2,3.4226248E2,8.447372E2,6.204077E2,1.1418955E3,-1.274056E3,4.526504E1,1.5777389E3,3.467438E3,1.4583694E2,6.6983624E2,9.410969E2,4.637634E2,5.9026337E2,1.4854584E3,1.0957839E2,3.825061E1,3.4482678E3,6.282721E2,3.5125317E2,1.4426177E1,1.8993969E3,1.2513088E3,4.5752937E1,6.9680304E2,1.6111829E3,8.062736E1,2.429758E1,3.897543E1,3.3832752E1,8.940253E1,9.201666E1,4.090392E2,3.3215298E3,8.551247E2,7.1870917E2,3.5173547E2,8.36237E2,2.5071394E3,1.05677635E2,6.565848E2,1.3619882E2,2.248967E3,6.3656573E2,8.6461584E2,1.5912971E1,7.49513E1,2.9774902E1,7.863779E1,8.603103E1,2.8952362E2,1.811354E3,3.4657917E3,2.2579443E1,3.853531E1,3.0178598E1,5.0382397E1,1.0263281E3,1.5553903E3,1.03279335E2,1.73306E2,1.9728889E3,3.4004272E3,6.8282983E2,1.0871905E2,1.0776443E2,4.7211246E1,7.234648E2,9.939161E2,3.5301062E3,4.9304943E1,6.444478E1,3.1781393E1,2.5732867E2,8.230022E2,2.0881802E3,7.302734E1,7.423916E1,3.036562E1,4.3361233E1,9.699137E1,3.3859702E3,8.551255E2,5.9953682E1,5.0678424E2,6.685818E1,1.2364242E2,5.6893642E1,2.1261925E2,3.5157834E2,6.212585E1],"categories":[],"categories_nodes":[],"categories_segments":[],"categories_sizes":[],"default_left":[false,true,true,true,true,true,true,false,false,true,true,false,false,true,true,false,false,true,true,false,true,false,true,false,false,false,false,true,true,false,false,true,false,true,true,false,false,false,true,false,false,true,true,false,true,false,false,false,false,false,false,false,true,true,false,true,true,false,false,false,true,false,true,true,true,false,false,false,false,false,false,false,true,false,false,false,false,true,true,false,false,false,true,true,false,false,false,false,true,false,false,false,false,false,true,false,false,false,false,false,false,true,false,false,false,false,false,false,false,false,false],"id":4,"left_children":[1,3,5,7,11,9,13,15,-1,23,17,-1,25,21,19,-1,-1,27,37,-1,29,39,35,31,33,-1,-1,41,57,-1,43,59,55,51,45,-1,-1,53,49,47,-1,61,77,-1,63,79,-1,-1,-1,-1,-1,-1,75,71,-1,65,73,-1,69,-1,67,-1,81,91,83,-1,-1,-1,-1,-1,-1,93,89,-1,-1,-1,-1,85,87,-1,-1,95,103,97,-1,-1,-1,-1,105,101,-1,-1,-1,-1,99,107,-1,-1,-1,-1,-1,109,-1,-1,-1,-1,-1,-1,-1,-1,-1],"loss_changes":[1.3774459E10,1.7438777E10,2.7204262E8,4.628968E8,4.4895486E10,2.897033E8,2.594272E6,9.4368975E5,0E0,7.482632E6,1.4512102E8,0E0,1.3924736E8,1.236433E6,2.34652E6,0E0,0E0,7.457901E7,2.7134592E7,0E0,2.49532E6,2.73225E3,3.93147E5,3.079944E6,9.167768E6,0E0,0E0,9.908128E6,1.059505E8,0E0,3.96848E5,3.0206E4,1.146696E6,9.389175E5,1.433432E6,0E0,0E0,6.860787E7,8.2795125E4,2.20255E4,0E0,7.645088E6,2.576824E6,0E0,5.51456E5,4.2912E4,0E0,0E0,0E0,0E0,0E0,0E0,1.06085E4,2.5965696E7,0E0,1.22051E5,6.54075E4,0E0,1.2848288E7,0E0,1.850265E5,0E0,3.781808E6,6.228E3,3.09618E5,0E0,0E0,0E0,0E0,0E0,0E0,9.17804E6,2.387904E7,0E0,0E0,0E0,0E0,5.71964E5,6.933952E7,0E0,0E0,2.62968E6,2.0312876E7,1.58501E5,0E0,0E0,0E0,0E0,9.87962E5,6.585421E7,0E0,0E0,0E0,0E0,3.708E4,2.91832E5,0E0,0E0,0E0,0E0,0E0,4.411328E7,0E0,0E0,0E0,0E0,0E0,0E0,0E0,0E0,0E0],"parents":[2147483647,0,0,1,1,2,2,3,3,5,5,4,4,6,6,7,7,10,10,14,14,13,13,9,9,12,12,17,17,20,20,23,23,24,24,22,22,18,18,21,21,27,27,30,30,34,34,39,39,38,38,33,33,37,37,32,32,28,28,31,31,41,41,44,44,55,55,60,60,58,58,53,53,56,56,52,52,42,42,45,45,62,62,64,64,77,77,78,78,72,72,63,63,71,71,81,81,83,83,94,94,89,89,82,82,88,88,95,95,101,101],"right_children":[2,4,6,8,12,10,14,16,-1,24,18,-1,26,22,20,-1,-1,28,38,-1,30,40,36,32,34,-1,-1,42,58,-1,44,60,56,52,46,-1,-1,54,50,48,-1,62,78,-1,64,80,-1,-1,-1,-1,-1,-1,76,72,-1,66,74,-1,70,-1,68,-1,82,92,84,-1,-1,-1,-1,-1,-1,94,90,-1,-1,-1,-1,86,88,-1,-1,96,104,98,-1,-1,-1,-1,106,102,-1,-1,-1,-1,100,108,-1,-1,-1,-1,-1,110,-1,-1,-1,-1,-1,-1,-1,-1,-1],"split_conditions":[2E0,4.6E-1,9E0,4.4E-1,5E-1,2.7990704E7,2.2086844E7,3.418793E7,1.7697795E3,6E0,1.2151342E2,1.6078847E4,6.6E-1,2.2311556E7,3.383412E6,7.784991E1,-2.5561525E-2,2.0221278E8,1.61E0,1.0581902E2,2.844981E7,7.2E-1,9.660798E6,1.5E-1,1.0005974E7,-1.274056E3,4.526504E1,1.3E-1,3.710203E7,1.4583694E2,2.899124E7,8.660945E7,1.0042381E7,1.2151312E2,1.13E0,1.0957839E2,3.825061E1,1.27E0,2.8377934E7,3.1E-1,1.4426177E1,1.2151311E2,5.1E-1,4.5752937E1,1.1E1,1.0042381E7,8.062736E1,2.429758E1,3.897543E1,3.3832752E1,8.940253E1,9.201666E1,1.2151481E2,2.844981E7,8.551247E2,4.298122E6,1.2151386E2,8.36237E2,3.7725588E7,1.05677635E2,1.8766784E7,1.3619882E2,1.2E-1,3.814051E7,2.8991444E7,1.5912971E1,7.49513E1,2.9774902E1,7.863779E1,8.603103E1,2.8952362E2,2.8349516E7,6.8E-1,2.2579443E1,3.853531E1,3.0178598E1,5.0382397E1,3.3E-1,5.8E-1,1.03279335E2,1.73306E2,4E-2,2.8501184E7,1.4E-1,1.0871905E2,1.0776443E2,4.7211246E1,7.234648E2,1.7242224E8,6.3E-1,4.9304943E1,6.444478E1,3.1781393E1,2.5732867E2,3.3267372E7,3.383412E6,7.302734E1,7.423916E1,3.036562E1,4.3361233E1,9.699137E1,3.3E-1,8.551255E2,5.9953682E1,5.0678424E2,6.685818E1,1.2364242E2,5.6893642E1,2.1261925E2,3.5157834E2,6.212585E1],"split_indices":[7,6,7,6,6,0,0,0,0,7,3,0,6,1,1,0,0,1,6,0,0,6,0,6,0,0,0,6,0,0,0,1,0,3,6,0,0,6,0,6,0,3,6,0,7,0,0,0,0,0,0,0,3,0,0,0,3,0,0,0,0,0,6,0,0,0,0,0,0,0,0,0,6,0,0,0,0,6,6,0,0,6,0,6,0,0,0,0,1,6,0,0,0,0,1,1,0,0,0,0,0,6,0,0,0,0,0,0,0,0,0],"split_type":[0,0,0,0,0,0,0,0,0,0,0,0,0,0,0,0,0,0,0,0,0,0,0,0,0,0,0,0,0,0,0,0,0,0,0,0,0,0,0,0,0,0,0,0,0,0,0,0,0,0,0,0,0,0,0,0,0,0,0,0,0,0,0,0,0,0,0,0,0,0,0,0,0,0,0,0,0,0,0,0,0,0,0,0,0,0,0,0,0,0,0,0,0,0,0,0,0,0,0,0,0,0,0,0,0,0,0,0,0,0,0],"sum_hessian":[6.21E2,1.4E1,6.07E2,9E0,5E0,4.16E2,1.91E2,8E0,1E0,1.21E2,2.95E2,2E0,3E0,3.5E1,1.56E2,6E0,2E0,1.42E2,1.53E2,2.8E1,1.28E2,2.9E1,6E0,6.9E1,5.2E1,2E0,1E0,1.16E2,2.6E1,4E0,1.24E2,2.1E1,4.8E1,2.1E1,3.1E1,3E0,3E0,1.49E2,4E0,2.7E1,2E0,5.6E1,6E1,1.6E1,1.08E2,2.5E1,6E0,9E0,1.8E1,3E0,1E0,6E0,1.5E1,1.47E2,2E0,1.3E1,3.5E1,3E0,2.3E1,1.3E1,8E0,2.4E1,3.2E1,8.3E1,2.5E1,1E0,1.2E1,3E0,5E0,5E0,1.8E1,1.4E1,1.33E2,9E0,2.6E1,9E0,6E0,3.7E1,2.3E1,6E0,1.9E1,2.8E1,4E0,1.6E1,9E0,3.3E1,4E0,1E0,2.2E1,1.3E2,3E0,8E1,3E0,7E0,7E0,2.5E1,3E0,1.3E1,3E0,3E0,4E0,1.28E2,2E0,2E0,2E0,1.1E1,1.1E1,1E0,2.4E1,1.22E2,6E0],"tree_param":{"num_deleted":"0","num_feature":"9","num_nodes":"111","size_leaf_vector":"0"}},{"base_weights":[2.247819E3,1.3045813E3,4.649663E3,2.3054553E3,9.3970685E2,4.9991766E4,2.1782344E3,1.470466E3,5.549352E3,8.078991E4,-8.703385E3,1.3882668E3,7.0911646E2,1.4181359E3,3.4758135E3,2.2101099E3,5.830895E2,1.5006924E4,8.63293E3,1.1643104E3,2.1270881E3,8.775553E2,5.3580664E2,1.9094535E3,4.3736245E3,1.609438E3,5.630608E1,3.3040403E3,1.0530248E3,-1.1891191E3,4.300175E1,1.1397089E3,3.1590105E3,1.6812906E3,3.0196812E1,6.968225E2,4.2374045E2,2.0031446E1,3.9114312E3,1.077125E3,1.9470117E3,3.2045334E3,6.148886E2,9.96588E2,5.696127E1,5.9137476E2,2.4174048E3,4.6588184E3,6.024E2,9.622445E2,4.4726675E2,1.6841403E3,6.8890497E2,1.2370156E3,4.836173E1,6.0415643E2,8.522386E1,1.6663657E3,3.8209033E3,2.7430845E1,5.370008E2,3.6800896E1,8.11603E2,4.6986958E1,1.0881514E2,2.0717382E1,1.718459E3,2.7357666E2,7.8678064E2,5.946576E3,2.809217E3,3.8753964E2,1.828164E2,-2.3592122E-2,7.886177E1,1.029972E3,6.2620327E1,7.2285706E1,1.3912343E3,8.2204796E1,3.6191948E3,4.417989E2,1.4139012E2,3.6955864E3,1.0979956E2,3.9576666E2,8.979165E1,1.7692936E1,1.2790707E3,2.0096683E3,9.423218E2,1.8155905E3,9.140146E1,4.1150293E3,8.8419556E1,4.906832E2,2.777018E2,4.1740204E1,2.8559225E2,1.7994211E2,1.0371891E2,8.975513E2,1.1766146E3,6.872917E2,6.2189404E1,1.7806696E1,7.3441864E2,2.3053364E1,9.665565E2,9.01338E1,4.921022E1,4.3410355E1,1.477171E2,2.9133488E1,5.75408E1,6.2876156E1,2.8088186E1,4.7622997E1,5.374183E2,1.377371E2,5.1695168E1,2.7401762E1,1.0131612E3,9.4682404E2,2.0507233E1,2.7541788E1,-7.1789635E1,1.0249108E2,2.7903843E1,1.4431554E1,3.110027E1,6.503387E1,1.2558562E3,4.6741333E2,2.2178E3,2.1358552E3,9.263247E1,1.4201344E3,2.222596E2,6.0747536E1,1.1552566E2,1.4701722E0,-1.2238617E1,1.7493175E2,2.6180378E3,2.3188907E2,9.3351495E2,3.017922E2,1.0632588E2,6.281156E1,1.0108758E2,1.335454E2,6.703749E1,3.0005573E2,1.2941196E2,3.2561977E1,1.06970276E2],"categories":[],"categories_nodes":[],"categories_segments":[],"categories_sizes":[],"default_left":[true,false,true,true,false,false,false,false,false,false,true,true,false,true,true,false,false,false,false,true,true,true,false,false,true,false,false,true,false,false,false,true,true,false,false,false,true,false,true,true,false,true,false,true,false,true,true,true,false,false,true,true,true,false,false,false,false,true,false,false,true,false,true,false,false,false,true,false,true,false,true,false,false,false,false,true,false,false,true,false,true,false,false,true,false,false,false,false,true,true,false,false,false,true,false,false,false,false,true,false,false,true,false,false,false,false,false,false,false,false,false,false,false,false,false,false,false,false,false,false,false,false,false,false,false,false,false,false,false,false,false,false,true,false,false,true,false,true,false,false,false,false,false,false,true,false,true,false,false,false,false,false,false,false,false,false,false],"id":5,"left_children":[1,3,5,7,11,9,13,15,27,17,29,25,21,19,23,31,49,-1,33,51,47,43,35,45,41,39,-1,37,-1,-1,-1,53,83,-1,-1,55,85,-1,81,77,57,79,-1,75,-1,73,71,69,67,63,59,65,61,87,-1,115,-1,89,117,-1,113,-1,109,-1,-1,-1,91,111,107,105,103,-1,-1,-1,-1,101,-1,-1,99,-1,95,-1,-1,93,-1,97,-1,-1,119,135,121,137,-1,133,-1,-1,-1,-1,129,-1,-1,123,131,-1,-1,-1,-1,-1,127,-1,-1,-1,125,-1,-1,-1,-1,-1,-1,-1,-1,-1,139,149,-1,-1,141,-1,-1,-1,-1,-1,151,-1,147,143,-1,145,-1,-1,-1,-1,-1,-1,153,-1,155,-1,-1,-1,-1,-1,-1,-1,-1,-1,-1],"loss_changes":[1.4030812E9,1.614402E8,1.9501568E10,3.1416557E8,3.314864E7,1.6972462E10,1.5978093E8,6.172021E7,2.3361549E8,2.869839E10,1.2157552E8,1.9352592E7,5.952064E6,1.6778064E7,7.743277E7,4.921627E7,1.887025E6,0E0,2.6751136E8,1.8857312E7,1.0141621E8,3.464408E6,1.707662E6,1.4638888E7,5.916243E7,1.3536272E7,0E0,3.3149632E7,0E0,0E0,0E0,1.061656E6,2.5801312E7,0E0,0E0,1.18794E5,5.4662E5,0E0,1.2730528E7,3.000376E6,2.0979776E7,2.1722976E7,0E0,3.19496E5,0E0,9.3371425E5,7.519976E6,7.113152E6,8.76071E5,1.70639E5,3.95905E5,1.570112E6,1.433748E6,7.545E5,0E0,6.9973E4,0E0,9.788856E6,2.861192E7,0E0,3.9941E4,0E0,4.45234E5,0E0,0E0,0E0,1.231584E6,9.750625E4,8.77174E5,3.900288E7,4.9057516E7,0E0,0E0,0E0,0E0,3.03224E5,0E0,0E0,7.34956E5,0E0,9.146432E6,0E0,0E0,2.1125088E7,0E0,3.8115E4,0E0,0E0,8.61212E5,2.25932E6,5.27194E5,1.994104E6,0E0,8.727168E6,0E0,0E0,0E0,0E0,5.376E3,0E0,0E0,1.204768E6,4.3436E5,0E0,0E0,0E0,0E0,0E0,3.49675E4,0E0,0E0,0E0,1.8795922E5,0E0,0E0,0E0,0E0,0E0,0E0,0E0,0E0,0E0,1.62902E5,1.4078E5,0E0,0E0,1.4927775E4,0E0,0E0,0E0,0E0,0E0,2.6982E5,0E0,2.333812E6,4.52536E5,0E0,6.144972E6,0E0,0E0,0E0,0E0,0E0,0E0,1.181168E6,0E0,8.10714E5,0E0,0E0,0E0,0E0,0E0,0E0,0E0,0E0,0E0,0E0],"parents":[2147483647,0,0,1,1,2,2,3,3,5,5,4,4,6,6,7,7,9,9,13,13,12,12,14,14,11,11,8,8,10,10,15,15,18,18,22,22,27,27,25,25,24,24,21,21,23,23,20,20,16,16,19,19,31,31,35,35,40,40,50,50,52,52,49,49,51,51,48,48,47,47,46,46,45,45,43,43,39,39,41,41,38,38,32,32,36,36,53,53,57,57,66,66,83,83,80,80,85,85,78,78,75,75,70,70,69,69,68,68,62,62,67,67,60,60,55,55,58,58,88,88,90,90,101,101,112,112,108,108,98,98,102,102,93,93,89,89,91,91,122,122,126,126,135,135,137,137,134,134,123,123,132,132,144,144,146,146],"right_children":[2,4,6,8,12,10,14,16,28,18,30,26,22,20,24,32,50,-1,34,52,48,44,36,46,42,40,-1,38,-1,-1,-1,54,84,-1,-1,56,86,-1,82,78,58,80,-1,76,-1,74,72,70,68,64,60,66,62,88,-1,116,-1,90,118,-1,114,-1,110,-1,-1,-1,92,112,108,106,104,-1,-1,-1,-1,102,-1,-1,100,-1,96,-1,-1,94,-1,98,-1,-1,120,136,122,138,-1,134,-1,-1,-1,-1,130,-1,-1,124,132,-1,-1,-1,-1,-1,128,-1,-1,-1,126,-1,-1,-1,-1,-1,-1,-1,-1,-1,140,150,-1,-1,142,-1,-1,-1,-1,-1,152,-1,148,144,-1,146,-1,-1,-1,-1,-1,-1,154,-1,156,-1,-1,-1,-1,-1,-1,-1,-1,-1,-1],"split_conditions":[2.504592E1,1.8E1,2.504593E1,4E0,5E-2,5E-1,2.1326629E8,1E0,1.215155E2,1.15E2,6.6E-1,2.2104762E8,1.2151342E2,3.43E2,1.88E2,1.2151412E2,6E0,1.5006924E4,1.75E2,2.9E1,3.61E2,1.7691578E8,7E0,1.2151324E2,2.4979898E8,2.04E2,5.630608E1,3.383412E6,1.0530248E3,-1.1891191E3,4.300175E1,2.0221278E8,1.215154E2,1.6812906E3,3.0196812E1,2.504446E1,2.504586E1,2.0031446E1,2.504508E1,1.5255814E8,1.2151601E2,2.504617E1,6.148886E2,2.504452E1,5.696127E1,1E0,2E0,3E0,3E0,2E0,3.2E-1,2.504597E1,2.504647E1,4.7893244E7,4.836173E1,2.504428E1,8.522386E1,2.504425E1,1.0784989E8,2.7430845E1,3.1913128E7,3.6800896E1,2.76E2,4.6986958E1,1.0881514E2,2.0717382E1,1.2151946E2,3.63E2,1.2894472E8,3.57E2,3.52E2,3.8753964E2,1.828164E2,-2.3592122E-2,7.886177E1,9.825775E7,6.2620327E1,7.2285706E1,1.71E2,8.2204796E1,2.2104762E8,4.417989E2,1.4139012E2,2.504508E1,1.0979956E2,6.1E1,8.979165E1,1.7692936E1,1.2151407E2,1E0,1.2151333E2,1.2151824E2,9.140146E1,1.2151506E2,8.8419556E1,4.906832E2,2.777018E2,4.1740204E1,8E1,1.7994211E2,1.0371891E2,8.660945E7,9E-2,6.872917E2,6.2189404E1,1.7806696E1,7.3441864E2,2.3053364E1,3.1E-1,9.01338E1,4.921022E1,4.3410355E1,1.2894472E8,2.9133488E1,5.75408E1,6.2876156E1,2.8088186E1,4.7622997E1,5.374183E2,1.377371E2,5.1695168E1,2.7401762E1,2.76E2,2.504161E1,2.0507233E1,2.7541788E1,1E0,1.0249108E2,2.7903843E1,1.4431554E1,3.110027E1,6.503387E1,7.7E1,4.6741333E2,2.504414E1,1.2151313E2,9.263247E1,2.504606E1,2.222596E2,6.0747536E1,1.1552566E2,1.4701722E0,-1.2238617E1,1.7493175E2,1.2151446E2,2.3188907E2,1.01047816E8,3.017922E2,1.0632588E2,6.281156E1,1.0108758E2,1.335454E2,6.703749E1,3.0005573E2,1.2941196E2,3.2561977E1,1.06970276E2],"split_indices":[2,8,2,8,6,6,1,5,3,8,6,1,3,8,8,3,5,0,8,8,8,1,5,3,1,8,0,1,0,0,0,1,3,0,0,2,2,0,2,1,3,2,0,2,0,5,8,5,5,5,6,2,2,1,0,2,0,2,1,0,1,0,8,0,0,0,3,8,1,8,8,0,0,0,0,1,0,0,8,0,1,0,0,2,0,5,0,0,3,5,3,3,0,3,0,0,0,0,5,0,0,1,6,0,0,0,0,0,6,0,0,0,1,0,0,0,0,0,0,0,0,0,8,2,0,0,5,0,0,0,0,0,5,0,2,3,0,2,0,0,0,0,0,0,3,0,1,0,0,0,0,0,0,0,0,0,0],"split_type":[0,0,0,0,0,0,0,0,0,0,0,0,0,0,0,0,0,0,0,0,0,0,0,0,0,0,0,0,0,0,0,0,0,0,0,0,0,0,0,0,0,0,0,0,0,0,0,0,0,0,0,0,0,0,0,0,0,0,0,0,0,0,0,0,0,0,0,0,0,0,0,0,0,0,0,0,0,0,0,0,0,0,0,0,0,0,0,0,0,0,0,0,0,0,0,0,0,0,0,0,0,0,0,0,0,0,0,0,0,0,0,0,0,0,0,0,0,0,0,0,0,0,0,0,0,0,0,0,0,0,0,0,0,0,0,0,0,0,0,0,0,0,0,0,0,0,0,0,0,0,0,0,0,0,0,0,0],"sum_hessian":[6.21E2,4.47E2,1.74E2,1.18E2,3.29E2,8E0,1.66E2,9.5E1,2.3E1,5E0,3E0,1.1E2,2.19E2,1.06E2,6E1,5.1E1,4.4E1,2E0,3E0,8E1,2.6E1,1.09E2,1.1E2,2.3E1,3.7E1,8.6E1,2.4E1,1.7E1,6E0,2E0,1E0,2.5E1,2.6E1,1E0,2E0,4.3E1,6.7E1,3E0,1.4E1,3.5E1,5.1E1,2.4E1,1.3E1,7.7E1,3.2E1,7E0,1.6E1,9E0,1.7E1,1E1,3.4E1,3.7E1,4.3E1,2.1E1,4E0,3E1,1.3E1,4.6E1,5E0,1.3E1,2.1E1,1.3E1,3E1,3E0,7E0,1E0,3.6E1,7E0,1E1,4E0,5E0,3E0,1.3E1,2E0,5E0,6.9E1,8E0,1.8E1,1.7E1,4E0,2E1,1.1E1,3E0,2E1,6E0,6.5E1,2E0,1E0,2E1,3E1,1.6E1,3.1E1,5E0,1.7E1,3E0,6E0,1.4E1,5.2E1,1.3E1,6E0,1.1E1,4E1,2.9E1,1E0,4E0,1E0,3E0,3E0,7E0,2.2E1,8E0,2E0,5E0,4E0,1.7E1,2.7E1,3E0,2E0,3E0,1.7E1,3E0,2E0,1.4E1,3.7E1,3E0,3E0,2E0,6E0,1E0,3E0,1E1,5E0,2.4E1,1.2E1,5E0,2.6E1,4E0,1.8E1,1.3E1,5E0,9E0,1E0,1E0,1.7E1,9E0,5E0,1.3E1,2E0,3E0,8E0,2.9E1,2E1,4E0,6E0,3E0,3E0,1E1],"tree_param":{"num_deleted":"0","num_feature":"9","num_nodes":"157","size_leaf_vector":"0"}},{"base_weights":[2.0654175E3,2.8271473E4,1.4154893E3,3.6356511E3,6.4619266E4,1.7919275E3,5.905402E2,4.9022134E2,1.597226E3,7.007987E2,2.2355957E3,1.4006463E4,-8.1195737E3,3.7534842E2,6.3612213E2,6.30381E2,-2.2501629E-2,1.6256534E3,2.7874536E3,8.651068E2,5.797138E2,2.548964E1,5.2698816E2,5.0894693E2,9.409653E2,-1.1098442E3,4.0851665E1,7.134311E1,2.8183716E1,2.1084944E3,3.2101206E3,7.799564E2,3.7688254E2,9.543191E1,3.406288E1,4.8808752E2,1.2229136E3,1.2131219E2,5.4973975E2,2.1986995E3,1.1849128E3,7.0224896E2,1.1489855E2,1.0536447E3,2.5160771E3,8.3758446E1,4.165042E1,3.784533E1,5.7141064E2,5.660334E1,9.48449E1,8.463489E2,1.9819513E3,1.3324663E2,6.413019E1,1.441122E3,3.0400903E3,7.546488E1,3.4096152E2,4.543135E3,2.535112E3,5.9481085E2,2.816637E2,2.2786304E2,5.7507306E2,5.185095E1,7.203448E2,7.274028E2,2.241057E3,1.7383184E1,3.1116941E1,1.3562311E1,6.1970043E1,1.1510544E3,3.5796277E3,9.627653E2,2.8708533E3,3.6090633E1,1.4629192E3,2.4687456E1,4.2666267E1,6.529272E2,1.5003604E3,1.4893179E3,3.049607E3,9.7601306E2,7.0239233E2,8.223938E1,4.4471004E1,1.3002263E3,3.0094985E3,8.532116E1,1.5413237E2,7.7020996E1,5.0290333E1,6.154353E1,1.0627681E3,1.0278074E2,3.2511106E3,9.993577E2,2.465351E3,3.4944502E3,1.4432524E2,3.0429668E3,1.0154451E3,4.3305244E3,2.0903237E3,5.6613495E2,9.1046715E1,1.5715963E3,5.125725E1,5.647674E2,1.8499387E2,3.018863E1,1.0846249E2,1.6327222E2,3.7984857E2,5.2070942E1,1.6770006E2,6.1321644E1,2.5981583E1,8.527338E2,4.9711154E2,2.1893616E2,4.542231E2,5.9900446E2,1.5131755E2,3.7538828E2,1.2047475E2,6.8501556E2,3.786305E2,4.7818005E1,1.107893E2,7.377174E2,2.0307611E3,3.637871E2,1.9745107E3,6.025076E1,1.691631E1,1.725466E1,6.220873E1,2.2527696E2,7.598231E1,2.5622372E2,-4.177461E1,5.378116E1,1.1230782E2,5.8235176E1,-1.1626666E1],"categories":[],"categories_nodes":[],"categories_segments":[],"categories_sizes":[],"default_left":[false,true,false,true,true,true,true,false,false,true,true,false,true,true,false,false,false,true,true,true,true,false,false,false,false,false,false,false,false,false,true,true,false,false,false,true,true,false,true,true,false,true,false,false,true,false,false,false,true,false,false,false,true,false,false,false,true,false,true,false,false,false,true,false,false,false,true,false,true,false,false,false,false,false,true,false,false,false,false,false,false,false,true,true,true,false,true,false,false,true,true,false,false,false,false,false,false,false,true,true,true,true,false,true,true,false,true,true,false,false,false,false,false,false,false,false,false,false,false,false,false,true,false,false,false,false,false,false,false,false,true,false,false,false,false,false,true,false,false,false,false,false,false,false,false,false,false,false,false],"id":6,"left_children":[1,3,5,7,11,9,13,15,-1,23,17,-1,25,21,19,27,-1,39,29,41,37,-1,33,31,35,-1,-1,-1,-1,43,59,45,61,-1,-1,57,53,-1,47,55,51,49,-1,63,83,-1,-1,-1,65,-1,-1,85,81,-1,-1,77,67,-1,79,75,73,71,69,-1,87,-1,107,-1,89,-1,-1,-1,-1,109,105,-1,101,-1,91,-1,-1,-1,103,99,97,95,93,-1,-1,111,133,-1,-1,-1,-1,-1,113,-1,135,131,127,115,-1,129,125,123,121,119,-1,117,-1,137,-1,-1,-1,-1,-1,-1,-1,-1,-1,145,-1,-1,-1,139,-1,-1,-1,-1,147,-1,-1,-1,143,-1,141,-1,-1,-1,-1,-1,-1,-1,-1,-1,-1,-1,-1],"loss_changes":[1.0553918E10,1.3196932E10,1.8775168E8,3.8020944E8,3.4064114E10,2.003026E8,1.644532E6,6.1880925E5,0E0,5.14242E6,9.510259E7,0E0,1.0615016E8,5.23224E5,1.5264E6,1.55475E3,0E0,3.3511456E7,3.742541E7,5.3385E5,1.782268E6,0E0,8.6948825E5,2.211398E6,6.17058E6,0E0,0E0,0E0,0E0,2.4005184E7,7.216365E7,1.11934E5,8.492565E5,0E0,0E0,6.05492E5,1.184432E6,0E0,2.4774E5,3.450141E7,2.0720008E7,1.67408E5,0E0,9.828246E6,1.9561664E7,0E0,0E0,0E0,4.85284E5,0E0,0E0,4.34416E5,4.2762504E7,0E0,0E0,2.72576E5,7.84241E7,0E0,2.3681625E4,2.2744282E8,8.84025E7,7.59605E4,6.04485E4,0E0,1.178955E5,0E0,2.4684E5,0E0,1.4161312E7,0E0,0E0,0E0,0E0,6.981184E6,3.1207072E7,0E0,1.632256E7,0E0,2.62456E5,0E0,0E0,0E0,1.41148E7,5.665928E6,8.06568E6,2.53108E5,4.5582E4,0E0,0E0,4.210996E6,4.0591224E7,0E0,0E0,0E0,0E0,0E0,3.8436E4,0E0,5.160448E6,2.05588E5,3.599158E6,2.854624E6,0E0,4.8124484E7,3.03183E6,4.8128E5,4.5674296E7,8.58505E4,0E0,1.009828E6,0E0,2.58925E3,0E0,0E0,0E0,0E0,0E0,0E0,0E0,0E0,0E0,3.325075E5,0E0,0E0,0E0,1.0787E4,0E0,0E0,0E0,0E0,4.7099244E5,0E0,0E0,0E0,1.668624E7,0E0,9.92274E5,0E0,0E0,0E0,0E0,0E0,0E0,0E0,0E0,0E0,0E0,0E0,0E0],"parents":[2147483647,0,0,1,1,2,2,3,3,5,5,4,4,6,6,7,7,10,10,14,14,13,13,9,9,12,12,15,15,18,18,23,23,22,22,24,24,20,20,17,17,19,19,29,29,31,31,38,38,41,41,40,40,36,36,39,39,35,35,30,30,32,32,43,43,48,48,56,56,62,62,61,61,60,60,59,59,55,55,58,58,52,52,44,44,51,51,64,64,68,68,78,78,86,86,85,85,84,84,83,83,76,76,82,82,74,74,66,66,73,73,89,89,96,96,101,101,109,109,107,107,106,106,105,105,104,104,100,100,103,103,99,99,90,90,98,98,111,111,125,125,136,136,134,134,121,121,130,130],"right_children":[2,4,6,8,12,10,14,16,-1,24,18,-1,26,22,20,28,-1,40,30,42,38,-1,34,32,36,-1,-1,-1,-1,44,60,46,62,-1,-1,58,54,-1,48,56,52,50,-1,64,84,-1,-1,-1,66,-1,-1,86,82,-1,-1,78,68,-1,80,76,74,72,70,-1,88,-1,108,-1,90,-1,-1,-1,-1,110,106,-1,102,-1,92,-1,-1,-1,104,100,98,96,94,-1,-1,112,134,-1,-1,-1,-1,-1,114,-1,136,132,128,116,-1,130,126,124,122,120,-1,118,-1,138,-1,-1,-1,-1,-1,-1,-1,-1,-1,146,-1,-1,-1,140,-1,-1,-1,-1,148,-1,-1,-1,144,-1,142,-1,-1,-1,-1,-1,-1,-1,-1,-1,-1,-1,-1],"split_conditions":[2E0,4.6E-1,9E0,4.4E-1,5E-1,2.7990704E7,2.2086844E7,3.418793E7,1.597226E3,6E0,1.2151342E2,1.4006463E4,6.6E-1,1.2151386E2,1E1,2.8649796E7,-2.2501629E-2,4E-2,4E0,3.33E2,2.844981E7,2.548964E1,9.660798E6,1.5E-1,1.0005974E7,-1.1098442E3,4.0851665E1,7.134311E1,2.8183716E1,2.8649796E7,1.8E1,3.01E2,1.0023167E7,9.543191E1,3.406288E1,1.2151312E2,1.13E0,1.2131219E2,2.899124E7,1.2151313E2,3.47E2,2.9115074E7,1.1489855E2,2.8349516E7,1.2151412E2,8.3758446E1,4.165042E1,3.784533E1,1.2151429E2,5.660334E1,9.48449E1,7E0,3.52E2,1.3324663E2,6.413019E1,1E0,1.2151315E2,7.546488E1,1.2151481E2,7E0,1.93E2,4.298122E6,1.2151386E2,2.2786304E2,2.6E-1,5.185095E1,2.8991444E7,7.274028E2,3.57E2,1.7383184E1,3.1116941E1,1.3562311E1,6.1970043E1,1E-1,1.2151491E2,9.627653E2,1.215154E2,3.6090633E1,1.2151164E2,2.4687456E1,4.2666267E1,6.529272E2,1.3E-1,3.418843E7,1E0,1.73E2,3.3E-1,8.223938E1,4.4471004E1,2.9115064E7,3.59E2,8.532116E1,1.5413237E2,7.7020996E1,5.0290333E1,6.154353E1,7E-2,1.0278074E2,3.4188384E7,3.418807E7,3.7102068E7,5E0,1.4432524E2,3.61E2,3.64E2,1.2151346E2,1.2151601E2,1.4E-1,9.1046715E1,1.2151367E2,5.125725E1,3.52E2,1.8499387E2,3.018863E1,1.0846249E2,1.6327222E2,3.7984857E2,5.2070942E1,1.6770006E2,6.1321644E1,2.5981583E1,2.76E2,4.9711154E2,2.1893616E2,4.542231E2,3.55E2,1.5131755E2,3.7538828E2,1.2047475E2,6.8501556E2,3.63E2,4.7818005E1,1.107893E2,7.377174E2,7E0,3.637871E2,3E0,6.025076E1,1.691631E1,1.725466E1,6.220873E1,2.2527696E2,7.598231E1,2.5622372E2,-4.177461E1,5.378116E1,1.1230782E2,5.8235176E1,-1.1626666E1],"split_indices":[7,6,7,6,6,0,0,0,0,7,3,0,6,3,7,0,0,6,8,8,0,0,0,6,0,0,0,0,0,0,8,8,0,0,0,3,6,0,0,3,8,0,0,0,3,0,0,0,3,0,0,7,8,0,0,8,3,0,3,7,8,0,3,0,6,0,0,0,8,0,0,0,0,6,3,0,3,0,3,0,0,0,6,0,8,8,6,0,0,0,8,0,0,0,0,0,6,0,0,0,0,8,0,8,8,3,3,6,0,3,0,8,0,0,0,0,0,0,0,0,0,8,0,0,0,8,0,0,0,0,8,0,0,0,7,0,8,0,0,0,0,0,0,0,0,0,0,0,0],"split_type":[0,0,0,0,0,0,0,0,0,0,0,0,0,0,0,0,0,0,0,0,0,0,0,0,0,0,0,0,0,0,0,0,0,0,0,0,0,0,0,0,0,0,0,0,0,0,0,0,0,0,0,0,0,0,0,0,0,0,0,0,0,0,0,0,0,0,0,0,0,0,0,0,0,0,0,0,0,0,0,0,0,0,0,0,0,0,0,0,0,0,0,0,0,0,0,0,0,0,0,0,0,0,0,0,0,0,0,0,0,0,0,0,0,0,0,0,0,0,0,0,0,0,0,0,0,0,0,0,0,0,0,0,0,0,0,0,0,0,0,0,0,0,0,0,0,0,0,0,0],"sum_hessian":[6.21E2,1.4E1,6.07E2,9E0,5E0,4.16E2,1.91E2,8E0,1E0,1.21E2,2.95E2,2E0,3E0,3.5E1,1.56E2,6E0,2E0,1.42E2,1.53E2,2.8E1,1.28E2,2.1E1,1.4E1,6.9E1,5.2E1,2E0,1E0,4E0,2E0,6.1E1,9.2E1,2.1E1,4.8E1,3E0,1.1E1,2.1E1,3.1E1,4E0,1.24E2,6E1,8.2E1,2E1,8E0,1.8E1,4.3E1,1.7E1,4E0,1.6E1,1.08E2,1.5E1,5E0,5.9E1,2.3E1,2.5E1,6E0,3.3E1,2.7E1,6E0,1.5E1,2.9E1,6.3E1,1.3E1,3.5E1,4E0,1.4E1,8.3E1,2.5E1,3E0,2.4E1,9E0,2.6E1,1E0,1.2E1,2.8E1,3.5E1,6E0,2.3E1,1E0,3.2E1,9E0,6E0,1E0,2.2E1,1.6E1,2.7E1,2.8E1,3.1E1,3E0,1.1E1,1.2E1,1.2E1,5E0,2.7E1,2.1E1,1E1,7E0,2.1E1,3E0,2.4E1,1.2E1,4E0,1.5E1,8E0,4E0,1.8E1,2.2E1,1.3E1,1.6E1,9E0,1.6E1,1.2E1,6E0,6E0,1E0,2E1,3E0,1.2E1,2E0,1.4E1,1.3E1,3E0,1E1,3E0,3E0,1.9E1,1.1E1,7E0,1E0,3E0,1E0,3E0,3E0,9E0,1E0,1.1E1,1.7E1,7E0,5E0,1E0,1E0,1E1,5E0,2E0,9E0,2E0,6E0,4E0,2E0,1E0],"tree_param":{"num_deleted":"0","num_feature":"9","num_nodes":"149","size_leaf_vector":"0"}},{"base_weights":[1.8994371E3,2.6419941E4,1.2913663E3,3.8378543E2,4.3734734E4,8.3885266E2,1.9102959E3,5.3742275E1,-2.052002E-2,1.3287633E3,5.7107983E2,7.2221064E3,6.5014595E3,2.5515234E3,1.3257456E3,1.911986E3,5.623206E2,1.0572715E4,2.6305052E1,2.5508438E3,9.988787E2,6.873455E2,4.661483E2,2.3956155E3,5.6894697E3,1.3041172E3,2.5172554E3,6.854248E1,1.5173647E3,6.0196893E2,2.959386E2,6.728475E2,7.667246E1,8.9033484E2,4.865814E1,3.971579E3,2.1066353E3,4.940727E2,1.3461006E3,6.86741E2,4.5143276E1,4.0394505E1,3.916252E3,1.3971088E3,5.908094E1,4.0241266E2,7.0863153E2,1.1326688E3,2.4646953E3,8.802425E2,4.508459E2,5.753005E1,9.2517944E1,1.0584952E3,2.0789805E3,4.5768237E2,8.603286E1,2.5925586E2,6.497121E2,7.002957E2,1.01690735E3,2.7037878E3,4.4231678E1,2.3938354E2,4.6894157E1,3.4286114E1,1.4200568E2,5.6099396E2,9.227079E2,1.6117744E3,6.728019E2,1.2614423E1,2.4735462E1,8.8271385E1,2.8673773E2,1.0335839E2,2.7498245E1,4.4875744E1,8.479118E1,7.895662E2,3.7450916E1,9.451045E0,2.8276915E1,1.3236223E1,5.069131E1,4.0111057E3,6.604479E2,1.7138124E3,2.9487112E3,3.0389764E2,4.7755096E1,1.2919359E3,7.993791E1,6.624844E2,3.704663E1,1.8647804E2,7.5279785E1,4.0915405E2,9.979236E1,6.1029163E1,1.3875786E3,1.4231351E1,3.5429993E2,1.4635533E3,3.4763997E3,5.325543E1,5.2960156E3,1.4373843E2,1.876901E3,8.841836E1,2.6101385E1,1.0513433E2,5.3309174E1,8.7262184E1,5.2926086E1,3.6567715E1,7.256807E1,1.4689748E2,5.7233624E1,6.437187E2,3.6566566E1,3.0407443E2,1.4916853E3,4.7309454E2,2.5498523E2,3.908305E1,-6.890243E1,6.179247E2,3.2117366E3,5.0878986E1,1.8232083E2,3.7492683E1,8.432897E0,3.2612984E1,1.5298412E2,7.02154E1,1.873382E1,-1.1045343E1,3.1673008E1,-9.319007E0,-1.0163574E0,7.008317E2,-3.898958E1],"categories":[],"categories_nodes":[],"categories_segments":[],"categories_sizes":[],"default_left":[true,false,true,false,true,true,true,false,false,true,false,false,true,true,true,false,true,true,false,false,true,true,true,true,false,false,true,false,false,false,true,false,false,true,false,false,true,true,true,true,false,false,true,false,false,true,false,true,true,false,true,false,false,false,true,false,false,true,true,true,true,false,false,true,false,false,false,true,true,true,true,false,false,false,false,false,false,false,false,false,false,false,false,false,false,true,true,false,true,true,false,true,false,true,false,false,false,false,false,false,true,false,true,false,true,false,true,true,true,false,false,false,false,false,false,false,false,false,false,false,false,false,true,false,false,false,true,true,true,false,true,false,false,false,false,false,false,false,false,false,false,false,false],"id":7,"left_children":[1,3,5,7,11,9,13,-1,-1,15,21,-1,17,23,19,25,39,27,-1,41,37,33,29,35,31,43,61,-1,-1,45,63,-1,-1,59,-1,55,47,57,53,51,-1,-1,49,65,-1,89,67,91,87,-1,83,-1,-1,69,85,-1,-1,81,79,77,75,73,-1,71,-1,-1,-1,93,111,95,113,-1,-1,-1,-1,-1,-1,-1,-1,109,-1,-1,-1,-1,-1,105,97,107,103,101,-1,99,-1,115,-1,-1,-1,129,-1,-1,117,-1,131,127,123,-1,119,125,121,-1,-1,-1,-1,-1,-1,-1,-1,-1,-1,-1,-1,-1,133,-1,-1,-1,139,135,141,-1,137,-1,-1,-1,-1,-1,-1,-1,-1,-1,-1,-1,-1],"loss_changes":[9.240028E9,6.7453747E9,1.6868269E8,4.1307738E5,9.076214E9,4.5549376E7,9.25737E7,0E0,0E0,5.435368E7,2.485584E6,0E0,1.2420963E8,4.556723E7,5.19124E7,2.2471888E7,4.48804E5,1.2607187E8,0E0,8.049706E7,1.8440416E7,3.927348E6,2.688484E6,4.491776E7,2.0414896E7,1.628848E6,1.1963536E7,0E0,0E0,1.162232E6,4.45442E5,0E0,0E0,5.38656E5,0E0,2.8074592E7,3.2430912E7,1.512709E6,1.1289344E7,1.05466E5,0E0,0E0,2.8388525E8,2.87288E5,0E0,4.7332E4,8.41414E5,5.06632E5,2.1477536E7,0E0,1.2932525E5,0E0,0E0,9.158612E6,4.3944176E7,0E0,0E0,5.07495E4,7.43484E5,5.1064E5,7.4592E4,6.704096E6,0E0,9.41625E3,0E0,0E0,0E0,2.96001E5,2.41433E5,2.725396E6,3.98627E5,0E0,0E0,0E0,0E0,0E0,0E0,0E0,0E0,6.1939E5,0E0,0E0,0E0,0E0,0E0,2.846696E7,5.245565E5,7.66812E6,2.8611232E7,6.359725E4,0E0,3.2667E5,0E0,5.35065E4,0E0,0E0,0E0,8.8042625E4,0E0,0E0,1.54614E5,0E0,2.4069375E4,1.7233468E7,2.397104E7,0E0,2.5778E7,2.3709664E5,8.017424E6,0E0,0E0,0E0,0E0,0E0,0E0,0E0,0E0,0E0,0E0,0E0,0E0,0E0,5.2394E5,0E0,0E0,0E0,3.3327383E3,2.3114E5,5.7428056E7,0E0,1.9239014E5,0E0,0E0,0E0,0E0,0E0,0E0,0E0,0E0,0E0,0E0,0E0,0E0],"parents":[2147483647,0,0,1,1,2,2,3,3,5,5,4,4,6,6,9,9,12,12,14,14,10,10,13,13,15,15,17,17,22,22,24,24,21,21,23,23,20,20,16,16,19,19,25,25,29,29,36,36,42,42,39,39,38,38,35,35,37,37,33,33,26,26,30,30,43,43,46,46,53,53,63,63,61,61,60,60,59,59,58,58,57,57,50,50,54,54,48,48,45,45,47,47,67,67,69,69,86,86,91,91,89,89,88,88,85,85,87,87,79,79,68,68,70,70,93,93,100,100,106,106,108,108,104,104,107,107,103,103,97,97,102,102,122,122,127,127,130,130,126,126,128,128],"right_children":[2,4,6,8,12,10,14,-1,-1,16,22,-1,18,24,20,26,40,28,-1,42,38,34,30,36,32,44,62,-1,-1,46,64,-1,-1,60,-1,56,48,58,54,52,-1,-1,50,66,-1,90,68,92,88,-1,84,-1,-1,70,86,-1,-1,82,80,78,76,74,-1,72,-1,-1,-1,94,112,96,114,-1,-1,-1,-1,-1,-1,-1,-1,110,-1,-1,-1,-1,-1,106,98,108,104,102,-1,100,-1,116,-1,-1,-1,130,-1,-1,118,-1,132,128,124,-1,120,126,122,-1,-1,-1,-1,-1,-1,-1,-1,-1,-1,-1,-1,-1,134,-1,-1,-1,140,136,142,-1,138,-1,-1,-1,-1,-1,-1,-1,-1,-1,-1,-1,-1],"split_conditions":[2E0,1E0,2.504494E1,3.418793E7,1.15E2,1E0,2E0,5.3742275E1,-2.052002E-2,8E0,6E0,7.2221064E3,1.75E2,2.504772E1,3.3267372E7,3.1808136E7,2.9115064E7,2.8649796E7,2.6305052E1,4E0,2.504689E1,1E1,2.504411E1,2.504538E1,3.710203E7,2.504473E1,2.504487E1,6.854248E1,1.5173647E3,1.8E1,2.5117248E7,6.728475E2,7.667246E1,1.99E2,4.865814E1,3.4188228E7,2.504592E1,6E0,3.43E2,3.33E2,4.5143276E1,4.0394505E1,1.8E1,1E0,5.908094E1,1.7178054E7,1.15587896E8,1.43E2,1.88E2,8.802425E2,9E0,5.753005E1,9.2517944E1,2.8349516E7,3.61E2,4.5768237E2,8.603286E1,1.4391583E7,2.504591E1,2E0,3.2506464E7,1E0,4.4231678E1,1E0,4.6894157E1,3.4286114E1,1.4200568E2,3.5E1,7.7E1,2.504876E1,2.850078E7,1.2614423E1,2.4735462E1,8.8271385E1,2.8673773E2,1.0335839E2,2.7498245E1,4.4875744E1,8.479118E1,1.4E1,3.7450916E1,9.451045E0,2.8276915E1,1.3236223E1,5.069131E1,2.8501184E7,3.64E2,3.4188172E7,2.8649772E7,3.54E2,4.7755096E1,2.504539E1,7.993791E1,9.7E1,3.704663E1,1.8647804E2,7.5279785E1,3.63E2,9.979236E1,6.1029163E1,3.8140556E7,1.4231351E1,1.4E1,3.57E2,3.710208E7,5.325543E1,2.8501538E7,1E0,3E0,8.841836E1,2.6101385E1,1.0513433E2,5.3309174E1,8.7262184E1,5.2926086E1,3.6567715E1,7.256807E1,1.4689748E2,5.7233624E1,6.437187E2,3.6566566E1,3.0407443E2,4E0,4.7309454E2,2.5498523E2,3.908305E1,4E0,3.37E2,3.59E2,5.0878986E1,3E0,3.7492683E1,8.432897E0,3.2612984E1,1.5298412E2,7.02154E1,1.873382E1,-1.1045343E1,3.1673008E1,-9.319007E0,-1.0163574E0,7.008317E2,-3.898958E1],"split_indices":[7,8,2,0,8,5,5,0,0,7,5,0,8,2,1,0,0,0,0,8,2,7,2,2,0,2,2,0,0,5,0,0,0,8,0,0,2,7,8,8,0,0,8,8,0,0,1,8,8,0,5,0,0,0,8,0,0,0,2,5,0,8,0,8,0,0,0,5,5,2,0,0,0,0,0,0,0,0,0,7,0,0,0,0,0,0,8,0,0,8,0,2,0,8,0,0,0,8,0,0,0,0,7,8,0,0,0,8,8,0,0,0,0,0,0,0,0,0,0,0,0,0,7,0,0,0,8,8,8,0,5,0,0,0,0,0,0,0,0,0,0,0,0],"split_type":[0,0,0,0,0,0,0,0,0,0,0,0,0,0,0,0,0,0,0,0,0,0,0,0,0,0,0,0,0,0,0,0,0,0,0,0,0,0,0,0,0,0,0,0,0,0,0,0,0,0,0,0,0,0,0,0,0,0,0,0,0,0,0,0,0,0,0,0,0,0,0,0,0,0,0,0,0,0,0,0,0,0,0,0,0,0,0,0,0,0,0,0,0,0,0,0,0,0,0,0,0,0,0,0,0,0,0,0,0,0,0,0,0,0,0,0,0,0,0,0,0,0,0,0,0,0,0,0,0,0,0,0,0,0,0,0,0,0,0,0,0,0,0],"sum_hessian":[6.21E2,1.4E1,6.07E2,6E0,8E0,3.52E2,2.55E2,4E0,2E0,1.23E2,2.29E2,4E0,4E0,1.2E2,1.35E2,6.9E1,5.4E1,2E0,2E0,2.7E1,1.08E2,1.06E2,1.23E2,1.16E2,4E0,3.6E1,3.3E1,1E0,1E0,6.7E1,5.6E1,3E0,1E0,5.1E1,5.5E1,1.6E1,1E2,4.5E1,6.3E1,2.3E1,3.1E1,1.1E1,1.6E1,3.1E1,5E0,2.5E1,4.2E1,2.8E1,7.2E1,6E0,1E1,1.8E1,5E0,4.7E1,1.6E1,1.3E1,3E0,1.9E1,2.6E1,2.3E1,2.8E1,3E1,3E0,4.4E1,1.2E1,1E0,3E1,2.7E1,1.5E1,1.8E1,2.9E1,4E0,4E1,3E0,2.7E1,2.7E1,1E0,1E1,1.3E1,1.6E1,1E1,3E0,1.6E1,2E0,8E0,6E0,1E1,3E1,4.2E1,1.3E1,1.2E1,1.7E1,1.1E1,1.6E1,1.1E1,1.3E1,5E0,7E0,3E0,3E0,1.4E1,4E0,9E0,1.2E1,3E1,2E0,4E0,3E0,2.7E1,1.3E1,3E0,1E1,5E0,1E1,1.9E1,4E0,1.2E1,1.2E1,2E0,3E0,1E0,5E0,2.2E1,1.1E1,1.9E1,1E0,2E0,9E0,3E0,4E0,3E0,8E0,1E0,1E0,2.1E1,7E0,2E0,1E0,2E0,1E0,1E0,1E0,2E0],"tree_param":{"num_deleted":"0","num_feature":"9","num_nodes":"143","size_leaf_vector":"0"}},{"base_weights":[1.7362787E3,2.4370486E4,1.1750133E3,3.5308148E2,4.034286E4,7.5965796E2,1.7431597E3,4.94429E1,-1.9154867E-2,1.0487369E3,4.5624478E2,6.644339E4,6.173756E3,1.4202594E3,2.5181274E3,7.696719E2,1.9473396E3,3.5837133E4,9.443421E3,2.2738882E3,6.2238403E2,3.7368713E2,1.2647507E3,2.5518643E2,5.1435785E2,1.0044079E4,2.455138E1,5.051358E2,9.7007654E2,5.5367153E3,-1.1376464E3,7.306948E2,4.4215262E2,2.7298782E1,1.6156055E1,6.511543E1,1.4414965E3,2.3309226E3,1.0516167E3,2.2778599E3,4.823368E1,1.3878102E3,2.7860767E3,5.8742316E2,1.8104895E1,5.9013574E2,9.453863E1,2.4455054E3,4.0914303E1,3.1869553E3,1.9619191E3,8.8699603E2,1.6851906E3,2.7054697E3,1.0554723E3,3.6691677E1,3.5801665E3,4.3272122E2,1.0911497E3,2.0310791E1,4.472929E1,6.451605E2,2.59128E2,8.165104E1,2.5908795E2,3.38067E3,4.6124936E2,1.1382416E2,6.8212695E2,2.2731068E1,5.6722828E1,8.0479333E2,4.1157288E1,5.75857E1,1.3569221E2,1.1703583E3,5.935731E2,8.801009E1,3.6290155E2,7.616416E1,2.07118E2,4.8288464E1,7.956578E1,2.5657715E3,3.801386E2,3.68249E1,7.0113153E2,7.548846E1,4.1720557E3,4.461082E2,9.40331E2,8.742388E0,1.2268115E3,2.961594E3,5.389503E1,1.9567072E1,7.184752E1,2.7871347E1,5.122206E0,2.1200815E1,5.682026E2,4.6869373E1,7.5676384E1,2.731619E1,5.55334E2,4.25502E2,2.2220215E3,3.4734598E2,9.230794E1,1.2433292E3,1.5916786E1,4.606717E3,3.47382E1,6.435651E1,1.0837107E2,6.2737476E1,3.495487E1,4.6808674E1,1.5713607E1,2.607229E2,5.9543976E2,5.6782257E1,3.5058835E2,1.2848546E2,6.900647E1],"categories":[],"categories_nodes":[],"categories_segments":[],"categories_sizes":[],"default_left":[true,false,false,false,true,true,false,false,false,false,true,false,true,true,false,true,true,true,false,false,false,false,true,false,true,true,false,true,true,false,false,false,false,false,false,false,false,false,true,true,false,true,true,true,false,true,false,false,false,false,true,true,true,true,false,false,true,true,true,false,false,true,true,false,false,true,false,false,true,false,false,false,false,false,false,false,false,false,false,false,false,false,false,false,false,false,true,false,false,true,true,false,true,false,false,false,false,false,false,false,true,false,false,false,false,false,false,true,false,true,false,true,false,false,false,false,false,false,false,false,false,false,false,false,false],"id":8,"left_children":[1,3,5,7,11,9,13,-1,-1,15,23,17,25,21,19,27,39,29,-1,41,-1,-1,37,33,31,35,-1,43,57,-1,-1,45,59,-1,-1,-1,-1,55,51,47,-1,53,49,61,-1,81,-1,63,-1,83,79,75,65,77,73,-1,71,69,67,-1,-1,85,97,-1,-1,87,99,-1,95,-1,-1,-1,-1,-1,-1,91,89,-1,-1,-1,-1,-1,-1,93,-1,-1,101,-1,111,103,113,-1,109,105,-1,-1,-1,-1,-1,-1,107,-1,-1,-1,115,-1,121,117,-1,123,-1,119,-1,-1,-1,-1,-1,-1,-1,-1,-1,-1,-1,-1,-1],"loss_changes":[7.8731264E9,5.739979E9,1.4215328E8,3.4963456E5,7.6162796E9,3.0483296E7,6.048435E7,0E0,0E0,4.363955E7,1.90178E6,8.9921946E8,1.1225512E8,6.120016E7,5.2823616E7,6.87896E6,1.9238256E7,4.318212E9,0E0,2.8356032E7,0E0,0E0,3.686083E7,2.422925E4,1.770092E6,1.1377984E8,0E0,1.547079E6,4.602464E6,0E0,0E0,4.07752E5,3.5714E4,0E0,0E0,0E0,0E0,6.738501E7,1.373296E7,9.651008E6,0E0,9.405876E6,8.284512E6,7.61612E5,0E0,1.007235E5,0E0,5.225744E6,0E0,9.33408E5,6.5194E5,9.116408E6,5.862052E7,5.235156E6,2.688526E6,0E0,2.3734883E8,3.131295E5,4.37056E5,0E0,0E0,3.7727E5,2.2371125E4,0E0,0E0,2.1786688E7,3.593655E5,0E0,1.8552E4,0E0,0E0,0E0,0E0,0E0,0E0,3.49972E6,2.64859E6,0E0,0E0,0E0,0E0,0E0,0E0,1.2042288E7,0E0,0E0,7.2034E4,0E0,1.3361648E7,6.79473E5,2.5915E4,0E0,7.89664E5,3.937408E6,0E0,0E0,0E0,0E0,0E0,0E0,6.1989475E5,0E0,0E0,0E0,1.661505E5,0E0,2.1370672E7,1.331415E5,0E0,3.7696E5,0E0,6.03288E6,0E0,0E0,0E0,0E0,0E0,0E0,0E0,0E0,0E0,0E0,0E0,0E0,0E0],"parents":[2147483647,0,0,1,1,2,2,3,3,5,5,4,4,6,6,9,9,11,11,14,14,13,13,10,10,12,12,15,15,17,17,24,24,23,23,25,25,22,22,16,16,19,19,27,27,31,31,39,39,42,42,38,38,41,41,37,37,28,28,32,32,43,43,47,47,52,52,58,58,57,57,56,56,54,54,51,51,53,53,50,50,45,45,49,49,61,61,65,65,76,76,75,75,83,83,68,68,62,62,66,66,86,86,89,89,93,93,100,100,92,92,88,88,90,90,104,104,107,107,111,111,106,106,109,109],"right_children":[2,4,6,8,12,10,14,-1,-1,16,24,18,26,22,20,28,40,30,-1,42,-1,-1,38,34,32,36,-1,44,58,-1,-1,46,60,-1,-1,-1,-1,56,52,48,-1,54,50,62,-1,82,-1,64,-1,84,80,76,66,78,74,-1,72,70,68,-1,-1,86,98,-1,-1,88,100,-1,96,-1,-1,-1,-1,-1,-1,92,90,-1,-1,-1,-1,-1,-1,94,-1,-1,102,-1,112,104,114,-1,110,106,-1,-1,-1,-1,-1,-1,108,-1,-1,-1,116,-1,122,118,-1,124,-1,120,-1,-1,-1,-1,-1,-1,-1,-1,-1,-1,-1,-1,-1],"split_conditions":[2E0,1E0,2.504494E1,3.418793E7,1.15E2,8E0,2.1326629E8,4.94429E1,-1.9154867E-2,3.418793E7,2.8991176E7,4E0,1.75E2,2.504508E1,2.504772E1,1.5485789E7,3.7102016E7,2E0,9.443421E3,1.88E2,6.2238403E2,3.7368713E2,3.3267372E7,2.504458E1,3.383412E6,2.8649796E7,2.455138E1,2.504411E1,6E0,5.5367153E3,-1.1376464E3,3.33E2,4.7893244E7,2.7298782E1,1.6156055E1,6.511543E1,1.4414965E3,4E0,3.43E2,2.504487E1,4.823368E1,2E0,3.08E2,1.0042381E7,1.8104895E1,2.9115074E7,9.453863E1,1E0,4.0914303E1,2.504617E1,2.8649796E7,2.9E1,3.61E2,2.4979898E8,2.504629E1,3.6691677E1,1.8E1,2.5117248E7,3.1808136E7,2.0310791E1,4.472929E1,4.318355E6,3.62E2,8.165104E1,2.5908795E2,2.850078E7,1.8766784E7,1.1382416E2,1.73E2,2.2731068E1,5.6722828E1,8.0479333E2,4.1157288E1,5.75857E1,1.3569221E2,6E0,2.899124E7,8.801009E1,3.6290155E2,7.616416E1,2.07118E2,4.8288464E1,7.956578E1,2.504608E1,3.801386E2,3.68249E1,2.504161E1,7.548846E1,2.8501538E7,1.5255814E8,3.814053E7,8.742388E0,1.3E1,2.504538E1,5.389503E1,1.9567072E1,7.184752E1,2.7871347E1,5.122206E0,2.1200815E1,3.64E2,4.6869373E1,7.5676384E1,2.731619E1,2.76E2,4.25502E2,2.2104762E8,3.63E2,9.230794E1,2.504876E1,1.5916786E1,2.8501184E7,3.47382E1,6.435651E1,1.0837107E2,6.2737476E1,3.495487E1,4.6808674E1,1.5713607E1,2.607229E2,5.9543976E2,5.6782257E1,3.5058835E2,1.2848546E2,6.900647E1],"split_indices":[7,8,2,0,8,7,1,0,0,0,0,8,8,2,2,0,0,8,0,8,0,0,1,2,1,0,0,2,7,0,0,8,1,0,0,0,0,8,8,2,0,8,8,0,0,0,0,8,0,2,0,8,8,1,2,0,8,0,0,0,0,0,8,0,0,0,0,0,8,0,0,0,0,0,0,7,0,0,0,0,0,0,0,2,0,0,2,0,0,1,0,0,7,2,0,0,0,0,0,0,8,0,0,0,8,0,1,8,0,2,0,0,0,0,0,0,0,0,0,0,0,0,0,0,0],"split_type":[0,0,0,0,0,0,0,0,0,0,0,0,0,0,0,0,0,0,0,0,0,0,0,0,0,0,0,0,0,0,0,0,0,0,0,0,0,0,0,0,0,0,0,0,0,0,0,0,0,0,0,0,0,0,0,0,0,0,0,0,0,0,0,0,0,0,0,0,0,0,0,0,0,0,0,0,0,0,0,0,0,0,0,0,0,0,0,0,0,0,0,0,0,0,0,0,0,0,0,0,0,0,0,0,0,0,0,0,0,0,0,0,0,0,0,0,0,0,0,0,0,0,0,0,0],"sum_hessian":[6.21E2,1.4E1,6.07E2,6E0,8E0,3.52E2,2.55E2,4E0,2E0,1.79E2,1.73E2,4E0,4E0,1.82E2,7.3E1,1.38E2,4.1E1,3E0,1E0,7E1,3E0,1E1,1.72E2,4E1,1.33E2,2E0,2E0,6.1E1,7.7E1,2E0,1E0,3.1E1,1.02E2,3.2E1,8E0,1E0,1E0,2.7E1,1.45E2,3.3E1,8E0,2.7E1,4.3E1,4.8E1,1.3E1,2.1E1,1E1,3E1,3E0,2.7E1,1.6E1,1.17E2,2.8E1,4E0,2.3E1,1.1E1,1.6E1,1.5E1,6.2E1,3E0,9.9E1,4E1,8E0,3E0,2.7E1,1.1E1,1.7E1,5.4E1,8E0,7E0,8E0,6E0,1E1,1E1,1.3E1,5.8E1,5.9E1,2E0,2E0,2E0,1.4E1,1.6E1,5E0,1.6E1,1.1E1,8E0,3.2E1,3E0,8E0,4.3E1,1.6E1,3E0,5.5E1,1.3E1,3E0,1E0,7E0,7E0,1E0,6E0,1.1E1,8E0,2.4E1,1.8E1,2.5E1,3E0,1E1,8E0,3E0,5.4E1,1E0,7E0,1E0,7E0,9E0,1.7E1,8E0,4E0,4E0,4E0,3E0,5E0,5E0,4.9E1,5E0],"tree_param":{"num_deleted":"0","num_feature":"9","num_nodes":"125","size_leaf_vector":"0"}},{"base_weights":[1.5986869E3,2.2961643E4,1.0690109E3,3.2483383E2,3.8016754E4,6.8725E2,1.5912476E3,4.548746E1,-1.7875163E-2,1.0914335E3,4.6635434E2,6.2567543E4,5.862613E3,2.1240344E3,1.1055237E3,1.5704922E3,4.618781E2,3.3353184E4,8.971249E3,2.129353E3,8.3237915E2,1.9884757E3,4.8712983E3,5.7320935E2,3.112316E2,9.541876E3,2.2914604E1,1.0889619E3,2.176234E3,5.1676006E3,-1.080764E3,6.641455E1,5.75705E2,1.3694218E3,6.185964E1,4.104678E1,2.4484872E2,3.2911929E3,1.7495186E3,6.3368536E2,3.7492233E1,4.0699915E2,1.1251151E3,5.9964526E2,3.952243E2,3.3328274E1,3.2719114E3,1.2414569E3,4.9208157E1,2.0833603E2,3.0273727E2,2.1086038E2,5.3721313E2,7.35811E2,3.7415695E2,1.87875E1,4.0695873E1,3.7766324E2,6.950682E1,6.7845715E2,3.0380136E2,8.081807E2,1.6549469E3,2.1102668E3,8.254052E1,2.492847E3,4.9430645E1,7.0949974E1,3.793734E2,2.6880604E1,1.2641615E2,3.1122784E2,6.646312E0,4.8058033E1,1.8033031E1,2.6681892E3,9.0525314E1,1.3243331E3,2.6095168E3,5.583227E2,1.2226056E3,5.203889E2,1.4101478E3,7.5369735E0,3.592491E1,9.609839E0,4.2527016E1,5.091403E2,7.402524E2,7.058112E1,2.6764786E1,1.4905334E1,2.4164726E2,8.086713E0,2.2904348E1,3.3122397E2,1.4843726E1,1.0386318E3,2.9217332E3,4.0444963E3,5.634939E2,1.6713963E1,2.6845488E1,7.760132E1,4.394634E1,5.7111725E1,4.787536E1,6.077896E2,1.4045799E1,5.427692E2,1.5723145E2,6.909435E1,2.7294418E2,1.6165132E3,3.4839062E3,1.655803E1,3.548919E1,6.5275385E2,-4.5604825E2,4.2703217E1,6.861764E1,3.9357843E2,1.9533417E2,3.345846E1,1.7279768E2,-1.5617503E2,3.3001324E1,1.7657026E1,6.2217316E1,1.6852368E2,6.905422E1,7.042647E2,1.6291144E2,5.888068E2,1.786765E1,-7.3056435E1,4.6491942E0,2.9989027E1,-1.1278803E1,-4.556612E1,2.2139866E1,7.7365654E1,7.628939E0],"categories":[],"categories_nodes":[],"categories_segments":[],"categories_sizes":[],"default_left":[true,false,true,false,true,false,true,false,false,true,false,false,false,true,true,true,true,false,false,true,true,false,true,false,false,true,false,false,true,false,false,false,false,false,false,false,true,true,false,false,false,false,true,false,true,false,false,true,false,true,true,true,true,false,true,false,false,true,false,false,true,true,false,true,false,true,false,false,false,false,false,true,false,false,false,true,false,false,true,false,true,true,false,false,false,false,false,true,true,false,false,false,false,false,false,true,false,true,true,true,true,false,false,false,false,false,true,false,false,true,false,false,false,true,true,false,false,false,true,false,false,false,false,false,false,true,false,false,false,false,false,false,false,false,false,false,false,false,false,false,false,false,false],"id":9,"left_children":[1,3,5,7,11,9,13,-1,-1,15,23,17,25,21,19,27,43,29,-1,45,41,37,31,39,35,33,-1,47,65,-1,-1,-1,-1,-1,-1,-1,49,67,63,59,-1,51,61,57,55,-1,53,69,-1,91,71,93,89,-1,85,-1,-1,73,-1,87,83,81,79,77,-1,75,-1,-1,-1,-1,-1,95,-1,-1,-1,111,-1,97,113,-1,109,105,99,-1,-1,-1,-1,107,103,-1,-1,-1,101,-1,-1,115,-1,131,117,133,129,-1,-1,-1,-1,-1,125,119,-1,127,-1,-1,-1,123,121,-1,-1,-1,135,-1,-1,-1,-1,-1,-1,139,-1,-1,-1,137,-1,141,-1,-1,-1,-1,-1,-1,-1,-1,-1,-1,-1],"loss_changes":[7.0136596E9,5.099646E9,1.2012307E8,2.9593562E5,6.737877E9,3.100768E7,6.3901376E7,0E0,0E0,3.667229E7,3.633996E6,9.729147E8,1.0144856E8,3.537581E7,3.626043E7,1.8047984E7,2.68055E5,3.7950996E9,0E0,5.636875E7,1.31152E7,3.0663328E7,1.4808944E7,1.381284E6,5.31905E5,1.026863E8,0E0,3.12098E6,1.4743392E7,0E0,0E0,0E0,0E0,0E0,0E0,0E0,6.3749E4,1.9364272E7,3.19288E7,1.300372E6,0E0,1.061563E6,9.409504E6,7.6413E4,2.08675E4,0E0,1.985405E8,3.66864E5,0E0,4.2972875E4,2.1442875E4,2.8751562E4,1.038192E6,0E0,1.15469375E5,0E0,0E0,5.5499312E4,0E0,5.54312E5,1.5024775E5,6.542306E6,3.2236128E7,2.4795296E7,0E0,4.543936E6,0E0,0E0,0E0,0E0,0E0,1.593775E4,0E0,0E0,0E0,7.78544E5,0E0,1.0656768E7,3.1703904E7,0E0,4.37698E6,6.91752E5,2.6715912E7,0E0,0E0,0E0,0E0,8.96628E5,3.36632E5,0E0,0E0,0E0,3.0675E3,0E0,0E0,7.884375E3,0E0,4.183496E6,5.1695364E7,2.0328692E7,4.35611E5,0E0,0E0,0E0,0E0,0E0,2.818212E5,4.5295E3,0E0,1.518415E5,0E0,0E0,0E0,2.565388E6,7.527904E6,0E0,0E0,0E0,4.4783144E5,0E0,0E0,0E0,0E0,0E0,0E0,4.4011703E5,0E0,0E0,0E0,1.8164386E5,0E0,7.68928E5,0E0,0E0,0E0,0E0,0E0,0E0,0E0,0E0,0E0,0E0,0E0],"parents":[2147483647,0,0,1,1,2,2,3,3,5,5,4,4,6,6,9,9,11,11,14,14,13,13,10,10,12,12,15,15,17,17,22,22,25,25,24,24,21,21,23,23,20,20,16,16,19,19,27,27,36,36,41,41,46,46,44,44,43,43,39,39,42,42,38,38,28,28,37,37,47,47,50,50,57,57,65,65,63,63,62,62,61,61,60,60,54,54,59,59,52,52,49,49,51,51,71,71,77,77,82,82,92,92,88,88,81,81,87,87,80,80,75,75,78,78,95,95,98,98,107,107,114,114,113,113,106,106,109,109,100,100,97,97,99,99,118,118,129,129,125,125,131,131],"right_children":[2,4,6,8,12,10,14,-1,-1,16,24,18,26,22,20,28,44,30,-1,46,42,38,32,40,36,34,-1,48,66,-1,-1,-1,-1,-1,-1,-1,50,68,64,60,-1,52,62,58,56,-1,54,70,-1,92,72,94,90,-1,86,-1,-1,74,-1,88,84,82,80,78,-1,76,-1,-1,-1,-1,-1,96,-1,-1,-1,112,-1,98,114,-1,110,106,100,-1,-1,-1,-1,108,104,-1,-1,-1,102,-1,-1,116,-1,132,118,134,130,-1,-1,-1,-1,-1,126,120,-1,128,-1,-1,-1,124,122,-1,-1,-1,136,-1,-1,-1,-1,-1,-1,140,-1,-1,-1,138,-1,142,-1,-1,-1,-1,-1,-1,-1,-1,-1,-1,-1],"split_conditions":[2E0,1E0,2.504494E1,1.5255814E8,1.15E2,1E0,2E0,4.548746E1,-1.7875163E-2,8E0,1.2151359E2,4E0,1.75E2,2.504772E1,3.3267372E7,1.2151412E2,3.383412E6,2E0,8.971249E3,4E0,2.504689E1,2.504538E1,2.1326629E8,1.7691578E8,7E0,1.15587896E8,2.2914604E1,2.504425E1,1.01047816E8,5.1676006E3,-1.080764E3,6.641455E1,5.75705E2,1.3694218E3,6.185964E1,4.104678E1,3.54E2,1.2151379E2,1.2151435E2,7.7E1,3.7492233E1,6E0,1.2E1,1.53E2,4.7893244E7,3.3328274E1,1.8E1,1E0,4.9208157E1,2.2311556E7,1.4E1,9.825775E7,1.2151653E2,7.35811E2,1.2151741E2,1.87875E1,4.0695873E1,1.46E2,6.950682E1,6E0,8E1,3.59E2,1.4E1,2.0221278E8,8.254052E1,3.05E2,4.9430645E1,7.0949974E1,3.793734E2,2.6880604E1,1.2641615E2,6.1E1,6.646312E0,4.8058033E1,1.8033031E1,1E0,9.0525314E1,3.57E2,1.2151342E2,5.583227E2,1.2151824E2,8E0,3.61E2,7.5369735E0,3.592491E1,9.609839E0,4.2527016E1,8.660945E7,2.504452E1,7.058112E1,2.6764786E1,1.4905334E1,1.2151481E2,8.086713E0,2.2904348E1,1.5E1,1.4843726E1,1.2151367E2,3.59E2,3E0,3E0,1.6713963E1,2.6845488E1,7.760132E1,4.394634E1,5.7111725E1,3.55E2,2.504161E1,1.4045799E1,1.6E1,1.5723145E2,6.909435E1,2.7294418E2,5E0,2.504702E1,1.655803E1,3.548919E1,6.5275385E2,3.6E2,4.2703217E1,6.861764E1,3.9357843E2,1.9533417E2,3.345846E1,1.7279768E2,9E0,3.3001324E1,1.7657026E1,6.2217316E1,3.63E2,6.905422E1,2.76E2,1.6291144E2,5.888068E2,1.786765E1,-7.3056435E1,4.6491942E0,2.9989027E1,-1.1278803E1,-4.556612E1,2.2139866E1,7.7365654E1,7.628939E0],"split_indices":[7,8,2,1,8,5,5,0,0,7,3,8,8,2,1,3,1,8,0,8,2,2,1,1,5,1,0,2,1,0,0,0,0,0,0,0,8,3,3,5,0,7,5,8,1,0,8,8,0,1,7,1,3,0,3,0,0,8,0,7,5,8,5,1,0,8,0,0,0,0,0,5,0,0,0,8,0,8,3,0,3,5,8,0,0,0,0,1,2,0,0,0,3,0,0,5,0,3,8,5,5,0,0,0,0,0,8,2,0,5,0,0,0,7,2,0,0,0,8,0,0,0,0,0,0,5,0,0,0,8,0,8,0,0,0,0,0,0,0,0,0,0,0],"split_type":[0,0,0,0,0,0,0,0,0,0,0,0,0,0,0,0,0,0,0,0,0,0,0,0,0,0,0,0,0,0,0,0,0,0,0,0,0,0,0,0,0,0,0,0,0,0,0,0,0,0,0,0,0,0,0,0,0,0,0,0,0,0,0,0,0,0,0,0,0,0,0,0,0,0,0,0,0,0,0,0,0,0,0,0,0,0,0,0,0,0,0,0,0,0,0,0,0,0,0,0,0,0,0,0,0,0,0,0,0,0,0,0,0,0,0,0,0,0,0,0,0,0,0,0,0,0,0,0,0,0,0,0,0,0,0,0,0,0,0,0,0,0,0],"sum_hessian":[6.21E2,1.4E1,6.07E2,6E0,8E0,3.52E2,2.55E2,4E0,2E0,1.23E2,2.29E2,4E0,4E0,1.2E2,1.35E2,6.9E1,5.4E1,3E0,1E0,2.7E1,1.08E2,1.16E2,4E0,1.34E2,9.5E1,2E0,2E0,4E1,2.9E1,2E0,1E0,1E0,3E0,1E0,1E0,3.6E1,5.9E1,1.6E1,1E2,1.01E2,3.3E1,4.5E1,6.3E1,1.5E1,3.9E1,1.1E1,1.6E1,3.1E1,9E0,3.9E1,2E1,1.9E1,2.6E1,6E0,1E1,3E0,3.6E1,6E0,9E0,8.8E1,1.3E1,4.1E1,2.2E1,7.1E1,2.9E1,2.4E1,5E0,3E0,1.3E1,1E0,3E1,1.9E1,1E0,3E0,3E0,2.1E1,3E0,2.9E1,4.2E1,1E0,2.1E1,2.9E1,1.2E1,3E0,1E1,2E0,8E0,2.6E1,6.2E1,1.5E1,1.1E1,1.6E1,2.3E1,3E0,1.6E1,1.6E1,3E0,2.6E1,3E0,2E0,1E1,8E0,1.5E1,5.4E1,8E0,2.6E1,3E0,2E1,6E0,8E0,1.3E1,1E0,2E1,2.1E1,2.1E1,3E0,1.3E1,1E0,2E0,8E0,1.2E1,1.5E1,6E0,2E0,1.9E1,2E0,1E0,2E0,6E0,3E0,7E0,1.8E1,8E0,1E0,1E0,1E0,1E0,2E0,1E0,1E0,1E0,1.6E1,2E0],"tree_param":{"num_deleted":"0","num_feature":"9","num_nodes":"143","size_leaf_vector":"0"}},{"base_weights":[1.4729769E3,2.163599E4,9.731115E2,3.6459406E2,4.589407E4,6.2243567E2,1.4528595E3,4.6883526E1,-1.6680798E-2,9.7833325E2,4.1562137E2,9.365919E4,-1.33445625E4,1.9347915E3,1.013399E3,1.3752926E3,4.1923724E2,1.3009508E3,1.1620592E4,1.7623608E3,7.7549255E2,1.8080922E3,4.512597E3,5.2953406E2,2.8504907E2,-1.800192E3,3.1375448E1,9.544921E2,1.9746771E3,4.3866577E2,2.1154487E3,5.9888885E2,3.3853264E1,5.325278E2,6.309385E1,3.8645844E1,2.2120464E2,2.9885632E3,1.5914971E3,5.4815563E1,3.5718896E2,3.4535327E2,1.01429767E3,1.1221018E2,5.3329193E1,1.11201725E1,5.292868E1,6.5628716E1,3.441459E2,7.454847E2,1.4095227E3,1.9404848E2,4.5345023E2,3.673628E1,1.7378422E1,1.859631E2,2.6218588E2,1.9218433E3,7.4561615E1,4.4016046E2,6.532327E2,2.260865E3,4.5311428E1,9.972112E0,2.385788E3,1.8620577E3,5.076653E2,7.4802065E0,2.1291096E1,1.3509373E3,2.4867744E3,5.6505023E2,1.7767914E3,1.7357853E3,2.7713498E2,2.6628849E1,6.753274E2,2.7277365E2,7.9500694E0,5.318463E1,1.2841873E1,1.2657346E2,2.0154054E2,5.3040656E2,1.0415784E3,6.416858E2,2.4311346E1,3.5002068E1,2.3968684E3,6.8466576E1,1.5970233E2,7.5686206E2,4.8256842E2,2.880138E1,8.026393E1,5.0592224E2,1.4263137E3,2.227116E1,1.4472585E1,1.5803688E1,7.401447E0,2.0195018E2,4.5068966E1,2.079154E1,3.1079922E2,3.8165787E1,2.3474446E3,5.566525E2,-2.3395401E1,1.4893428E3,3.24833E3,2.7901016E2,4.119677E1,2.892645E2,5.4475116E2,5.0234E2,1.4828353E3,3.7859143E2,1.7859123E2,6.846849E1,1.76756E2,-4.3288128E1,2.5739365E1,3.590277E1,1.7861853E1,4.2469754E2,6.3153E2,1.1119503E2,1.9342351E2,6.52183E1,1.0809707E2,1.6479937E1,5.576669E1,3.2957794E1,1.2565395E1,3.01327E1,2.6141223E2,6.4818825E1,1.6584105E1,5.814157E1,2.1650928E1,4.435014E1,8.072181E0],"categories":[],"categories_nodes":[],"categories_segments":[],"categories_sizes":[],"default_left":[true,true,true,true,true,false,true,false,false,true,false,true,true,false,true,true,true,false,false,true,true,true,true,false,false,false,false,true,true,false,false,true,false,false,false,false,true,false,false,false,false,false,true,false,false,false,false,false,false,false,true,false,true,false,false,true,false,true,false,true,true,true,false,false,true,false,false,false,false,true,true,false,true,true,false,false,true,true,false,false,false,false,true,false,true,false,false,false,true,false,false,false,false,false,false,false,true,false,false,false,false,false,false,false,true,false,true,false,true,true,true,false,false,true,true,false,true,false,false,false,false,false,false,false,false,true,false,false,false,false,false,false,false,false,false,false,false,false,false,false,false,false,false],"id":10,"left_children":[1,3,5,7,11,9,13,-1,-1,15,23,17,25,21,19,27,39,-1,-1,29,41,37,33,31,35,-1,-1,43,61,45,63,59,-1,-1,-1,-1,55,47,57,-1,53,51,49,-1,-1,-1,-1,-1,-1,65,83,67,85,-1,-1,81,77,69,-1,79,75,73,-1,-1,71,87,107,-1,-1,89,109,-1,105,101,-1,-1,91,103,-1,-1,-1,99,97,-1,95,93,-1,-1,111,-1,-1,129,113,-1,-1,131,127,-1,-1,-1,-1,-1,-1,-1,123,-1,115,125,121,119,117,-1,-1,133,139,-1,135,-1,-1,-1,-1,-1,-1,-1,-1,141,137,-1,-1,-1,-1,-1,-1,-1,-1,-1,-1,-1,-1,-1,-1,-1,-1],"loss_changes":[6.247955E9,7.7233157E9,1.0138317E8,3.4228625E5,2.1056627E10,2.5575856E7,5.2257536E7,0E0,0E0,2.8053488E7,3.195672E6,5.7617613E9,2.6009485E8,3.136016E7,2.286616E7,1.7031776E7,2.44159E5,0E0,0E0,1.4028216E7,1.0435252E7,2.5158784E7,1.2412808E7,1.373634E6,6.07277E5,0E0,0E0,2.649064E6,1.2039152E7,1.7854362E5,1.3385336E7,4.54302E5,0E0,0E0,0E0,0E0,4.945175E4,1.5698144E7,2.678984E7,0E0,1.0795E4,5.49877E5,6.067416E6,0E0,0E0,0E0,0E0,0E0,0E0,1.020749E7,3.1732752E7,2.4560875E4,7.15041E5,0E0,0E0,1.1495875E4,3.4406875E4,1.9862144E7,0E0,6.462585E5,3.50232E5,1.890672E6,0E0,0E0,3.370063E7,4.821622E6,9.4957E5,0E0,0E0,5.137056E6,2.1748112E7,0E0,1.502682E7,4.558872E6,0E0,0E0,5.46322E5,1.969375E3,0E0,0E0,0E0,6.4935156E3,3.852625E3,0E0,4.430544E6,3.950005E5,0E0,0E0,2.753212E6,0E0,0E0,6.18176E5,8.28265E4,0E0,0E0,1.1991225E5,8.4634E4,0E0,0E0,0E0,0E0,0E0,0E0,0E0,3.1494125E4,0E0,2.4942304E7,5.7846E4,5.7133756E5,2.59556E6,8.175968E6,0E0,0E0,4.7571875E3,4.2606E4,0E0,1.5251794E7,0E0,0E0,0E0,0E0,0E0,0E0,0E0,0E0,6.122075E4,3.98975E4,0E0,0E0,0E0,0E0,0E0,0E0,0E0,0E0,0E0,0E0,0E0,0E0,0E0,0E0,0E0,0E0],"parents":[2147483647,0,0,1,1,2,2,3,3,5,5,4,4,6,6,9,9,11,11,14,14,13,13,10,10,12,12,15,15,19,19,23,23,22,22,24,24,21,21,16,16,20,20,27,27,29,29,37,37,42,42,41,41,40,40,36,36,38,38,31,31,28,28,30,30,49,49,51,51,57,57,64,64,61,61,60,60,56,56,59,59,55,55,50,50,52,52,65,65,69,69,76,76,85,85,84,84,82,82,81,81,73,73,77,77,72,72,66,66,70,70,88,88,92,92,106,106,110,110,109,109,108,108,104,104,107,107,96,96,91,91,95,95,113,113,116,116,126,126,114,114,125,125],"right_children":[2,4,6,8,12,10,14,-1,-1,16,24,18,26,22,20,28,40,-1,-1,30,42,38,34,32,36,-1,-1,44,62,46,64,60,-1,-1,-1,-1,56,48,58,-1,54,52,50,-1,-1,-1,-1,-1,-1,66,84,68,86,-1,-1,82,78,70,-1,80,76,74,-1,-1,72,88,108,-1,-1,90,110,-1,106,102,-1,-1,92,104,-1,-1,-1,100,98,-1,96,94,-1,-1,112,-1,-1,130,114,-1,-1,132,128,-1,-1,-1,-1,-1,-1,-1,124,-1,116,126,122,120,118,-1,-1,134,140,-1,136,-1,-1,-1,-1,-1,-1,-1,-1,142,138,-1,-1,-1,-1,-1,-1,-1,-1,-1,-1,-1,-1,-1,-1,-1,-1],"split_conditions":[2E0,4.4E-1,2.504494E1,2.504593E1,5E-1,5E-2,2E0,4.6883526E1,-1.6680798E-2,8E0,1.2151338E2,4.6E-1,6.6E-1,2.504772E1,2.504571E1,1.2151412E2,1E1,1.3009508E3,1.1620592E4,2.504548E1,2.504689E1,2.504538E1,2.504797E1,1E1,7E0,-1.800192E3,3.1375448E1,1.2151346E2,1.215154E2,2.504525E1,3E-1,6E0,3.3853264E1,5.325278E2,6.309385E1,3.8645844E1,1.2151481E2,1.2151379E2,1.2151435E2,5.4815563E1,2.504451E1,6E0,5.1E-1,1.1221018E2,5.3329193E1,1.11201725E1,5.292868E1,6.5628716E1,3.441459E2,1.3E-1,1.4E1,2.50458E1,1.2151652E2,3.673628E1,1.7378422E1,3.2E-1,1.4E1,1.2151342E2,7.4561615E1,2.504411E1,7E-2,2.504431E1,4.5311428E1,9.972112E0,3.3E-1,1.2E-1,3.4E-1,7.4802065E0,2.1291096E1,1.2151324E2,2.504606E1,5.6505023E2,6.3E-1,2.504414E1,2.7713498E2,2.6628849E1,1.04E0,1.5E1,7.9500694E0,5.318463E1,1.2841873E1,1.3E-1,7.2E-1,5.3040656E2,1.2151824E2,1.8E-1,2.4311346E1,3.5002068E1,3E0,6.8466576E1,1.5970233E2,3.8E-1,1.25E0,2.880138E1,8.026393E1,1.6E1,2.504832E1,2.227116E1,1.4472585E1,1.5803688E1,7.401447E0,2.0195018E2,4.5068966E1,2.079154E1,2.504233E1,3.8165787E1,6.8E-1,5E0,9E0,1.2151367E2,2.504702E1,2.7901016E2,4.119677E1,1.21E0,8.9E1,5.0234E2,1.27E0,3.7859143E2,1.7859123E2,6.846849E1,1.76756E2,-4.3288128E1,2.5739365E1,3.590277E1,1.7861853E1,2.6E-1,3.3E-1,1.1119503E2,1.9342351E2,6.52183E1,1.0809707E2,1.6479937E1,5.576669E1,3.2957794E1,1.2565395E1,3.01327E1,2.6141223E2,6.4818825E1,1.6584105E1,5.814157E1,2.1650928E1,4.435014E1,8.072181E0],"split_indices":[7,6,2,2,6,6,5,0,0,7,3,6,6,2,2,3,7,0,0,2,2,2,2,7,5,0,0,3,3,2,6,7,0,0,0,0,3,3,3,0,2,7,6,0,0,0,0,0,0,6,5,2,3,0,0,6,7,3,0,2,6,2,0,0,6,6,6,0,0,3,2,0,6,2,0,0,6,5,0,0,0,6,6,0,3,6,0,0,5,0,0,6,6,0,0,5,2,0,0,0,0,0,0,0,2,0,6,5,5,3,2,0,0,6,5,0,6,0,0,0,0,0,0,0,0,6,6,0,0,0,0,0,0,0,0,0,0,0,0,0,0,0,0],"split_type":[0,0,0,0,0,0,0,0,0,0,0,0,0,0,0,0,0,0,0,0,0,0,0,0,0,0,0,0,0,0,0,0,0,0,0,0,0,0,0,0,0,0,0,0,0,0,0,0,0,0,0,0,0,0,0,0,0,0,0,0,0,0,0,0,0,0,0,0,0,0,0,0,0,0,0,0,0,0,0,0,0,0,0,0,0,0,0,0,0,0,0,0,0,0,0,0,0,0,0,0,0,0,0,0,0,0,0,0,0,0,0,0,0,0,0,0,0,0,0,0,0,0,0,0,0,0,0,0,0,0,0,0,0,0,0,0,0,0,0,0,0,0,0],"sum_hessian":[6.21E2,1.4E1,6.07E2,8E0,6E0,3.52E2,2.55E2,6E0,2E0,1.28E2,2.24E2,3E0,3E0,1.2E2,1.35E2,7.4E1,5.4E1,1E0,2E0,3.1E1,1.04E2,1.16E2,4E0,1.18E2,1.06E2,2E0,1E0,4.5E1,2.9E1,7E0,2.4E1,8.5E1,3.3E1,3E0,1E0,3.9E1,6.7E1,1.6E1,1E2,1.5E1,3.9E1,3.8E1,6.6E1,3.1E1,1.4E1,2E0,5E0,3E0,1.3E1,4.1E1,2.5E1,1.7E1,2.1E1,3.6E1,3E0,3.9E1,2.8E1,7.1E1,2.9E1,2.4E1,6.1E1,2.4E1,5E0,3E0,2.1E1,6E0,3.5E1,3E0,1.4E1,3.7E1,3.4E1,2E0,1.9E1,1.4E1,1E1,4E0,5.7E1,2.6E1,2E0,1.8E1,6E0,1E1,2.9E1,1E0,2.4E1,1E1,1.1E1,2E0,4E0,1.1E1,2.6E1,3.8E1,1.9E1,4E0,6E0,1.1E1,1.3E1,1.9E1,1E1,5E0,5E0,1.1E1,3E0,1.2E1,1.4E1,6E0,1.3E1,3.2E1,3E0,1.6E1,1.8E1,3E0,1E0,6E0,1.3E1,2E0,1.1E1,1.2E1,6E0,5E0,1.1E1,1E0,2E0,9E0,5E0,1.4E1,1.8E1,1E1,3E0,3.1E1,7E0,2E0,9E0,4E0,2E0,6E0,5E0,1.7E1,1E0,1.1E1,2E0,1.3E1,1E0],"tree_param":{"num_deleted":"0","num_feature":"9","num_nodes":"143","size_leaf_vector":"0"}},{"base_weights":[1.3542521E3,2.0219031E4,8.866107E2,3.3334305E2,4.289791E4,5.643001E2,1.3275835E3,4.2865103E2,-1.5661621E-2,8.870422E2,3.7675333E2,8.752366E4,-1.24523125E4,1.7587546E3,9.3420636E2,4.90543E1,1.8261412E1,1.6115521E2,4.005038E2,1.6402307E3,4.18046E3,1.8011475E3,7.029352E2,-1.6801796E3,2.9806677E1,1.2475636E3,3.7929407E2,1.2359032E3,1.0845886E4,6.5486503E0,1.7170378E1,2.713811E3,1.4432893E3,8.3742755E2,1.717509E3,3.3709753E2,9.5489764E2,4.7519657E1,2.9551426E1,2.2351985E3,1.7967952E2,4.59563E2,3.0469412E2,4.9258795E2,5.9939156E1,3.1218948E2,6.0706562E1,8.832387E1,4.153545E1,1.7313496E3,4.8491257E2,3.09653E2,7.4197936E0,5.007531E2,1.5280687E1,6.821621E2,1.4114192E3,3.5686504E1,-4.242589E0,1.7418607E2,4.4528763E2,7.6401483E2,1.693367E3,1.8448094E2,3.0155426E1,2.3356072E3,2.754986E1,3.7885394E2,5.955702E2,5.416089E2,2.5594687E1,2.265836E3,1.4648165E3,6.919193E0,1.8864433E1,4.926416E1,8.8091437E2,5.0388623E2,1.01749615E3,2.9617166E2,4.8501507E1,1.7265961E3,4.6012875E2,9.2242E0,2.9390486E3,2.8982792E1,6.2471405E2,1.10494095E2,6.175369E1,5.0504254E2,-2.544249E1,3.3423122E1,3.471672E2,3.0440933E1,1.7266142E1,2.0440858E2,1.6149806E3,1.130611E3,2.2582733E1,4.6042538E1,2.7165837E3,4.538425E2,1.7362442E2,6.0548395E2,1.8264372E1,5.2738007E2,1.8342368E3,6.2512244E2,3.957345E2,1.3054408E3,5.342393E1,1.4293681E1,6.7066376E1,8.273742E0,2.1079416E1,5.3938538E1,3.2650726E2,1.7632312E3,1.2322012E3,1.699358E2,3.636362E2,-7.763907E0,4.353541E1,7.1465576E2,4.4057733E2,-4.1123608E1,2.4023407E1,3.489445E1,4.6885065E2,2.9356169E1,5.435467E1,7.473321E1,1.4968764E2,2.6684143E1,4.959755E1,1.468926E2,3.5297128E2,6.0767487E1,9.863845E1,1.0968231E1,3.4810513E1,2.1865969E1,6.746446E1,1.0108639E2,1.7891675E2],"categories":[],"categories_nodes":[],"categories_segments":[],"categories_sizes":[],"default_left":[false,true,true,false,false,false,true,true,false,true,true,true,true,false,true,false,false,true,false,true,true,true,false,false,false,false,true,false,false,false,false,true,true,false,true,false,true,false,false,true,true,true,false,false,false,false,false,false,false,false,false,true,false,true,false,false,false,false,false,true,true,true,true,false,false,true,false,true,false,true,false,false,true,false,false,false,true,false,false,true,false,false,false,false,false,false,true,false,false,true,true,false,false,false,false,false,true,true,false,false,false,true,true,true,false,false,true,false,false,false,false,false,false,false,false,false,true,false,true,false,false,false,false,false,true,false,false,false,false,false,false,false,false,false,false,false,false,false,false,false,false,false,false,false,false],"id":11,"left_children":[1,3,5,7,11,9,13,15,-1,25,17,27,23,19,21,-1,-1,29,41,31,43,39,35,-1,-1,33,37,-1,-1,-1,-1,45,61,47,63,59,55,-1,-1,49,57,53,51,-1,-1,-1,-1,-1,-1,65,-1,79,-1,67,-1,81,77,-1,-1,73,69,75,71,-1,-1,83,-1,101,85,103,-1,99,95,-1,-1,-1,87,-1,97,93,-1,91,89,-1,105,-1,123,-1,-1,107,125,-1,-1,-1,-1,121,117,109,-1,-1,119,115,113,111,-1,-1,127,141,129,143,-1,-1,-1,-1,-1,-1,139,135,131,-1,-1,-1,-1,137,133,-1,-1,-1,-1,-1,-1,-1,-1,-1,-1,-1,-1,-1,-1,-1,-1,-1,-1,-1,-1],"loss_changes":[5.469327E9,6.750478E9,8.566602E7,2.8613375E5,1.8380188E10,2.1032616E7,4.1777856E7,1.7013875E4,0E0,2.3140776E7,1.087584E6,4.953899E9,2.2683827E8,2.7873664E7,2.6001704E7,0E0,0E0,1.297575E4,1.002978E6,2.08208E7,1.0394464E7,1.9304784E7,9.72544E6,0E0,0E0,1.301732E7,3.014805E5,0E0,0E0,0E0,0E0,1.2720192E7,1.5863248E7,4.4524E5,5.57224E6,7.332055E5,7.005804E6,0E0,0E0,2.0579E7,2.9061738E5,1.477628E6,6.8465E4,0E0,0E0,0E0,0E0,0E0,0E0,1.6950724E7,0E0,4.07535E4,0E0,1.022642E6,0E0,8.94531E6,2.773844E7,0E0,0E0,1.7307938E4,3.5379E5,4.86004E5,6.232144E6,0E0,0E0,1.8681248E7,0E0,6.906955E5,3.44662E5,2.792045E5,0E0,1.4211128E7,1.0079624E7,0E0,0E0,0E0,4.38726E5,0E0,1.714764E6,2.37485E4,0E0,1.5848136E7,7.979685E5,0E0,1.8700688E7,0E0,5.62902E5,0E0,0E0,1.85766E5,5.087782E5,0E0,0E0,0E0,0E0,4.8976397E5,6.0796E5,1.28359E6,0E0,0E0,7.854848E6,2.16021E5,3.3233156E4,3.2622E5,0E0,0E0,3.6518796E7,1.34287E5,1.4248325E5,1.86322E5,0E0,0E0,0E0,0E0,0E0,0E0,4.142925E4,1.1971312E7,1.062996E6,0E0,0E0,0E0,0E0,3.88974E5,6.0146E4,0E0,0E0,0E0,0E0,0E0,0E0,0E0,0E0,0E0,0E0,0E0,0E0,0E0,0E0,0E0,0E0,0E0,0E0,0E0,0E0],"parents":[2147483647,0,0,1,1,2,2,3,3,5,5,4,4,6,6,7,7,10,10,13,13,14,14,12,12,9,9,11,11,17,17,19,19,25,25,22,22,26,26,21,21,18,18,20,20,31,31,33,33,39,39,42,42,41,41,36,36,40,40,35,35,32,32,34,34,49,49,53,53,60,60,62,62,59,59,61,61,56,56,51,51,55,55,65,65,68,68,76,76,82,82,81,81,79,79,72,72,78,78,71,71,67,67,69,69,84,84,89,89,97,97,103,103,102,102,101,101,96,96,100,100,95,95,86,86,90,90,106,106,108,108,118,118,124,124,117,117,123,123,116,116,107,107,109,109],"right_children":[2,4,6,8,12,10,14,16,-1,26,18,28,24,20,22,-1,-1,30,42,32,44,40,36,-1,-1,34,38,-1,-1,-1,-1,46,62,48,64,60,56,-1,-1,50,58,54,52,-1,-1,-1,-1,-1,-1,66,-1,80,-1,68,-1,82,78,-1,-1,74,70,76,72,-1,-1,84,-1,102,86,104,-1,100,96,-1,-1,-1,88,-1,98,94,-1,92,90,-1,106,-1,124,-1,-1,108,126,-1,-1,-1,-1,122,118,110,-1,-1,120,116,114,112,-1,-1,128,142,130,144,-1,-1,-1,-1,-1,-1,140,136,132,-1,-1,-1,-1,138,134,-1,-1,-1,-1,-1,-1,-1,-1,-1,-1,-1,-1,-1,-1,-1,-1,-1,-1,-1,-1],"split_conditions":[2E0,4.4E-1,2.504494E1,3.418793E7,5E-1,5E-2,2E0,4E-2,-1.5661621E-2,8E0,4.298122E6,4.6E-1,6.6E-1,2.504772E1,3.3267372E7,4.90543E1,1.8261412E1,4.4E1,1E1,2.504538E1,3.710203E7,1.61E0,2.504689E1,-1.6801796E3,2.9806677E1,3.1808136E7,2.9115064E7,1.2359032E3,1.0845886E4,6.5486503E0,1.7170378E1,3.4188228E7,2.504592E1,2.50441E1,2.504487E1,6E0,5.1E-1,4.7519657E1,2.9551426E1,1.27E0,2.0217992E7,2.504455E1,1.6E1,4.9258795E2,5.9939156E1,3.1218948E2,6.0706562E1,8.832387E1,4.153545E1,6.8E-1,4.8491257E2,2.504458E1,7.4197936E0,1.5485789E7,1.5280687E1,1.3E-1,1.4E1,3.5686504E1,-4.242589E0,1.4391583E7,2.504591E1,3.4188228E7,2.504624E1,1.8448094E2,3.0155426E1,3E-1,2.754986E1,1.0042381E7,7E-2,1.4E1,2.5594687E1,2.8649772E7,2.504629E1,6.919193E0,1.8864433E1,4.926416E1,2.504574E1,5.0388623E2,2.8349516E7,1.4E1,4.8501507E1,2.8501184E7,3.4E-1,9.2242E0,3.3E-1,2.8982792E1,1.04E0,1.10494095E2,6.175369E1,2.850078E7,9E0,3.3423122E1,3.471672E2,3.0440933E1,1.7266142E1,3.4188172E7,2.504702E1,2.504876E1,2.2582733E1,4.6042538E1,2.504606E1,2.8E1,3.2E-1,1.8E-1,1.8264372E1,5.2738007E2,6.3E-1,2.1E-1,2.8501538E7,2.504832E1,5.342393E1,1.4293681E1,6.7066376E1,8.273742E0,2.1079416E1,5.3938538E1,5.3E-1,2.5046968E1,2.504753E1,1.699358E2,3.636362E2,-7.763907E0,4.353541E1,4.8E-1,1.25E0,-4.1123608E1,2.4023407E1,3.489445E1,4.6885065E2,2.9356169E1,5.435467E1,7.473321E1,1.4968764E2,2.6684143E1,4.959755E1,1.468926E2,3.5297128E2,6.0767487E1,9.863845E1,1.0968231E1,3.4810513E1,2.1865969E1,6.746446E1,1.0108639E2,1.7891675E2],"split_indices":[7,6,2,0,6,6,5,6,0,7,0,6,6,2,1,0,0,5,7,2,0,6,2,0,0,0,0,0,0,0,0,0,2,2,2,7,6,0,0,6,0,2,5,0,0,0,0,0,0,6,0,2,0,0,0,6,5,0,0,0,2,0,2,0,0,6,0,0,6,7,0,0,2,0,0,0,2,0,0,7,0,0,6,0,6,0,6,0,0,0,5,0,0,0,0,0,2,2,0,0,2,5,6,6,0,0,6,6,0,2,0,0,0,0,0,0,6,2,2,0,0,0,0,6,6,0,0,0,0,0,0,0,0,0,0,0,0,0,0,0,0,0,0,0,0],"split_type":[0,0,0,0,0,0,0,0,0,0,0,0,0,0,0,0,0,0,0,0,0,0,0,0,0,0,0,0,0,0,0,0,0,0,0,0,0,0,0,0,0,0,0,0,0,0,0,0,0,0,0,0,0,0,0,0,0,0,0,0,0,0,0,0,0,0,0,0,0,0,0,0,0,0,0,0,0,0,0,0,0,0,0,0,0,0,0,0,0,0,0,0,0,0,0,0,0,0,0,0,0,0,0,0,0,0,0,0,0,0,0,0,0,0,0,0,0,0,0,0,0,0,0,0,0,0,0,0,0,0,0,0,0,0,0,0,0,0,0,0,0,0,0,0,0],"sum_hessian":[6.21E2,1.4E1,6.07E2,8E0,6E0,3.52E2,2.55E2,6E0,2E0,1.28E2,2.24E2,3E0,3E0,1.2E2,1.35E2,4E0,2E0,2.3E1,2.01E2,1.16E2,4E0,2.7E1,1.08E2,2E0,1E0,7.4E1,5.4E1,1E0,2E0,3E0,2E1,1.6E1,1E2,4.1E1,3.3E1,4.5E1,6.3E1,2.3E1,3.1E1,2.1E1,6E0,1.22E2,7.9E1,3E0,1E0,1.3E1,3E0,3.6E1,5E0,1.9E1,2E0,7.7E1,2E0,1.07E2,1.5E1,4.1E1,2.2E1,3E0,3E0,1.9E1,2.6E1,2.8E1,7.2E1,3E1,3E0,1.3E1,6E0,4.9E1,5.8E1,1.6E1,1E1,1.8E1,5.4E1,3E0,1.6E1,1E1,1.8E1,1E0,2.1E1,7.4E1,3E0,6E0,3.5E1,3E0,1E1,6E0,5.2E1,8E0,1E1,3.2E1,3E0,4E0,2E0,6.8E1,6E0,6E0,4.8E1,1.8E1,3E0,4E0,1.4E1,3.5E1,1.4E1,1.3E1,3E0,2E0,8E0,1.3E1,1.9E1,1.3E1,5E0,2E0,1.1E1,5E0,9E0,1.9E1,1.6E1,3.2E1,1.6E1,8E0,6E0,3E0,3E0,3.3E1,1.9E1,1E0,2E0,6E0,2E0,1.3E1,6E0,7E0,9E0,6E0,1.3E1,2.9E1,3E0,2.6E1,7E0,2E0,1.4E1,2E0,1.1E1,1E1,3E0],"tree_param":{"num_deleted":"0","num_feature":"9","num_nodes":"145","size_leaf_vector":"0"}},{"base_weights":[1.2462787E3,1.8897041E4,8.087659E2,3.0748602E2,4.009832E4,1.0291168E3,3.25979E2,3.9540143E2,-1.4524636E-2,1.3954757E3,6.81739E2,8.1791734E4,-1.1619672E4,3.3935483E2,1.4552048E2,1.704375E1,4.512995E1,4.898973E2,1.2773572E3,3.1969006E2,7.740671E1,9.996963E1,1.9718513E1,2.8316603E1,-1.5681674E3,1.2358198E3,2.3052915E3,1.1741078E3,1.0122826E4,3.32824E2,6.881611E2,3.4034854E2,1.8460435E2,1.2611447E3,3.3339382E3,9.3065265E2,1.6262317E3,1.6878926E3,2.481589E2,1.3633765E1,5.3001347E0,4.4564587E2,1.8864815E2,4.843094E2,3.0272174E2,7.1848846E2,1.6945803E3,1.14861145E1,2.9830685E2,6.322937E2,3.033848E3,4.3242365E2,2.303302E2,2.7043454E2,1.3565573E3,2.7652768E2,8.487489E2,4.318058E2,1.290176E3,9.672916E1,2.134042E2,5.8871783E2,3.6570508E2,3.6499155E2,7.089056E1,3.215205E1,1.292303E1,1.1690887E1,4.732222E0,2.2709456E2,6.925421E0,4.786919E2,8.75993E2,2.701157E2,4.6859784E2,4.0270203E1,9.337887E1,1.4354753E3,3.8074184E1,5.924574E2,7.069551E2,6.0478656E2,1.1745228E3,1.9806555E2,1.0485157E3,8.305302E2,3.4083682E2,1.5174463E1,2.2349997E2,2.7434845E1,3.5895514E2,6.407403E1,2.5945984E1,2.6916498E2,5.5969715E1,5.2758435E2,3.5428845E2,2.7776793E1,1.538473E1,4.39938E2,3.627773E1,4.8558903E1,3.0727716E2,6.4214154E2,9.709164E1,5.448466E1,1.3774323E3,2.8152936E2,-3.9244354E0,1.4112992E3,-6.376426E2,7.80833E2,2.742955E1,7.357611E0,2.8129416E2,1.2812157E3,3.1591122E2,2.18276E3,4.1287872E2,4.398179E2,1.2903E1,1.9141592E2,3.811371E1,3.0966562E1,7.024663E0,2.7058887E1,4.6263956E2,4.6305798E2,9.886542E1,5.280576E2,8.8161865E1,1.0046108E1,2.2684721E1,4.4881725E1,1.0291738E1,4.669108E2,1.528022E3,-3.906712E1,4.9249347E2,1.1478076E2,3.0554373E2,3.1658804E1,8.828167E1,-8.4733376E1,-1.09130125E1,3.7879993E1,1.449752E2,5.5304017E0,3.0289454E1,4.0609337E1,1.8797585E1,1.6549797E2,5.482249E1,1.5431122E1,-1.3319283E1,4.223691E1,6.431703E2,6.3307343E1,2.8006292E1,1.380857E1,4.999332E1,3.9770714E1,-4.2023693E1,2.3470295E1,-6.25318E0,2.6869608E1,7.032018E1,3.404657E1,7.284559E1,3.24929E1,7.5230837E0,3.1338154E1,1.6156676E2,1.6957352E1,5.0255135E1,2.7529257E1,7.5676506E1],"categories":[],"categories_nodes":[],"categories_segments":[],"categories_sizes":[],"default_left":[true,true,true,true,true,true,true,false,false,true,true,true,true,true,true,false,false,true,false,false,false,true,false,false,false,false,false,false,false,false,true,false,true,false,true,false,true,true,true,false,false,false,true,true,false,false,true,false,true,false,false,false,false,false,true,false,true,true,false,false,true,false,true,true,false,false,false,false,false,true,false,false,false,true,true,false,false,false,false,false,false,false,true,false,true,true,true,false,true,false,true,false,false,false,false,true,true,false,false,true,true,false,true,true,false,false,false,false,false,false,true,true,false,false,true,false,false,false,true,true,false,true,false,false,false,false,true,true,false,false,false,false,false,false,false,false,false,false,true,false,true,false,false,false,false,false,false,false,false,false,false,false,false,false,false,false,true,false,false,false,false,false,false,false,false,false,false,false,false,false,false,false,false,false,false,false,false],"id":12,"left_children":[1,3,5,7,11,9,13,15,-1,25,17,27,23,19,21,-1,-1,29,37,31,-1,39,-1,-1,-1,35,33,-1,-1,41,57,43,59,55,51,45,53,49,47,-1,-1,61,87,63,89,85,81,-1,65,83,79,-1,-1,-1,77,-1,75,73,71,67,69,91,119,93,-1,-1,-1,-1,-1,121,-1,-1,117,113,95,-1,-1,115,-1,-1,111,-1,109,107,105,103,99,-1,97,-1,101,-1,-1,123,-1,155,125,-1,-1,157,153,-1,149,127,-1,-1,151,147,-1,145,143,141,-1,-1,139,135,-1,129,137,133,-1,131,-1,-1,-1,-1,159,173,-1,-1,161,-1,-1,-1,-1,175,171,-1,167,163,169,-1,-1,-1,-1,-1,-1,-1,-1,-1,-1,-1,-1,-1,-1,-1,165,-1,-1,-1,-1,-1,-1,-1,-1,-1,-1,-1,-1,-1,-1,-1,-1,-1,-1,-1,-1],"loss_changes":[4.7880704E9,5.899506E9,6.434512E7,2.4346719E5,1.6044491E10,5.2118144E7,4.14064E5,1.1107E4,0E0,2.649312E7,2.4055344E7,4.2576364E9,1.9783795E8,1.274176E6,1.5588031E4,0E0,0E0,4.909384E6,2.1552304E7,4.17164E5,0E0,9.855352E3,0E0,0E0,0E0,1.9217072E7,2.6943104E7,0E0,0E0,1.444953E6,1.0554636E7,6.55074E5,4.2627438E4,7.577738E6,4.328896E6,1.4990264E7,1.8136896E7,5.065091E7,7.2689875E4,0E0,0E0,3.79442E5,2.1389875E4,5.184065E5,9.2984E4,3.101944E6,4.0439776E7,0E0,1.6235625E3,3.768503E6,1.0343414E8,0E0,0E0,0E0,4.22804E6,0E0,1.55007E5,1.82768E5,2.6220816E7,2.4437578E3,1.9795125E4,1.249435E5,5.74714E5,2.411665E5,0E0,0E0,0E0,0E0,0E0,1.498075E4,0E0,0E0,1.1202434E7,5.6676875E3,8.9534E4,0E0,0E0,1.1108088E7,0E0,0E0,1.05461E5,0E0,9.481462E6,2.4872988E5,1.071828E6,9.89808E5,5.8768325E5,0E0,3.2864312E4,0E0,9.29245E4,0E0,0E0,1.07148125E5,0E0,3.238E4,2.8987E4,0E0,0E0,2.858625E5,1.4057236E5,0E0,2.655425E5,1.341782E6,0E0,0E0,4.73566E5,2.674875E4,0E0,1.6548E5,2.400035E5,9.9274E4,0E0,0E0,9.346125E3,1.0139232E7,0E0,3.1977854E7,1.2159938E6,3.567E4,0E0,2.5550438E4,0E0,0E0,0E0,0E0,3.589125E3,1.58185E5,0E0,0E0,7.9662094E5,0E0,0E0,0E0,0E0,5.6924725E5,3.858464E6,0E0,2.900785E5,7.846753E4,1.5737375E4,0E0,0E0,0E0,0E0,0E0,0E0,0E0,0E0,0E0,0E0,0E0,0E0,0E0,0E0,0E0,3.5855E4,0E0,0E0,0E0,0E0,0E0,0E0,0E0,0E0,0E0,0E0,0E0,0E0,0E0,0E0,0E0,0E0,0E0,0E0,0E0,0E0],"parents":[2147483647,0,0,1,1,2,2,3,3,5,5,4,4,6,6,7,7,10,10,13,13,14,14,12,12,9,9,11,11,17,17,19,19,26,26,25,25,18,18,21,21,29,29,31,31,35,35,38,38,37,37,34,34,36,36,33,33,30,30,32,32,41,41,43,43,48,48,59,59,60,60,58,58,57,57,56,56,54,54,50,50,46,46,49,49,45,45,42,42,44,44,61,61,63,63,74,74,88,88,86,86,90,90,85,85,84,84,83,83,82,82,80,80,73,73,77,77,72,72,62,62,69,69,93,93,96,96,103,103,117,117,121,121,119,119,115,115,118,118,114,114,111,111,110,110,109,109,107,107,102,102,106,106,100,100,95,95,99,99,126,126,130,130,139,139,156,156,138,138,140,140,136,136,127,127,135,135],"right_children":[2,4,6,8,12,10,14,16,-1,26,18,28,24,20,22,-1,-1,30,38,32,-1,40,-1,-1,-1,36,34,-1,-1,42,58,44,60,56,52,46,54,50,48,-1,-1,62,88,64,90,86,82,-1,66,84,80,-1,-1,-1,78,-1,76,74,72,68,70,92,120,94,-1,-1,-1,-1,-1,122,-1,-1,118,114,96,-1,-1,116,-1,-1,112,-1,110,108,106,104,100,-1,98,-1,102,-1,-1,124,-1,156,126,-1,-1,158,154,-1,150,128,-1,-1,152,148,-1,146,144,142,-1,-1,140,136,-1,130,138,134,-1,132,-1,-1,-1,-1,160,174,-1,-1,162,-1,-1,-1,-1,176,172,-1,168,164,170,-1,-1,-1,-1,-1,-1,-1,-1,-1,-1,-1,-1,-1,-1,-1,166,-1,-1,-1,-1,-1,-1,-1,-1,-1,-1,-1,-1,-1,-1,-1,-1,-1,-1,-1,-1],"split_conditions":[2E0,4.4E-1,9E0,2.2104762E8,5E-1,2E0,3.1E1,1.15587896E8,-1.4524636E-2,2.4979898E8,1.2151722E2,4.6E-1,1E0,1.8E1,2.14E2,1.704375E1,4.512995E1,1.5255814E8,1.8E1,7E0,7.740671E1,3.5E1,1.9718513E1,2.8316603E1,-1.5681674E3,1.2151412E2,1.88E2,1.1741078E3,1.0122826E4,1.2151359E2,3.47E2,3.383412E6,1.4E-1,2E0,1E0,3.57E2,1.2151435E2,4E0,5.7E-1,1.3633765E1,5.3001347E0,1.2151161E2,1.2151481E2,3.33E2,1.2151429E2,7E0,3.59E2,1.14861145E1,3.3267372E7,3.3267372E7,3.3267372E7,4.3242365E2,2.303302E2,2.7043454E2,1.2151634E2,2.7652768E2,1.2151324E2,1.8E-1,3.52E2,1.3E-1,1.6E1,1.04E0,8.660945E7,2E0,7.089056E1,3.215205E1,1.292303E1,1.1690887E1,4.732222E0,1.5E1,6.925421E0,4.786919E2,1.3E-1,1E0,6E0,4.0270203E1,9.337887E1,1.2151601E2,3.8074184E1,5.924574E2,1.2151946E2,6.0478656E2,7E0,2.1E1,8E-1,1.2151311E2,1.01047816E8,1.5174463E1,5.139439E7,2.7434845E1,1.2151656E2,6.407403E1,2.5945984E1,7E-2,5.5969715E1,2.8E-1,8.5E0,2.7776793E1,1.538473E1,1.2151361E2,2.76E2,4.8558903E1,1.4E-1,2.31E2,9.709164E1,5.448466E1,1.2151859E2,3E-1,-3.9244354E0,1.2151311E2,3.6E2,1.2151824E2,2.742955E1,7.357611E0,1.3E-1,6E0,3.1591122E2,3.61E2,3.55E2,3.8E1,1.2903E1,2.2311556E7,3.811371E1,3.0966562E1,7.024663E0,2.7058887E1,2.97E2,2E0,9.886542E1,5.280576E2,3.63E2,1.0046108E1,2.2684721E1,4.4881725E1,1.0291738E1,2.76E2,1.2151437E2,-3.906712E1,3.64E2,1.2E-1,4E0,3.1658804E1,8.828167E1,-8.4733376E1,-1.09130125E1,3.7879993E1,1.449752E2,5.5304017E0,3.0289454E1,4.0609337E1,1.8797585E1,1.6549797E2,5.482249E1,1.5431122E1,-1.3319283E1,4.223691E1,1.2151288E2,6.3307343E1,2.8006292E1,1.380857E1,4.999332E1,3.9770714E1,-4.2023693E1,2.3470295E1,-6.25318E0,2.6869608E1,7.032018E1,3.404657E1,7.284559E1,3.24929E1,7.5230837E0,3.1338154E1,1.6156676E2,1.6957352E1,5.0255135E1,2.7529257E1,7.5676506E1],"split_indices":[7,6,7,1,6,5,5,1,0,1,3,6,8,5,8,0,0,1,8,5,0,8,0,0,0,3,8,0,0,3,8,1,6,8,5,8,3,8,6,0,0,3,3,8,3,7,8,0,1,1,1,0,0,0,3,0,3,6,8,6,5,6,1,5,0,0,0,0,0,5,0,0,6,8,5,0,0,3,0,0,3,0,7,5,6,3,1,0,1,0,3,0,0,6,0,6,6,0,0,3,8,0,6,8,0,0,3,6,0,3,8,3,0,0,6,7,0,8,8,5,0,1,0,0,0,0,8,8,0,0,8,0,0,0,0,8,3,0,8,6,5,0,0,0,0,0,0,0,0,0,0,0,0,0,0,0,3,0,0,0,0,0,0,0,0,0,0,0,0,0,0,0,0,0,0,0,0],"split_type":[0,0,0,0,0,0,0,0,0,0,0,0,0,0,0,0,0,0,0,0,0,0,0,0,0,0,0,0,0,0,0,0,0,0,0,0,0,0,0,0,0,0,0,0,0,0,0,0,0,0,0,0,0,0,0,0,0,0,0,0,0,0,0,0,0,0,0,0,0,0,0,0,0,0,0,0,0,0,0,0,0,0,0,0,0,0,0,0,0,0,0,0,0,0,0,0,0,0,0,0,0,0,0,0,0,0,0,0,0,0,0,0,0,0,0,0,0,0,0,0,0,0,0,0,0,0,0,0,0,0,0,0,0,0,0,0,0,0,0,0,0,0,0,0,0,0,0,0,0,0,0,0,0,0,0,0,0,0,0,0,0,0,0,0,0,0,0,0,0,0,0,0,0,0,0,0,0],"sum_hessian":[6.21E2,1.4E1,6.07E2,8E0,6E0,4.16E2,1.91E2,6E0,2E0,2.01E2,2.15E2,3E0,3E0,1.77E2,1.4E1,2E0,4E0,1.64E2,5.1E1,1.71E2,6E0,9E0,5E0,1E0,2E0,1.73E2,2.8E1,1E0,2E0,9.3E1,7.1E1,1.47E2,2.4E1,1.5E1,1.3E1,9.9E1,7.4E1,3.6E1,1.5E1,4E0,5E0,5.1E1,4.2E1,2.8E1,1.19E2,7.9E1,2E1,5E0,1E1,2.1E1,1.5E1,5E0,8E0,1.3E1,6.1E1,2E0,1.3E1,5.1E1,2E1,7E0,1.7E1,1.6E1,3.5E1,2E1,8E0,8E0,2E0,4E0,3E0,1.5E1,2E0,1E0,1.9E1,1.1E1,4E1,3E0,1E1,5.6E1,5E0,6E0,9E0,1E0,1.9E1,1.1E1,1E1,6E1,1.9E1,2.3E1,1.9E1,8.3E1,3.6E1,1.3E1,3E0,1.5E1,5E0,2.4E1,1.6E1,9E0,1E1,1.4E1,5E0,8E0,