{"learner":{"attributes":{"scikit_learn":"{\"n_estimators\": 500, \"objective\": \"reg:squarederror\", \"max_depth\": 10, \"learning_rate\": 0.1, \"verbosity\": null, \"booster\": null, \"tree_method\": \"gpu_hist\", \"gamma\": 0.2, \"min_child_weight\": null, \"max_delta_step\": null, \"subsample\": null, \"colsample_bytree\": 0.7, \"colsample_bylevel\": null, \"colsample_bynode\": null, \"reg_alpha\": null, \"reg_lambda\": null, \"scale_pos_weight\": null, \"base_score\": null, \"missing\": NaN, \"num_parallel_tree\": null, \"kwargs\": {}, \"random_state\": 4, \"n_jobs\": null, \"monotone_constraints\": null, \"interaction_constraints\": null, \"importance_type\": \"gain\", \"gpu_id\": 0, \"validate_parameters\": null, \"_estimator_type\": \"regressor\"}"},"feature_names":["id","host_id","latitude","longitude","minimum_nights","number_of_reviews","reviews_per_month","calculated_host_listings_count","availability_365"],"feature_types":["int","int","float","float","int","int","float","int","int"],"gradient_booster":{"model":{"gbtree_model_param":{"num_trees":"500","size_leaf_vector":"0"},"tree_info":[0,0,0,0,0,0,0,0,0,0,0,0,0,0,0,0,0,0,0,0,0,0,0,0,0,0,0,0,0,0,0,0,0,0,0,0,0,0,0,0,0,0,0,0,0,0,0,0,0,0,0,0,0,0,0,0,0,0,0,0,0,0,0,0,0,0,0,0,0,0,0,0,0,0,0,0,0,0,0,0,0,0,0,0,0,0,0,0,0,0,0,0,0,0,0,0,0,0,0,0,0,0,0,0,0,0,0,0,0,0,0,0,0,0,0,0,0,0,0,0,0,0,0,0,0,0,0,0,0,0,0,0,0,0,0,0,0,0,0,0,0,0,0,0,0,0,0,0,0,0,0,0,0,0,0,0,0,0,0,0,0,0,0,0,0,0,0,0,0,0,0,0,0,0,0,0,0,0,0,0,0,0,0,0,0,0,0,0,0,0,0,0,0,0,0,0,0,0,0,0,0,0,0,0,0,0,0,0,0,0,0,0,0,0,0,0,0,0,0,0,0,0,0,0,0,0,0,0,0,0,0,0,0,0,0,0,0,0,0,0,0,0,0,0,0,0,0,0,0,0,0,0,0,0,0,0,0,0,0,0,0,0,0,0,0,0,0,0,0,0,0,0,0,0,0,0,0,0,0,0,0,0,0,0,0,0,0,0,0,0,0,0,0,0,0,0,0,0,0,0,0,0,0,0,0,0,0,0,0,0,0,0,0,0,0,0,0,0,0,0,0,0,0,0,0,0,0,0,0,0,0,0,0,0,0,0,0,0,0,0,0,0,0,0,0,0,0,0,0,0,0,0,0,0,0,0,0,0,0,0,0,0,0,0,0,0,0,0,0,0,0,0,0,0,0,0,0,0,0,0,0,0,0,0,0,0,0,0,0,0,0,0,0,0,0,0,0,0,0,0,0,0,0,0,0,0,0,0,0,0,0,0,0,0,0,0,0,0,0,0,0,0,0,0,0,0,0,0,0,0,0,0,0,0,0,0,0,0,0,0,0,0,0,0,0,0,0,0,0,0,0,0,0,0,0,0,0,0,0,0,0,0,0,0,0,0,0,0,0,0,0,0,0,0,0,0,0,0,0,0,0,0,0,0,0,0,0,0,0,0,0,0,0,0,0,0,0,0,0,0],"trees":[{"base_weights":[2.4820564E3,2.1781487E3,4.2609517E3,6.1096493E1,2.3771245E3,3.1879307E3,4.9769478E3,2.812124E3,1.6112422E3,3.8043044E3,1.9476073E2,3.1302917E3,5.4413516E3,3.1171487E3,2.0705535E3,4.312706E3,2.0261429E2,5.617114E2,1.577E2,1.1367865E3,2.276947E3,4.2445834E2,1.728E2,2.2063452E3,3.3453083E3,2.2555833E2,4.981875E2,1.4175922E3,3.3244827E3,1.8798092E3,3.4512222E2,1.4422976E3,8.828182E2,3.908889E2,1.6907794E3,1.5456061E2,4.7725002E1,1.8225172E3,5.516786E1,1.1838036E2,5.503036E1,1.9853914E3,7.3418755E1,4.401355E2,3.0543186E3,3.69288E3,8.176E2,6.68E2,1.8048833E3,1.7811642E3,5.884667E2,3.5833336E1,1.00433334E2,4.0043866E2,1.05637505E2,1.2609524E2,2.9303333E3,1.8582559E3,3.6442744E3,9.5425E1,3.5787502E1,1.1144584E3,1.8922234E2,3.6425E1,3.6802715E3,2.3581052E3,1.40404E3,2.15875E2,1.1760769E3,1.8974167E2,3.747125E2,1.1712727E2,2.4475E1,3.12345E2,1.35695E3,5.6728573E1,1.6168571E2,4.5955264E2,3.3458254E3,4.38875E1,1.5157046E3,4.5075E1,2.173E2,6.0525E1,3.380266E2,1.0226875E2,1.6776E2],"categories":[],"categories_nodes":[],"categories_segments":[],"categories_sizes":[],"default_left":[true,true,true,false,true,true,true,true,true,true,false,true,true,true,true,true,false,false,false,true,true,false,false,true,true,false,false,true,true,true,false,true,true,false,true,false,false,true,false,false,false,true,false,false,true,true,true,true,true,true,false,false,false,false,false,false,true,true,true,false,false,true,false,false,true,true,true,false,true,false,false,false,false,false,true,false,false,false,true,false,true,false,false,false,false,false,false],"id":0,"left_children":[1,3,5,-1,7,9,11,13,19,15,-1,21,17,23,29,25,-1,-1,-1,31,27,-1,-1,33,43,-1,-1,35,45,41,-1,37,39,-1,47,-1,-1,55,-1,-1,-1,49,-1,-1,57,53,51,59,67,61,-1,-1,-1,-1,-1,-1,69,65,63,-1,-1,71,-1,-1,77,73,79,-1,75,-1,-1,-1,-1,-1,81,-1,-1,-1,83,-1,85,-1,-1,-1,-1,-1,-1],"loss_changes":[3.021161E8,1.5259264E8,4.7901056E7,0E0,1.4139238E8,2.0112832E7,2.4131584E7,5.6428544E7,4.826301E7,1.2054272E7,0E0,1.1416104E7,1.6272512E7,3.314176E7,1.5634144E7,1.2164544E7,0E0,0E0,0E0,6.175368E6,5.470077E7,0E0,0E0,3.0257408E7,3.388096E7,0E0,0E0,3.836688E6,2.376304E7,7.735104E6,0E0,1.3217048E7,4.85306E6,0E0,2.76224E6,0E0,0E0,1.4346192E7,0E0,0E0,0E0,4.446576E7,0E0,0E0,8.072538E7,1.6302048E7,6.891575E4,1.0236425E5,4.13656E6,2.852112E6,0E0,0E0,0E0,0E0,0E0,0E0,4.83248E5,6.451824E6,8.341376E6,0E0,0E0,3.06274E5,0E0,0E0,9.418624E6,1.0319984E7,2.02916E6,0E0,2.571242E6,0E0,0E0,0E0,0E0,0E0,6.415564E6,0E0,0E0,0E0,3.90048E6,0E0,4.0324E4,0E0,0E0,0E0,0E0,0E0,0E0],"parents":[2147483647,0,0,1,1,2,2,4,4,5,5,6,6,7,7,9,9,12,12,8,8,11,11,13,13,15,15,20,20,14,14,19,19,23,23,27,27,31,31,32,32,29,29,24,24,28,28,34,34,41,41,46,46,45,45,37,37,44,44,47,47,49,49,58,58,57,57,48,48,56,56,61,61,65,65,68,68,64,64,66,66,74,74,78,78,80,80],"right_children":[2,4,6,-1,8,10,12,14,20,16,-1,22,18,24,30,26,-1,-1,-1,32,28,-1,-1,34,44,-1,-1,36,46,42,-1,38,40,-1,48,-1,-1,56,-1,-1,-1,50,-1,-1,58,54,52,60,68,62,-1,-1,-1,-1,-1,-1,70,66,64,-1,-1,72,-1,-1,78,74,80,-1,76,-1,-1,-1,-1,-1,82,-1,-1,-1,84,-1,86,-1,-1,-1,-1,-1,-1],"split_conditions":[3.8195972E7,1.6361964E7,1.2151166E2,6.1096493E1,3.1771208E7,1.215111E2,3.8466684E7,3.48E2,1.2151156E2,3.8466684E7,1.9476073E2,1.2151192E2,1.2151571E2,2.6886912E7,2.865602E7,1.2151047E2,2.0261429E2,5.617114E2,1.577E2,2E-2,3.800625E7,4.2445834E2,1.728E2,1.2151005E2,2.8256296E7,2.2555833E2,4.981875E2,3.3322476E7,2.86E2,2.13E0,3.4512222E2,3.8007064E7,6E0,3.908889E2,5E0,1.5456061E2,4.7725002E1,3.800682E7,5.516786E1,1.1838036E2,5.503036E1,1.9E0,7.3418755E1,4.401355E2,2.28E2,3.6E-1,3.819571E7,2.5055868E7,2.33E2,2.574966E7,5.884667E2,3.5833336E1,1.00433334E2,4.0043866E2,1.05637505E2,1.2609524E2,1.2151052E2,1.45E2,2.8377934E7,9.5425E1,3.5787502E1,1.81E0,1.8922234E2,3.6425E1,2.94E2,1.2151475E2,2.8377934E7,2.15875E2,2.574966E7,1.8974167E2,3.747125E2,1.1712727E2,2.4475E1,3.12345E2,6E-2,5.6728573E1,1.6168571E2,4.5955264E2,1.2150884E2,4.38875E1,3.1655064E7,4.5075E1,2.173E2,6.0525E1,3.380266E2,1.0226875E2,1.6776E2],"split_indices":[0,0,3,0,0,3,0,8,3,0,0,3,3,0,0,3,0,0,0,6,0,0,0,3,0,0,0,0,8,6,0,0,7,0,7,0,0,0,0,0,0,6,0,0,8,6,0,0,8,0,0,0,0,0,0,0,3,8,0,0,0,6,0,0,8,3,0,0,0,0,0,0,0,0,6,0,0,0,3,0,0,0,0,0,0,0,0],"split_type":[0,0,0,0,0,0,0,0,0,0,0,0,0,0,0,0,0,0,0,0,0,0,0,0,0,0,0,0,0,0,0,0,0,0,0,0,0,0,0,0,0,0,0,0,0,0,0,0,0,0,0,0,0,0,0,0,0,0,0,0,0,0,0,0,0,0,0,0,0,0,0,0,0,0,0,0,0,0,0,0,0,0,0,0,0,0,0],"sum_hessian":[5.75E2,4.93E2,8.2E1,5.6E1,4.37E2,3.5E1,4.7E1,2.77E2,1.6E2,2.2E1,1.3E1,1.1E1,3.6E1,1.94E2,8.3E1,1.6E1,6E0,3.4E1,2E0,9.5E1,6.5E1,5E0,6E0,4.1E1,1.53E2,5E0,1.1E1,3.7E1,2.8E1,7.5E1,8E0,4.1E1,5.4E1,8E0,3.3E1,3.2E1,5E0,2.8E1,1.3E1,2.7E1,2.7E1,6.8E1,7E0,3E1,1.23E2,2.4E1,4E0,4E0,2.9E1,6.6E1,2E0,2E0,2E0,2.1E1,3E0,2E1,8E0,4.2E1,8.1E1,1E0,3E0,1.1E1,5.5E1,1E0,8E1,1.8E1,2.4E1,1.7E1,1.2E1,5E0,3E0,1E1,1E0,9E0,9E0,6E0,6E0,1.8E1,6.2E1,3E0,2.1E1,5E0,4E0,1E0,6.1E1,7E0,1.4E1],"tree_param":{"num_deleted":"0","num_feature":"9","num_nodes":"87","size_leaf_vector":"0"}},{"base_weights":[2.2490942E3,1.9731729E3,3.8642273E3,5.5094025E1,2.153753E3,2.9002795E3,4.5066836E3,2.5471619E3,1.461073E3,3.4641504E3,1.7667572E2,2.8670334E3,4.9166597E3,2.82174E3,1.8794248E3,3.9240088E3,1.8524736E2,5.0714517E2,1.4718668E2,1.032682E3,2.0620498E3,3.890868E2,1.5798851E2,2.0084823E3,3.0252146E3,2.0676184E2,4.5252032E2,1.2811562E3,3.0141843E3,1.7048903E3,3.1444473E2,1.315823E3,7.976893E2,3.561434E2,1.5383339E3,1.3957291E3,4.3747917E1,1.6640776E3,5.0045116E1,1.0696511E3,4.9723858E1,1.5614183E3,2.8960564E3,3.9754175E2,2.763267E3,3.343835E3,7.630933E2,1.0588873E3,1.784711E2,1.14086174E2,2.700017E3,1.6930961E3,3.290756E3,3.3444443E1,9.373778E1,7.5906506E2,5.492356E2,3.6221494E2,9.77147E1,9.1613306E2,1.70638E2,1.4983818E2,9.555017E1,7.511077E1,1.1810081E2,1.6627429E2,3.9815273E1,2.152543E3,1.2761926E3,1.0680706E2,5.8990883E1,8.44811E1,2.0804062E1,1.7392986E2,3.466091E2,2.2218118E3,3.4781592E3,2.8423394E3,1.2474924E3,3.4603615E1,2.3310789E3,4.0595924E1,1.3764082E2,5.749875E1,3.5129084E3,2.9818045E2,7.935762E1,2.8060986E2,1.4551878E2,5.944749E1,2.0784001E2,4.2724228E2,3.1908563E2],"categories":[],"categories_nodes":[],"categories_segments":[],"categories_sizes":[],"default_left":[true,false,true,false,true,false,true,true,false,true,false,false,true,true,false,true,false,false,false,true,true,false,false,true,true,false,false,true,true,false,false,false,true,false,true,true,false,true,false,true,false,false,false,false,false,true,true,false,false,false,true,true,false,false,false,true,false,false,false,true,false,false,false,false,false,false,false,true,false,false,false,false,false,false,false,true,false,false,false,false,true,false,false,false,true,false,false,false,false,false,false,false,false],"id":1,"left_children":[1,3,5,-1,7,9,11,13,19,15,-1,21,17,23,29,25,-1,-1,-1,31,27,-1,-1,33,43,-1,-1,35,45,41,-1,37,39,-1,47,61,-1,49,-1,63,-1,59,55,-1,51,57,53,65,-1,-1,73,67,75,-1,-1,71,-1,-1,-1,69,-1,-1,-1,-1,-1,-1,-1,77,81,-1,-1,-1,-1,-1,-1,79,83,85,89,-1,87,-1,-1,-1,91,-1,-1,-1,-1,-1,-1,-1,-1],"loss_changes":[2.4906982E8,1.2568589E8,3.833075E7,0E0,1.1563635E8,1.688944E7,1.817024E7,4.5666944E7,3.932051E7,9.777184E6,0E0,9.666792E6,1.2264896E7,2.6192E7,1.318544E7,9.61648E6,0E0,0E0,0E0,5.337848E6,4.52104E7,0E0,0E0,2.5186288E7,2.7346048E7,0E0,0E0,3.062572E6,1.8968464E7,8.466384E6,0E0,1.10934E7,3.96224E6,0E0,2.126432E6,5.9584E4,0E0,1.2638232E7,0E0,1.06154E5,0E0,4.984656E6,3.466883E7,0E0,6.4426816E7,1.2927712E7,6.00335E4,4.923808E6,0E0,0E0,5.95268E5,5.489376E6,8.698752E6,0E0,0E0,6.04855E4,0E0,0E0,0E0,1.13421E5,0E0,0E0,0E0,0E0,0E0,0E0,0E0,8.315912E6,1.621508E6,0E0,0E0,0E0,0E0,0E0,0E0,2.267768E6,4.840128E6,4.91024E5,4.190417E6,0E0,1.741512E6,0E0,0E0,0E0,2.755712E6,0E0,0E0,0E0,0E0,0E0,0E0,0E0,0E0],"parents":[2147483647,0,0,1,1,2,2,4,4,5,5,6,6,7,7,9,9,12,12,8,8,11,11,13,13,15,15,20,20,14,14,19,19,23,23,27,27,31,31,32,32,29,29,24,24,28,28,34,34,37,37,44,44,46,46,42,42,45,45,41,41,35,35,39,39,47,47,51,51,59,59,55,55,50,50,52,52,67,67,75,75,68,68,76,76,77,77,80,80,78,78,84,84],"right_children":[2,4,6,-1,8,10,12,14,20,16,-1,22,18,24,30,26,-1,-1,-1,32,28,-1,-1,34,44,-1,-1,36,46,42,-1,38,40,-1,48,62,-1,50,-1,64,-1,60,56,-1,52,58,54,66,-1,-1,74,68,76,-1,-1,72,-1,-1,-1,70,-1,-1,-1,-1,-1,-1,-1,78,82,-1,-1,-1,-1,-1,-1,80,84,86,90,-1,88,-1,-1,-1,92,-1,-1,-1,-1,-1,-1,-1,-1],"split_conditions":[3.8195972E7,1.6361964E7,1.2151166E2,5.5094025E1,3.1771208E7,1.215111E2,3.8466684E7,3.48E2,1.2151156E2,3.8466684E7,1.7667572E2,1.2151192E2,1.2151571E2,2.6886912E7,2.865602E7,1.2151047E2,1.8524736E2,5.0714517E2,1.4718668E2,1E0,3.800625E7,3.890868E2,1.5798851E2,1.2151005E2,2.8256296E7,2.0676184E2,4.5252032E2,3.3322476E7,2.86E2,5.3E1,3.1444473E2,3.8007064E7,6E0,3.561434E2,2.5749452E7,3.2451916E7,4.3747917E1,3.800682E7,5.0045116E1,3.1771504E7,4.9723858E1,2.574966E7,3.58E2,3.9754175E2,2.28E2,2E0,3.819571E7,2.5055868E7,1.784711E2,1.14086174E2,1.2151052E2,1.45E2,3.083053E7,3.3444443E1,9.373778E1,3.57E2,5.492356E2,3.6221494E2,9.77147E1,1.2151626E2,1.70638E2,1.4983818E2,9.555017E1,7.511077E1,1.1810081E2,1.6627429E2,3.9815273E1,1.2151475E2,2.8377934E7,1.0680706E2,5.8990883E1,8.44811E1,2.0804062E1,1.7392986E2,3.466091E2,2.8377934E7,1.2150884E2,1E0,2E0,3.4603615E1,3.0830296E7,4.0595924E1,1.3764082E2,5.749875E1,2.94E2,2.9818045E2,7.935762E1,2.8060986E2,1.4551878E2,5.944749E1,2.0784001E2,4.2724228E2,3.1908563E2],"split_indices":[0,0,3,0,0,3,0,8,3,0,0,3,3,0,0,3,0,0,0,5,0,0,0,3,0,0,0,0,8,5,0,0,7,0,0,0,0,0,0,0,0,0,8,0,8,5,0,0,0,0,3,8,0,0,0,8,0,0,0,3,0,0,0,0,0,0,0,3,0,0,0,0,0,0,0,0,3,5,5,0,0,0,0,0,8,0,0,0,0,0,0,0,0],"split_type":[0,0,0,0,0,0,0,0,0,0,0,0,0,0,0,0,0,0,0,0,0,0,0,0,0,0,0,0,0,0,0,0,0,0,0,0,0,0,0,0,0,0,0,0,0,0,0,0,0,0,0,0,0,0,0,0,0,0,0,0,0,0,0,0,0,0,0,0,0,0,0,0,0,0,0,0,0,0,0,0,0,0,0,0,0,0,0,0,0,0,0,0,0],"sum_hessian":[5.75E2,4.93E2,8.2E1,5.6E1,4.37E2,3.5E1,4.7E1,2.77E2,1.6E2,2.2E1,1.3E1,1.1E1,3.6E1,1.94E2,8.3E1,1.6E1,6E0,3.4E1,2E0,9.5E1,6.5E1,5E0,6E0,4.1E1,1.53E2,5E0,1.1E1,3.7E1,2.8E1,7.5E1,8E0,4.1E1,5.4E1,8E0,3.3E1,3.2E1,5E0,2.8E1,1.3E1,2.7E1,2.7E1,6.9E1,6E0,3E1,1.23E2,2.4E1,4E0,1.3E1,2E1,2E1,8E0,4.2E1,8.1E1,2E0,2E0,4E0,2E0,2.1E1,3E0,1.4E1,5.5E1,2.4E1,8E0,9E0,1.8E1,6E0,7E0,1.8E1,2.4E1,8E0,6E0,3E0,1E0,5E0,3E0,1.4E1,6.7E1,9E0,9E0,1E0,1.3E1,3E0,2.1E1,1E0,6.6E1,8E0,1E0,7E0,6E0,6E0,3E0,1.6E1,5E1],"tree_param":{"num_deleted":"0","num_feature":"9","num_nodes":"93","size_leaf_vector":"0"}},{"base_weights":[2.0391376E3,2.6440886E3,1.5187814E3,2.417779E3,4.0165088E3,1.2568999E3,3.04468E3,1.8568666E3,2.7651025E3,4.9681282E1,1.4553342E3,1.8953165E2,4.2974973E2,6.1264844E2,3.2038096E3,1.6839893E3,3.244861E2,6.51417E2,1.6803807E3,3.7125457E3,2.2372832E2,3.2909028E3,2.1763672E3,2.6793104E1,8.2340034E1,9.442479E2,1.9038396E3,1.4299279E3,2.1061106E3,1.4087407E3,2.9710892E2,4.7101392E2,2.8347858E2,8.898994E1,4.4929035E1,2.3789104E2,4.173111E2,1.0799862E3,4.2490463E1,1.3461082E3,2.1930652E3,1.5079271E2,7.6823846E2,1.9867935E3,1.8357191E1,2.298864E3,1.0560177E2,6.872788E1,1.3090611E2,3.2433018E3,7.0421545E2,1.7826434E3,3.9201132E2,2.2161687E3,1.5214435E3,1.4079359E3,5.713913E1,2.5128859E1,1.3737422E2,2.793041E1,5.126199E2,2.3259536E3,1.1502012E3,1.1041602E3,1.5002712E3,1.1138829E3,3.1788852E2,7.814501E1,1.9763855E1,1.7826773E2,2.5171773E2,1.21745926E2,2.829184E3,1.2098179E3,4.3956562E1,1.3800171E2,6.352726E2,4.010226E1,1.3731926E2,1.5332817E2,5.9703613E1,5.5250954E1,2.9728647E2,1.2345393E2,3.5769463E1,7.327654E1,3.302151E1],"categories":[],"categories_nodes":[],"categories_segments":[],"categories_sizes":[],"default_left":[true,false,true,true,false,false,true,false,true,false,true,false,false,true,true,true,false,false,true,false,false,true,true,false,false,false,false,true,true,true,false,false,false,false,false,false,false,true,false,false,true,false,true,true,false,true,false,false,false,false,false,true,false,false,false,false,false,false,false,false,false,true,true,false,true,true,false,false,false,false,false,false,true,true,false,false,false,false,false,false,false,false,false,false,false,false,false],"id":2,"left_children":[1,3,5,7,11,9,13,15,21,-1,17,-1,-1,23,19,25,-1,33,27,35,-1,31,29,-1,-1,37,43,39,45,41,-1,-1,-1,-1,-1,-1,-1,47,-1,55,49,-1,57,53,-1,51,-1,-1,-1,59,67,61,-1,69,65,63,-1,-1,-1,-1,-1,71,77,73,79,75,-1,-1,-1,-1,-1,-1,81,83,-1,-1,85,-1,-1,-1,-1,-1,-1,-1,-1,-1,-1],"loss_changes":[1.773033E8,7.259584E7,1.2084973E8,3.967373E7,1.3312E7,3.969869E7,1.5452544E7,1.6371392E7,3.617581E7,0E0,3.726013E7,0E0,0E0,6.9985E4,1.2345696E7,1.17008E7,0E0,1.913952E6,1.45816E7,6.0424E6,0E0,3.3256128E7,3.7907936E7,0E0,0E0,1.0215E6,8.625568E6,3.892256E6,9.514496E6,1.192128E6,0E0,0E0,0E0,0E0,0E0,0E0,0E0,5.3966E5,0E0,3.937536E6,1.1788812E7,0E0,1.8459002E6,3.032608E6,0E0,3.4021024E7,0E0,0E0,0E0,2.6472744E7,4.11815E4,1.072556E7,0E0,4.71104E5,1.1995776E7,8.95936E5,0E0,0E0,0E0,0E0,0E0,7.712152E6,2.790526E6,1.223694E6,1.082256E6,1.670806E6,0E0,0E0,0E0,0E0,0E0,0E0,2.609944E6,7.92E2,0E0,0E0,2.5698E4,0E0,0E0,0E0,0E0,0E0,0E0,0E0,0E0,0E0,0E0],"parents":[2147483647,0,0,1,1,2,2,3,3,5,5,4,4,6,6,7,7,10,10,14,14,8,8,13,13,15,15,18,18,22,22,21,21,17,17,19,19,25,25,27,27,29,29,26,26,28,28,37,37,40,40,45,45,43,43,39,39,42,42,49,49,51,51,55,55,54,54,50,50,53,53,61,61,63,63,65,65,62,62,64,64,72,72,73,73,76,76],"right_children":[2,4,6,8,12,10,14,16,22,-1,18,-1,-1,24,20,26,-1,34,28,36,-1,32,30,-1,-1,38,44,40,46,42,-1,-1,-1,-1,-1,-1,-1,48,-1,56,50,-1,58,54,-1,52,-1,-1,-1,60,68,62,-1,70,66,64,-1,-1,-1,-1,-1,72,78,74,80,76,-1,-1,-1,-1,-1,-1,82,84,-1,-1,86,-1,-1,-1,-1,-1,-1,-1,-1,-1,-1],"split_conditions":[4E-2,2.4874653E8,1.2151745E2,1.2151168E2,1.2151047E2,1.1219912E7,1.8884014E8,1E0,1.2151245E2,4.9681282E1,1.2151076E2,1.8953165E2,4.2974973E2,1.2151912E2,3E1,1.2151037E2,3.244861E2,2.0221278E8,2.3733917E8,5.7E-1,2.2372832E2,2.5057304E7,2.3060629E8,2.6793104E1,8.2340034E1,2.0221278E8,1.2151159E2,5.3E1,3.6E-1,7E0,2.9710892E2,4.7101392E2,2.8347858E2,8.898994E1,4.4929035E1,2.3789104E2,4.173111E2,1.2150855E2,4.2490463E1,4.8E1,2.13E0,1.5079271E2,5.92383E7,1.2151099E2,1.8357191E1,2E-1,1.0560177E2,6.872788E1,1.3090611E2,1.99E0,1.215146E2,2E0,3.9201132E2,1.2151061E2,1.2151156E2,5E0,5.713913E1,2.5128859E1,1.3737422E2,2.793041E1,5.126199E2,6E-2,1.2E-1,7.822116E7,1.2151651E2,2.5057304E7,3.1788852E2,7.814501E1,1.9763855E1,1.7826773E2,2.5171773E2,1.21745926E2,1.2151092E2,4.9E-1,4.3956562E1,1.3800171E2,1.2151124E2,4.010226E1,1.3731926E2,1.5332817E2,5.9703613E1,5.5250954E1,2.9728647E2,1.2345393E2,3.5769463E1,7.327654E1,3.302151E1],"split_indices":[6,1,3,3,3,1,1,5,3,0,3,0,0,3,5,3,0,1,1,6,0,1,1,0,0,1,3,5,6,7,0,0,0,0,0,0,0,3,0,5,6,0,1,3,0,6,0,0,0,6,3,5,0,3,3,7,0,0,0,0,0,6,6,1,3,1,0,0,0,0,0,0,3,6,0,0,3,0,0,0,0,0,0,0,0,0,0],"split_type":[0,0,0,0,0,0,0,0,0,0,0,0,0,0,0,0,0,0,0,0,0,0,0,0,0,0,0,0,0,0,0,0,0,0,0,0,0,0,0,0,0,0,0,0,0,0,0,0,0,0,0,0,0,0,0,0,0,0,0,0,0,0,0,0,0,0,0,0,0,0,0,0,0,0,0,0,0,0,0,0,0,0,0,0,0,0,0],"sum_hessian":[5.75E2,2.64E2,3.11E2,2.29E2,3.5E1,2.67E2,4.4E1,9E1,1.39E2,5.6E1,2.11E2,5E0,3E1,3E0,4.1E1,8.2E1,8E0,4.7E1,1.64E2,2.5E1,1.6E1,7.1E1,6.8E1,2E0,1E0,2E1,6.2E1,1.06E2,5.8E1,3.6E1,3.2E1,1.5E1,5.6E1,2E1,2.7E1,8E0,1.7E1,1.5E1,5E0,9.8E1,8E0,3E1,6E0,5.9E1,3E0,4.8E1,1E1,7E0,8E0,4E0,4E0,3.8E1,1E1,3.7E1,2.2E1,9E1,8E0,4E0,2E0,2E0,2E0,1.9E1,1.9E1,2.4E1,6.6E1,1.9E1,3E0,3E0,1E0,1.8E1,1.9E1,7E0,1.2E1,2E1,4E0,1.1E1,8E0,5E0,1.4E1,6.3E1,3E0,1E0,1.1E1,1.9E1,1E0,5E0,3E0],"tree_param":{"num_deleted":"0","num_feature":"9","num_nodes":"87","size_leaf_vector":"0"}},{"base_weights":[1.8473663E3,2.3678894E3,1.42649E3,2.151247E3,3.6320583E3,1.2043527E3,2.7621687E3,1.4883837E3,2.488414E3,1.0354252E3,2.2086936E3,3.8816086E2,1.7373735E2,5.7866724E2,2.9043552E3,1.8293555E3,1.0902982E3,7.1521655E2,1.4442036E3,3.1827798E2,1.5298228E2,2.500694E1,7.822304E1,2.9031545E3,1.9760878E3,3.3877432E2,1.4129163E3,5.7883553E1,2.2269011E3,4.4800316E1,8.966659E2,1.2732088E2,2.6829834E2,2.3390547E3,1.1251254E3,4.2685626E2,2.5103025E3,1.2071895E3,2.6568018E1,5.6415515E2,1.6096825E3,2.4290828E3,3.0544912E1,5.248839E1,2.6613766E2,7.560787E1,3.732876E1,6.271418E1,1.3392352E3,1.3497915E3,3.475864E2,3.0646777E2,2.2388015E3,5.845273E2,1.0722585E3,1.1635349E2,1.7846766E1,1.7582695E2,3.0162458E3,2.1806501E3,1.2236841E3,1.2029232E2,9.0537866E2,7.756758E1,4.033825E1,1.459162E2,8.052682E1,1.698046E2,2.3792012E2,3.3568008E2,1.4107964E2,1.3234084E3,6.3139874E2,-1.1025583E1,2.9991001E1,5.0457462E1,3.4205957E3,4.3007637E1,1.09273094E2,5.522587E1,1.3548584E3,2.8764624E1,7.140222E2,9.165412E1,4.7844517E3,2.76486E1,1.3694383E2,8.016139E1,2.7163412E1,1.4015889E2,5.775089E2],"categories":[],"categories_nodes":[],"categories_segments":[],"categories_sizes":[],"default_left":[true,true,false,true,true,true,false,false,true,true,false,false,false,true,true,true,false,true,true,false,false,false,false,false,true,false,false,false,true,false,true,false,false,false,false,false,true,true,false,false,true,false,false,false,false,false,false,false,true,true,false,false,true,true,true,false,false,false,true,true,true,false,true,false,false,false,false,true,false,false,false,false,true,false,false,false,true,false,false,false,false,false,false,false,true,false,false,false,false,false,false],"id":3,"left_children":[1,3,5,7,11,9,13,15,23,17,25,-1,-1,21,19,27,37,29,39,-1,-1,-1,-1,35,31,-1,33,-1,41,-1,53,-1,-1,43,55,-1,51,47,-1,45,49,57,-1,-1,-1,-1,-1,-1,65,59,-1,-1,67,63,61,-1,-1,-1,69,75,71,-1,77,-1,-1,-1,-1,73,-1,-1,-1,79,81,-1,-1,-1,83,-1,-1,-1,85,-1,87,-1,89,-1,-1,-1,-1,-1,-1],"loss_changes":[1.2280986E8,6.2297984E7,9.191546E7,4.568883E7,1.0277664E7,4.470909E7,1.229024E7,8.45712E6,2.5073088E7,3.0250848E7,3.18056E7,0E0,0E0,7.1949625E4,1.1204512E7,1.8596536E7,3.342116E6,6.192344E6,1.423736E7,0E0,0E0,0E0,0E0,3.1124096E7,3.0370624E7,0E0,4.031628E6,0E0,1.0912528E7,0E0,3.75798E6,0E0,0E0,1.52682E6,5.5592E5,0E0,2.621184E6,1.687676E6,0E0,3.77141E5,3.750363E7,5.331296E6,0E0,0E0,0E0,0E0,0E0,0E0,4.89944E5,5.504208E6,0E0,0E0,1.2958368E7,7.60499E5,1.164E3,0E0,0E0,0E0,2.371912E6,1.6978236E7,3.298968E6,0E0,1.845318E6,0E0,0E0,0E0,0E0,1.7881634E5,0E0,0E0,0E0,6.82672E5,1.354385E5,0E0,0E0,0E0,1.2690704E7,0E0,0E0,0E0,5.01824E5,0E0,1.310005E5,0E0,1.959272E6,0E0,0E0,0E0,0E0,0E0,0E0],"parents":[2147483647,0,0,1,1,2,2,3,3,5,5,4,4,6,6,7,7,9,9,14,14,13,13,8,8,10,10,15,15,17,17,24,24,26,26,23,23,16,16,18,18,28,28,33,33,39,39,37,37,40,40,36,36,30,30,34,34,41,41,49,49,54,54,53,53,48,48,52,52,58,58,60,60,67,67,59,59,62,62,71,71,72,72,76,76,80,80,82,82,84,84],"right_children":[2,4,6,8,12,10,14,16,24,18,26,-1,-1,22,20,28,38,30,40,-1,-1,-1,-1,36,32,-1,34,-1,42,-1,54,-1,-1,44,56,-1,52,48,-1,46,50,58,-1,-1,-1,-1,-1,-1,66,60,-1,-1,68,64,62,-1,-1,-1,70,76,72,-1,78,-1,-1,-1,-1,74,-1,-1,-1,80,82,-1,-1,-1,84,-1,-1,-1,86,-1,88,-1,90,-1,-1,-1,-1,-1,-1],"split_conditions":[1E0,2.4874653E8,1.2151745E2,1.2151156E2,2.506221E1,2.505852E1,1.8884014E8,2.505358E1,1.2151245E2,2.65E2,2.506177E1,3.8816086E2,1.7373735E2,1.2151912E2,3.7E1,2.50523E1,2.0221278E8,1.1219912E7,1.2151076E2,3.1827798E2,1.5298228E2,2.500694E1,7.822304E1,2.5057304E7,2.3060629E8,3.3877432E2,2E0,5.7883553E1,1.215113E2,4.4800316E1,1.2151076E2,1.2732088E2,2.6829834E2,2.506282E1,2.506282E1,4.2685626E2,2.62E2,1.2150855E2,2.6568018E1,2.0221278E8,2.3060629E8,2.02E2,3.0544912E1,5.248839E1,2.6613766E2,7.560787E1,3.732876E1,6.271418E1,1.2151089E2,2.505124E1,3.475864E2,3.0646777E2,1.2151168E2,2.0221278E8,9.567159E7,1.1635349E2,1.7846766E1,1.7582695E2,2.505339E1,3.58E2,2.7E1,1.2029232E2,2.50522E1,7.756758E1,4.033825E1,1.459162E2,8.052682E1,2.65E2,2.3792012E2,3.3568008E2,1.4107964E2,2.505177E1,3.53E2,-1.1025583E1,2.9991001E1,5.0457462E1,2.505123E1,4.3007637E1,1.09273094E2,5.522587E1,3.02E2,2.8764624E1,2.505271E1,9.165412E1,3.59E2,2.76486E1,1.3694383E2,8.016139E1,2.7163412E1,1.4015889E2,5.775089E2],"split_indices":[5,1,3,3,2,2,1,2,3,8,2,0,0,3,5,2,1,1,3,0,0,0,0,1,1,0,5,0,3,0,3,0,0,2,2,0,8,3,0,1,1,8,0,0,0,0,0,0,3,2,0,0,3,1,1,0,0,0,2,8,5,0,2,0,0,0,0,8,0,0,0,2,8,0,0,0,2,0,0,0,8,0,2,0,8,0,0,0,0,0,0],"split_type":[0,0,0,0,0,0,0,0,0,0,0,0,0,0,0,0,0,0,0,0,0,0,0,0,0,0,0,0,0,0,0,0,0,0,0,0,0,0,0,0,0,0,0,0,0,0,0,0,0,0,0,0,0,0,0,0,0,0,0,0,0,0,0,0,0,0,0,0,0,0,0,0,0,0,0,0,0,0,0,0,0,0,0,0,0,0,0,0,0,0,0],"sum_hessian":[5.75E2,2.55E2,3.2E2,2.2E2,3.5E1,2.76E2,4.4E1,7.6E1,1.44E2,2.38E2,3.8E1,3E1,5E0,3E0,4.1E1,3.9E1,3.7E1,1.35E2,1.03E2,3.3E1,8E0,2E0,1E0,7.7E1,6.7E1,1.4E1,2.4E1,1E1,2.9E1,5.6E1,7.9E1,3.5E1,3.2E1,4E0,2E1,1.5E1,6.2E1,3.2E1,5E0,1.7E1,8.6E1,2.6E1,3E0,1E0,3E0,7E0,1E1,7E0,2.5E1,7.7E1,9E0,1.7E1,4.5E1,3E1,4.9E1,1.9E1,1E0,1.4E1,1.2E1,8E0,6.9E1,2.4E1,2.5E1,1.3E1,1.7E1,1.9E1,6E0,3E0,4.2E1,9E0,3E0,5.8E1,1.1E1,1E0,2E0,4E0,4E0,8E0,1.7E1,3E0,5.5E1,3E0,8E0,2E0,2E0,1E0,5.4E1,6E0,2E0,1E0,1E0],"tree_param":{"num_deleted":"0","num_feature":"9","num_nodes":"91","size_leaf_vector":"0"}},{"base_weights":[1.6738833E3,1.46475E3,2.8984363E3,7.0813275E2,1.6721141E3,2.2215566E3,3.345712E3,1.1066664E3,3.94597E2,2.6490032E3,1.3606404E2,1.953751E3,1.0936952E3,2.1127505E3,3.6551667E3,1.2253727E3,7.3933203E2,3.026885E3,1.352861E2,2.8184042E2,1.20608315E2,3.7614096E2,1.1972788E2,8.1748663E2,2.3311133E3,4.10662E1,1.2932388E2,1.7178125E3,2.3300835E3,1.2886191E2,6.008205E1,1.5925925E2,3.491791E2,1.3913732E3,2.6251406E3,2.5251083E1,3.539943E0,2.5013054E2,1.9222191E2,2.6936267E2,8.5505424E1,2.417546E0,7.924844E1,1.1057495E3,5.732516E2,2.6552966E2,1.2793848E3,1.4939603E3,3.0995566E2,1.393839E2,2.8738633E3,7.891606E2,3.726848E1,1.3824142E3,7.260257E2,3.3135597E1,1.5756571E1,5.341941E1,8.818187E1,8.840691E2,1.9800957E2,1.8845383E2,3.105789E2,1.2889631E3,2.3730894E3,8.41238E1,3.1699055E1,5.7226685E1,1.06299675E2,2.5505533E1,1.322064E3,5.486335E2,9.39826E2,3.8401062E1,1.351343E2,1.3315096E2,5.9518738E1],"categories":[],"categories_nodes":[],"categories_segments":[],"categories_sizes":[],"default_left":[true,true,true,false,true,false,true,false,false,true,false,true,true,false,true,true,true,true,false,false,false,false,false,true,true,false,false,false,true,false,false,false,false,true,true,false,false,false,false,false,false,false,false,true,true,false,false,true,true,false,true,false,false,true,false,false,false,false,false,true,false,false,false,true,true,false,false,false,false,false,true,false,true,false,false,false,false],"id":4,"left_children":[1,3,5,7,11,9,13,15,25,17,-1,27,23,19,21,29,41,31,-1,-1,-1,-1,-1,43,39,-1,35,33,37,-1,-1,-1,-1,45,49,-1,-1,-1,-1,-1,-1,-1,-1,47,51,-1,53,59,55,-1,61,57,-1,63,65,-1,-1,-1,-1,67,-1,-1,-1,69,71,-1,-1,-1,-1,-1,73,-1,75,-1,-1,-1,-1],"loss_changes":[1.4326515E8,7.632211E7,1.7695744E7,1.3058404E7,6.090701E7,9.64352E6,1.0591744E7,1.143476E6,2.11111E5,7.170192E6,0E0,1.8994304E7,4.2184656E7,4.278284E6,5.158432E6,5.68796E5,5.130135E5,5.774768E6,0E0,0E0,0E0,0E0,0E0,6.899344E6,1.0003904E7,0E0,4.8912594E4,4.4626016E7,1.965952E6,0E0,0E0,0E0,0E0,1.3871344E7,8.856928E6,0E0,0E0,0E0,0E0,0E0,0E0,0E0,0E0,1.4365856E7,2.304142E6,0E0,5.495744E6,7.737128E6,3.229875E3,0E0,1.94832E6,1.9043E5,0E0,5.73624E6,6.75853E5,0E0,0E0,0E0,0E0,2.84323E5,0E0,0E0,0E0,2.708656E6,2.60785E7,0E0,0E0,0E0,0E0,0E0,1.843088E6,0E0,1.7438E4,0E0,0E0,0E0,0E0],"parents":[2147483647,0,0,1,1,2,2,3,3,5,5,4,4,6,6,7,7,9,9,13,13,14,14,12,12,8,8,11,11,15,15,17,17,27,27,26,26,28,28,24,24,16,16,23,23,33,33,43,43,34,34,44,44,46,46,48,48,51,51,47,47,50,50,53,53,54,54,59,59,63,63,64,64,70,70,72,72],"right_children":[2,4,6,8,12,10,14,16,26,18,-1,28,24,20,22,30,42,32,-1,-1,-1,-1,-1,44,40,-1,36,34,38,-1,-1,-1,-1,46,50,-1,-1,-1,-1,-1,-1,-1,-1,48,52,-1,54,60,56,-1,62,58,-1,64,66,-1,-1,-1,-1,68,-1,-1,-1,70,72,-1,-1,-1,-1,-1,74,-1,76,-1,-1,-1,-1],"split_conditions":[3.8195972E7,7.822116E7,1.2151166E2,7E0,3.1771208E7,1.215111E2,3.8466684E7,1E-1,4.9764944E7,3.8466684E7,1.3606404E2,3.083053E7,1.2151168E2,1.2151192E2,1.2151571E2,3.2451916E7,1.1E-1,1.2151047E2,1.352861E2,2.8184042E2,1.20608315E2,3.7614096E2,1.1972788E2,2E-2,3.6E-1,4.10662E1,1.2151327E2,7E0,3.1476628E7,1.2886191E2,6.008205E1,1.5925925E2,3.491791E2,1.2151005E2,2.6886912E7,2.5251083E1,3.539943E0,2.5013054E2,1.9222191E2,2.6936267E2,8.5505424E1,2.417546E0,7.924844E1,3.8007064E7,6E0,2.6552966E2,1.2151617E2,3.2451592E7,1.2151156E2,1.393839E2,5.7E-1,3.1771504E7,3.726848E1,1.99E0,1.74E0,3.3135597E1,1.5756571E1,5.341941E1,8.818187E1,3.1771504E7,1.9800957E2,1.8845383E2,3.105789E2,2.5748834E7,2.05E0,8.41238E1,3.1699055E1,5.7226685E1,1.06299675E2,2.5505533E1,5E0,5.486335E2,2.13E0,3.8401062E1,1.351343E2,1.3315096E2,5.9518738E1],"split_indices":[0,1,3,7,0,3,0,6,1,0,0,0,3,3,3,0,6,3,0,0,0,0,0,6,6,0,3,7,0,0,0,0,0,3,0,0,0,0,0,0,0,0,0,0,7,0,3,0,3,0,6,0,0,6,6,0,0,0,0,0,0,0,0,0,6,0,0,0,0,0,7,0,6,0,0,0,0],"split_type":[0,0,0,0,0,0,0,0,0,0,0,0,0,0,0,0,0,0,0,0,0,0,0,0,0,0,0,0,0,0,0,0,0,0,0,0,0,0,0,0,0,0,0,0,0,0,0,0,0,0,0,0,0,0,0,0,0,0,0,0,0,0,0,0,0,0,0,0,0,0,0,0,0,0,0,0,0],"sum_hessian":[5.75E2,4.93E2,8.2E1,1.07E2,3.86E2,3.5E1,4.7E1,4.6E1,6.1E1,2.2E1,1.3E1,2.58E2,1.28E2,1.1E1,3.6E1,3.3E1,1.3E1,1.6E1,6E0,5E0,6E0,3.4E1,2E0,1.06E2,2.2E1,5.7E1,4E0,1.62E2,9.6E1,2.9E1,4E0,5E0,1.1E1,1.21E2,4.1E1,1E0,3E0,6.4E1,3.2E1,1.7E1,5E0,1E0,1.2E1,4.7E1,5.9E1,8E0,1.13E2,3.1E1,1.6E1,8E0,3.3E1,2.7E1,3.2E1,9.4E1,1.9E1,1.3E1,3E0,9E0,1.8E1,1.5E1,1.6E1,8E0,2.5E1,8.8E1,6E0,1.4E1,5E0,7E0,8E0,3E0,8.5E1,1E0,5E0,3E0,8.2E1,1E0,4E0],"tree_param":{"num_deleted":"0","num_feature":"9","num_nodes":"77","size_leaf_vector":"0"}},{"base_weights":[1.5158094E3,1.9601415E3,1.1335537E3,1.795114E3,2.960036E3,9.397984E2,2.262284E3,1.4925367E3,2.2577078E3,3.6364304E1,1.090275E3,3.2414755E2,1.7555531E2,4.8351514E2,2.3778267E3,1.6406842E3,7.335795E2,4.8513376E2,1.2597084E3,2.799398E3,1.5931985E3,1.9646266E3,3.2340798E3,1.773156E1,7.010569E1,7.994449E2,1.8582277E3,6.659363E1,3.3220562E1,1.1618235E3,2.1414233E3,1.8429233E2,8.282162E1,3.545222E2,1.1809922E2,1.7170236E2,3.1850632E2,8.2765924E2,3.2746277E0,1.0691384E3,1.5839674E3,1.0095585E3,4.2114834E1,1.2823196E2,5.0987915E1,9.906659E2,1.8135435E3,9.960907E2,2.243818E3,5.221937E1,9.3539696E1,2.9828323E2,1.7463833E3,2.6319992E2,1.9035511E3,1.2395019E2,6.9299115E2,7.3723193E2,5.212018E2,7.3647266E2,1.8679758E3,1.24968056E2,2.1234435E2,2.726996E3,1.2931046E3,1.0248135E3,2.9057493E1,6.224051E2,1.3542312E3,4.0968323E-1,7.7859085E1,1.1342702E2,2.159297E1,1.032461E3,1.5679105E1,9.1362404E1,2.4476468E2,9.100535E1,2.0112231E2,7.002641E2,2.7991888E1,2.0232374E1,2.8721426E3,4.8114108E2,1.264934E2,2.5768759E1,1.9297755E3,1.0469767E3,4.477442E1,7.0742874E1,2.9692953E2,1.9881078E3,9.3732666E1,7.228377E1,2.0340385E1,2.239156E1,6.1808132E1,8.368799E1,1.1066088E2,2.0138307E2,7.50928E1],"categories":[],"categories_nodes":[],"categories_segments":[],"categories_sizes":[],"default_left":[true,true,true,true,true,true,false,false,true,false,true,false,false,true,true,true,false,false,true,true,true,true,true,false,false,true,true,false,false,false,true,false,false,false,false,false,false,true,false,true,true,true,false,false,false,true,true,false,true,false,false,false,true,false,true,false,true,true,false,false,true,false,false,true,true,false,false,true,false,false,false,false,false,false,false,false,false,false,false,false,false,false,true,true,false,false,true,true,false,false,false,true,false,false,false,false,false,false,false,false,false],"id":5,"left_children":[1,3,5,7,11,9,13,15,21,-1,17,-1,-1,23,19,25,37,27,39,35,31,29,33,-1,-1,41,51,-1,-1,43,53,-1,-1,-1,-1,-1,-1,49,-1,45,47,55,-1,-1,-1,65,57,67,63,-1,-1,-1,59,-1,61,-1,69,83,-1,71,85,-1,-1,81,77,73,-1,79,75,-1,-1,-1,-1,87,-1,-1,-1,-1,-1,93,-1,-1,89,95,-1,-1,91,97,-1,-1,-1,99,-1,-1,-1,-1,-1,-1,-1,-1,-1],"loss_changes":[9.561088E7,3.841408E7,6.610752E7,2.8823488E7,6.513024E6,2.2838592E7,8.098864E6,1.476256E7,1.9114176E7,0E0,2.1125488E7,0E0,0E0,1.4213644E5,9.432624E6,2.0109184E7,1.621252E6,1.105963E6,8.502544E6,5.384464E6,1.721256E6,7.58928E6,7.950368E6,0E0,0E0,1.641442E6,6.488448E6,0E0,0E0,5.24522E5,1.64144E6,0E0,0E0,0E0,0E0,0E0,0E0,2.35565E5,0E0,4.453832E6,2.0651696E7,3.05717E5,0E0,0E0,0E0,2.068952E6,2.9077886E7,3.573576E6,8.876528E6,0E0,0E0,0E0,9.30768E6,0E0,3.385168E6,0E0,5.275325E5,4.725055E5,0E0,2.0328555E6,7.165408E6,0E0,0E0,5.648512E6,1.195518E6,4.6212E5,0E0,2.839645E5,5.472038E6,0E0,0E0,0E0,0E0,3.2056E5,0E0,0E0,0E0,0E0,0E0,9.995E3,0E0,0E0,1.264352E6,1.08173625E5,0E0,0E0,2.42048E6,2.01472E5,0E0,0E0,0E0,6.83584E5,0E0,0E0,0E0,0E0,0E0,0E0,0E0,0E0,0E0],"parents":[2147483647,0,0,1,1,2,2,3,3,5,5,4,4,6,6,7,7,10,10,14,14,8,8,13,13,15,15,17,17,21,21,20,20,22,22,19,19,16,16,18,18,25,25,29,29,39,39,40,40,37,37,26,26,30,30,41,41,46,46,52,52,54,54,48,48,45,45,47,47,56,56,59,59,65,65,68,68,64,64,67,67,63,63,57,57,60,60,73,73,82,82,86,86,79,79,83,83,87,87,91,91],"right_children":[2,4,6,8,12,10,14,16,22,-1,18,-1,-1,24,20,26,38,28,40,36,32,30,34,-1,-1,42,52,-1,-1,44,54,-1,-1,-1,-1,-1,-1,50,-1,46,48,56,-1,-1,-1,66,58,68,64,-1,-1,-1,60,-1,62,-1,70,84,-1,72,86,-1,-1,82,78,74,-1,80,76,-1,-1,-1,-1,88,-1,-1,-1,-1,-1,94,-1,-1,90,96,-1,-1,92,98,-1,-1,-1,100,-1,-1,-1,-1,-1,-1,-1,-1,-1],"split_conditions":[4E-2,2.4874653E8,1.2151745E2,2.505852E1,2.506162E1,1.1219912E7,1.8884014E8,2.50545E1,1.2151183E2,3.6364304E1,1.2151076E2,3.2414755E2,1.7555531E2,1.2151912E2,3E1,2.505234E1,1.2151299E2,2.0221278E8,2.3060629E8,5.7E-1,2.504942E1,2.5057304E7,2.506014E1,1.773156E1,7.010569E1,2.3060629E8,2.505249E1,6.659363E1,3.3220562E1,1.2151089E2,2.46E2,1.8429233E2,8.282162E1,3.545222E2,1.1809922E2,1.7170236E2,3.1850632E2,1.2150855E2,3.2746277E0,5.3E1,2.01E2,3.7E1,4.2114834E1,1.2823196E2,5.0987915E1,1.74E0,3.59E2,2.505278E1,2.506174E1,5.221937E1,9.3539696E1,2.9828323E2,1.2151058E2,2.6319992E2,3.14E2,1.2395019E2,3.8E1,3.58E2,5.212018E2,2.505347E1,2.505262E1,1.24968056E2,2.1234435E2,2.50522E1,2.506282E1,2.505478E1,2.9057493E1,1.2151099E2,1.08E2,4.0968323E-1,7.7859085E1,1.1342702E2,2.159297E1,1.2151651E2,1.5679105E1,9.1362404E1,2.4476468E2,9.100535E1,2.0112231E2,1.96E2,2.7991888E1,2.0232374E1,5E-2,2.505124E1,1.264934E2,2.5768759E1,3.65E2,2.504967E1,4.477442E1,7.0742874E1,2.9692953E2,1.2151475E2,9.3732666E1,7.228377E1,2.0340385E1,2.239156E1,6.1808132E1,8.368799E1,1.1066088E2,2.0138307E2,7.50928E1],"split_indices":[6,1,3,2,2,1,1,2,3,0,3,0,0,3,5,2,3,1,1,6,2,1,2,0,0,1,2,0,0,3,8,0,0,0,0,0,0,3,0,5,8,8,0,0,0,6,8,2,2,0,0,0,3,0,8,0,8,8,0,2,2,0,0,2,2,2,0,3,8,0,0,0,0,3,0,0,0,0,0,8,0,0,6,2,0,0,8,2,0,0,0,3,0,0,0,0,0,0,0,0,0],"split_type":[0,0,0,0,0,0,0,0,0,0,0,0,0,0,0,0,0,0,0,0,0,0,0,0,0,0,0,0,0,0,0,0,0,0,0,0,0,0,0,0,0,0,0,0,0,0,0,0,0,0,0,0,0,0,0,0,0,0,0,0,0,0,0,0,0,0,0,0,0,0,0,0,0,0,0,0,0,0,0,0,0,0,0,0,0,0,0,0,0,0,0,0,0,0,0,0,0,0,0,0,0],"sum_hessian":[5.75E2,2.64E2,3.11E2,2.29E2,3.5E1,2.67E2,4.4E1,1.41E2,8.8E1,5.6E1,2.11E2,2.7E1,8E0,3E0,4.1E1,1.17E2,2.4E1,4.7E1,1.64E2,2.5E1,1.6E1,7E1,1.8E1,2E0,1E0,2.5E1,9.2E1,2E1,2.7E1,1.4E1,5.6E1,1.1E1,5E0,1.5E1,3E0,8E0,1.7E1,2.1E1,3E0,1.06E2,5.8E1,1.5E1,1E1,1.1E1,3E0,9.8E1,8E0,3.2E1,2.6E1,7E0,1.4E1,6E0,8.6E1,1.5E1,4.1E1,7E0,8E0,7E0,1E0,1E1,7.6E1,1.2E1,2.9E1,1.6E1,1E1,9.3E1,5E0,1.7E1,1.5E1,1E0,7E0,5E0,5E0,9.2E1,1E0,1.2E1,3E0,8E0,2E0,1.3E1,4E0,1E0,1.5E1,6E0,1E0,3E0,7.3E1,8.9E1,3E0,1E0,1.4E1,6.8E1,5E0,1.2E1,1E0,3E0,3E0,2.3E1,6.6E1,6.6E1,2E0],"tree_param":{"num_deleted":"0","num_feature":"9","num_nodes":"101","size_leaf_vector":"0"}},{"base_weights":[1.3748337E3,1.2022305E3,2.3855703E3,3.2791622E1,1.3132662E3,1.848596E3,2.7386018E3,1.5522865E3,8.923911E2,2.2179539E3,1.10975075E2,1.7343871E3,2.990277E3,1.7511393E3,1.2326648E3,2.5367073E3,1.12698845E2,3.0724504E3,1.0348268E2,6.307714E2,1.2594078E3,2.2881041E2,1.01200294E2,1.3145099E3,1.8553743E3,1.3135802E2,2.9368787E2,7.699744E2,1.8573064E3,8.134551E2,4.7979892E2,1.0719437E3,1.9460162E2,3.3013754E2,2.1699998E2,2.1853145E2,9.876616E2,9.151074E2,4.5581012E2,6.422913E2,3.001709E1,1.1424784E3,5.973589E2,1.0466462E3,2.7231241E1,2.4269539E2,1.6671595E3,2.0651477E3,4.4663876E2,1.1051008E3,4.7747232E2,2.0526749E2,5.0547928E2,6.819257E1,1.7813667E3,1.3515605E1,6.092419E1,2.2368054E3,6.0474285E1,7.516515E2,2.663602E1,9.5800665E2,2.1321018E3,1.0330085E3,2.1208813E3,1.067875E3,6.2359644E2,4.2618237E1,7.22228E1,4.252801E2,1.2325454E3,2.9645447E1,-3.4146729E0,8.063385E0,8.2544946E2,-1.8875335E0,6.897311E1,6.33922E2,1.3683435E2,7.899527E2,3.6321355E3,6.0566907E2,1.0836397E2,1.3037493E3,2.3048313E3,2.3242772E2,9.080589E2,1.3556548E3,6.1747375E2,1.03974754E2,2.4484537E2,1.7261679E1,6.6295975E1,6.0926937E1,2.5907736E1,6.66004E1,1.9859808E1,9.8938675E1,4.141656E1,8.511558E0,6.540511E1,2.8084293E2,8.231715E1,1.8465781E3,7.291659E2,1.5754008E2,-2.1331251E1,2.8502124E2,1.9643518E3,4.951417E2,4.9678623E1,1.7126411E3,5.4126855E2,1.8627216E1,1.1303157E2,1.3562022E2,7.591982E1,7.4908165E1,-8.609754E0,3.1514452E0,3.704018E1,2.0603308E1,1.21109215E2,6.1890713E1,7.6537905E0,1.3919375E1,1.9175345E2,1.940709E2,4.997002E1,1.2419594E2,2.4079285E2],"categories":[],"categories_nodes":[],"categories_segments":[],"categories_sizes":[],"default_left":[false,true,false,false,false,true,true,true,true,true,false,true,true,true,true,false,false,false,false,false,true,false,false,true,true,false,false,true,false,false,false,false,false,false,false,false,true,true,true,true,false,true,false,true,false,false,true,false,true,true,true,true,true,false,true,false,false,true,false,false,false,false,false,true,true,false,true,false,false,false,true,false,false,false,true,false,false,false,false,true,true,true,false,false,false,false,false,true,true,false,false,false,false,false,false,false,false,false,false,false,false,true,false,false,false,false,false,false,false,false,false,false,false,false,false,false,false,false,false,false,false,false,false,false,false,false,false,false,false,false,false],"id":6,"left_children":[1,3,5,-1,7,9,11,13,19,15,-1,21,17,23,31,25,-1,33,-1,29,27,-1,-1,35,45,-1,-1,37,47,43,39,41,-1,-1,-1,-1,49,65,51,67,-1,63,59,53,-1,-1,61,57,55,69,91,71,93,-1,89,-1,-1,85,-1,73,-1,87,83,81,79,77,75,-1,-1,95,115,-1,-1,-1,97,-1,-1,117,-1,113,109,99,-1,111,107,-1,105,103,101,-1,-1,-1,-1,-1,-1,-1,-1,-1,-1,-1,-1,119,-1,127,121,-1,-1,-1,129,-1,-1,125,123,-1,-1,-1,-1,-1,-1,-1,-1,-1,-1,-1,-1,-1,-1,-1,-1,-1,-1],"loss_changes":[9.761894E7,4.7526976E7,1.0671648E7,0E0,4.2676544E7,7.362968E6,6.945056E6,1.5510464E7,1.4664616E7,5.139376E6,0E0,2.484388E6,2.765952E6,5.25264E6,1.0525552E7,4.463E6,0E0,6.6816E4,0E0,2.257404E6,1.7883608E7,0E0,0E0,8.088E6,1.0369536E7,0E0,0E0,1.315518E6,7.58028E6,5.014952E6,1.412553E6,2.397208E6,0E0,0E0,0E0,0E0,1.15E6,4.47414E5,7.0461E4,1.759E5,0E0,6.270456E6,5.14779E5,6.5563E6,0E0,0E0,3.2247808E7,4.914552E6,1.7089769E5,1.381892E6,2.8139E5,9.744878E4,1.23467E5,0E0,1.906746E6,0E0,0E0,4.46424E5,0E0,3.791185E5,0E0,4.985648E6,5.866112E6,9.23144E5,1.1210386E7,1.088414E6,4.80405E5,0E0,0E0,1.4057181E5,2.3962E4,0E0,0E0,0E0,1.29628E5,0E0,0E0,7.2783125E5,0E0,8.1680625E5,9.949428E6,1.9618425E5,0E0,3.126038E6,3.68576E6,0E0,2.5810675E6,4.497136E6,1.499922E6,0E0,0E0,0E0,0E0,0E0,0E0,0E0,0E0,0E0,0E0,0E0,0E0,2.3395238E5,0E0,2.98056E5,2.27159E6,0E0,0E0,0E0,7.904296E6,0E0,0E0,2.312204E6,1.6911638E5,0E0,0E0,0E0,0E0,0E0,0E0,0E0,0E0,0E0,0E0,0E0,0E0,0E0,0E0,0E0,0E0,0E0,0E0],"parents":[2147483647,0,0,1,1,2,2,4,4,5,5,6,6,7,7,9,9,12,12,8,8,11,11,13,13,15,15,20,20,19,19,14,14,17,17,23,23,27,27,30,30,31,31,29,29,24,24,28,28,36,36,38,38,43,43,48,48,47,47,42,42,46,46,41,41,37,37,39,39,49,49,51,51,59,59,66,66,65,65,64,64,63,63,62,62,57,57,61,61,54,54,50,50,52,52,69,69,74,74,81,81,88,88,87,87,86,86,84,84,80,80,83,83,79,79,70,70,77,77,101,101,104,104,112,112,111,111,103,103,108,108],"right_children":[2,4,6,-1,8,10,12,14,20,16,-1,22,18,24,32,26,-1,34,-1,30,28,-1,-1,36,46,-1,-1,38,48,44,40,42,-1,-1,-1,-1,50,66,52,68,-1,64,60,54,-1,-1,62,58,56,70,92,72,94,-1,90,-1,-1,86,-1,74,-1,88,84,82,80,78,76,-1,-1,96,116,-1,-1,-1,98,-1,-1,118,-1,114,110,100,-1,112,108,-1,106,104,102,-1,-1,-1,-1,-1,-1,-1,-1,-1,-1,-1,-1,120,-1,128,122,-1,-1,-1,130,-1,-1,126,124,-1,-1,-1,-1,-1,-1,-1,-1,-1,-1,-1,-1,-1,-1,-1,-1,-1,-1],"split_conditions":[3.8195972E7,1.6361964E7,1.2151166E2,3.2791622E1,3.1771208E7,1.215111E2,3.8466684E7,3.3E2,1.2151156E2,3.8466684E7,1.10975075E2,1.2151192E2,1.2151571E2,2.6886912E7,3.0830616E7,1.2151047E2,1.12698845E2,3.871004E7,1.0348268E2,2E-2,3.800625E7,2.2881041E2,1.01200294E2,1.2151005E2,2.8256296E7,1.3135802E2,2.9368787E2,3.2451916E7,2.86E2,3.8007064E7,6E0,1.2151617E2,1.9460162E2,3.3013754E2,2.1699998E2,2.1853145E2,2.33E2,3.7E1,1.1E1,3.1771504E7,3.001709E1,1.2151586E2,1.74E0,3.800682E7,2.7231241E1,2.4269539E2,2.28E2,3.6E-1,3.819571E7,5E0,2.574966E7,1E0,1.56E2,6.819257E1,1.2151052E2,1.3515605E1,6.092419E1,2.62E2,6.0474285E1,3.32E2,2.663602E1,1.45E2,3.083053E7,2.574966E7,3.6E2,1.1E1,6.7E1,4.2618237E1,7.22228E1,2.5055868E7,1.2151761E2,2.9645447E1,-3.4146729E0,8.063385E0,1.2151651E2,-1.8875335E0,6.897311E1,1E1,1.3683435E2,3.58E2,2.5748834E7,3.35E2,1.0836397E2,3.0830296E7,2.94E2,2.3242772E2,3.800723E7,1.2151475E2,3.1655064E7,1.03974754E2,2.4484537E2,1.7261679E1,6.6295975E1,6.0926937E1,2.5907736E1,6.66004E1,1.9859808E1,9.8938675E1,4.141656E1,8.511558E0,6.540511E1,2E-2,8.231715E1,2E-2,6E-2,1.5754008E2,-2.1331251E1,2.8502124E2,3.14E2,4.951417E2,4.9678623E1,2.8377934E7,3.21E2,1.8627216E1,1.1303157E2,1.3562022E2,7.591982E1,7.4908165E1,-8.609754E0,3.1514452E0,3.704018E1,2.0603308E1,1.21109215E2,6.1890713E1,7.6537905E0,1.3919375E1,1.9175345E2,1.940709E2,4.997002E1,1.2419594E2,2.4079285E2],"split_indices":[0,0,3,0,0,3,0,8,3,0,0,3,3,0,0,3,0,0,0,6,0,0,0,3,0,0,0,0,8,0,7,3,0,0,0,0,8,8,8,0,0,3,6,0,0,0,8,6,0,7,0,8,8,0,3,0,0,8,0,8,0,8,0,0,8,8,8,0,0,0,3,0,0,0,3,0,0,8,0,8,0,8,0,0,8,0,0,3,0,0,0,0,0,0,0,0,0,0,0,0,0,6,0,6,6,0,0,0,8,0,0,0,8,0,0,0,0,0,0,0,0,0,0,0,0,0,0,0,0,0,0],"split_type":[0,0,0,0,0,0,0,0,0,0,0,0,0,0,0,0,0,0,0,0,0,0,0,0,0,0,0,0,0,0,0,0,0,0,0,0,0,0,0,0,0,0,0,0,0,0,0,0,0,0,0,0,0,0,0,0,0,0,0,0,0,0,0,0,0,0,0,0,0,0,0,0,0,0,0,0,0,0,0,0,0,0,0,0,0,0,0,0,0,0,0,0,0,0,0,0,0,0,0,0,0,0,0,0,0,0,0,0,0,0,0,0,0,0,0,0,0,0,0,0,0,0,0,0,0,0,0,0,0,0,0],"sum_hessian":[5.75E2,4.93E2,8.2E1,5.6E1,4.37E2,3.5E1,4.7E1,2.77E2,1.6E2,2.2E1,1.3E1,1.1E1,3.6E1,1.68E2,1.09E2,1.6E1,6E0,3.4E1,2E0,9.5E1,6.5E1,5E0,6E0,3.5E1,1.33E2,5E0,1.1E1,3.7E1,2.8E1,4.1E1,5.4E1,9.1E1,1.8E1,2.5E1,9E0,8E0,2.7E1,2.4E1,1.3E1,2.7E1,2.7E1,7.8E1,1.3E1,2.8E1,1.3E1,3E1,1.03E2,2.4E1,4E0,2.1E1,6E0,3E0,1E1,2E1,8E0,2E0,2E0,2.1E1,3E0,8E0,5E0,4.2E1,6.1E1,7.2E1,6E0,1.4E1,1E1,9E0,1.8E1,4E0,1.7E1,2E0,1E0,1E0,7E0,1E0,9E0,7E0,7E0,4E0,2E0,9E0,6.3E1,1.2E1,4.9E1,1.9E1,2E0,1.8E1,2.4E1,5E0,3E0,3E0,3E0,6E0,4E0,1E0,3E0,4E0,3E0,1E0,8E0,1E1,1.4E1,9E0,9E0,1E0,1E0,1.6E1,3.3E1,1E0,1E0,7E0,5E0,2E0,2E0,1.2E1,5E0,6E0,1E0,3E0,7E0,5E0,4E0,4E0,1E0,1E0,6E0,8E0,1E0,1.4E1,1.9E1],"tree_param":{"num_deleted":"0","num_feature":"9","num_nodes":"131","size_leaf_vector":"0"}},{"base_weights":[1.248883E3,1.0921562E3,2.1666438E3,5.2399896E2,1.2478896E3,1.7656553E3,2.4985947E3,8.244541E2,2.87783E2,2.0481228E3,1.2909398E3,1.456863E3,8.186496E2,2.6025552E3,8.3434074E1,8.828677E2,4.7972278E2,2.2900425E3,1.13345474E2,3.0119053E1,1.000675E3,9.658397E1,2.6632816E2,1.6716056E3,1.1361858E3,3.0111399E1,1.9205154E1,1.7683154E2,1.0282385E2,1.0410765E3,6.1688698E1,2.676819E2,1.0703536E2,9.898922E2,1.7616566E2,8.406596E-1,2.5800416E0,1.7030566E3,4.0004416E2,1.8841139E1,5.9397655E1,2.5333138E2,8.6888684E2,1.15305885E2,6.2039453E2,1.7532589E3,9.1385864E2,1.0669784E3,4.8269324E2,1.8797864E3,8.910014E2,6.3270386E1,1.8370329E1,1.9705215E2,8.886383E2,1.2547148E1,1.0751146E3,3.705643E2,2.711207E3,4.9421967E2,9.7970276E1,1.6778447E2,5.986235E2,1.8467991E3,1.3827716E3,8.339803E2,1.7396881E3,3.1726465E1,-8.179267E0,1.3751103E2,6.959316E1,2.4352867E1,-6.7140045E0,4.6044666E2,2.0467133E2,1.6699124E3,6.360477E2,7.514129E2,2.5197826E2,2.0419917E3,1.5281516E3,1.4992995E1,5.5728674E2,3.727438E1,6.942431E1,3.899346E3,6.1933224E1,1.4364854E2,2.2719414E2,1.7385412E1,4.8034744E1,-2.0264683E1,1.2614588E1,2.2367525E2,8.824578E1,9.2722253E2,1.9718058E3,-1.7931519E0,3.5872272E1,1.1451715E2,4.7038477E2,1.5976456E3,2.2858638E3,6.01352E1,1.952635E1,2.4157398E1,8.8715533E2,6.531614E1,1.7848797E1,2.232062E1,7.386986E2,1.3113202E1,9.604705E1,9.009695E1,1.913476E2,4.286925E1,8.3194214E1,1.2866917E2,7.096339E1,2.5662726E2,1.4044098E2,2.3807625E2,1.16439995E2],"categories":[],"categories_nodes":[],"categories_segments":[],"categories_sizes":[],"default_left":[true,false,true,true,true,false,true,false,true,true,false,true,true,true,false,true,true,true,false,false,true,false,false,true,true,false,true,false,false,true,false,false,false,true,false,false,false,true,false,false,false,false,true,false,true,true,true,true,false,false,true,false,false,false,true,false,true,true,true,true,false,true,true,true,true,true,true,false,false,false,false,false,true,true,false,false,true,true,false,false,true,false,true,false,false,false,false,false,true,false,false,false,false,false,false,true,true,false,false,false,false,true,true,false,false,false,true,false,false,false,true,false,false,false,false,false,false,false,false,false,false,false,false],"id":7,"left_children":[1,3,5,7,11,9,13,15,25,17,27,23,19,21,-1,29,39,31,-1,-1,41,-1,-1,37,33,-1,35,-1,-1,43,-1,-1,-1,49,-1,-1,-1,45,51,-1,-1,-1,47,-1,53,63,55,65,61,57,59,-1,-1,67,87,-1,69,89,85,81,-1,71,83,79,77,75,73,-1,-1,-1,-1,-1,91,107,-1,93,109,105,-1,101,95,-1,103,-1,-1,99,-1,-1,97,-1,-1,-1,-1,-1,-1,111,119,-1,-1,-1,-1,113,121,-1,-1,-1,117,-1,-1,-1,115,-1,-1,-1,-1,-1,-1,-1,-1,-1,-1,-1,-1],"loss_changes":[8.048429E7,4.3055744E7,6.63632E6,7.427746E6,3.3521152E7,2.853768E6,5.26832E6,5.22908E5,2.162025E5,2.714976E6,4.3908E5,1.5936256E7,1.1849208E7,1.40336E6,0E0,9.98916E5,1.8763888E5,5.626304E6,0E0,0E0,1.6987272E7,0E0,0E0,5.437472E6,8.046896E6,0E0,6.798364E1,0E0,0E0,3.68152E5,0E0,0E0,0E0,6.15732E6,0E0,0E0,0E0,4.30112E6,1.3543919E5,0E0,0E0,0E0,6.293632E6,0E0,6.1980475E5,2.263424E6,1.263557E6,7.640056E6,1.0677985E6,9.03371E6,2.401804E6,0E0,0E0,1.6003245E5,1.1231202E6,0E0,6.6797E4,2.8715E3,1.00122E7,2.85573E5,0E0,1.3380756E5,2.37992E5,3.596896E6,2.1078172E7,6.383476E6,4.556228E6,0E0,0E0,0E0,0E0,0E0,1.296895E5,1.0076894E5,0E0,1.597046E6,1.445504E6,1.308235E6,0E0,3.283296E6,1.0168912E7,0E0,1.05915E5,0E0,0E0,1.2605E6,0E0,0E0,1.0315553E5,0E0,0E0,0E0,0E0,0E0,0E0,4.29888E5,4.82836E6,0E0,0E0,0E0,0E0,3.996832E6,1.378432E6,0E0,0E0,0E0,2.92666E5,0E0,0E0,0E0,5.10534E5,0E0,0E0,0E0,0E0,0E0,0E0,0E0,0E0,0E0,0E0,0E0,0E0],"parents":[2147483647,0,0,1,1,2,2,3,3,5,5,4,4,6,6,7,7,9,9,12,12,13,13,11,11,8,8,10,10,15,15,17,17,24,24,26,26,23,23,16,16,20,20,29,29,37,37,42,42,33,33,38,38,44,44,46,46,49,49,50,50,48,48,45,45,47,47,53,53,56,56,61,61,66,66,65,65,64,64,63,63,59,59,62,62,58,58,54,54,57,57,72,72,75,75,80,80,88,88,85,85,79,79,82,82,77,77,73,73,76,76,95,95,101,101,110,110,106,106,96,96,102,102],"right_children":[2,4,6,8,12,10,14,16,26,18,28,24,20,22,-1,30,40,32,-1,-1,42,-1,-1,38,34,-1,36,-1,-1,44,-1,-1,-1,50,-1,-1,-1,46,52,-1,-1,-1,48,-1,54,64,56,66,62,58,60,-1,-1,68,88,-1,70,90,86,82,-1,72,84,80,78,76,74,-1,-1,-1,-1,-1,92,108,-1,94,110,106,-1,102,96,-1,104,-1,-1,100,-1,-1,98,-1,-1,-1,-1,-1,-1,112,120,-1,-1,-1,-1,114,122,-1,-1,-1,118,-1,-1,-1,116,-1,-1,-1,-1,-1,-1,-1,-1,-1,-1,-1,-1],"split_conditions":[3.8195972E7,7.822116E7,3.8466684E7,7E0,3.1771208E7,2.33E2,2.506014E1,3.2451916E7,2.505295E1,2.506174E1,2.505339E1,3.3E2,2.50523E1,2.504946E1,8.3434074E1,1.48E2,1.7E1,3.8465668E7,1.13345474E2,3.0119053E1,2.505249E1,9.658397E1,2.6632816E2,2.506177E1,3.0830616E7,3.0111399E1,1.22E2,1.7683154E2,1.0282385E2,3.245184E7,6.1688698E1,2.676819E2,1.0703536E2,2.505124E1,1.7616566E2,8.406596E-1,2.5800416E0,3.7E1,2.5055868E7,1.8841139E1,5.9397655E1,2.5333138E2,2.33E2,1.15305885E2,1.1E1,1.3E1,7E0,1.72E2,2.505413E1,3.58E2,2.574966E7,6.3270386E1,1.8370329E1,1E0,2.3E1,1.2547148E1,2.504883E1,2.5748834E7,2.5748834E7,3.53E2,9.7970276E1,3.80073E7,3.1771504E7,2.87E2,2.09E2,2.505367E1,2.505382E1,3.1726465E1,-8.179267E0,1.3751103E2,6.959316E1,2.4352867E1,2.65E2,3.8007064E7,2.0467133E2,3.800682E7,2.505382E1,3.1655064E7,2.5197826E2,3E0,3.14E2,1.4992995E1,2.505271E1,3.727438E1,6.942431E1,3.59E2,6.1933224E1,1.4364854E2,6.7E1,1.7385412E1,4.8034744E1,-2.0264683E1,1.2614588E1,2.2367525E2,8.824578E1,2.505191E1,3.19E2,-1.7931519E0,3.5872272E1,1.1451715E2,4.7038477E2,1.395442E8,3E1,6.01352E1,1.952635E1,2.4157398E1,1.71E2,6.531614E1,1.7848797E1,2.232062E1,3.1771504E7,1.3113202E1,9.604705E1,9.009695E1,1.913476E2,4.286925E1,8.3194214E1,1.2866917E2,7.096339E1,2.5662726E2,1.4044098E2,2.3807625E2,1.16439995E2],"split_indices":[0,1,0,7,0,8,2,0,2,2,2,8,2,2,0,8,8,0,0,0,2,0,0,2,0,0,8,0,0,0,0,0,0,2,0,0,0,5,0,0,0,0,8,0,8,7,7,8,2,8,0,0,0,8,8,0,2,0,0,8,0,0,0,8,8,2,2,0,0,0,0,0,8,0,0,0,2,0,0,8,8,0,2,0,0,8,0,0,8,0,0,0,0,0,0,2,8,0,0,0,0,1,5,0,0,0,8,0,0,0,0,0,0,0,0,0,0,0,0,0,0,0,0],"split_type":[0,0,0,0,0,0,0,0,0,0,0,0,0,0,0,0,0,0,0,0,0,0,0,0,0,0,0,0,0,0,0,0,0,0,0,0,0,0,0,0,0,0,0,0,0,0,0,0,0,0,0,0,0,0,0,0,0,0,0,0,0,0,0,0,0,0,0,0,0,0,0,0,0,0,0,0,0,0,0,0,0,0,0,0,0,0,0,0,0,0,0,0,0,0,0,0,0,0,0,0,0,0,0,0,0,0,0,0,0,0,0,0,0,0,0,0,0,0,0,0,0,0,0],"sum_hessian":[5.75E2,4.93E2,8.2E1,1.07E2,3.86E2,4E1,4.2E1,4.6E1,6.1E1,2.3E1,1.7E1,2.58E2,1.28E2,3.9E1,3E0,3.8E1,8E0,1.7E1,6E0,3.4E1,9.4E1,2E0,3.7E1,1.52E2,1.06E2,5.8E1,3E0,4E0,1.3E1,2.2E1,1.6E1,1.2E1,5E0,8.8E1,1.8E1,2E0,1E0,1.48E2,4E0,3E0,5E0,6E0,8.8E1,1.6E1,6E0,1.38E2,1E1,5.7E1,3.1E1,7E0,8.1E1,1E0,3E0,3E0,3E0,2E0,8E0,3E0,4E0,1.6E1,6.5E1,9E0,2.2E1,1.07E2,3.1E1,4.4E1,1.3E1,2E0,1E0,3E0,5E0,6E0,3E0,3E0,1E1,7E0,3.7E1,2.1E1,1E1,6.3E1,4.4E1,3E0,1.3E1,8E0,1.4E1,2E0,2E0,1E0,2E0,2E0,1E0,1E0,2E0,3E0,4E0,2E1,2.4E1,1E0,1E0,1E0,1E0,2.5E1,3.8E1,1.1E1,2E0,5E0,1.6E1,1E0,2E0,8E0,2.9E1,1E0,1.9E1,9E0,1.6E1,8E0,2.1E1,3E0,1.3E1,1E1,1.4E1,3.4E1,4E0],"tree_param":{"num_deleted":"0","num_feature":"9","num_nodes":"123","size_leaf_vector":"0"}},{"base_weights":[1.1341672E3,9.92344E2,1.9646067E3,4.7613644E2,1.1338376E3,1.6078146E3,2.2591155E3,7.517217E2,2.5954544E2,1.8636465E3,1.1773823E3,1.3227605E3,7.4573804E2,2.3513726E3,7.717651E1,8.0428015E2,4.404437E2,1.5240735E2,2.6283533E2,2.7193205E1,9.124482E2,9.0144905E1,2.403962E3,1.5169886E3,1.0326702E3,2.7151295E1,1.8138123E1,1.6268503E2,9.327593E1,9.5073334E2,5.5882698E1,2.3161723E2,7.917907E2,9.010699E2,1.5947629E2,7.843903E-1,2.451039E0,1.5450834E3,3.7636804E2,1.742805E2,5.4447853E1,3.610735E2,2.1973606E3,1.3651547E2,7.9163654E2,1.7808392E3,8.042501E2,2.3210999E1,7.763401E1,1.8078069E3,2.8829495E2,6.0106884E1,1.6992563E1,9.7317957E2,4.382801E2,1.8980977E3,1.46558E3,8.844975E2,3.5472614E2,4.5036453E2,8.8321686E2,2.6766666E2,6.385212E1,1.2196782E3,1.6997418E3,7.608113E2,1.5862789E3,1.9614874E3,8.005401E1,7.69095E1,1.9144907E2,3.4986282E2,2.5694526E3,-4.186044E0,1.5831146E1,5.14255E2,1.14417786E2,1.3868057E1,5.0724823E2,2.0637085E2,1.4629855E3,3.7043777E3,5.780433E1,1.6226372E1,4.5633007E1,2.0653918E2,9.775691E1,4.3519318E2,1.8606483E2,6.184396E2,1.3876812E3,1.5419114E3,5.7634784E2,3.5589072E2,1.5267593E2,-1.7034912E0,4.5192513E1,1.0069447E2,7.832134E1,6.0992092E1,-7.7703066E0,8.952768E2,1.7905079E3,1.1046556E3,2.2907117E2,2.2265478E1,-7.956024E0,1.9951208E1,4.2689114E1,2.0336561E1,6.690309E2,2.1550673E1,7.347917E2,2.0689961E2,8.1186134E1,6.205032E1,1.6658876E1,5.462281E2,1.8224596E1,1.087913E2,4.4686533E2,9.217802E1,2.3561121E1,1.5384189E2,5.442638E1,5.572943E0,7.914583E1,2.3427208E1,5.8519207E1,3.905863E1,7.525295E1,2.3329752E2,1.2733315E2,-1.9251627E1,1.1773615E1],"categories":[],"categories_nodes":[],"categories_segments":[],"categories_sizes":[],"default_left":[true,true,true,false,true,false,true,false,false,true,false,false,true,true,false,true,true,false,false,false,true,false,true,true,true,false,true,false,false,true,false,false,false,false,false,false,false,false,true,false,false,false,true,false,true,true,true,false,true,true,false,false,false,true,true,true,true,true,true,true,true,false,false,true,true,true,false,true,false,false,false,true,true,false,false,false,false,false,true,false,true,false,false,false,false,false,false,true,false,true,false,false,true,false,false,false,false,false,false,false,false,false,true,true,false,false,true,false,false,false,true,false,false,false,false,false,false,false,false,false,false,false,false,false,false,false,false,false,false,false,false,false,false,false,false],"id":8,"left_children":[1,3,5,7,11,9,13,15,25,17,27,23,19,21,-1,29,39,-1,-1,-1,31,-1,41,37,33,-1,35,-1,-1,43,-1,-1,53,45,-1,-1,-1,55,51,47,-1,-1,49,-1,57,71,59,-1,73,69,-1,-1,-1,65,61,67,63,75,95,77,97,93,-1,89,79,91,87,85,-1,-1,-1,83,81,-1,-1,99,-1,-1,117,-1,101,119,-1,-1,-1,-1,-1,115,-1,111,103,113,109,107,105,-1,-1,-1,-1,-1,-1,121,131,123,-1,-1,133,-1,-1,-1,129,-1,125,-1,-1,-1,-1,127,-1,-1,-1,-1,-1,-1,-1,-1,-1,-1,-1,-1,-1,-1,-1,-1,-1],"loss_changes":[6.5889216E7,3.554195E7,5.08928E6,6.251338E6,2.7388768E7,2.320632E6,4.085696E6,4.14694E5,1.7419625E5,2.22636E6,4.61644E5,1.3026464E7,9.941368E6,8.82976E5,0E0,8.70652E5,1.5432025E5,0E0,0E0,0E0,1.4256208E7,0E0,1.540112E6,4.321408E6,6.477968E6,0E0,7.013306E1,0E0,0E0,4.35756E5,0E0,0E0,5.280412E6,6.148696E6,0E0,0E0,0E0,1.4E6,1.29801875E5,4.3364375E3,0E0,0E0,4.135776E6,0E0,4.57113E5,8.12894E6,1.893736E6,0E0,3.5548516E4,1.29792E6,0E0,0E0,0E0,6.344908E6,9.223315E5,9.9528E4,5.182048E6,8.53771E5,1.883725E5,2.3106E5,2.798E4,1.3841812E5,0E0,5.70744E6,2.32344E6,5.595122E6,3.61178E6,2.3008E5,0E0,0E0,0E0,5.8468438E3,9.159212E6,0E0,0E0,5.00434E5,0E0,0E0,7.7812E4,0E0,6.020432E6,1.137596E6,0E0,0E0,0E0,0E0,0E0,9.57315E4,0E0,5.917605E5,1.0248576E7,1.398648E6,1.177569E6,2.58595E4,1.1417983E5,0E0,0E0,0E0,0E0,0E0,0E0,8.0036E4,4.043136E6,8.885792E6,0E0,0E0,1.1545723E5,0E0,0E0,0E0,4.03564E5,0E0,4.176545E5,0E0,0E0,0E0,0E0,8.7665E3,0E0,0E0,0E0,0E0,0E0,0E0,0E0,0E0,0E0,0E0,0E0,0E0,0E0,0E0,0E0,0E0,0E0],"parents":[2147483647,0,0,1,1,2,2,3,3,5,5,4,4,6,6,7,7,9,9,12,12,13,13,11,11,8,8,10,10,15,15,20,20,24,24,26,26,23,23,16,16,22,22,29,29,33,33,39,39,42,42,38,38,32,32,37,37,44,44,46,46,54,54,56,56,53,53,55,55,49,49,45,45,48,48,57,57,59,59,64,64,72,72,71,71,67,67,66,66,63,63,65,65,61,61,58,58,60,60,75,75,80,80,90,90,94,94,93,93,92,92,89,89,91,91,87,87,78,78,81,81,101,101,103,103,112,112,117,117,110,110,102,102,106,106],"right_children":[2,4,6,8,12,10,14,16,26,18,28,24,20,22,-1,30,40,-1,-1,-1,32,-1,42,38,34,-1,36,-1,-1,44,-1,-1,54,46,-1,-1,-1,56,52,48,-1,-1,50,-1,58,72,60,-1,74,70,-1,-1,-1,66,62,68,64,76,96,78,98,94,-1,90,80,92,88,86,-1,-1,-1,84,82,-1,-1,100,-1,-1,118,-1,102,120,-1,-1,-1,-1,-1,116,-1,112,104,114,110,108,106,-1,-1,-1,-1,-1,-1,122,132,124,-1,-1,134,-1,-1,-1,130,-1,126,-1,-1,-1,-1,128,-1,-1,-1,-1,-1,-1,-1,-1,-1,-1,-1,-1,-1,-1,-1,-1,-1],"split_conditions":[3.8195972E7,7.822116E7,3.8466684E7,7E0,3.1771208E7,2.33E2,2.506014E1,3.2451916E7,2.505295E1,1.08E2,2.505339E1,3.3E2,2.50523E1,2.504946E1,7.717651E1,1.48E2,1.7E1,1.5240735E2,2.6283533E2,2.7193205E1,2.505249E1,9.0144905E1,2.504968E1,2.506177E1,3.0830616E7,2.7151295E1,1.22E2,1.6268503E2,9.327593E1,2.8377934E7,5.5882698E1,2.3161723E2,2.33E2,2.505124E1,1.5947629E2,7.843903E-1,2.451039E0,2.504966E1,2.5055868E7,1E0,5.4447853E1,3.610735E2,2.505907E1,1.3651547E2,3.7E1,3.58E2,2.574966E7,2.3210999E1,1.1E1,3.849474E7,2.8829495E2,6.0106884E1,1.6992563E1,1.72E2,2.94E2,5E0,2.505342E1,1.1E1,6.7E1,3.53E2,9.567159E7,6E0,6.385212E1,7E0,2.46E2,2.505367E1,2.505382E1,2.8256296E7,8.005401E1,7.69095E1,1.9144907E2,2.5748834E7,2.5748834E7,-4.186044E0,1.5831146E1,1E1,1.14417786E2,1.3868057E1,2.505271E1,2.0637085E2,3.14E2,3.59E2,5.780433E1,1.6226372E1,4.5633007E1,2.0653918E2,9.775691E1,3.8007064E7,1.8606483E2,2.505124E1,2.09E2,3.800682E7,2.505382E1,3.1771504E7,2.505303E1,-1.7034912E0,4.5192513E1,1.0069447E2,7.832134E1,6.0992092E1,-7.7703066E0,3.0831478E7,3.19E2,1.71E2,2.2907117E2,2.2265478E1,2.65E2,1.9951208E1,4.2689114E1,2.0336561E1,3.1771504E7,2.1550673E1,2.5749452E7,2.0689961E2,8.1186134E1,6.205032E1,1.6658876E1,3.55E2,1.8224596E1,1.087913E2,4.4686533E2,9.217802E1,2.3561121E1,1.5384189E2,5.442638E1,5.572943E0,7.914583E1,2.3427208E1,5.8519207E1,3.905863E1,7.525295E1,2.3329752E2,1.2733315E2,-1.9251627E1,1.1773615E1],"split_indices":[0,1,0,7,0,8,2,0,2,8,2,8,2,2,0,8,8,0,0,0,2,0,2,2,0,0,8,0,0,0,0,0,8,2,0,0,0,2,0,8,0,0,2,0,8,8,0,0,8,0,0,0,0,8,8,8,2,8,8,8,1,7,0,7,8,2,2,0,0,0,0,0,0,0,0,8,0,0,2,0,8,8,0,0,0,0,0,0,0,2,8,0,2,0,2,0,0,0,0,0,0,0,8,8,0,0,8,0,0,0,0,0,0,0,0,0,0,8,0,0,0,0,0,0,0,0,0,0,0,0,0,0,0,0,0],"split_type":[0,0,0,0,0,0,0,0,0,0,0,0,0,0,0,0,0,0,0,0,0,0,0,0,0,0,0,0,0,0,0,0,0,0,0,0,0,0,0,0,0,0,0,0,0,0,0,0,0,0,0,0,0,0,0,0,0,0,0,0,0,0,0,0,0,0,0,0,0,0,0,0,0,0,0,0,0,0,0,0,0,0,0,0,0,0,0,0,0,0,0,0,0,0,0,0,0,0,0,0,0,0,0,0,0,0,0,0,0,0,0,0,0,0,0,0,0,0,0,0,0,0,0,0,0,0,0,0,0,0,0,0,0,0,0],"sum_hessian":[5.75E2,4.93E2,8.2E1,1.07E2,3.86E2,4E1,4.2E1,4.6E1,6.1E1,2.3E1,1.7E1,2.58E2,1.28E2,3.9E1,3E0,3.8E1,8E0,1.8E1,5E0,3.4E1,9.4E1,2E0,3.7E1,1.52E2,1.06E2,5.8E1,3E0,4E0,1.3E1,2.2E1,1.6E1,6E0,8.8E1,8.8E1,1.8E1,2E0,1E0,1.48E2,4E0,3E0,5E0,3E0,3.4E1,4E0,1.8E1,7E0,8.1E1,1E0,2E0,2.4E1,1E1,1E0,3E0,5.7E1,3.1E1,2.3E1,1.25E2,1.4E1,4E0,1.6E1,6.5E1,1.8E1,1.3E1,6.4E1,6.1E1,4.4E1,1.3E1,2.1E1,2E0,3E0,2.1E1,3E0,4E0,1E0,1E0,7E0,7E0,3E0,1.3E1,2.1E1,4E1,2E0,2E0,2E0,1E0,1.8E1,3E0,3E0,1E1,1.5E1,4.9E1,7E0,3.7E1,9E0,9E0,1E0,3E0,2.5E1,4E1,6E0,1E0,1.6E1,2.4E1,3.9E1,1E1,6E0,3E0,4E0,5E0,8E0,2.9E1,4E0,1.1E1,3E0,4E0,1E0,2E0,1.1E1,2E0,1E0,1E0,1.5E1,1E0,2.1E1,1.8E1,1E0,1E1,2E0,9E0,8E0,2.1E1,1E1,1.4E1,1E0,2E0],"tree_param":{"num_deleted":"0","num_feature":"9","num_nodes":"135","size_leaf_vector":"0"}},{"base_weights":[1.0314844E3,2.3944235E1,1.1163208E3,6.479455E2,1.223555E3,5.086904E2,1.4570877E2,1.1680455E3,2.0583245E3,7.233948E2,3.236454E2,1.0417548E3,1.4697719E3,3.3399374E2,1.7317438E2,5.161128E2,1.056676E3,9.362478E2,1.5959686E3,4.464073E2,2.2001518E1,1.680201E3,8.453766E2,2.0809927E1,5.7953986E2,7.6325885E2,1.2081184E3,1.4727828E3,2.2422004E3,1.4692667E3,6.0218915E2,2.8370604E1,4.9257404E1,1.9011081E2,6.5354834E2,1.8959788E3,1.0079536E3,5.990177E2,9.499191E0,8.2677246E2,1.5119136E3,6.393865E1,1.2867943E1,1.1730664E2,5.0973576E1,1.3343962E2,2.2937239E2,2.9353266E1,1.5952956E2,2.9205881E1,7.525996E1,2.4351347E2,8.1344536E1,7.1471045E2,1.444438E3,5.9761147E1,1.5516543E3,3.1584797E1,6.500696E2,2.1250418E2,1.2844917E3,1.9481215E2,1.3850173E3,5.636874E2,4.2452213E2,5.812816E2,1.4880837E3,1.5891777E2,6.711958E2,7.8918144E1,4.1231012E2,8.451289E1,1.5557304E2,1.7597276E2,8.101656E1,6.8930884E2,5.514922E1,2.8771317E1,6.9641077E2,9.939746E1,1.4969514E3,3.489235E2,1.0335174E2,6.6053604E1,1.3126739E1,1.0360334E1,1.7134854E0,1.7769347E2,9.295209E1,1.6816257E1,4.4245354E1,1.82975E1,-9.02945E-1,7.1193245E1,2.9850218E1,1.3312221E2,4.92702E1],"categories":[],"categories_nodes":[],"categories_segments":[],"categories_sizes":[],"default_left":[false,false,false,true,false,true,false,true,true,true,false,true,false,false,false,false,false,true,true,true,false,true,true,false,true,true,true,true,true,false,true,false,false,false,false,false,true,false,false,true,true,false,false,false,false,false,false,false,false,false,false,false,false,false,false,false,false,false,true,false,true,false,true,true,false,true,true,false,true,false,false,false,false,false,false,true,true,false,true,false,true,true,false,false,false,false,false,false,false,false,false,false,false,false,false,false,false],"id":9,"left_children":[1,-1,3,5,7,9,-1,11,13,15,19,17,21,-1,-1,23,33,25,35,31,-1,27,29,-1,37,53,39,55,51,47,41,-1,-1,-1,49,45,43,57,-1,65,59,-1,-1,-1,-1,-1,-1,-1,-1,-1,-1,-1,-1,67,63,-1,61,-1,69,-1,79,-1,71,81,-1,77,73,-1,75,-1,83,-1,-1,-1,-1,93,85,-1,95,91,87,89,-1,-1,-1,-1,-1,-1,-1,-1,-1,-1,-1,-1,-1,-1,-1],"loss_changes":[3.843648E7,0E0,2.5324672E7,1.0413832E7,1.7150272E7,3.182656E6,0E0,1.3634816E7,4.67984E6,2.14888E6,5.12432E5,1.5112192E7,1.3689568E7,0E0,0E0,3.873445E5,3.52333E6,1.0412288E7,5.851008E6,1.7993E4,0E0,6.60608E6,3.818612E6,0E0,1.412945E5,3.928168E6,9.408288E6,3.559408E6,3.807928E6,7.17138E5,3.40443E5,0E0,0E0,0E0,1.740625E5,3.193536E6,8.00502E5,8.3804E4,0E0,6.115876E6,4.242344E6,0E0,0E0,0E0,0E0,0E0,0E0,0E0,0E0,0E0,0E0,0E0,0E0,4.33676E6,1.9808144E7,0E0,1.199728E6,0E0,2.038145E5,0E0,9.670812E6,0E0,2.832688E6,4.4660175E5,0E0,9.14977E5,6.00006E5,0E0,1.490696E6,0E0,4.7138975E5,0E0,0E0,0E0,0E0,9.634E5,7.434535E3,0E0,2.318387E6,6.5086547E4,3.591048E6,4.3941938E4,0E0,0E0,0E0,0E0,0E0,0E0,0E0,0E0,0E0,0E0,0E0,0E0,0E0,0E0,0E0],"parents":[2147483647,0,0,2,2,3,3,4,4,5,5,7,7,8,8,9,9,11,11,10,10,12,12,15,15,17,17,21,21,22,22,19,19,16,16,18,18,24,24,26,26,30,30,36,36,35,35,29,29,34,34,28,28,25,25,27,27,37,37,40,40,56,56,54,54,39,39,53,53,58,58,62,62,66,66,68,68,65,65,60,60,63,63,70,70,76,76,80,80,81,81,79,79,75,75,78,78],"right_children":[2,-1,4,6,8,10,-1,12,14,16,20,18,22,-1,-1,24,34,26,36,32,-1,28,30,-1,38,54,40,56,52,48,42,-1,-1,-1,50,46,44,58,-1,66,60,-1,-1,-1,-1,-1,-1,-1,-1,-1,-1,-1,-1,68,64,-1,62,-1,70,-1,80,-1,72,82,-1,78,74,-1,76,-1,84,-1,-1,-1,-1,94,86,-1,96,92,88,90,-1,-1,-1,-1,-1,-1,-1,-1,-1,-1,-1,-1,-1,-1,-1],"split_conditions":[1.1219912E7,2.3944235E1,1.2151076E2,2.50601E1,1.5E1,1E0,1.4570877E2,2.505556E1,2.504968E1,1.82E2,2.0221278E8,1.2151745E2,2.506174E1,3.3399374E2,1.7317438E2,2.505172E1,2.505236E1,2.3060629E8,3E1,1.2150804E2,2.2001518E1,2.506011E1,2E0,2.0809927E1,1.75E2,5.3E1,2.09E2,1.2151116E2,1.215121E2,1.2151092E2,1.3E1,2.8370604E1,4.9257404E1,1.9011081E2,1.2150804E2,1.6E1,2.504942E1,1.2150855E2,9.499191E0,2.505278E1,1.2151099E2,6.393865E1,1.2867943E1,1.1730664E2,5.0973576E1,1.3343962E2,2.2937239E2,2.9353266E1,1.5952956E2,2.9205881E1,7.525996E1,2.4351347E2,8.1344536E1,1.2151085E2,3.59E2,5.9761147E1,2.46E2,3.1584797E1,1.2151052E2,2.1250418E2,1.2151168E2,1.9481215E2,3.14E2,3.58E2,4.2452213E2,2.50523E1,6E0,1.5891777E2,7E0,7.8918144E1,2.5057304E7,8.451289E1,1.5557304E2,1.7597276E2,8.101656E1,2.7E1,2.505295E1,2.8771317E1,1.71E2,2.505262E1,3.44E2,2.505124E1,1.0335174E2,6.6053604E1,1.3126739E1,1.0360334E1,1.7134854E0,1.7769347E2,9.295209E1,1.6816257E1,4.4245354E1,1.82975E1,-9.02945E-1,7.1193245E1,2.9850218E1,1.3312221E2,4.92702E1],"split_indices":[1,0,3,2,7,5,0,2,2,8,1,3,2,0,0,2,2,1,5,3,0,2,5,0,8,5,8,3,3,3,5,0,0,0,3,5,2,3,0,2,3,0,0,0,0,0,0,0,0,0,0,0,0,3,8,0,8,0,3,0,3,0,8,8,0,2,8,0,7,0,1,0,0,0,0,5,2,0,8,2,8,2,0,0,0,0,0,0,0,0,0,0,0,0,0,0,0],"split_type":[0,0,0,0,0,0,0,0,0,0,0,0,0,0,0,0,0,0,0,0,0,0,0,0,0,0,0,0,0,0,0,0,0,0,0,0,0,0,0,0,0,0,0,0,0,0,0,0,0,0,0,0,0,0,0,0,0,0,0,0,0,0,0,0,0,0,0,0,0,0,0,0,0,0,0,0,0,0,0,0,0,0,0,0,0,0,0,0,0,0,0,0,0,0,0,0,0],"sum_hessian":[5.75E2,5.6E1,5.19E2,9.8E1,4.21E2,8.5E1,1.3E1,3.97E2,2.4E1,3.8E1,4.7E1,2.83E2,1.14E2,3E0,2.1E1,2.5E1,1.3E1,2.4E2,4.3E1,2E1,2.7E1,8.4E1,3E1,5E0,2E1,1.49E2,9.1E1,6.4E1,2E1,7E0,2.3E1,6E0,1.4E1,3E0,1E1,2.7E1,1.6E1,1.9E1,1E0,4.2E1,4.9E1,2.1E1,2E0,1.1E1,5E0,1.3E1,1.4E1,1E0,6E0,3E0,7E0,1.7E1,3E0,1.41E2,8E0,6E0,5.8E1,4E0,1.5E1,1.1E1,3.8E1,1.4E1,4.4E1,7E0,1E0,3.2E1,1E1,5E0,1.36E2,8E0,7E0,1.2E1,3.2E1,6E0,4E0,1.32E2,4E0,1E1,2.2E1,6E0,3.2E1,6E0,1E0,3E0,4E0,1E0,3E0,2E1,1.2E1,3E0,3E0,3E0,3E0,1.24E2,8E0,4E0,1.8E1],"tree_param":{"num_deleted":"0","num_feature":"9","num_nodes":"97","size_leaf_vector":"0"}},{"base_weights":[9.365599E2,1.20962E3,7.01632E2,1.1358086E3,1.8727781E3,5.8207654E2,1.3980593E3,9.1787573E2,1.4339153E3,3.1475037E2,6.982378E2,3.089437E2,1.566441E2,1.6318174E3,9.17057E2,1.014185E3,4.2658102E2,5.52396E2,2.1444626E1,1.0655352E2,4.6725773E1,1.9304457E3,7.5370483E2,1.265192E3,1.9746074E3,3.0587E2,8.363411E2,4.881533E2,1.1503424E3,7.125826E1,4.0877853E2,2.2666028E2,1.0251029E2,8.989609E2,4.2506738E2,1.1490034E3,1.6213505E3,1.9879932E1,4.229182E2,9.1757744E1,1.2010067E1,4.8186942E2,1.5849732E0,8.041717E1,2.0734818E2,2.6484873E1,6.1116558E1,-5.1780276E0,4.4537422E1,1.9925438E2,1.0700069E2,3.1668982E1,5.378406E2,6.7699554E2,1.2700466E2,4.906069E1,2.8586224E2,4.9947977E2,1.6819187E1,1.966381E2,1.0714618E3,8.444741E2,1.7753009E3,3.4088192E1,6.3127056E1,1.1413581E1,3.1452688E1,1.0301091E3,6.633281E2,1.4937047E1,2.5509236E3,4.824451E2,1.1416919E3,7.497154E1,2.8958723E1,2.4071745E1,5.4411053E1,1.8472485E1,1.1126029E3,4.0329608E2,7.1259106E2,1.6925161E1,1.1788279E3,6.7154144E2,8.93712E0,7.5376434E1,1.3071834E1,1.2735366E3,4.4087393E2,8.965319E1,1.2535565E2,9.818414E1,8.704515E0,6.9538367E2,3.9508682E2,9.693676E1,1.959661E2,6.473804E1,1.2796454E2,1.5327388E1,4.8775463E1,-8.037707E0,4.8772697E1],"categories":[],"categories_nodes":[],"categories_segments":[],"categories_sizes":[],"default_left":[true,false,false,true,true,true,true,true,false,true,true,false,false,true,true,false,false,false,false,false,false,false,false,false,true,true,true,false,true,false,true,false,false,true,true,true,true,false,true,false,false,false,false,false,false,false,false,false,false,false,false,false,false,true,false,false,true,false,false,false,true,false,false,false,false,false,false,true,false,false,true,false,true,false,false,false,false,false,true,false,true,false,true,true,false,false,false,true,true,false,false,false,false,false,true,false,false,false,false,false,false,false,false],"id":10,"left_children":[1,3,5,7,11,9,13,15,23,17,25,-1,-1,21,19,27,41,29,-1,-1,-1,43,39,35,31,37,33,45,59,-1,47,-1,-1,61,57,53,49,-1,55,-1,-1,51,-1,-1,-1,-1,-1,-1,-1,-1,-1,-1,63,73,-1,-1,65,75,-1,-1,71,67,69,-1,-1,-1,-1,77,83,-1,79,85,81,-1,-1,-1,-1,-1,87,-1,91,-1,89,93,-1,-1,-1,95,99,-1,-1,-1,-1,97,101,-1,-1,-1,-1,-1,-1,-1,-1],"loss_changes":[3.6101376E7,1.0844288E7,2.5163872E7,1.434096E7,4.478272E6,8.102424E6,3.563248E6,6.286272E6,6.62448E6,1.859998E6,9.823024E6,0E0,0E0,6.149664E6,6.37472E5,7.889984E6,5.600795E5,2.608455E5,0E0,0E0,0E0,1.715616E6,8.242715E5,1.406208E6,3.776016E6,5.42546E5,3.146168E6,5.52333E5,3.879472E6,0E0,2.758785E5,0E0,0E0,4.135176E6,2.98286E5,2.739584E6,1.347104E6,0E0,7.3128E4,0E0,0E0,3.30675E4,0E0,0E0,0E0,0E0,0E0,0E0,0E0,0E0,0E0,0E0,6.0839E4,2.05476E5,0E0,0E0,1.33259375E4,4.225475E4,0E0,0E0,3.048104E6,3.11656E6,7.185618E6,0E0,0E0,0E0,0E0,3.56038E6,2.22828E5,0E0,8.024056E6,9.5120175E5,2.581152E6,0E0,0E0,0E0,0E0,0E0,4.73562E6,0E0,4.1982088E5,0E0,4.37216E5,1.1415E5,0E0,0E0,0E0,6.239584E6,7.3552E4,0E0,0E0,0E0,0E0,6.58046E5,3.475315E5,0E0,0E0,0E0,0E0,0E0,0E0,0E0,0E0],"parents":[2147483647,0,0,1,1,2,2,3,3,5,5,4,4,6,6,7,7,9,9,14,14,13,13,8,8,10,10,15,15,17,17,24,24,26,26,23,23,25,25,22,22,16,16,21,21,27,27,30,30,36,36,41,41,35,35,38,38,34,34,28,28,33,33,52,52,56,56,61,61,62,62,60,60,53,53,57,57,67,67,70,70,72,72,68,68,71,71,78,78,82,82,80,80,83,83,87,87,93,93,88,88,94,94],"right_children":[2,4,6,8,12,10,14,16,24,18,26,-1,-1,22,20,28,42,30,-1,-1,-1,44,40,36,32,38,34,46,60,-1,48,-1,-1,62,58,54,50,-1,56,-1,-1,52,-1,-1,-1,-1,-1,-1,-1,-1,-1,-1,64,74,-1,-1,66,76,-1,-1,72,68,70,-1,-1,-1,-1,78,84,-1,80,86,82,-1,-1,-1,-1,-1,88,-1,92,-1,90,94,-1,-1,-1,96,100,-1,-1,-1,-1,98,102,-1,-1,-1,-1,-1,-1,-1,-1],"split_conditions":[4E-2,1.5E1,1.2151745E2,2.505852E1,2.504968E1,2.505119E1,3E1,2.50545E1,1.2151183E2,2.504961E1,1.2151092E2,3.089437E2,1.566441E2,2.505006E1,2.504942E1,2.505234E1,7E0,1E-1,2.1444626E1,1.0655352E2,4.6725773E1,8E0,5.7E-1,2.506138E1,2.506014E1,2.505368E1,1.2151613E2,1.2151124E2,2.505249E1,7.125826E1,1.1E-1,2.2666028E2,1.0251029E2,1.2151586E2,1.74E0,1.2151116E2,2.506162E1,1.9879932E1,1.8E-1,9.1757744E1,1.2010067E1,1.2150855E2,1.5849732E0,8.041717E1,2.0734818E2,2.6484873E1,6.1116558E1,-5.1780276E0,4.4537422E1,1.9925438E2,1.0700069E2,3.1668982E1,2.505556E1,1.2151089E2,1.2700466E2,4.906069E1,2.1E-1,2.505177E1,1.6819187E1,1.966381E2,1.2151058E2,1.2151236E2,1.99E0,3.4088192E1,6.3127056E1,1.1413581E1,3.1452688E1,2.50522E1,2.505478E1,1.4937047E1,2.05E0,2.505347E1,2.505262E1,7.497154E1,2.8958723E1,2.4071745E1,5.4411053E1,1.8472485E1,3.6E-1,4.0329608E2,2.13E0,1.6925161E1,2.505335E1,4.6E-1,8.93712E0,7.5376434E1,1.3071834E1,2E-1,3E0,8.965319E1,1.2535565E2,9.818414E1,8.704515E0,4.4E-1,2.505191E1,9.693676E1,1.959661E2,6.473804E1,1.2796454E2,1.5327388E1,4.8775463E1,-8.037707E0,4.8772697E1],"split_indices":[6,7,3,2,2,2,5,2,3,2,3,0,0,2,2,2,7,6,0,0,0,5,6,2,2,2,3,3,2,0,6,0,0,3,6,3,2,0,6,0,0,3,0,0,0,0,0,0,0,0,0,0,2,3,0,0,6,2,0,0,3,3,6,0,0,0,0,2,2,0,6,2,2,0,0,0,0,0,6,0,6,0,2,6,0,0,0,6,5,0,0,0,0,6,2,0,0,0,0,0,0,0,0],"split_type":[0,0,0,0,0,0,0,0,0,0,0,0,0,0,0,0,0,0,0,0,0,0,0,0,0,0,0,0,0,0,0,0,0,0,0,0,0,0,0,0,0,0,0,0,0,0,0,0,0,0,0,0,0,0,0,0,0,0,0,0,0,0,0,0,0,0,0,0,0,0,0,0,0,0,0,0,0,0,0,0,0,0,0,0,0,0,0,0,0,0,0,0,0,0,0,0,0,0,0,0,0,0,0],"sum_hessian":[5.75E2,2.64E2,3.11E2,2.4E2,2.4E1,2.67E2,4.4E1,1.41E2,9.9E1,8.2E1,1.85E2,3E0,2.1E1,2.8E1,1.6E1,1.17E2,2.4E1,2.3E1,5.9E1,1.1E1,5E0,2E1,8E0,7.8E1,2.1E1,4.9E1,1.36E2,2.5E1,9.2E1,9E0,1.4E1,1.5E1,6E0,1.17E2,1.9E1,6.2E1,1.6E1,2.7E1,2.2E1,6E0,2E0,2.1E1,3E0,3E0,1.7E1,1E1,1.5E1,1E0,1.3E1,8E0,8E0,7E0,1.4E1,1.4E1,4.8E1,1.3E1,9E0,1.4E1,5E0,6E0,8.6E1,1.12E2,5E0,6E0,8E0,2E0,7E0,5.3E1,5.9E1,2E0,3E0,1E1,7.6E1,1.1E1,3E0,3E0,1.1E1,5E0,4.8E1,1E0,2E0,3E0,7.3E1,5.8E1,1E0,5E0,5E0,3.8E1,1E1,1.8E1,5.5E1,1E0,1E0,5.2E1,6E0,2.8E1,1E1,5E1,2E0,2E0,8E0,1E0,5E0],"tree_param":{"num_deleted":"0","num_feature":"9","num_nodes":"103","size_leaf_vector":"0"}},{"base_weights":[8.500115E2,7.4179736E2,1.48384E3,3.5318903E2,8.4832947E2,1.5668658E3,7.979556E1,5.612102E2,1.8979895E2,9.869796E2,5.6337823E2,1.3171661E3,1.8626793E3,6.0800366E2,2.9608173E2,8.5874054E2,1.1922991E3,2.8577255E2,1.6540056E3,8.80456E2,1.5963793E3,3.3164986E1,2.0002949E1,2.013811E2,6.908153E2,6.670942E2,3.699317E2,1.292985E3,6.436622E2,1.8582731E3,6.574704E1,1.7978333E2,5.959845E2,1.80399E1,2.7272825E1,1.1190015E2,3.1166351E1,5.359595E0,1.4658257E0,1.2794759E2,2.2002115E2,1.8436548E2,3.8963568E2,1.3270378E2,9.75899E2,7.015316E1,2.6786818E1,6.030334E2,1.4593287E3,2.602917E1,-9.763282E0,8.983998E2,1.4681668E2,5.5333264E2,1.3640044E2,4.5782726E1,9.253052E0,1.2020223E3,2.2262715E2,-4.9190826E0,4.219665E1,1.2867386E2,5.7430505E2,7.490327E1,1.237766E1,9.708304E2,3.5029835E1,6.2282074E2,3.7734374E-1,1.396125E2,6.1036293E1,1.6593877E3,6.532013E2,2.8985075E1,6.094163E2,8.776298E2,1.427127E2,1.459086E3,3.176042E3,1.7052542E1,6.478979E2,1.3097882E2,5.436867E2,9.491775E1,3.9075757E2,5.8148914E2,1.0698851E3,3.8313135E2,9.327494E1,4.283196E1,8.269275E0,2.7981607E2,5.911086E2,1.761705E3,7.487148E2,1.2107783E3,5.4586536E2,8.683725E1,5.4249268E0,9.463328E0,3.6294415E1,1.6878252E2,6.909507E1,1.3941243E1,8.68625E1,1.6338852E1,6.254606E1,1.8776526E2,7.995148E1,8.626451E1,1.5277539E2,2.226637E1,6.0390087E1],"categories":[],"categories_nodes":[],"categories_segments":[],"categories_sizes":[],"default_left":[true,true,true,false,true,true,false,false,true,false,true,false,true,true,true,true,true,false,true,true,true,false,false,false,true,true,true,true,true,false,false,false,false,false,false,false,false,false,false,false,false,false,false,false,false,false,false,true,true,false,false,false,false,true,false,false,false,true,false,false,false,false,true,false,false,false,false,true,false,false,false,false,false,false,false,true,false,true,true,false,true,false,false,false,false,false,false,false,false,false,false,false,true,false,true,true,false,false,false,false,false,false,false,false,false,false,false,false,false,false,false,false,false],"id":11,"left_children":[1,3,5,7,9,11,-1,13,21,15,23,19,17,25,41,27,43,-1,39,35,29,37,-1,33,31,45,59,47,61,57,-1,-1,53,-1,-1,-1,-1,-1,-1,-1,-1,49,55,-1,51,-1,-1,63,71,-1,-1,65,-1,73,-1,-1,-1,69,-1,-1,-1,-1,67,-1,-1,75,-1,81,-1,-1,-1,77,83,-1,79,85,-1,93,87,-1,95,-1,91,-1,89,97,109,-1,-1,-1,-1,99,111,107,103,101,105,-1,-1,-1,-1,-1,-1,-1,-1,-1,-1,-1,-1,-1,-1,-1,-1],"loss_changes":[3.8406656E7,2.0151584E7,3.47624E6,3.56425E6,1.4733728E7,2.938656E6,0E0,4.03077E5,9.2718E4,5.7956E6,5.811892E6,3.837672E6,1.710144E6,3.01866E5,2.2228062E4,1.43914E7,1.533216E6,0E0,2.912848E6,2.229223E6,4.9256E6,1.1049282E3,0E0,3.19575E3,8.90156E6,2.24531E5,2.3884662E5,5.202736E6,4.211832E6,1.91246E6,0E0,0E0,2.160672E6,0E0,0E0,0E0,0E0,0E0,0E0,0E0,0E0,1.538794E5,3.867725E4,0E0,2.45168E5,0E0,0E0,7.46941E5,5.689552E6,0E0,0E0,1.168494E6,0E0,1.094184E6,0E0,0E0,0E0,1.8144E5,0E0,0E0,0E0,0E0,2.820984E6,0E0,0E0,1.50904E5,0E0,4.397964E6,0E0,0E0,0E0,5.390896E6,4.058725E5,0E0,1.071762E6,1.085914E6,0E0,5.345112E6,8.36242E5,0E0,3.014732E6,0E0,9.10738E5,0E0,4.558175E4,2.0704805E6,2.952E5,0E0,0E0,0E0,0E0,1.9656175E5,2.04888E5,8.41628E5,6.825805E5,1.065636E6,1.602634E6,0E0,0E0,0E0,0E0,0E0,0E0,0E0,0E0,0E0,0E0,0E0,0E0,0E0,0E0,0E0,0E0],"parents":[2147483647,0,0,1,1,2,2,3,3,4,4,5,5,7,7,9,9,12,12,11,11,8,8,10,10,13,13,15,15,20,20,24,24,23,23,19,19,21,21,18,18,14,14,16,16,25,25,27,27,41,41,44,44,32,32,42,42,29,29,26,26,28,28,47,47,51,51,62,62,57,57,48,48,53,53,65,65,71,71,74,74,67,67,72,72,75,75,78,78,84,84,82,82,77,77,80,80,85,85,91,91,95,95,94,94,96,96,93,93,86,86,92,92],"right_children":[2,4,6,8,10,12,-1,14,22,16,24,20,18,26,42,28,44,-1,40,36,30,38,-1,34,32,46,60,48,62,58,-1,-1,54,-1,-1,-1,-1,-1,-1,-1,-1,50,56,-1,52,-1,-1,64,72,-1,-1,66,-1,74,-1,-1,-1,70,-1,-1,-1,-1,68,-1,-1,76,-1,82,-1,-1,-1,78,84,-1,80,86,-1,94,88,-1,96,-1,92,-1,90,98,110,-1,-1,-1,-1,100,112,108,104,102,106,-1,-1,-1,-1,-1,-1,-1,-1,-1,-1,-1,-1,-1,-1,-1,-1],"split_conditions":[3.8195972E7,7.822116E7,2.506174E1,7E0,3.1771208E7,2.1474178E8,7.979556E1,3.2451916E7,1E0,3.083053E7,2.50523E1,2.505556E1,2.504968E1,1E-1,3.2E-1,2.505124E1,3.0831478E7,2.8577255E2,2.505161E1,2.505358E1,2.506014E1,2.505295E1,2.0002949E1,2.50522E1,2.505249E1,2.50601E1,1.1E-1,5.1E-1,2.5055868E7,2.505907E1,6.574704E1,1.7978333E2,2.506282E1,1.80399E1,2.7272825E1,1.1190015E2,3.1166351E1,5.359595E0,1.4658257E0,1.2794759E2,2.2002115E2,1E0,4.9E-1,1.3270378E2,2E-1,7.015316E1,2.6786818E1,2.8445276E7,2.13E0,2.602917E1,-9.763282E0,3.1655076E7,1.4681668E2,3.1771504E7,1.3640044E2,4.5782726E1,9.253052E0,3.8465668E7,2.2262715E2,-4.9190826E0,4.219665E1,1.2867386E2,3.0830296E7,7.490327E1,1.237766E1,7E-2,3.5029835E1,7.836813E7,3.7734374E-1,1.396125E2,6.1036293E1,1.99E0,2.504883E1,2.8985075E1,2.505303E1,3.1655064E7,1.427127E2,3E1,2.05E0,1.7052542E1,2.505367E1,1.3097882E2,2.5749452E7,9.491775E1,2.504997E1,3.1476628E7,6E-2,3.8313135E2,9.327494E1,4.283196E1,8.269275E0,1.66E0,2.505177E1,2.505006E1,2.5748834E7,3.800682E7,2.505382E1,8.683725E1,5.4249268E0,9.463328E0,3.6294415E1,1.6878252E2,6.909507E1,1.3941243E1,8.68625E1,1.6338852E1,6.254606E1,1.8776526E2,7.995148E1,8.626451E1,1.5277539E2,2.226637E1,6.0390087E1],"split_indices":[0,1,2,7,0,1,0,0,5,0,2,2,2,6,6,2,0,0,2,2,2,2,0,2,2,2,6,6,0,2,0,0,2,0,0,0,0,0,0,0,0,5,6,0,6,0,0,0,6,0,0,0,0,0,0,0,0,0,0,0,0,0,0,0,0,6,0,1,0,0,0,6,2,0,2,0,0,5,6,0,2,0,0,0,2,0,6,0,0,0,0,6,2,2,0,0,2,0,0,0,0,0,0,0,0,0,0,0,0,0,0,0,0],"split_type":[0,0,0,0,0,0,0,0,0,0,0,0,0,0,0,0,0,0,0,0,0,0,0,0,0,0,0,0,0,0,0,0,0,0,0,0,0,0,0,0,0,0,0,0,0,0,0,0,0,0,0,0,0,0,0,0,0,0,0,0,0,0,0,0,0,0,0,0,0,0,0,0,0,0,0,0,0,0,0,0,0,0,0,0,0,0,0,0,0,0,0,0,0,0,0,0,0,0,0,0,0,0,0,0,0,0,0,0,0,0,0,0,0],"sum_hessian":[5.75E2,4.93E2,8.2E1,1.07E2,3.86E2,7.2E1,1E1,4.6E1,6.1E1,2.58E2,1.28E2,4.2E1,3E1,3.8E1,8E0,1.62E2,9.6E1,3E0,2.7E1,1.8E1,2.4E1,4E0,5.7E1,3.4E1,9.4E1,2.9E1,9E0,5.2E1,1.1E2,1.8E1,6E0,6E0,8.8E1,2.9E1,5E0,1.2E1,6E0,1E0,3E0,1.8E1,9E0,5E0,3E0,5.6E1,4E1,2.6E1,3E0,1.1E1,4.1E1,4E0,1E0,3.7E1,3E0,8.5E1,3E0,2E0,1E0,8E0,1E1,1E0,8E0,9E0,1.01E2,8E0,3E0,3.2E1,5E0,9.3E1,8E0,5E0,3E0,3.2E1,9E0,1.6E1,6.9E1,2.9E1,3E0,3E1,2E0,6E0,6.3E1,8E0,8.5E1,3E0,6E0,1.3E1,1.6E1,1E0,1E0,5E0,1E0,1.4E1,7.1E1,2E1,1E1,8E0,5.5E1,8E0,5E0,5E0,9E0,3E0,5E0,2E0,8E0,1E1,4.5E1,1.7E1,3E0,1.3E1,3E0,3E0,6.8E1],"tree_param":{"num_deleted":"0","num_feature":"9","num_nodes":"113","size_leaf_vector":"0"}},{"base_weights":[7.729226E2,9.9699066E2,5.8013104E2,9.112011E2,1.5173962E3,4.812779E2,1.1559647E3,8.401794E2,1.3744835E3,3.2620462E2,6.508773E2,7.287849E1,1.6210825E2,1.3457922E3,7.641435E2,8.900647E2,4.6826096E2,5.314261E2,1.9423433E2,8.790418E1,5.250027E1,9.2751434E2,1.7892487E2,1.5851061E3,8.157902E2,2.4185565E2,7.5377545E2,8.012269E2,1.1743035E3,4.596565E2,1.1571907E3,4.576736E1,1.4988379E2,5.761666E2,1.2706597E3,1.0773257E3,2.0860237E2,1.7441711E1,3.8022003E1,2.9375394E2,1.0423378E2,9.559223E1,3.6309113E2,3.571915E2,1.822222E1,8.4809265E2,4.6306296E2,4.2384128E2,7.7452484E2,7.170547E1,1.4382942E2,8.436938E0,4.043047E1,1.2356599E1,4.4036083E1,1.4323949E2,3.372402E1,1.057852E1,4.2883007E1,4.8382263E2,1.2201183E3,1.75227E2,9.23239E2,1.7729391E1,1.3578415E2,6.757577E2,1.009165E3,2.7413312E2,4.9709634E2,4.6269647E2,3.6397464E2,1.00152725E2,1.0460156E3,5.1000287E2,1.2392981E2,3.0374878E1,5.1218066E2,1.14366356E2,2.7025742E1,5.730104E2,1.2057407E2,3.4250858E2,-1.8191381E1,8.240689E2,1.813378E2,5.4940777E1,2.5384064E1,5.7146487E0,-1.1584167E0,4.66545E1,1.50903845E1,-1.1799387E1,1.8418783E1,1.9502878E2,5.392238E2,2.7562112E2,8.86112E1,1.3045651E3,7.099222E2,8.56969E2,3.949297E2,4.7995456E2,9.7462177E2,9.6827805E1,4.5066822E1,3.4546925E1,1.3686774E1,4.0431296E2,8.017372E0,9.932012E1,8.790402E0,4.4286597E2,1.343192E2,5.536569E1,2.0596388E1,1.4385686E3,3.7363422E2,3.3897724E1,6.9653946E1,3.863203E1,1.1449333E1,-1.6502854E0,8.64846E0,7.236471E1,4.0770626E1,8.501864E0,4.1407448E1,-1.9131472E1,8.140384E1,4.1165924E-1,1.6590168E1,1.5824532E2,9.350074E1,1.200459E2,1.2279426E1,5.3138477E1,-1.3257431E1],"categories":[],"categories_nodes":[],"categories_segments":[],"categories_sizes":[],"default_left":[true,true,true,true,true,true,true,false,false,false,false,false,false,false,true,true,false,false,false,false,false,false,false,false,true,true,false,true,false,true,false,false,false,false,true,true,false,false,false,true,false,false,true,false,false,false,true,false,true,false,false,false,false,false,false,false,false,false,false,false,false,false,true,false,false,false,true,true,true,true,false,true,true,false,true,false,true,false,false,true,false,true,false,false,false,false,false,false,false,true,false,false,false,true,true,true,false,true,true,true,true,false,false,false,false,false,false,true,false,false,false,false,false,false,false,true,false,false,true,false,false,false,false,false,false,false,false,false,false,false,false,false,false,false,false,false,false],"id":12,"left_children":[1,3,5,7,11,9,13,15,23,17,25,-1,-1,21,19,27,41,29,43,-1,-1,39,-1,35,31,37,33,45,61,47,63,-1,-1,59,55,49,-1,-1,-1,57,-1,-1,53,51,-1,65,75,67,77,-1,-1,-1,-1,-1,-1,-1,-1,-1,-1,73,69,-1,71,-1,-1,79,97,81,99,95,-1,91,83,93,89,87,85,-1,-1,101,-1,119,-1,103,-1,-1,-1,-1,-1,121,-1,-1,-1,117,113,105,-1,115,111,109,107,123,133,-1,-1,-1,-1,125,-1,-1,-1,135,-1,-1,-1,131,127,-1,129,-1,-1,-1,-1,-1,-1,-1,-1,-1,-1,-1,-1,-1,-1,-1,-1,-1,-1],"loss_changes":[2.4303936E7,1.0448384E7,1.7203632E7,6.412912E6,1.762232E6,6.836168E6,2.318656E6,3.330976E6,2.119412E6,3.742584E6,5.162816E6,0E0,0E0,3.7196E6,5.607E3,3.528576E6,9.86382E5,1.938189E6,1.0716875E5,0E0,0E0,9.30909E5,0E0,2.839796E6,1.760129E6,1.856225E5,8.540016E6,1.794352E6,4.186516E6,2.46855E5,7.42348E5,0E0,0E0,3.988488E6,3.291108E6,5.29221E5,0E0,0E0,0E0,5.61965E4,0E0,0E0,3.7127125E5,3.0156625E4,0E0,2.649056E6,3.8824325E5,3.9014E5,4.35495E5,0E0,0E0,0E0,0E0,0E0,0E0,0E0,0E0,0E0,0E0,5.86918E5,1.4810015E7,0E0,2.92691E6,0E0,0E0,2.630812E6,4.37764E6,6.235906E5,8.013345E5,3.894535E5,0E0,1.1339291E5,2.933802E6,4.83883E5,5.4662188E3,4.0319275E3,2.40315E4,0E0,0E0,1.512956E6,0E0,1.1560475E5,0E0,7.48279E5,0E0,0E0,0E0,0E0,0E0,8.973936E3,0E0,0E0,0E0,1.027215E5,1.64944E5,2.0558E4,0E0,3.080196E6,4.816942E6,5.41322E5,4.437425E4,4.97251E5,1.58396E6,0E0,0E0,0E0,0E0,4.27155E4,0E0,0E0,0E0,1.292943E6,0E0,0E0,0E0,3.31764E5,1.399767E6,0E0,3.0856156E4,0E0,0E0,0E0,0E0,0E0,0E0,0E0,0E0,0E0,0E0,0E0,0E0,0E0,0E0,0E0,0E0,0E0,0E0],"parents":[2147483647,0,0,1,1,2,2,3,3,5,5,4,4,6,6,7,7,9,9,14,14,13,13,8,8,10,10,15,15,17,17,24,24,26,26,23,23,25,25,21,21,16,16,18,18,27,27,29,29,35,35,43,43,42,42,34,34,39,39,33,33,28,28,30,30,45,45,47,47,60,60,62,62,59,59,46,46,48,48,65,65,67,67,72,72,76,76,75,75,74,74,71,71,73,73,69,69,66,66,68,68,79,79,83,83,95,95,100,100,99,99,98,98,94,94,97,97,93,93,81,81,89,89,101,101,107,107,116,116,118,118,115,115,102,102,111,111],"right_children":[2,4,6,8,12,10,14,16,24,18,26,-1,-1,22,20,28,42,30,44,-1,-1,40,-1,36,32,38,34,46,62,48,64,-1,-1,60,56,50,-1,-1,-1,58,-1,-1,54,52,-1,66,76,68,78,-1,-1,-1,-1,-1,-1,-1,-1,-1,-1,74,70,-1,72,-1,-1,80,98,82,100,96,-1,92,84,94,90,88,86,-1,-1,102,-1,120,-1,104,-1,-1,-1,-1,-1,122,-1,-1,-1,118,114,106,-1,116,112,110,108,124,134,-1,-1,-1,-1,126,-1,-1,-1,136,-1,-1,-1,132,128,-1,130,-1,-1,-1,-1,-1,-1,-1,-1,-1,-1,-1,-1,-1,-1,-1,-1,-1,-1],"split_conditions":[4E-2,2.4874653E8,1.2151745E2,3.53E2,1.2151047E2,2.01E2,3E1,3.44E2,7.836813E7,7E0,1.2151092E2,7.287849E1,1.6210825E2,8.7E-1,4E0,3.14E2,1.2151087E2,1.56E2,5E-2,8.790418E1,5.250027E1,1.8884014E8,1.7892487E2,1.2151183E2,2.3060629E8,2.94E2,2.3060629E8,2.92E2,3.19E2,1.2151511E2,4.9764944E7,4.576736E1,1.4988379E2,5.3E1,3.6E-1,3.58E2,2.0860237E2,1.7441711E1,3.8022003E1,1.2151912E2,1.0423378E2,9.559223E1,3.46E2,1.2151057E2,1.822222E1,1.2151156E2,2.96E2,1.1E1,1.2151586E2,7.170547E1,1.4382942E2,8.436938E0,4.043047E1,1.2356599E1,4.4036083E1,1.4323949E2,3.372402E1,1.057852E1,4.2883007E1,1.74E0,3.59E2,1.75227E2,3.21E2,1.7729391E1,1.3578415E2,1E0,1.2151245E2,8E0,2.3E1,3.58E2,3.6397464E2,3.2E2,2.0221278E8,3.32E2,3.55E2,2.3733917E8,2.0221278E8,1.14366356E2,2.7025742E1,2.65E2,1.2057407E2,1.2151506E2,-1.8191381E1,3.37E2,1.813378E2,5.4940777E1,2.5384064E1,5.7146487E0,-1.1584167E0,1.2151626E2,1.50903845E1,-1.1799387E1,1.8418783E1,1.2151469E2,1.2151651E2,1.215146E2,8.86112E1,2.62E2,7.822116E7,4.4E-1,1.2151372E2,2.5057304E7,1.2151099E2,9.6827805E1,4.5066822E1,3.4546925E1,1.3686774E1,3.3E1,8.017372E0,9.932012E1,8.790402E0,1.56E2,1.343192E2,5.536569E1,2.0596388E1,1.2151192E2,1.2151168E2,3.3897724E1,1.2151626E2,3.863203E1,1.1449333E1,-1.6502854E0,8.64846E0,7.236471E1,4.0770626E1,8.501864E0,4.1407448E1,-1.9131472E1,8.140384E1,4.1165924E-1,1.6590168E1,1.5824532E2,9.350074E1,1.200459E2,1.2279426E1,5.3138477E1,-1.3257431E1],"split_indices":[6,1,3,8,3,8,5,8,1,7,3,0,0,6,8,8,3,8,6,0,0,1,0,3,1,8,1,8,8,3,1,0,0,5,6,8,0,0,0,3,0,0,8,3,0,3,8,8,3,0,0,0,0,0,0,0,0,0,0,6,8,0,8,0,0,5,3,8,8,8,0,8,1,8,8,1,1,0,0,8,0,3,0,8,0,0,0,0,0,3,0,0,0,3,3,3,0,8,1,6,3,1,3,0,0,0,0,8,0,0,0,8,0,0,0,3,3,0,3,0,0,0,0,0,0,0,0,0,0,0,0,0,0,0,0,0,0],"split_type":[0,0,0,0,0,0,0,0,0,0,0,0,0,0,0,0,0,0,0,0,0,0,0,0,0,0,0,0,0,0,0,0,0,0,0,0,0,0,0,0,0,0,0,0,0,0,0,0,0,0,0,0,0,0,0,0,0,0,0,0,0,0,0,0,0,0,0,0,0,0,0,0,0,0,0,0,0,0,0,0,0,0,0,0,0,0,0,0,0,0,0,0,0,0,0,0,0,0,0,0,0,0,0,0,0,0,0,0,0,0,0,0,0,0,0,0,0,0,0,0,0,0,0,0,0,0,0,0,0,0,0,0,0,0,0,0,0],"sum_hessian":[5.75E2,2.64E2,3.11E2,2.29E2,3.5E1,2.67E2,4.4E1,2.01E2,2.8E1,1.41E2,1.26E2,5E0,3E1,2.8E1,1.6E1,1.76E2,2.5E1,5.4E1,8.7E1,9E0,7E0,1.6E1,1.2E1,1.9E1,9E0,2.6E1,1E2,1.37E2,3.9E1,5E1,4E0,7E0,2E0,7.6E1,2.4E1,1.1E1,8E0,1.9E1,7E0,3E0,1.3E1,3E0,2.2E1,4E0,8.3E1,1.19E2,1.8E1,4.7E1,3E0,7E0,4E0,1E0,3E0,6E0,1.6E1,2E1,4E0,2E0,1E0,6.8E1,8E0,1E1,2.9E1,1E0,3E0,6E1,5.9E1,1.7E1,3E1,7E0,1E0,4E0,2.5E1,6.3E1,5E0,2E0,1.6E1,1E0,2E0,5.2E1,8E0,1.5E1,2E0,2.1E1,4E0,1.3E1,3E0,1E0,1E0,2E0,3E0,1E0,3E0,6E0,5.7E1,6E0,1E0,2.8E1,3.1E1,5E0,2.5E1,4.4E1,8E0,1.4E1,7E0,3E0,3E0,2.4E1,1E0,4E0,1E0,2.3E1,8E0,5.4E1,3E0,2.4E1,4E0,2E0,4E0,1.2E1,3E0,1E0,1E0,8E0,3.6E1,1E0,2.3E1,2E0,2E0,3E0,1E0,1.7E1,7E0,6E0,2E0,2E1,3E0],"tree_param":{"num_deleted":"0","num_feature":"9","num_nodes":"137","size_leaf_vector":"0"}},{"base_weights":[7.0321747E2,9.065407E2,5.282691E2,6.991797E2,1.01277216E3,4.385312E2,1.0509688E3,5.690199E2,1.2475989E3,2.975273E2,5.92736E2,4.296337E2,1.0614155E3,1.2228206E3,6.9598816E2,7.34119E2,3.8025708E2,2.5491986E2,5.958222E2,1.446452E3,5.651451E2,2.5218164E2,1.01716547E3,8.1449554E1,3.429754E1,5.8828625E2,2.172769E2,1.5495824E2,8.0699356E1,2.197243E2,6.865834E2,4.705632E2,1.1420079E3,3.2937292E2,1.6478888E1,9.502402E2,1.3628536E3,1.1506722E3,5.2698846E2,1.5784749E1,3.469508E1,-1.8923689E1,3.0238413E1,6.843012E1,9.873251E0,1.4718396E1,6.3027454E1,6.09506E1,1.5520816E2,1.1216955E2,4.4800812E2,3.0021872E2,1.0877255E3,1.8167816E1,6.703004E2,3.018567E2,1.0864809E2,1.1991655E3,4.3167572E2,2.6759089E1,1.19823425E2,3.1366312E1,7.616504E0,2.157255E1,5.0932346E2,1.2959763E3,3.1026098E1,1.135083E1,1.3935335E1,4.1762733E1,1.7502884E2,1.4684831E2,4.0754776E2,1.0138076E3,4.5311084E2,8.115916E2,3.2309836E2,3.416548E2,2.1856401E3,1.7631225E-1,1.5263122E0,8.39095E1,3.104646E2,1.0398574E3,3.5423624E2,4.633658E0,1.3561414E3,1.1460799E1,5.2536568E1,5.427718E1,2.1475103E1,4.1708612E2,2.4018486E2,4.9147614E2,3.06768E2,1.0512206E3,5.5871914E1,4.2173687E1,1.2099378E1,7.435288E1,-2.6292236E1,1.3680507E2,3.9382184E2,6.408014E1,4.4710568E2,1.2823531E1,2.7592487E2,1.4251407E2,5.357188E2,1.220186E3,8.978379E2,3.8034878E1,1.3874806E2,1.1298047E1,4.4445514E2,1.2385604E1,3.917555E1,3.457759E2,6.0901416E2,4.89483E2,1.3682167E2,-2.2491028E1,3.0059937E1,2.7491187E2,-1.697862E1,8.418064E1,7.171486E0,4.870865E1,7.301782E0,5.4450476E2,1.1086222E3,1.0911392E3,1.543327E2,3.5062386E1,2.3019096E2,8.62172E1,3.3862927E2,1.1828415E1,4.5279587E1,-3.1278636E0,-5.6665194E-1,4.4606448E2,2.3240666E2,-5.728369E0,7.915082E1,1.2376792E1,3.1954187E1,3.739809E1,1.9184093E1,2.7006495E1,1.0472672E1,1.9051664E1,5.180804E1,1.250355E2,4.5687294E1,-6.743506E0,3.859792E1,1.4735027E2,8.41441E1,3.807846E-1,-5.0059185E0,1.09401054E2,3.354074E1],"categories":[],"categories_nodes":[],"categories_segments":[],"categories_sizes":[],"default_left":[true,true,true,false,true,false,true,true,true,true,false,false,true,false,false,false,false,false,false,false,false,false,false,false,false,true,true,false,false,false,true,true,true,false,false,true,true,true,false,false,false,false,false,false,false,false,false,false,false,true,true,true,false,false,true,true,false,true,true,false,false,false,false,false,true,false,false,true,false,false,false,false,true,true,true,true,true,false,false,false,false,false,true,true,false,false,false,false,false,false,false,false,true,true,false,false,false,false,false,false,true,true,true,false,true,false,true,true,true,false,false,false,false,false,true,false,false,false,true,true,false,true,false,true,false,false,false,false,false,true,false,true,false,false,false,false,true,false,false,false,false,true,false,false,false,false,false,false,false,false,false,false,false,false,false,false,false,false,false,false,false,false,false],"id":13,"left_children":[1,3,5,7,11,9,13,15,27,17,29,25,21,19,23,31,49,33,51,47,43,-1,35,-1,-1,45,41,-1,-1,39,37,53,71,55,-1,73,69,65,57,-1,-1,-1,-1,-1,-1,-1,-1,-1,-1,67,63,61,59,-1,75,91,-1,77,93,-1,-1,-1,-1,-1,89,85,-1,79,-1,-1,-1,-1,87,83,81,95,115,97,117,-1,-1,-1,113,109,99,-1,111,-1,-1,-1,-1,107,105,103,101,119,-1,-1,-1,-1,139,121,141,-1,137,-1,133,123,135,131,129,-1,-1,-1,127,-1,-1,-1,125,143,-1,159,-1,145,-1,-1,-1,-1,-1,161,157,153,-1,-1,147,-1,155,-1,-1,-1,-1,151,149,-1,-1,-1,-1,-1,-1,-1,-1,-1,-1,-1,-1,-1,-1,-1,-1,-1,-1,-1,-1],"loss_changes":[2.0010048E7,5.129392E6,1.4173784E7,5.928632E6,4.45128E6,5.650896E6,1.894116E6,2.12052E6,1.01144E6,1.652874E6,4.294924E6,3.7754325E5,7.709936E6,3.447772E6,4.31837E5,3.762674E6,6.39949E5,7.9125E5,2.145386E6,9.10528E5,4.3262025E5,0E0,2.31408E6,0E0,0E0,5.5403E4,3.3400038E5,0E0,0E0,1.5778875E5,6.874296E6,1.3784495E6,2.99827E6,1.088667E6,0E0,3.7752E6,7.691944E6,2.650786E6,4.415514E6,0E0,0E0,0E0,0E0,0E0,0E0,0E0,0E0,0E0,0E0,2.308396E4,3.174005E5,1.2257125E4,2.23156E5,0E0,4.73625E5,3.759515E5,0E0,6.86648E6,3.64629E5,0E0,0E0,0E0,0E0,0E0,1.10057E5,1.516044E6,0E0,8.561899E1,0E0,0E0,0E0,0E0,1.4687025E5,1.659088E6,6.75497E5,1.86185E4,3.3555125E4,5.4998438E4,5.916798E6,0E0,0E0,0E0,3.2023938E5,1.798416E6,9.0837044E5,0E0,8.3884E4,0E0,0E0,0E0,0E0,6.4026325E5,1.48666E5,1.1648E4,3.1602125E5,4.25555E4,0E0,0E0,0E0,0E0,2.3415137E2,2.676787E5,3.125575E4,0E0,1.7542E4,0E0,3.5443E4,3.774592E5,6.73151E5,2.75928E5,4.386316E6,0E0,0E0,0E0,9.1113E4,0E0,0E0,0E0,3.1486725E5,5.4075244E5,0E0,4.5406865E3,0E0,9.243125E2,0E0,0E0,0E0,0E0,0E0,2.735366E6,2.757192E6,3.165196E6,0E0,0E0,6.05995E4,0E0,2.3752688E5,0E0,0E0,0E0,0E0,1.037355E5,5.6621875E2,0E0,0E0,0E0,0E0,0E0,0E0,0E0,0E0,0E0,0E0,0E0,0E0,0E0,0E0,0E0,0E0,0E0,0E0,0E0,0E0],"parents":[2147483647,0,0,1,1,2,2,3,3,5,5,4,4,6,6,7,7,9,9,13,13,12,12,14,14,11,11,8,8,10,10,15,15,17,17,22,22,30,30,29,29,26,26,20,20,25,25,19,19,16,16,18,18,31,31,33,33,38,38,52,52,51,51,50,50,37,37,49,49,36,36,32,32,35,35,54,54,57,57,67,67,74,74,73,73,65,65,72,72,64,64,55,55,58,58,75,75,77,77,84,84,94,94,93,93,92,92,91,91,83,83,86,86,82,82,76,76,78,78,95,95,101,101,107,107,118,118,114,114,110,110,109,109,106,106,108,108,104,104,100,100,102,102,119,119,123,123,134,134,142,142,141,141,131,131,136,136,130,130,121,121,129,129],"right_children":[2,4,6,8,12,10,14,16,28,18,30,26,22,20,24,32,50,34,52,48,44,-1,36,-1,-1,46,42,-1,-1,40,38,54,72,56,-1,74,70,66,58,-1,-1,-1,-1,-1,-1,-1,-1,-1,-1,68,64,62,60,-1,76,92,-1,78,94,-1,-1,-1,-1,-1,90,86,-1,80,-1,-1,-1,-1,88,84,82,96,116,98,118,-1,-1,-1,114,110,100,-1,112,-1,-1,-1,-1,108,106,104,102,120,-1,-1,-1,-1,140,122,142,-1,138,-1,134,124,136,132,130,-1,-1,-1,128,-1,-1,-1,126,144,-1,160,-1,146,-1,-1,-1,-1,-1,162,158,154,-1,-1,148,-1,156,-1,-1,-1,-1,152,150,-1,-1,-1,-1,-1,-1,-1,-1,-1,-1,-1,-1,-1,-1,-1,-1,-1,-1,-1,-1],"split_conditions":[4E-2,1.2151156E2,1.2151745E2,2.506138E1,2.504961E1,2.01E2,3E1,2.505358E1,2.506162E1,2.505786E1,1.2151092E2,3.7E1,2.504968E1,2.505006E1,2.504942E1,2.65E2,2.505556E1,1.2151586E2,9.2E1,8E0,5.7E-1,2.5218164E2,3.53E2,8.1449554E1,3.429754E1,1E0,3.8E1,1.5495824E2,8.0699356E1,2.94E2,1.2151236E2,2.505262E1,1.2151099E2,1.2151511E2,1.6478888E1,3.44E2,2.505381E1,3.6E-1,2.505124E1,1.5784749E1,3.469508E1,-1.8923689E1,3.0238413E1,6.843012E1,9.873251E0,1.4718396E1,6.3027454E1,6.09506E1,1.5520816E2,1.56E2,1.2150855E2,2.506282E1,1.2151101E2,1.8167816E1,1.72E2,2.504961E1,1.0864809E2,1.99E0,4E0,2.6759089E1,1.19823425E2,3.1366312E1,7.616504E0,2.157255E1,1.2151089E2,2.50522E1,3.1026098E1,1.55E2,1.3935335E1,4.1762733E1,1.7502884E2,1.4684831E2,2.505262E1,1.2151487E2,2.505106E1,2.505339E1,1.82E2,2.505123E1,2.05E0,1.7631225E-1,1.5263122E0,8.39095E1,3.46E2,2.46E2,2.504995E1,4.633658E0,5E-2,1.1460799E1,5.2536568E1,5.427718E1,2.1475103E1,1.1E1,2.505192E1,2.5052E1,3.55E2,2E0,5.5871914E1,4.2173687E1,1.2099378E1,7.435288E1,1.22E2,2.505195E1,1.74E0,6.408014E1,3.04E2,1.2823531E1,6.8E1,7E0,1E-1,2.28E2,3.14E2,3.8034878E1,1.3874806E2,1.1298047E1,2.505492E1,1.2385604E1,3.917555E1,3.457759E2,2.13E0,2.505278E1,1.3682167E2,3.32E2,3.0059937E1,8E-2,-1.697862E1,8.418064E1,7.171486E0,4.870865E1,7.301782E0,2.505249E1,3.19E2,1.45E2,1.543327E2,3.5062386E1,5E-2,8.62172E1,1.1E-1,1.1828415E1,4.5279587E1,-3.1278636E0,-5.6665194E-1,2.505177E1,2.505271E1,-5.728369E0,7.915082E1,1.2376792E1,3.1954187E1,3.739809E1,1.9184093E1,2.7006495E1,1.0472672E1,1.9051664E1,5.180804E1,1.250355E2,4.5687294E1,-6.743506E0,3.859792E1,1.4735027E2,8.41441E1,3.807846E-1,-5.0059185E0,1.09401054E2,3.354074E1],"split_indices":[6,3,3,2,2,8,5,2,2,2,3,8,2,2,2,8,2,3,8,5,6,0,8,0,0,8,8,0,0,8,3,2,3,3,0,8,2,6,2,0,0,0,0,0,0,0,0,0,0,8,3,2,3,0,8,2,0,6,5,0,0,0,0,0,3,2,0,8,0,0,0,0,2,3,2,2,8,2,6,0,0,0,8,8,2,0,6,0,0,0,0,8,2,2,8,8,0,0,0,0,8,2,6,0,8,0,8,8,6,8,8,0,0,0,2,0,0,0,6,2,0,8,0,6,0,0,0,0,0,2,8,8,0,0,6,0,6,0,0,0,0,2,2,0,0,0,0,0,0,0,0,0,0,0,0,0,0,0,0,0,0,0,0],"split_type":[0,0,0,0,0,0,0,0,0,0,0,0,0,0,0,0,0,0,0,0,0,0,0,0,0,0,0,0,0,0,0,0,0,0,0,0,0,0,0,0,0,0,0,0,0,0,0,0,0,0,0,0,0,0,0,0,0,0,0,0,0,0,0,0,0,0,0,0,0,0,0,0,0,0,0,0,0,0,0,0,0,0,0,0,0,0,0,0,0,0,0,0,0,0,0,0,0,0,0,0,0,0,0,0,0,0,0,0,0,0,0,0,0,0,0,0,0,0,0,0,0,0,0,0,0,0,0,0,0,0,0,0,0,0,0,0,0,0,0,0,0,0,0,0,0,0,0,0,0,0,0,0,0,0,0,0,0,0,0,0,0,0,0],"sum_hessian":[5.75E2,2.64E2,3.11E2,9.2E1,1.72E2,2.67E2,4.4E1,7.6E1,1.6E1,1.41E2,1.26E2,1.4E1,1.58E2,2.8E1,1.6E1,3.9E1,3.7E1,1.25E2,1.6E1,2E1,8E0,3E0,1.55E2,1.1E1,5E0,7E0,7E0,8E0,8E0,2.6E1,1E2,2.5E1,1.4E1,6.7E1,5.8E1,1.33E2,2.2E1,2.4E1,7.6E1,1.9E1,7E0,1E0,6E0,6E0,2E0,1E0,6E0,3E0,1.7E1,8E0,2.9E1,1.1E1,5E0,1.1E1,1.4E1,6.6E1,1E0,8E0,6.8E1,1E0,4E0,1E1,1E0,7E0,2.2E1,2E1,4E0,2E0,6E0,7E0,1.5E1,9E0,5E0,1.17E2,1.6E1,9E0,5E0,5E0,3E0,1E0,1E0,3E0,1.3E1,1.12E2,5E0,1E0,1.9E1,2E0,3E0,1.9E1,3E0,2.1E1,4.5E1,4.4E1,2.4E1,3E0,6E0,3E0,2E0,2E0,3E0,9E0,1.5E1,7E0,3.7E1,1.2E1,3.3E1,7E0,1.4E1,4.6E1,6.6E1,1E0,1.8E1,6E0,7E0,2E0,3E0,1E0,2E0,2E0,1E0,5E0,4E0,5E0,2E0,1E0,1E0,6E0,1E0,2.6E1,4E1,3.6E1,1E1,1E1,2.3E1,4E0,1E1,1E0,3.6E1,2E0,1E0,1E1,5E0,1E0,1E0,2E0,3E0,3E0,2E1,3E0,2E0,3E0,7E0,2.8E1,8E0,1E0,9E0,1.5E1,2.5E1,3E0,2E0,6E0,2E1],"tree_param":{"num_deleted":"0","num_feature":"9","num_nodes":"163","size_leaf_vector":"0"}},{"base_weights":[6.4045605E2,5.592511E2,1.1160562E3,1.4110538E1,6.123905E2,8.78047E2,1.2713119E3,7.2439246E2,4.151921E2,1.0988726E3,4.525446E1,7.553724E2,1.4042839E3,6.248328E2,8.953605E2,1.2977916E3,4.588016E1,1.5410382E3,8.075995E1,2.8772635E2,5.94306E2,9.1412674E1,2.0933191E1,5.0647403E2,9.9884906E2,6.008033E1,1.5381364E2,3.444882E2,9.011603E2,3.9068158E2,2.038746E2,4.5881323E2,1.0425417E3,1.6810431E2,8.60874E1,5.471987E2,-1.3804681E2,4.4902264E2,2.1632092E2,1.0761475E3,2.695942E2,2.695604E2,1.3090758E1,1.4547305E2,9.0375287E2,5.1458075E2,1.06127495E2,1.1995112E3,6.3319806E2,1.0464899E3,2.9491196E2,8.651714E2,4.6704294E2,2.3293484E2,8.170522E2,2.8261032E2,6.6607704E0,-1.6457837E2,6.806743E2,1.1524192E3,2.552208E1,7.3133856E2,4.3137264E1,6.542614E1,1.4054967E3,4.7981304E1,1.3309967E1,3.117271E2,9.307302E2,1.4738838E2,3.7840106E2,5.182822E2,1.0146235E3,1.3900786E2,5.716623E2,-5.9865993E1,-5.6376953E0,-1.6255627E1,2.7045685E2,4.0455237E2,1.05813614E2,4.2978245E1,3.157637E1,8.816967E1,3.1976797E1,4.0259876E1,6.8212037E0,3.1972977E2,8.8256E0,2.8864527E1,-1.5183955E2,-1.0432055E1,1.2998055E2,1.6521814E2,8.0347485E2,8.2250595E1,3.1538486E1,6.236916E2,1.8272514E2,4.9088673E1,1.1844277E2,1.968495E1,3.5510526E2,1.0783284E1,6.388449E0,1.4710262E2,5.87508E1,8.043516E1,2.9285767E1,-2.8359278E1,-3.0375977E0,1.4073454E2,8.651895E2,1.8886006E2,3.1378485E1,4.0477725E2,1.0931531E3,9.308718E1,3.550021E1,4.7439873E1,1.986447E1,1.6568008E1,3.4937664E1,3.876571E1,8.2940155E2,4.0857947E2,3.2848712E2,4.2218057E2,-3.3603516E0,6.505245E0,2.1494047E1,5.360452E1,1.0237148E2,1.6749573E-1,1.449997E0,4.184628E1,2.0088482E1,-6.7175293E0,1.2133943E2,2.2869348E2,-5.740967E-2,-3.004071E1,8.8255566E2,1.199185E2,-8.674539E1,-3.3941345E2,1.4887215E1,1.6578028E1,9.5386185E1,4.696149E1,2.724772E1,3.75188E0,2.799121E1,-5.0613537E1,-1.1512769E1,-1.584671E1,6.420987E0,-1.1217804E0,1.5550704E1,1.0580963E2,6.87241E1,1.6126436E1,5.107965E0,6.272282E0,-1.5416565E1,-5.106842E0,2.5088909E0,2.3845766E1,7.997161E1,4.0774474E0,-2.4587677E0],"categories":[],"categories_nodes":[],"categories_segments":[],"categories_sizes":[],"default_left":[true,false,true,false,true,false,true,true,true,true,false,true,false,false,true,true,false,true,false,true,true,false,false,true,true,false,false,true,false,true,true,true,true,false,false,true,false,true,true,true,true,true,false,false,false,true,true,false,true,true,true,false,true,true,true,false,false,true,true,true,false,false,false,false,true,false,false,true,false,true,false,true,true,false,true,false,true,false,true,true,false,false,true,false,false,false,false,true,false,false,true,false,false,false,true,true,false,true,true,false,false,false,true,true,false,false,false,false,false,false,false,false,true,true,false,false,true,false,false,false,false,false,false,false,true,true,false,false,false,false,false,false,false,false,false,false,false,true,true,true,false,false,false,false,true,true,false,false,false,false,false,false,false,false,false,false,false,false,false,false,false,false,false,false,false,false,false,false,false,false,false],"id":14,"left_children":[1,3,5,-1,7,9,11,13,19,15,-1,21,17,23,31,25,-1,33,-1,29,27,-1,-1,35,47,-1,-1,37,49,45,41,39,43,-1,-1,51,75,53,77,73,69,55,-1,-1,71,67,65,63,61,59,57,79,115,81,117,113,-1,109,83,111,-1,107,-1,-1,105,103,-1,101,99,95,85,97,93,-1,91,-1,89,-1,87,119,-1,-1,143,-1,-1,-1,-1,121,-1,-1,145,-1,-1,-1,141,137,-1,123,139,-1,-1,-1,135,133,-1,-1,-1,-1,-1,-1,-1,-1,131,129,-1,127,125,-1,-1,-1,-1,-1,-1,-1,147,167,-1,149,169,-1,-1,-1,-1,-1,-1,-1,-1,165,161,151,-1,163,159,157,155,153,-1,-1,-1,-1,-1,-1,-1,-1,-1,-1,-1,-1,-1,-1,-1,-1,-1,-1,-1,-1,-1,-1,-1,-1,-1],"loss_changes":[2.1621616E7,1.0890272E7,1.950768E6,0E0,9.373168E6,2.885336E6,2.232304E6,4.172528E6,3.504778E6,2.332984E6,0E0,8.4888E5,1.774632E6,7.418104E6,5.946824E6,1.92368E6,0E0,1.3144E6,0E0,7.49116E5,4.74897E6,0E0,0E0,3.697752E6,2.322108E6,0E0,0E0,4.11987E5,2.246446E6,1.4261415E6,2.28322E5,2.8637845E6,2.918616E6,0E0,0E0,2.909284E6,5.455293E5,1.4002135E6,4.3367088E5,1.55586E5,2.3675838E5,5.5334375E4,0E0,0E0,1.952908E6,2.157972E6,1.5570328E4,2.000592E6,2.1244E4,1.633704E6,1.3528028E6,1.794008E6,3.689944E6,5.413461E5,3.7671E4,1.672675E4,0E0,5.5273656E4,8.262625E3,2.46826E5,0E0,8.4588E4,0E0,0E0,1.006E5,2.8605176E3,0E0,3.4744375E4,4.228655E5,1.0537444E5,5.5102375E4,4.16599E5,4.595772E6,0E0,2.1044455E6,0E0,3.880255E5,0E0,1.244005E5,3.5200375E4,0E0,0E0,9.402476E4,0E0,0E0,0E0,0E0,1.4875E3,0E0,0E0,3.8896325E5,0E0,0E0,0E0,2.333542E6,3.5591703E4,0E0,2.12578E5,4.2261094E4,0E0,0E0,0E0,5.2731625E4,7.7271515E1,0E0,0E0,0E0,0E0,0E0,0E0,0E0,0E0,7.7375E4,1.5078156E4,0E0,6.97507E5,1.2161401E7,0E0,0E0,0E0,0E0,0E0,0E0,0E0,2.54841E5,3.416285E5,0E0,5.39542E5,5.686871E3,0E0,0E0,0E0,0E0,0E0,0E0,0E0,0E0,6.923826E3,1.1398492E4,2.866486E4,0E0,5.5726773E4,3.69974E5,2.5079188E4,5.3482227E4,9.130322E4,0E0,0E0,0E0,0E0,0E0,0E0,0E0,0E0,0E0,0E0,0E0,0E0,0E0,0E0,0E0,0E0,0E0,0E0,0E0,0E0,0E0,0E0,0E0,0E0,0E0],"parents":[2147483647,0,0,1,1,2,2,4,4,5,5,6,6,7,7,9,9,12,12,8,8,11,11,13,13,15,15,20,20,19,19,14,14,17,17,23,23,27,27,31,31,30,30,32,32,29,29,24,24,28,28,35,35,37,37,41,41,50,50,49,49,48,48,47,47,46,46,45,45,40,40,44,44,39,39,36,36,38,38,51,51,53,53,58,58,70,70,78,78,76,76,74,74,72,72,69,69,71,71,68,68,67,67,65,65,64,64,61,61,57,57,59,59,55,55,52,52,54,54,79,79,87,87,97,97,116,116,115,115,113,113,112,112,103,103,102,102,95,95,98,98,94,94,82,82,90,90,124,124,127,127,139,139,145,145,144,144,143,143,142,142,138,138,141,141,137,137,125,125,128,128],"right_children":[2,4,6,-1,8,10,12,14,20,16,-1,22,18,24,32,26,-1,34,-1,30,28,-1,-1,36,48,-1,-1,38,50,46,42,40,44,-1,-1,52,76,54,78,74,70,56,-1,-1,72,68,66,64,62,60,58,80,116,82,118,114,-1,110,84,112,-1,108,-1,-1,106,104,-1,102,100,96,86,98,94,-1,92,-1,90,-1,88,120,-1,-1,144,-1,-1,-1,-1,122,-1,-1,146,-1,-1,-1,142,138,-1,124,140,-1,-1,-1,136,134,-1,-1,-1,-1,-1,-1,-1,-1,132,130,-1,128,126,-1,-1,-1,-1,-1,-1,-1,148,168,-1,150,170,-1,-1,-1,-1,-1,-1,-1,-1,166,162,152,-1,164,160,158,156,154,-1,-1,-1,-1,-1,-1,-1,-1,-1,-1,-1,-1,-1,-1,-1,-1,-1,-1,-1,-1,-1,-1,-1,-1,-1],"split_conditions":[3.8195972E7,1.6361964E7,1.2151166E2,1.4110538E1,3.1771208E7,1.215111E2,3.8466684E7,3.083053E7,1.2151156E2,3.8466684E7,4.525446E1,3.8465668E7,1.2151468E2,8E0,2.25E2,1.2151047E2,4.588016E1,3.871004E7,8.075995E1,1E0,3.800625E7,9.1412674E1,2.0933191E1,3.0830296E7,3E1,6.008033E1,1.5381364E2,3.7E1,2.62E2,3.8007064E7,6E0,9.7E1,2.94E2,1.6810431E2,8.60874E1,1.2151183E2,2E0,1.7E1,6.7E1,3.0831352E7,3.1655072E7,5E-1,1.3090758E1,1.4547305E2,3.14E2,3.800682E7,1.56E2,5.7E-1,4E0,2E0,1.2151168E2,1.9394684E7,5.3E1,3.245184E7,2.3E1,3.177139E7,6.6607704E0,2.65E2,3.800723E7,1.215119E2,2.552208E1,1.2151889E2,4.3137264E1,6.542614E1,7E0,3.80073E7,1.3309967E1,3.1771504E7,1.72E2,2.01E2,2.05E2,1.2151183E2,3.19E2,1.3900786E2,2E0,-5.9865993E1,3.1E2,-1.6255627E1,3.3322476E7,1.2151061E2,1.05813614E2,4.2978245E1,1E0,8.816967E1,3.1976797E1,4.0259876E1,6.8212037E0,3.2451754E7,8.8256E0,2.8864527E1,3.3E2,-1.0432055E1,1.2998055E2,1.6521814E2,3.21E2,1.77E2,3.1538486E1,3.0830616E7,3.0831478E7,4.9088673E1,1.1844277E2,1.968495E1,5E0,1.55E2,6.388449E0,1.4710262E2,5.87508E1,8.043516E1,2.9285767E1,-2.8359278E1,-3.0375977E0,1.4073454E2,3.800723E7,2.1E-1,3.1378485E1,7E0,3.59E2,9.308718E1,3.550021E1,4.7439873E1,1.986447E1,1.6568008E1,3.4937664E1,3.876571E1,1.2150884E2,3.58E2,3.2848712E2,4.6E-1,1.2151327E2,6.505245E0,2.1494047E1,5.360452E1,1.0237148E2,1.6749573E-1,1.449997E0,4.184628E1,2.0088482E1,1.73E2,1.82E2,3.0831352E7,-5.740967E-2,3.0831478E7,3.44E2,9E-2,3.2E-1,3.19E2,1.4887215E1,1.6578028E1,9.5386185E1,4.696149E1,2.724772E1,3.75188E0,2.799121E1,-5.0613537E1,-1.1512769E1,-1.584671E1,6.420987E0,-1.1217804E0,1.5550704E1,1.0580963E2,6.87241E1,1.6126436E1,5.107965E0,6.272282E0,-1.5416565E1,-5.106842E0,2.5088909E0,2.3845766E1,7.997161E1,4.0774474E0,-2.4587677E0],"split_indices":[0,0,3,0,0,3,0,0,3,0,0,0,3,7,8,3,0,0,0,5,0,0,0,0,5,0,0,8,8,0,7,8,8,0,0,3,8,8,8,0,0,6,0,0,8,0,8,6,8,5,3,0,5,0,8,0,0,8,0,3,0,3,0,0,8,0,0,0,8,8,8,3,8,0,8,0,8,0,0,3,0,0,8,0,0,0,0,0,0,0,8,0,0,0,8,8,0,0,0,0,0,0,7,8,0,0,0,0,0,0,0,0,0,6,0,7,8,0,0,0,0,0,0,0,3,8,0,6,3,0,0,0,0,0,0,0,0,8,8,0,0,0,8,6,6,8,0,0,0,0,0,0,0,0,0,0,0,0,0,0,0,0,0,0,0,0,0,0,0,0,0],"split_type":[0,0,0,0,0,0,0,0,0,0,0,0,0,0,0,0,0,0,0,0,0,0,0,0,0,0,0,0,0,0,0,0,0,0,0,0,0,0,0,0,0,0,0,0,0,0,0,0,0,0,0,0,0,0,0,0,0,0,0,0,0,0,0,0,0,0,0,0,0,0,0,0,0,0,0,0,0,0,0,0,0,0,0,0,0,0,0,0,0,0,0,0,0,0,0,0,0,0,0,0,0,0,0,0,0,0,0,0,0,0,0,0,0,0,0,0,0,0,0,0,0,0,0,0,0,0,0,0,0,0,0,0,0,0,0,0,0,0,0,0,0,0,0,0,0,0,0,0,0,0,0,0,0,0,0,0,0,0,0,0,0,0,0,0,0,0,0,0,0,0,0],"sum_hessian":[5.75E2,4.93E2,8.2E1,5.6E1,4.37E2,3.5E1,4.7E1,2.77E2,1.6E2,2.2E1,1.3E1,1.1E1,3.6E1,1.78E2,9.9E1,1.6E1,6E0,2.8E1,8E0,9.5E1,6.5E1,8E0,3E0,1.37E2,4.1E1,5E0,1.1E1,3.7E1,2.8E1,4.1E1,5.4E1,2.6E1,7.3E1,2.2E1,6E0,1.29E2,8E0,1.9E1,1.8E1,5E0,2.1E1,2.7E1,2.7E1,1.6E1,5.7E1,2.8E1,1.3E1,2.5E1,1.6E1,2.2E1,6E0,2.4E1,1.05E2,1.3E1,6E0,2.5E1,2E0,3E0,3E0,1.9E1,3E0,9E0,7E0,8E0,1.7E1,5E0,8E0,2E1,8E0,1.1E1,1E1,1.4E1,4.3E1,2E0,3E0,1E0,7E0,2E0,1.6E1,8E0,1.6E1,6E0,7E0,1E0,2E0,9E0,1E0,1.2E1,4E0,2E0,5E0,2E0,1E0,9E0,3.4E1,9E0,2E0,1E1,4E0,4E0,4E0,7E0,1.3E1,2E0,3E0,1.5E1,2E0,7E0,2E0,1E0,2E0,8E0,1.1E1,8E0,1.7E1,9.7E1,8E0,4E0,2E0,5E0,3E0,3E0,9E0,6E0,4E0,7E0,1E0,9.3E1,4E0,2E0,6E0,5E0,6E0,1E0,1E0,8E0,5E0,3E0,6E0,3E0,1E0,3E0,3.1E1,4E0,3E0,3E0,2E0,1E0,3E0,6.9E1,2.4E1,1E0,2E0,1E0,2E0,2E0,1E0,1E0,3E0,1.4E1,1.7E1,3E0,3E0,2E0,1E0,1E0,2E0,6E0,1E0,1E0,3E0],"tree_param":{"num_deleted":"0","num_feature":"9","num_nodes":"171","size_leaf_vector":"0"}},{"base_weights":[5.8298883E2,7.504343E2,4.3889893E2,6.864104E2,1.1386306E3,1.2724238E1,5.0657678E2,2.8635373E2,7.338009E2,2.2066084E2,9.746748E2,7.431575E2,4.0444028E2,3.845565E2,1.747116E2,1.030709E3,5.5073627E1,3.5393765E2,6.4683875E2,6.76793E2,1.0700011E3,3.380558E2,9.470492E2,1.9164831E1,5.2252804E1,7.908797E1,1.3833138E3,4.9725833E2,1.3605659E3,8.390042E2,3.1206274E2,7.3070825E2,3.334919E2,1.3673898E2,4.899933E2,1.2130495E2,4.5474234E2,-1.7164331E1,2.1455762E2,2.4031981E2,4.2148572E2,1.6002116E2,6.579143E1,1.4173592E2,1.9754108E1,1.8413211E2,2.408352E1,3.4489447E2,6.8762854E2,6.1110333E2,2.0224277E2,2.7597555E1,9.690743E0,3.330333E2,9.800293E1,6.652568E2,2.4293208E2,8.767773E1,3.2023254E2,1.311065E2,6.9810144E2,6.3539093E1,3.2755535E1,1.0648273E3,5.374291E2,9.149399E0,2.7705627E1,1.582324E2,3.7117737E2,2.1050542E2,3.7926113E1,6.288946E2,3.5563452E2,5.961048E1,1.2308102E3,6.71073E2,1.4966008E2,1.3721558E2,3.431144E1,4.438998E1,3.14611E1,1.1122369E1,2.400349E2,7.301459E1,2.0285023E1,1.0086757E2,2.5954132E1,-1.4790267E1,1.8804188E1,9.375197E0,1.00019653E3,-2.1841995E1,2.2849054E2,2.3277727E1,2.730121E0,5.548972E2,7.9630634E2,1.26252174E2,9.433421E0,3.5202762E2,2.080354E2,8.916321E-1,4.8816204E0,1.3331165E2,5.1388256E1,2.6175879E1,-5.5935426E0,2.2632053E2,7.597302E1,